{"arch": "mlp", "h": 384, "nfeat": 15, "keys": ["net.0.weight", "net.0.bias", "net.2.weight", "net.2.bias", "net.4.weight", "net.4.bias"], "shapes": {"net.0.weight": [384, 15], "net.0.bias": [384], "net.2.weight": [384, 384], "net.2.bias": [384], "net.4.weight": [1, 384], "net.4.bias": [1]}, "weights": {"net.0.weight": [[-0.19019940495491028, -0.10373595356941223, -0.1793271005153656, -0.3890293538570404, -0.22323021292686462, 0.593600869178772, 0.5255143046379089, 0.24600139260292053, -0.09801129996776581, -0.4159910976886749, -0.21084684133529663, -0.32067421078681946, -0.8860673308372498, 0.20632973313331604, -0.2767426371574402], [0.04423948749899864, -0.028729870915412903, 0.025108275935053825, -0.07610396295785904, -0.08521466702222824, 0.22681981325149536, 0.31399136781692505, -0.17352788150310516, 0.2508161664009094, -0.1694210171699524, 0.011003072373569012, 0.2717796266078949, -0.17905104160308838, -0.777499258518219, -0.13717196881771088], [-0.14482837915420532, -0.040997110307216644, -0.029226426035165787, -0.637892484664917, -0.05036059394478798, -1.8434863090515137, -0.12075672298669815, 1.1894912719726562, 0.6506134271621704, 0.45388415455818176, -1.2231594324111938, -0.06589922308921814, 0.03430841118097305, -0.3320588767528534, 0.04638957977294922], [-0.01072732638567686, 0.12260635197162628, 0.08437765389680862, -0.0035060569643974304, -0.04174000397324562, -0.05072092264890671, 0.6731521487236023, 0.03819647058844566, 0.2513614296913147, 0.9226632118225098, -0.43088412284851074, 0.08667821437120438, -0.1560269147157669, 0.059287238866090775, -0.24900639057159424], [0.09787898510694504, 0.07916688919067383, -0.007371120620518923, -0.03345349058508873, 0.027049152180552483, 0.1943330317735672, 0.17509600520133972, 0.2967112362384796, 0.3026566207408905, 2.282360792160034, -0.24932506680488586, 0.039104167371988297, -0.038273368030786514, 0.34677329659461975, 0.040491364896297455], [0.35302436351776123, 0.33572113513946533, -0.19094005227088928, -0.015432331711053848, -0.025413768365979195, -0.5585244297981262, 0.27159151434898376, 0.06136777997016907, -1.2892704010009766, 0.021062374114990234, 0.17833496630191803, 0.1699269413948059, -0.3059088885784149, 0.5425691604614258, -0.31962740421295166], [0.03267061710357666, 0.12362798303365707, 0.08622623980045319, 0.029341476038098335, -0.28668320178985596, -0.2629544138908386, 0.025613684207201004, -0.10815662145614624, -0.3140175938606262, -0.28537359833717346, 0.30518975853919983, 0.09037426114082336, -0.5639162659645081, 0.497480571269989, -0.2718128561973572], [-0.406339168548584, -0.11978369206190109, -0.020471611991524696, -0.191658616065979, 0.09504406154155731, -1.7938047647476196, -0.012547782622277737, 0.18311616778373718, 0.8611039519309998, -0.16498488187789917, -1.6630078554153442, 0.31366634368896484, 0.4749273955821991, 0.3114716112613678, 0.1693270206451416], [0.16880089044570923, 0.20369453728199005, -0.10258858650922775, 0.015469147823750973, -0.23249965906143188, -0.3289361000061035, -0.31931737065315247, -0.1773570477962494, -0.16930431127548218, 0.17148052155971527, -0.1437162458896637, -0.0070641497150063515, -0.7231648564338684, -0.5181311368942261, 0.29155245423316956], [0.02759663574397564, 0.08916442841291428, 0.04936915636062622, 0.028556374832987785, 0.01402065809816122, 0.67236328125, 0.39588430523872375, 0.1640511304140091, 0.2994118332862854, -0.8445183634757996, -0.13634401559829712, 0.11846347153186798, 0.3396466076374054, -0.20628613233566284, -0.2080383449792862], [-0.5806431770324707, -0.131753072142601, -0.15497808158397675, 0.06360585987567902, -0.05509250983595848, -0.31072327494621277, 1.4211512804031372, -0.837990939617157, 0.16222861409187317, -0.7490541338920593, 0.3120025098323822, -0.1985960751771927, -0.08071701228618622, 1.1883431673049927, 0.13022221624851227], [0.05709763243794441, -0.20645864307880402, 0.06772720068693161, -0.13807108998298645, 0.021243134513497353, 0.12932664155960083, -0.32971325516700745, 0.1573665291070938, 0.1321563869714737, -0.5564466118812561, 0.1459876447916031, -0.09830430895090103, -0.0018215904710814357, 0.3278259336948395, -0.15621572732925415], [0.00271648820489645, 0.12953497469425201, 0.19056740403175354, -0.012130789458751678, 0.02040068991482258, 0.4155195355415344, -0.14977864921092987, -0.4457763433456421, -0.5662885308265686, -0.03308943659067154, 0.40151089429855347, 0.1651037484407425, -0.19857050478458405, -0.2513992488384247, -0.2615181803703308], [0.0753931924700737, -0.05306645482778549, 0.035603951662778854, -0.12717373669147491, 0.010533493012189865, 0.016756441444158554, 0.2650146782398224, -0.3974122703075409, -0.21095512807369232, -0.25078052282333374, 0.36372649669647217, -0.08478861302137375, 0.1783371865749359, 0.19783462584018707, 0.031170878559350967], [0.005674155429005623, 0.058144956827163696, 0.07143890857696533, -0.03217034786939621, 0.02894965000450611, -0.2642304599285126, -0.42927202582359314, -0.40288859605789185, 0.2695035934448242, -0.3844760060310364, 0.4244050085544586, 0.5025936961174011, -0.22309540212154388, -0.36982858180999756, 0.024268513545393944], [0.020954618230462074, -0.12443876266479492, 0.16222761571407318, -0.031274303793907166, 0.03364107757806778, 0.25075018405914307, 0.13187254965305328, 0.32439419627189636, 0.6233056783676147, 0.7273433208465576, -1.160783290863037, 0.3060672879219055, 0.04695679992437363, -0.49257829785346985, 0.2553361654281616], [0.3319076895713806, 0.24149075150489807, -0.02665630355477333, 0.04465566575527191, 0.1064424067735672, -0.6736907362937927, 0.6398642063140869, -0.7337838411331177, -0.45416271686553955, 0.10540752857923508, 0.08949961513280869, 0.13894295692443848, 0.24934022128582, 0.19955036044120789, -0.1021781712770462], [-0.1735057532787323, -0.22140324115753174, 0.030953215435147285, -0.10993675142526627, 0.036131005734205246, -0.5527427792549133, -0.4134625792503357, 0.6032781004905701, 0.3987005352973938, 2.124843120574951, -0.023151185363531113, -0.11966653168201447, -0.13193385303020477, -0.06818652153015137, -0.007328672334551811], [-0.13045282661914825, -0.023246323689818382, -0.37177959084510803, 0.08281032741069794, -0.16160713136196136, -0.6515334844589233, 0.324897438287735, -0.029359910637140274, -0.42343178391456604, -0.1018398255109787, 0.14712953567504883, -0.10566998273134232, -1.1552644968032837, 0.2342255562543869, 0.045689042657613754], [0.18300732970237732, -0.040893375873565674, -0.023540852591395378, -0.08096756786108017, 0.03822685033082962, 0.26753583550453186, 0.21426653861999512, 0.42109811305999756, -0.04206326976418495, -2.1360723972320557, -0.32658812403678894, 0.1779468059539795, 0.07396498322486877, 0.8138364553451538, -0.09030446410179138], [-0.09137111157178879, 0.02511328086256981, 0.04530031606554985, 0.0027471052017062902, -0.000741993950214237, -1.733752727508545, 0.1422964632511139, 0.3382430672645569, 0.5198484063148499, 0.09983353316783905, -0.16839660704135895, 0.47177574038505554, -0.2606242001056671, 0.05755182355642319, -0.22503739595413208], [0.13690496981143951, -0.08517464250326157, 0.004356163088232279, 0.03297403082251549, 0.044182807207107544, -0.039604950696229935, -0.01609613746404648, -0.31151944398880005, 0.2056695967912674, 0.22551491856575012, 0.35406798124313354, 0.20558030903339386, 0.2064168006181717, -0.1498960256576538, -0.022406620904803276], [-0.12647542357444763, -0.2090228796005249, 0.15183185040950775, 0.08231468498706818, -0.03356117010116577, -0.09145525842905045, 0.21457839012145996, 0.16241274774074554, 0.3029722273349762, 0.6127057075500488, -0.09493745863437653, -0.17085625231266022, 0.5880292057991028, 0.142555370926857, -0.2524563670158386], [0.2473916858434677, 0.1046183854341507, 0.0474063865840435, -0.14807476103305817, -0.015045504085719585, -0.18310245871543884, 1.0945056676864624, -0.07396847009658813, 0.29924577474594116, 0.6410754323005676, 0.229067862033844, -0.5950532555580139, 0.5356627702713013, -0.8093296885490417, 0.1979546993970871], [-0.12450454384088516, -0.31613534688949585, -0.2099582403898239, 0.2893870174884796, 0.09307193011045456, 0.4987969994544983, 0.3232842683792114, -0.2513383626937866, -0.16996733844280243, 0.6589126586914062, -0.14556309580802917, 0.3164454698562622, 0.10898363590240479, -1.1108577251434326, -0.29307401180267334], [-0.06451645493507385, 0.06919144839048386, 0.12587638199329376, 0.11709599196910858, 0.08632117509841919, 0.19149720668792725, -0.08256132900714874, 0.0588311143219471, 0.2704569399356842, 0.2819141745567322, 0.24729551374912262, 0.07136233896017075, 0.2829393148422241, -0.2559472620487213, 0.040621355175971985], [0.008974427357316017, -0.1552194207906723, -0.2067146748304367, -0.13758134841918945, -0.23525075614452362, 0.4743519425392151, 0.33899828791618347, -0.24520976841449738, -0.12190988659858704, -0.052567530423402786, 0.459127277135849, 0.058495890349149704, 0.7691395282745361, 0.9143832921981812, 0.05059295520186424], [-0.18639330565929413, 0.19084696471691132, 0.08521073311567307, -0.05859047919511795, 0.1725441962480545, -0.6100980639457703, 0.2988395094871521, 0.2266392707824707, 0.22592498362064362, -0.6844907402992249, -0.18516916036605835, -0.3052043616771698, -0.6237006187438965, 0.3773048222064972, 0.1666470766067505], [-0.029768453910946846, -0.2740018665790558, 0.032740943133831024, 0.09257140755653381, 0.23390857875347137, -0.23568549752235413, 0.1500261276960373, -0.40909484028816223, -0.6232945919036865, -0.22576302289962769, -0.28796786069869995, 0.029449013993144035, 0.5092424154281616, 0.750492513179779, -0.16538186371326447], [-0.18825554847717285, 0.008685420267283916, -0.410295695066452, 0.23375877737998962, -0.28176096081733704, -0.9027097225189209, -1.0405256748199463, 0.04863744601607323, 0.918396532535553, -0.5704342722892761, 0.9253369569778442, -0.14504380524158478, 0.6551430821418762, -1.4845435619354248, 0.056910645216703415], [0.15716762840747833, 0.14287328720092773, 0.17623858153820038, 0.06038554757833481, -0.05995846167206764, 0.23261681199073792, -0.16601455211639404, 0.36710041761398315, -0.36009567975997925, -0.0650525912642479, -0.8011564612388611, -0.5778278112411499, 0.21075628697872162, -0.5804315805435181, -0.10429313778877258], [0.05283164605498314, 0.15285904705524445, -0.012934056110680103, -0.17176559567451477, 0.01819871924817562, 0.34643498063087463, 0.3895895481109619, 0.21295487880706787, 0.02423728257417679, -0.14393219351768494, -0.4565405249595642, -0.2504257559776306, 0.27715399861335754, -0.2781321406364441, 0.1621241420507431], [-0.24161089956760406, -0.06472541391849518, -0.2959005832672119, 0.1624622493982315, -0.03414485603570938, 1.712748646736145, 0.15791386365890503, 0.31933507323265076, 0.06435941159725189, 0.5170246362686157, 0.6536968946456909, 0.07476373761892319, 0.6544675827026367, -0.7470388412475586, 0.09839508682489395], [-0.05399744585156441, -0.05427468940615654, -0.17586883902549744, 0.22428272664546967, 0.29281085729599, -0.10998817533254623, 0.732181966304779, 0.30291086435317993, 0.13151457905769348, 1.7920033931732178, -0.22170327603816986, 0.138872429728508, 0.07784659415483475, -0.750232994556427, -0.0351204015314579], [0.08159344643354416, 0.08848220109939575, -0.08459128439426422, -0.10787899047136307, 0.10163168609142303, 0.3484199345111847, -0.6747297644615173, -0.000531960919033736, 0.38298481702804565, -0.07025952637195587, 0.6095588803291321, -0.24764515459537506, -0.23331308364868164, -1.2016276121139526, 0.0776762142777443], [-0.05748007073998451, 0.3816327452659607, -0.04718872532248497, 0.021721921861171722, -0.04030608385801315, 0.43003416061401367, 0.36876052618026733, -0.13699036836624146, -0.6495290994644165, -0.79775470495224, 0.15982112288475037, -0.020312076434493065, -0.01534872967749834, -0.3559859097003937, 0.07686301320791245], [-0.17617668211460114, 0.08721691370010376, 0.018187908455729485, -0.1332705318927765, 0.0015808542957529426, 0.6091675758361816, 0.04258499667048454, 0.141611710190773, -0.3356192708015442, 0.0197819322347641, -0.5156365633010864, -0.34809982776641846, 0.26191437244415283, -0.010564280673861504, 0.08646254241466522], [0.02081727609038353, -0.09285639971494675, -0.07338830083608627, 0.08639591187238693, 0.021324992179870605, -0.37954622507095337, -0.3735281527042389, -0.07959765940904617, 0.4315107762813568, -0.7016546726226807, 0.5731768012046814, -0.24326704442501068, -0.536996066570282, 0.41483834385871887, 0.16858361661434174], [0.21030762791633606, 0.1273871511220932, -0.11093492060899734, -0.025668958202004433, -0.07803002744913101, 0.46453529596328735, 0.24279308319091797, -0.35969239473342896, -0.0164882130920887, 1.4125500917434692, -0.17745202779769897, -0.1266704946756363, -0.22979046404361725, -0.12443622946739197, 0.07155563682317734], [-0.013147294521331787, 0.09816262125968933, 0.03996596485376358, 0.14254090189933777, 0.03394350782036781, -0.26177486777305603, -0.5945692658424377, -0.21608704328536987, 0.43515536189079285, -0.13702784478664398, 0.2503318190574646, -0.7213783860206604, 1.241396427154541, 0.7262517213821411, 0.2187618613243103], [-0.24394579231739044, 0.012556267902255058, -0.23485684394836426, 0.25911256670951843, -0.09803856164216995, -0.08348837494850159, 0.22888197004795074, -0.08548657596111298, -0.31711819767951965, -0.027593186125159264, -0.14260631799697876, -0.22847360372543335, -0.1995590478181839, 0.0054982383735477924, 0.056098319590091705], [0.14925383031368256, 0.1711784303188324, -0.03843928873538971, 0.04612407088279724, -0.03120252676308155, 0.10772670805454254, 0.5334028601646423, -0.057205889374017715, -0.17368711531162262, -0.3858528137207031, -0.3042374551296234, 0.26649168133735657, -0.16790169477462769, -0.6207109093666077, -0.018108533695340157], [0.1381843239068985, 0.07235972583293915, 0.1337190419435501, 0.014542337507009506, 0.08277825266122818, 0.06593693792819977, -0.8801994919776917, -0.9345538020133972, -0.11883793026208878, 0.47160229086875916, 0.022502582520246506, 0.21541792154312134, 0.9137762784957886, -0.6258665919303894, -0.19828742742538452], [0.34778016805648804, -0.33516591787338257, 0.009361210279166698, -0.21966862678527832, -0.03640215843915939, 0.2325029820203781, -0.23128657042980194, 0.22484637796878815, -0.03441264107823372, -1.3247177600860596, -0.39280006289482117, -0.2223348766565323, 0.4766283929347992, 0.21433812379837036, 0.12271729856729507], [0.18769118189811707, -0.16964156925678253, 0.2305004596710205, -0.009258979931473732, 0.02517138235270977, 1.0271003246307373, -0.26259952783584595, 0.3563494086265564, 0.5110802054405212, 0.7042000889778137, -0.9840700626373291, -0.18764165043830872, 0.2500828802585602, 0.2864956259727478, 0.04700819402933121], [0.10378935188055038, -0.08506700396537781, -0.10562644898891449, 0.0822945162653923, -0.04862551391124725, 0.7417272925376892, -0.01666836626827717, -0.22889713943004608, 0.18126967549324036, 0.5167048573493958, 0.24427059292793274, -0.1323925405740738, -0.5555956959724426, 0.1859116405248642, 0.13569654524326324], [0.1651449203491211, -0.33487480878829956, 0.048845842480659485, 0.2339358627796173, -0.12450847774744034, -0.1699763387441635, 0.719512403011322, -0.4472309350967407, -0.05332222208380699, 0.9724562168121338, 0.13169361650943756, 0.17738400399684906, 0.49175089597702026, -0.2354113757610321, -0.42978325486183167], [0.012916600331664085, -0.003341076895594597, 0.21784701943397522, -0.04312616586685181, 0.02667977288365364, 0.040596529841423035, -0.14649082720279694, -0.4126938283443451, -0.26677751541137695, 0.12573666870594025, -0.3698522448539734, -0.05145038664340973, -0.20297476649284363, 0.5672439336776733, 0.1484517902135849], [0.22795720398426056, -0.22608159482479095, -0.10057863593101501, -0.18527479469776154, 0.017394984140992165, 0.40664228796958923, 0.2509593963623047, -0.2433972954750061, 0.47983217239379883, -0.2772124707698822, 0.17414627969264984, 0.45266804099082947, -0.40003731846809387, 0.8071827292442322, -0.06547513604164124], [0.18794168531894684, 0.009403214789927006, -0.24696508049964905, 0.03726152330636978, -0.08515964448451996, -0.4511324465274811, 0.14552587270736694, 0.07517006993293762, 0.01738779805600643, 0.3875824809074402, 0.5052388906478882, 0.2642526626586914, 0.26994648575782776, -0.5238776803016663, -0.13456326723098755], [-0.18096303939819336, -0.22220151126384735, -0.011974809691309929, 0.2559027671813965, 0.005614111665636301, -0.12696556746959686, -0.2396547496318817, 0.1292344480752945, 0.08093423396348953, -0.8291945457458496, 0.032294824719429016, -0.18346428871154785, 0.020531103014945984, 0.49665385484695435, 0.007055144291371107], [-0.10878689587116241, -0.11159400641918182, 0.15020717680454254, -0.14034347236156464, -0.06120520457625389, -0.00959941279143095, -0.1739833503961563, 0.059553056955337524, 0.2612541615962982, 0.40566539764404297, -0.12284562736749649, 0.21927347779273987, 0.10859828442335129, 0.09572954475879669, -0.2249545007944107], [-0.20178839564323425, 0.0019568013958632946, -0.0014217558782547712, 0.05711676552891731, -0.034592557698488235, -0.08506869524717331, -0.19265881180763245, -0.726504385471344, 0.7097821831703186, 0.046120330691337585, 0.49742671847343445, 0.20757943391799927, 0.9901112914085388, -0.3147839903831482, -0.05017298832535744], [-0.06273369491100311, -0.12089056521654129, -0.18416592478752136, 0.0011729461839422584, -0.020809326320886612, 0.12226229161024094, -0.06180815398693085, 0.06493431329727173, -0.09093703329563141, -0.11053106188774109, 0.20621351897716522, 0.1602187305688858, -0.11051763594150543, 0.19092117249965668, -0.03349771350622177], [-0.13416822254657745, -0.12851837277412415, 0.028951454907655716, -0.08736404031515121, 0.08266394585371017, 0.23357926309108734, -0.37745383381843567, 0.16507573425769806, 0.4994257688522339, 0.5846338272094727, 0.32131484150886536, -0.24210545420646667, 0.1541430950164795, -0.0857011154294014, -0.16547279059886932], [-0.08973689377307892, 0.20096437633037567, 0.005270598456263542, 0.003705349750816822, 0.02799936756491661, 0.7222850322723389, 0.02992027811706066, -0.0806300938129425, -0.5496307015419006, -0.43428629636764526, 0.28667330741882324, 0.15717695653438568, 0.2346607893705368, 0.36870017647743225, 0.06188134104013443], [-0.04086248576641083, 0.23541207611560822, -0.10101334750652313, 0.054853592067956924, 0.09102466702461243, -0.057366181164979935, 0.21247243881225586, 0.2096586972475052, 0.26857075095176697, 0.3736529052257538, -0.09328614175319672, 0.15720154345035553, -0.8360185027122498, -0.5412546992301941, 0.035915058106184006], [-0.226871520280838, 0.024140741676092148, -0.10596293210983276, 0.2245456427335739, -0.2824819087982178, 0.1734813153743744, 0.26928046345710754, -0.02589906007051468, 0.11494488269090652, 1.4792561531066895, -0.34099289774894714, -0.006033448502421379, 0.15025374293327332, 0.0026945811696350574, 0.00894232653081417], [0.2920551598072052, 0.040033742785453796, -0.35891252756118774, 0.2157890945672989, -0.17375807464122772, -0.14177079498767853, 0.4220053255558014, 0.46088066697120667, -0.2676181197166443, 0.11230869591236115, -0.2325190007686615, -0.5950172543525696, -0.7178922295570374, 0.6361854076385498, 0.34571191668510437], [-0.0767756849527359, 0.2866688668727875, -0.15258190035820007, -0.04614653065800667, 0.2211267203092575, -0.3083055913448334, 0.5831223726272583, 0.43822312355041504, 0.27774158120155334, -0.7978616952896118, 0.25265881419181824, -0.6058133244514465, -0.07803336530923843, 0.2766067385673523, 0.19628146290779114], [0.11433777213096619, 0.299323707818985, 0.11915896087884903, 0.12400387227535248, 0.076082743704319, 0.16399972140789032, -0.19031687080860138, -0.16030879318714142, 0.031371165066957474, -0.22751909494400024, 0.09207935631275177, 0.03751198202371597, 0.23819391429424286, 0.0005818305653519928, 0.10518553107976913], [0.1351512223482132, -0.3372833728790283, -0.07561062276363373, 0.009990978986024857, 0.022645868360996246, 1.0468897819519043, -1.2466561794281006, -0.21270258724689484, 0.13548335433006287, 0.30338579416275024, -0.4462805390357971, 0.27732887864112854, -0.14441262185573578, 0.1232941746711731, 0.10698466002941132], [0.3430558741092682, -0.2339000701904297, -0.09518607705831528, 0.22146983444690704, 0.07107873260974884, 1.7631940841674805, 0.48517802357673645, 0.22165144979953766, 1.4345550537109375, -0.3267281651496887, 0.0807284489274025, -0.5869913101196289, 0.043519433587789536, -0.17686346173286438, -0.23661956191062927], [0.0031658310908824205, -0.2779845893383026, -0.17126156389713287, 0.09013545513153076, -0.06398423761129379, -0.18875496089458466, 0.21284300088882446, -0.5496578216552734, -0.5831841826438904, 0.007108983583748341, 0.5067328214645386, 0.28502243757247925, -0.5482944250106812, -0.025284357368946075, 0.08287274837493896], [0.0006795323570258915, 0.03482057526707649, 0.3686743378639221, -0.11681220680475235, -0.25798046588897705, -0.12481693178415298, 0.6119793057441711, 0.010963424108922482, 1.4916274547576904, 0.9266108870506287, 0.5501958727836609, 0.14453060925006866, 0.07573477923870087, 0.23686669766902924, -0.8917506337165833], [-0.06077783554792404, 0.11977941542863846, 0.22355902194976807, -0.16336865723133087, 0.0557374581694603, -0.12380658090114594, -0.3610818684101105, 0.01582408882677555, -0.029946235939860344, 0.1350863128900528, -0.37293151021003723, -0.5590303540229797, -0.16945821046829224, 0.32964420318603516, 0.09357935935258865], [0.015588868409395218, 0.1948528289794922, 0.04280495271086693, -0.15039215981960297, 0.03739812225103378, -0.03886222839355469, 1.0908994674682617, -0.3360235393047333, 0.7365937829017639, -0.44267410039901733, 0.07396505773067474, -0.811599850654602, -0.059098199009895325, -0.570699155330658, -0.008074191398918629], [0.11754994839429855, -0.20708653330802917, -0.08987230062484741, -0.02896515466272831, 0.015808813273906708, 0.056184303015470505, 0.3586706519126892, -0.07315776497125626, -0.634588897228241, 0.02763528563082218, 0.241342693567276, 0.3386688828468323, 0.3262532353401184, -0.33079367876052856, 0.029438873752951622], [0.16374599933624268, -0.13507960736751556, -0.025877701118588448, 0.0659395232796669, 0.03642391413450241, -0.8994950652122498, 0.035936012864112854, -0.06655732542276382, -0.23824448883533478, 0.049471043050289154, 0.6672412157058716, 0.07823200523853302, -0.1287718564271927, -0.34867602586746216, -0.036050111055374146], [0.09617682546377182, -0.12566842138767242, -0.1533692628145218, -0.049847207963466644, 0.07795046269893646, -0.24948911368846893, 0.332021564245224, -0.260610967874527, -0.19600072503089905, -0.16460208594799042, 0.085769884288311, 0.35237863659858704, -0.17616230249404907, -0.2601926922798157, 0.07770475000143051], [-0.09682252258062363, 0.11716745048761368, 0.04554915800690651, 0.053573936223983765, -0.13990797102451324, 0.041951198130846024, 0.16112114489078522, 0.1344500631093979, 0.4516266882419586, -1.2396550178527832, -0.3964622914791107, 0.1505149006843567, 0.021065374836325645, 1.2227686643600464, -0.29568997025489807], [-0.09655757248401642, 0.020788142457604408, -0.20635896921157837, 0.049010373651981354, 0.09612436592578888, -0.09342274069786072, -0.013712323270738125, 0.2912479043006897, -0.7035770416259766, 0.2092006653547287, -0.46276864409446716, -0.32469961047172546, -0.7159467339515686, 0.6639794707298279, 0.04003968834877014], [0.06540524959564209, -0.17721396684646606, 0.045984409749507904, -0.01187011506408453, 0.004421338438987732, 0.4102148711681366, 1.4284334182739258, -0.11482243984937668, 0.08315379172563553, -0.10254386812448502, 0.07435541599988937, 0.4098356068134308, 0.6292731761932373, 0.1464197188615799, -0.04679407924413681], [-0.047116946429014206, -0.10504207760095596, 0.023434314876794815, -0.020842360332608223, 0.058670882135629654, -0.30451664328575134, -0.2611074447631836, 0.39374780654907227, 0.6709085702896118, -2.5224785804748535, 0.3358668386936188, -0.3243072032928467, -0.24668563902378082, -0.16169242560863495, 0.09672719985246658], [-0.08074986189603806, -0.28303778171539307, 0.08894482254981995, 0.0091279661282897, -0.04990655928850174, -0.268456369638443, 0.07187584787607193, -0.47277146577835083, -0.8161597847938538, -0.2520741820335388, 0.3232426941394806, -0.11111189424991608, -0.8086360692977905, -0.25776979327201843, -0.13439105451107025], [-0.31584030389785767, -0.5074870586395264, -0.14516688883304596, 0.12367021292448044, -0.25686386227607727, -0.6733682155609131, -0.15194912254810333, 0.5159506797790527, 0.8186102509498596, -0.6573509573936462, -0.2527819871902466, -0.3010071814060211, 0.937873125076294, 0.5404205322265625, -0.03786512836813927], [-0.10355882346630096, 0.0690252035856247, -0.1457512229681015, -0.2774105370044708, 0.002994397422298789, -1.4488468170166016, 0.14621447026729584, 0.1696607768535614, 0.4683980345726013, -0.49476274847984314, 0.5377875566482544, -0.23384591937065125, -0.2862526774406433, 0.5183255672454834, 0.1575319766998291], [-0.10322355479001999, -0.030311597511172295, 0.1250332146883011, 0.012087138369679451, 0.04431389272212982, -1.601976990699768, 0.282644659280777, -0.13964317739009857, 1.069603681564331, 0.5660557746887207, -0.11819225549697876, 0.06647180020809174, 0.09147849678993225, -0.5315331816673279, -0.28742334246635437], [-0.14533117413520813, 0.3143914043903351, -0.14138224720954895, -0.1864319145679474, -0.09249250590801239, 0.12682810425758362, 0.2037041187286377, 0.15255314111709595, -0.36382851004600525, -0.2778695225715637, -0.19818897545337677, -0.13279306888580322, 0.6554062366485596, -0.2942674458026886, -0.14155100286006927], [-0.1943870186805725, 0.07313395291566849, 0.10956340283155441, 0.14663328230381012, -0.1493055820465088, 0.03038659878075123, 0.5880753397941589, -0.03656445071101189, 0.2983952760696411, -0.18276777863502502, -0.4961833953857422, 0.12483829259872437, 0.36469656229019165, -0.6345577239990234, -0.2577736973762512], [0.15795312821865082, 0.2010297179222107, 0.2080317884683609, -0.12426231801509857, 0.027749286964535713, -0.3137059509754181, -0.24626177549362183, 0.26537635922431946, 0.1152343824505806, -0.7818105816841125, -0.3221619427204132, -0.39608243107795715, 0.21873006224632263, 0.024014879018068314, -0.4254082143306732], [-0.29689255356788635, 0.08068962395191193, 0.15714895725250244, -0.11497469991445541, 0.14567048847675323, 0.29416829347610474, 0.8008739948272705, -0.46578511595726013, 0.44859540462493896, -0.6439526677131653, 0.12223285436630249, -0.4931745231151581, 0.09027943760156631, 0.5979506373405457, -0.44283419847488403], [0.1942279040813446, 0.2778221070766449, 0.043428268283605576, -0.0952269658446312, 0.32493025064468384, 0.7212793827056885, 0.2087755799293518, 0.3698658049106598, 0.46405673027038574, -0.7592014074325562, -0.5474966764450073, -0.26022854447364807, 0.6859447360038757, 0.7392905950546265, -0.13466843962669373], [-0.18892838060855865, -0.10455083847045898, -0.12605324387550354, 0.15267740190029144, -0.12029286473989487, 0.3842872977256775, 0.41255876421928406, 0.03132409229874611, -0.17887501418590546, 0.03927905485033989, -0.005642086733132601, 0.2130555659532547, -0.2758336365222931, 0.5179302096366882, 0.09622319787740707], [-0.16084589064121246, -0.010981826111674309, 0.1332295536994934, -0.09431850165128708, 0.08132663369178772, -0.0018375711515545845, 0.2056792825460434, 0.1341581642627716, 0.3124431073665619, 0.37926414608955383, -0.0318417027592659, 0.16915640234947205, -0.3165060579776764, -0.23553788661956787, -0.09911737591028214], [-0.24445493519306183, 0.6804152727127075, 0.19767262041568756, 0.03840257599949837, -0.02617095410823822, -1.3050559759140015, 1.1814477443695068, 0.3420281708240509, 0.689696729183197, 1.344704508781433, -0.7919033765792847, -0.6831266283988953, -0.19780339300632477, -0.025989800691604614, -0.3475494682788849], [0.1225493848323822, 0.2175123244524002, -0.21167464554309845, -0.02309371531009674, -0.2928444743156433, -0.2608317732810974, 0.26073238253593445, -0.2909766137599945, 0.22675782442092896, -0.7982875108718872, -0.08379702270030975, -0.24434562027454376, -0.18289130926132202, 0.6423977017402649, 0.33845558762550354], [-0.002280278131365776, -0.10256831347942352, -0.13349749147891998, -0.250103235244751, 0.02581913024187088, 0.11149951815605164, 0.005096547305583954, -0.08607809245586395, -0.42812398076057434, -0.10112029314041138, 0.1833006888628006, -0.23926547169685364, -0.4158463776111603, 0.010759483091533184, 0.0167310182005167], [-0.03145387023687363, -0.270978182554245, -0.1998571902513504, -0.19831323623657227, -0.17307893931865692, 0.0002973891969304532, -0.42290744185447693, -0.09869462251663208, -0.39158135652542114, -0.24136200547218323, -0.275225430727005, -0.5214161276817322, 0.7318242192268372, 0.0603107251226902, -0.0035419573541730642], [-0.08173143863677979, 0.059462036937475204, -0.0471666119992733, 0.021190738305449486, 0.03598024696111679, -0.4968842566013336, 0.529140293598175, -0.053437553346157074, 0.31554096937179565, -0.5828608274459839, -0.05459732562303543, 0.24117346107959747, -0.5867130756378174, 0.1884889155626297, 0.15201398730278015], [-0.1251876950263977, 0.1058998852968216, 0.07233265042304993, 0.16807246208190918, 0.02246486023068428, 0.2412141114473343, -0.21870823204517365, -0.20483160018920898, 0.16045710444450378, -0.1522754579782486, 0.04771508276462555, 0.05733369290828705, -0.24290096759796143, -0.39081859588623047, -0.049101658165454865], [0.12837429344654083, -0.02260257676243782, -0.09717213362455368, -0.2152811735868454, 0.3017675280570984, -0.2057393342256546, 0.7864901423454285, -0.33028164505958557, 0.12156151980161667, -0.185699000954628, 0.21403314173221588, -0.06065669655799866, 0.04306603968143463, -0.8566173315048218, 0.15511231124401093], [0.22738003730773926, -0.03233711048960686, -0.12027164548635483, -0.09389679878950119, -0.014527483843266964, 0.3688899576663971, 0.12478639930486679, -0.200740784406662, -0.16667719185352325, 0.12829509377479553, -0.33278459310531616, 0.4062410593032837, 0.8548883199691772, 1.4039877653121948, 0.13555045425891876], [-0.1074536070227623, 0.03988974541425705, 0.019281262531876564, 0.014366052113473415, -0.03520195558667183, 0.15978704392910004, -0.15250253677368164, -0.45876267552375793, 0.023746760562062263, -0.2052292674779892, 0.30860522389411926, 0.32790496945381165, -0.2464146465063095, 0.18119876086711884, -0.0037039173766970634], [0.005955047439783812, -0.11026948690414429, 0.2878111004829407, 0.25429195165634155, 0.2080133557319641, 0.6048849821090698, 0.01675901934504509, -0.6789822578430176, 0.5645157694816589, 0.32656368613243103, -0.08136603236198425, -0.42397740483283997, 0.9869239330291748, -0.7416584491729736, -0.3910447359085083], [-0.22901666164398193, 0.2577170431613922, -0.08184697479009628, -0.040045492351055145, -0.09292931854724884, -0.4742768406867981, 0.17955848574638367, 0.1877346634864807, 0.10153905302286148, -0.19030921161174774, -0.36323124170303345, -0.4383053183555603, -0.14606395363807678, -0.2281808853149414, 0.29933473467826843], [-0.04114597663283348, -0.12174947559833527, -0.09555098414421082, -0.12156462669372559, -0.09643343091011047, -0.09507960081100464, -0.13887949287891388, -0.015248364768922329, 0.3526219129562378, -0.2988348603248596, 0.24420073628425598, 0.1496172696352005, 0.8061975240707397, -0.13671553134918213, 0.1511370688676834], [-0.34254908561706543, 0.014790913090109825, -0.014423848129808903, -0.08816636353731155, 0.02868582494556904, 0.05840912461280823, -0.006076163612306118, -0.11921766400337219, -0.8870869278907776, -0.22159570455551147, -0.4431447386741638, 0.0834677591919899, 0.44429054856300354, 0.9360899925231934, -0.1874193549156189], [0.0010496913455426693, 0.017196988686919212, 0.12939435243606567, 0.09323205053806305, -0.08468888700008392, -0.12416544556617737, -0.33042851090431213, -0.1684211641550064, 0.2785220146179199, 0.044052112847566605, 0.19404344260692596, 0.11182048916816711, 0.4129544496536255, -0.20452174544334412, 0.11256635189056396], [0.20011043548583984, 0.008445623330771923, -0.20124398171901703, 0.23232777416706085, -0.04081633314490318, 0.13395605981349945, 0.6215071678161621, 0.05639997869729996, -0.2838120758533478, -0.42331162095069885, 0.15397736430168152, -0.05459611490368843, -0.5039877891540527, -0.2442365288734436, -0.04644713178277016], [0.027508080005645752, -0.0687471479177475, 0.02297479659318924, -0.008668145164847374, -0.07683006674051285, -0.1528584510087967, -0.2711659073829651, 0.07391195744276047, 0.10203537344932556, 0.4500868022441864, 0.0836113840341568, -0.07094132900238037, -0.39371585845947266, -0.6193360686302185, -0.18368437886238098], [-0.23185904324054718, -0.11962537467479706, -0.033526867628097534, 0.0030283976811915636, -0.015785442665219307, 0.27119266986846924, 0.2235352247953415, -0.23385518789291382, -0.13207070529460907, 0.08533857762813568, 0.5928187370300293, -0.3039320707321167, -0.3949774205684662, 0.46165481209754944, -0.019333774223923683], [0.06883177906274796, 9.34044728637673e-05, 0.09671324491500854, 0.015007809735834599, -0.006380727980285883, -0.31963181495666504, -0.24036672711372375, 0.04503136873245239, 0.28516602516174316, -0.17528031766414642, 0.4012463688850403, -0.3355027437210083, 0.0565033033490181, 0.6831952333450317, -0.1185845360159874], [0.365580290555954, -0.02709057927131653, -0.23946836590766907, -0.17836639285087585, 0.024164406582713127, -0.4434013068675995, 0.1817883998155594, 0.28265541791915894, 0.3556513488292694, -0.6879630088806152, 0.20563431084156036, 0.0497998483479023, -0.5695191621780396, 0.17409676313400269, -0.20821410417556763], [0.020718097686767578, -0.1384069323539734, -0.074805848300457, -0.24325644969940186, 0.11733608692884445, -0.21938028931617737, 0.11047853529453278, -0.2298998236656189, -0.5211486220359802, -0.14077456295490265, -0.19024288654327393, -0.1437223255634308, 0.24375247955322266, -0.12450016289949417, -0.0012178034521639347], [-0.09494824707508087, 0.14904889464378357, -0.42667263746261597, 0.08596330881118774, 0.018094340339303017, -0.2451574206352234, -0.2084973156452179, 0.18031731247901917, -0.015805484727025032, -0.17052674293518066, 0.1855105459690094, -0.3582875728607178, -0.11902297288179398, 0.0939738005399704, 0.01797277107834816], [0.16798990964889526, 0.020624367520213127, -0.025433074682950974, 0.07212670892477036, 0.053386688232421875, 0.9189013242721558, -0.538735568523407, 0.24795667827129364, 0.20514190196990967, -1.8919652700424194, -0.2439008355140686, 0.2458370178937912, 0.7040467262268066, -0.5529418587684631, 0.019407430663704872], [-0.018312940374016762, 0.094746433198452, -0.029512472450733185, 0.004375673830509186, -0.014360976405441761, -0.8598480224609375, 0.139034703373909, -0.2413351833820343, 0.345003217458725, -0.5325567126274109, 0.4519350230693817, 0.24349446594715118, 0.6077545285224915, -0.016336597502231598, -0.10781998187303543], [0.21877150237560272, -0.2886646091938019, -0.16051656007766724, 0.38622671365737915, -0.006149266846477985, 1.1184442043304443, -0.7910517454147339, 0.4591054618358612, 0.37830325961112976, 0.4033808708190918, -0.5806918144226074, -0.10398447513580322, -0.4386853575706482, -0.8505915999412537, -0.07601986080408096], [-0.1638767123222351, 0.33032724261283875, 0.22871631383895874, 0.114795982837677, 0.00838568713515997, 0.38614481687545776, 0.18915988504886627, -0.599915087223053, -0.35173872113227844, -0.0007222543936222792, -0.00832018069922924, -0.227381631731987, 0.17006297409534454, 0.9112012982368469, -0.3654937744140625], [0.1493605673313141, 0.21610020101070404, -0.15374857187271118, -0.28747567534446716, 0.05165812000632286, 1.099043607711792, 0.08196622133255005, 0.07848645746707916, 0.7171972990036011, -0.4560832977294922, -0.8830793499946594, -0.14222945272922516, -0.3709673285484314, 0.07421727478504181, 0.040300652384757996], [0.013181600719690323, -0.14148801565170288, 0.10434070229530334, 0.017186280339956284, 0.01341868843883276, 1.1818971633911133, 0.6270573735237122, -0.23585227131843567, 0.6181997656822205, 0.4446372985839844, 0.08922308683395386, 0.45721572637557983, -0.008192830719053745, -0.2683737277984619, -0.18886086344718933], [-0.23616468906402588, 0.36490777134895325, -0.258835107088089, -0.14960387349128723, -0.05187196657061577, -1.2205790281295776, -0.10457082092761993, 0.32286152243614197, -0.08752533048391342, 0.1068607047200203, 0.5480636358261108, 0.06911581009626389, -0.015677304938435555, 0.33261188864707947, 0.007409151643514633], [0.19811716675758362, 0.22598564624786377, 0.23310509324073792, -0.22162258625030518, 0.030742749571800232, 0.4746594727039337, -0.5530673861503601, 0.12428830564022064, 0.2793901264667511, -0.16446951031684875, -1.576139211654663, -0.09089596569538116, -0.6926455497741699, 0.5315791964530945, 0.31999555230140686], [0.04678289219737053, 0.14961761236190796, -0.029980694875121117, -0.0001560001983307302, -0.04044000431895256, 0.07904059439897537, 0.42135506868362427, 0.4091803729534149, 0.15278823673725128, -2.401963949203491, 0.5361387729644775, -0.18561694025993347, 0.17388881742954254, 0.14950676262378693, 0.019271105527877808], [0.04952014610171318, 0.17784933745861053, 0.018724491819739342, 0.013291576877236366, -0.08770497888326645, 0.10042466223239899, 0.4204854667186737, 0.3119755685329437, 0.4510207176208496, 0.8469900488853455, -0.0943981409072876, 0.054414160549640656, 0.018884452059864998, 0.027316037565469742, 0.07783734053373337], [-0.15394948422908783, 0.23500177264213562, 0.02318323217332363, 0.02175907976925373, -0.09299631416797638, 0.014597523957490921, 0.11158163100481033, -0.2891027629375458, -0.34758952260017395, -0.2881183922290802, 0.021455517038702965, 0.26392796635627747, 0.36798563599586487, -0.5822102427482605, -0.08753088861703873], [-0.44246166944503784, -0.4071897864341736, -0.13923218846321106, -0.0990041047334671, 0.10070730745792389, -0.12263864278793335, 1.0828185081481934, -0.21166560053825378, -0.27199459075927734, -0.1279449462890625, 0.2678079605102539, -0.34447968006134033, 2.029043197631836, 1.06535005569458, -0.03718215599656105], [-0.17224159836769104, -0.0024289870634675026, -0.04558485373854637, -0.02569425478577614, -0.05363456904888153, 0.5853246450424194, -0.27057838439941406, -0.14300832152366638, 0.17252738773822784, 0.6566905379295349, 0.3247130811214447, -0.026434343308210373, 0.03713315725326538, 0.2641430199146271, 0.12107445299625397], [-0.2688450217247009, 0.10595754534006119, -0.3427172601222992, -0.2660447359085083, 0.3215157389640808, -0.30728763341903687, 0.16027642786502838, 0.4700568914413452, 0.15605783462524414, 1.0990917682647705, -0.4586803615093231, -0.06779272109270096, 0.5908911824226379, -0.7381991744041443, 0.02178698405623436], [0.04702161252498627, 0.07611589133739471, -0.3649940490722656, 0.0015375735238194466, -0.17639683187007904, 0.2400495707988739, -0.13943518698215485, -0.049943264573812485, -0.58880215883255, -0.34020358324050903, -0.2786833941936493, 0.14777147769927979, 0.45374366641044617, 0.2746722102165222, 0.008674835786223412], [0.28975051641464233, 0.3488546907901764, -0.4757813513278961, 0.005293480586260557, -0.13439153134822845, -0.027792593464255333, 0.3622349500656128, 0.20306898653507233, -0.6150918006896973, -1.9398080110549927, -0.3354814946651459, 0.27102571725845337, -0.08950839936733246, -1.2273427248001099, 0.2306259721517563], [-0.41700035333633423, -0.32947665452957153, -0.13907615840435028, 0.04722079262137413, -0.036629002541303635, -1.5532591342926025, -0.43463134765625, 0.573685884475708, 0.30181142687797546, 0.6086797118186951, -0.5954318642616272, -0.30069535970687866, 0.2673181891441345, -0.2499370276927948, 0.04453948885202408], [-0.11440123617649078, 0.06026770547032356, -0.08603650331497192, 0.1277393400669098, 0.011939247138798237, -0.07534019649028778, -0.02144797332584858, -0.010567480698227882, 0.13266333937644958, 0.3263399600982666, -0.09185019880533218, 0.04417536407709122, -0.0187185388058424, -0.10333696752786636, 0.2253371775150299], [0.0123966746032238, -0.0499078668653965, 0.20925505459308624, 0.1711113601922989, -0.09022828191518784, -0.30808591842651367, 0.33493077754974365, 0.1437438726425171, 0.8857975602149963, -0.14277802407741547, 0.4421190023422241, -1.114304780960083, -0.4113364517688751, -0.1743720918893814, -0.23732982575893402], [-0.39774900674819946, 0.11579102277755737, -0.22192879021167755, -0.07500187307596207, -0.21635422110557556, 0.5224582552909851, -0.34484174847602844, -0.20387761294841766, -0.7726036906242371, -0.04465857520699501, 0.11093728989362717, 0.09742265939712524, -0.841709315776825, -0.41094738245010376, -0.08994749933481216], [0.04512021690607071, 0.13070540130138397, 0.0859551802277565, -0.011112039908766747, -0.16379006206989288, -0.061760224401950836, -0.3275465965270996, -0.20144520699977875, 0.018526175990700722, 0.12567995488643646, 0.11146107316017151, -0.09651999920606613, -0.28217145800590515, 0.3816159665584564, -0.09172490239143372], [-0.04396389052271843, -0.0890541523694992, -0.0972764864563942, -0.15647189319133759, 0.15504904091358185, -0.09752041101455688, -0.2608034610748291, 0.0968080535531044, 0.10252807289361954, 0.05891270935535431, 0.2416207194328308, -0.10740303993225098, 0.42151468992233276, -0.282731294631958, 0.068883515894413], [-0.06315542012453079, -0.18857713043689728, 0.0733637735247612, 0.17190632224082947, 0.05215271934866905, 0.27564066648483276, -0.2585044503211975, 0.24944409728050232, 0.3298626244068146, 0.07193105667829514, -0.6444308757781982, -0.3375298082828522, -0.4322440028190613, 0.5801319479942322, 0.24332541227340698], [0.11781236529350281, 0.29264241456985474, 0.12418345361948013, -0.15151053667068481, -0.19494523108005524, -1.0872609615325928, -0.3606661260128021, -0.3538476824760437, 0.20347103476524353, -0.39124900102615356, 0.3115614056587219, 0.34331679344177246, 0.7383744716644287, 0.7956987619400024, -0.6377947926521301], [0.10967789590358734, 0.00964695867151022, 0.135574609041214, 0.030967386439442635, -0.018275270238518715, -0.7685522437095642, 0.2733602523803711, -0.21098577976226807, -0.13902994990348816, 0.31232643127441406, 0.438236802816391, -0.0123951630666852, -0.5806306600570679, 0.7090690732002258, -0.11222995817661285], [-0.2322857528924942, -0.2297004908323288, -0.2243267148733139, -0.3743912875652313, -0.11941342055797577, -0.7204555869102478, -0.12889817357063293, 0.1721431016921997, -0.28915905952453613, -0.2987324893474579, -0.21524035930633545, 0.09973662346601486, 0.14746902883052826, 1.1451674699783325, -0.24144604802131653], [-0.23357145488262177, 0.03832505643367767, 0.08824795484542847, 0.02661411464214325, 0.04546564072370529, -1.6178858280181885, 1.9459375143051147, -0.013408440165221691, 0.6062036156654358, -0.6093603372573853, 0.11879569292068481, -0.06819174438714981, -0.1483926624059677, -0.31780993938446045, 0.11803342401981354], [0.08264677971601486, -0.0019351063529029489, 0.017648620530962944, -0.01192396879196167, 0.10945142060518265, 0.40491071343421936, 0.08826633542776108, 0.0779280886054039, 0.13770250976085663, 2.3879711627960205, -0.19845570623874664, -0.02664075419306755, 0.6016736030578613, -0.33430808782577515, 0.10085850954055786], [-0.20073017477989197, 0.27470797300338745, -0.10566659271717072, -0.05323825404047966, 0.13059619069099426, 0.0950956866145134, 0.0788891538977623, 0.1971704363822937, -0.4073839783668518, -0.04958764463663101, -0.30441832542419434, -0.24805137515068054, -0.47320494055747986, -0.5012430548667908, 0.0429498627781868], [0.09087710827589035, 0.06353826075792313, -0.05739038065075874, -0.09691901504993439, 0.11331301182508469, -0.24390842020511627, 0.870182991027832, -0.20764213800430298, 0.0767018124461174, 0.009087221696972847, 0.6814858913421631, 0.11390655487775803, -0.1934419572353363, 0.23143693804740906, 0.15951292216777802], [-0.0821608453989029, 0.04781182482838631, 0.12249436974525452, 0.2276613712310791, 0.013896742835640907, 0.18069593608379364, 0.31703275442123413, -0.14814254641532898, -0.030470188707113266, 0.06709923595190048, -0.3515343964099884, 0.3067864775657654, 0.3273584544658661, -0.086663156747818, -0.0008997771656140685], [0.0944686010479927, 0.5121217370033264, 0.16512621939182281, -0.19637304544448853, 0.04196319729089737, -0.11119571328163147, 0.6009246110916138, -0.1711098998785019, 0.040501244366168976, 0.5233209729194641, 0.3536292016506195, -0.3598244786262512, 0.2791987955570221, 0.07462824881076813, -0.10936859995126724], [0.12873022258281708, 0.2048918455839157, -0.25684040784835815, 0.17928583920001984, 0.3014102578163147, -0.33372020721435547, -0.06815335899591446, 0.01748337596654892, 0.22938662767410278, -0.33743083477020264, -0.00825054943561554, -0.22942955791950226, -1.051689624786377, 0.7588320970535278, -0.013556057587265968], [-0.04493225738406181, -0.006769842468202114, 0.052403051406145096, -0.044356152415275574, -0.09608599543571472, -0.25497865676879883, -0.39118340611457825, 0.17681053280830383, 0.00015261470980476588, -0.028220968320965767, -0.2663935124874115, -0.2904370427131653, -0.05238170921802521, -1.1391279697418213, 0.15216009318828583], [-0.09411326795816422, 0.0016087322728708386, -0.05243295803666115, 0.02912556752562523, 0.2846125066280365, 0.10599423944950104, -0.30645105242729187, -0.13526353240013123, 0.3952499032020569, 0.8666067719459534, 0.3006434440612793, -0.474680632352829, 0.8095361590385437, 1.7802619934082031, 0.21320872008800507], [-0.1875346153974533, -0.20624688267707825, -0.03745120018720627, 0.016691647469997406, 0.0846865177154541, 0.2118057757616043, 0.3071323037147522, -0.3707635700702667, -0.05273696780204773, -0.12321536242961884, 0.43789467215538025, 0.34277281165122986, -0.2649357318878174, 0.21764689683914185, -0.04107948765158653], [0.1985425055027008, -0.26104405522346497, -0.6704748868942261, 0.023782219737768173, -0.048386700451374054, 0.44571369886398315, 1.0439262390136719, -0.06271595507860184, 1.3182705640792847, -0.5704123973846436, -0.20398026704788208, 0.34165382385253906, -0.0385088287293911, -0.72897869348526, 0.2755553424358368], [0.006786351557821035, -0.08722399920225143, -0.11044042557477951, -0.28947344422340393, 0.05961371585726738, 0.9010474681854248, 0.5790311098098755, 0.21468916535377502, 0.45452213287353516, -0.44745248556137085, -0.39547017216682434, -0.04638609290122986, 0.07164380699396133, -0.5629977583885193, -0.1032843142747879], [0.18181075155735016, -0.15772715210914612, 0.045268066227436066, 0.07123983651399612, -0.36829107999801636, -0.8568779826164246, 0.22394883632659912, -0.26269182562828064, -0.6769213080406189, -0.15388819575309753, -0.42467746138572693, -0.8333231210708618, 0.667378306388855, 0.7584543824195862, 0.13521216809749603], [0.18486401438713074, 0.013274570927023888, -0.11584156006574631, -0.045171692967414856, -0.08288530260324478, -0.018647851422429085, -0.43926337361335754, 0.012500579468905926, -0.3819122016429901, -0.06465896219015121, 0.3708753287792206, -0.251007080078125, 0.46242955327033997, 0.3244096636772156, -0.25097930431365967], [-0.12529060244560242, 0.04686294123530388, -0.0965491235256195, -0.2223808765411377, -0.03339305520057678, 1.0925437211990356, 0.20868977904319763, -0.037833262234926224, 0.02224903367459774, -0.24093951284885406, 0.7685545086860657, -0.10534153133630753, 0.15690205991268158, 1.2936136722564697, -0.2798942029476166], [0.16206464171409607, -0.1487017422914505, -0.05194057896733284, -0.10546156764030457, -0.12085410952568054, -0.2891697287559509, -0.13339675962924957, 0.05919080227613449, -0.25879967212677, -0.011797948740422726, 0.2265544831752777, 0.2000608891248703, 0.6661739945411682, -1.0466424226760864, -0.2241959571838379], [0.33248335123062134, -0.16112688183784485, 0.0970529168844223, -0.04906783625483513, -0.008942737244069576, 0.07948777079582214, 0.24914255738258362, -1.264981985092163, 0.4972834289073944, 0.3902866840362549, -0.6182143688201904, -0.4328823387622833, 0.13565503060817719, 0.2492382675409317, -0.05533301830291748], [0.18487681448459625, 0.12099214643239975, 0.009542576037347317, 0.30718937516212463, -0.07181607186794281, 0.34459105134010315, -0.15971526503562927, -0.46033909916877747, -0.211992084980011, -0.05366206169128418, 0.27588438987731934, -0.15872126817703247, 0.03490079939365387, -1.1253695487976074, -0.30645787715911865], [0.08976120501756668, 0.42787468433380127, -0.03498955816030502, 0.12411689758300781, 0.044370707124471664, 0.1688811480998993, 1.051750659942627, 0.04704808071255684, 0.03565647825598717, 1.3492103815078735, 0.08246210962533951, -0.6679073572158813, -0.4041946828365326, 0.7581810355186462, 0.16348879039287567], [-0.22810955345630646, -0.05311352759599686, 0.042907025665044785, -0.023628011345863342, -0.1714775711297989, 0.3268321454524994, 0.2072981894016266, 0.15521709620952606, 0.3925899863243103, -0.1941264569759369, 0.20174673199653625, -0.4714830219745636, -1.817196249961853, 0.4596630930900574, 0.12190001457929611], [0.09624475240707397, -0.017422078177332878, 0.041499946266412735, -0.006484603974968195, 0.031127704307436943, -0.9664263725280762, 0.04449955374002457, -0.027094103395938873, -0.21968930959701538, -0.002278259489685297, 0.4811455011367798, 0.015547291375696659, -0.20189538598060608, -0.13162735104560852, -0.06131751835346222], [0.12170393019914627, -0.007570567075163126, -0.05901648476719856, 0.07551883906126022, -0.10554999113082886, 0.277830570936203, 0.06390247493982315, 0.5932137370109558, -0.11816660314798355, -3.4860615730285645, -0.2479712814092636, -0.1081986129283905, -0.757482647895813, -0.052282217890024185, -0.10249318182468414], [0.26019978523254395, 0.39268431067466736, -0.37139692902565, 0.4528641700744629, -0.00885635707527399, -0.6929354071617126, -0.13837292790412903, -0.5763221383094788, -0.2088158130645752, -0.417569637298584, 0.4961676597595215, 0.42352449893951416, -0.2640463411808014, 0.8683233261108398, -0.2637785077095032], [0.02267518825829029, 0.09428742527961731, 0.27116477489471436, 0.0019286252791061997, 0.07522706687450409, -0.31813883781433105, -0.5486433506011963, -0.7452805638313293, -0.026499196887016296, 0.0850079208612442, 0.4544544816017151, 0.051683712750673294, -0.18909187614917755, 0.05709648132324219, -0.09178340435028076], [0.04132285714149475, -0.07424559444189072, -0.036592867225408554, 0.20796838402748108, -0.014261345379054546, 1.3072659969329834, 0.10275889188051224, 0.006097458768635988, 0.5325503349304199, -0.3977888226509094, 0.013617184944450855, 0.08163712918758392, -0.24449019134044647, -0.30139070749282837, -0.04176383838057518], [-0.1440712958574295, 0.3225604295730591, -0.008489909581840038, 0.05710085108876228, 0.015426497906446457, -0.4209555983543396, 0.6001399755477905, 0.3229645788669586, -0.28406137228012085, -1.833371877670288, 0.013990246690809727, -0.4917287528514862, 0.06180930882692337, 0.609899640083313, -0.12471404671669006], [-0.07996135205030441, -0.12295865267515182, 0.0990353673696518, 0.0036466640885919333, -0.03461324796080589, 0.020197691395878792, -0.1505620926618576, -0.27814584970474243, 0.22264042496681213, 0.10749596357345581, 0.234305277466774, 0.03827323019504547, -0.1158924549818039, -0.002629459137097001, 0.023560715839266777], [-0.048905160278081894, 0.0923004224896431, -0.6100044250488281, -0.05971379205584526, 0.024327730759978294, 0.4972327947616577, -0.6865508556365967, -0.01883605495095253, 0.6943501234054565, 0.02212287113070488, -0.16021673381328583, 0.7561805844306946, 0.4342435598373413, 0.45829251408576965, 0.1970515102148056], [0.408619225025177, 0.01889890432357788, -0.2572847902774811, 0.13341309130191803, -0.014956966042518616, -0.11296235769987106, -0.23852188885211945, -0.23316796123981476, -0.1867290586233139, -0.19718246161937714, -0.2228243052959442, 0.2516152560710907, 0.4977285861968994, -0.7104695439338684, 0.14029242098331451], [-0.2646976709365845, -0.12498045712709427, 0.12010057270526886, -0.26527804136276245, 0.04585126414895058, -0.3396337926387787, -0.6361605525016785, -0.7965558767318726, 0.09126749634742737, 0.5969763994216919, -0.3418716788291931, -0.8007838726043701, -0.6403904557228088, 0.5794784426689148, 0.06161858141422272], [-0.12156210094690323, -0.10625196248292923, -0.08031582087278366, 0.08741220086812973, 0.21238277852535248, 0.11952948570251465, 1.0519834756851196, -0.24516060948371887, 0.14853447675704956, -0.1108563169836998, 0.3050326406955719, 0.3105236887931824, -0.276860773563385, -0.16893768310546875, -0.1416209638118744], [0.19782587885856628, -0.13470208644866943, -0.05028461292386055, -0.1846853494644165, -0.10570406168699265, -0.04712067171931267, 0.1357850283384323, -0.026321498677134514, -0.2330854833126068, 0.18544821441173553, -0.20270267128944397, -0.1964421272277832, -0.22849656641483307, 0.3312537670135498, 0.05946385860443115], [0.01526157557964325, -0.01835484988987446, -0.08742953091859818, -0.020618194714188576, 0.032648514956235886, 0.0650898814201355, -0.0942726656794548, 0.5023460388183594, -0.5413925051689148, 3.243711233139038, 0.7673564553260803, -0.15349456667900085, -0.3763779103755951, -0.025554612278938293, -0.043728332966566086], [-0.14070500433444977, 0.36396855115890503, -0.16101284325122833, -0.25158610939979553, 0.12535446882247925, -0.4567810595035553, 0.8773718476295471, -0.09896579384803772, -0.3992443382740021, -0.8629857897758484, -0.7347603440284729, 0.01949322782456875, 0.26400986313819885, 0.5842788219451904, 0.1599077433347702], [-0.2335425317287445, 0.030070766806602478, 0.03099903278052807, 0.11330758780241013, -0.04066740348935127, -0.31656384468078613, 0.08268032968044281, 0.2432217001914978, -0.35700535774230957, -0.05178919434547424, -0.3857990503311157, -0.13221736252307892, -0.41141319274902344, -0.5801072120666504, -0.3939129114151001], [-0.0254594124853611, -0.030379489064216614, 0.09236738830804825, -0.0932469591498375, 0.16288064420223236, -0.22104951739311218, 0.12124523520469666, 0.06625308096408844, 0.17075596749782562, -0.47977253794670105, -0.10125474631786346, -0.03244413807988167, -0.8920413255691528, 0.6554181575775146, -0.2210359424352646], [-0.035284120589494705, -0.0022828318178653717, -0.17738094925880432, -0.2626315653324127, -0.037648264318704605, -0.7273886203765869, 0.0836029052734375, -0.3241426348686218, -0.21542520821094513, -0.06190948933362961, 0.34927645325660706, 0.031747084110975266, -0.02330949530005455, -0.06702475249767303, 0.17501474916934967], [-0.18793676793575287, 0.05372406914830208, 0.01833876222372055, -0.03180794417858124, -0.07236187905073166, -0.8309531807899475, 0.28856906294822693, -0.2601225674152374, -0.0058642043732106686, -1.5513418912887573, -0.27225354313850403, 0.031603261828422546, 0.19828076660633087, -0.23532243072986603, -0.019086044281721115], [0.18728046119213104, -0.026535702869296074, -0.1034565195441246, -0.0042203934863209724, 0.15862666070461273, 0.31831860542297363, -0.05994322896003723, 0.2638126313686371, -0.38254350423812866, -0.13607032597064972, -0.7106770873069763, -0.4062025845050812, -0.07250767946243286, -0.03747930750250816, 0.15251381695270538], [0.03626393899321556, -0.33550146222114563, 0.10153494030237198, -0.04957999661564827, -0.056929778307676315, 1.0064239501953125, -1.2091290950775146, 0.3962633013725281, 1.098777174949646, 0.7415407299995422, 0.2393333464860916, -0.4764401614665985, 0.4405074417591095, -0.10054165869951248, -0.15676043927669525], [-0.2632657587528229, 0.386872798204422, -0.16930747032165527, 0.017037533223628998, 0.018165741115808487, 0.7061126232147217, 1.0454444885253906, 0.2798658311367035, -0.2076302170753479, -0.34406402707099915, 0.5439807772636414, -0.017031053081154823, -0.0010555947665125132, -0.44987061619758606, -0.20751117169857025], [0.05982756242156029, 0.26244422793388367, 0.11212218552827835, -0.0438658781349659, 0.12946270406246185, 0.2766686677932739, -0.387719064950943, -0.13737359642982483, -0.42035141587257385, -0.0017205743351951241, 0.08908263593912125, 0.08474897593259811, -0.6879773139953613, 0.8907935619354248, -0.20349259674549103], [-0.46929895877838135, 0.038170717656612396, -0.37285441160202026, 0.0880943313241005, -0.2030198723077774, -0.9446742534637451, 0.25087955594062805, -0.21118861436843872, 1.1987810134887695, -0.08848509937524796, -0.8895708322525024, 0.5763651132583618, 0.20811842381954193, -0.5473995804786682, 0.2324201613664627], [-0.430503249168396, 0.27474772930145264, -0.32056549191474915, -0.07309196144342422, -0.02571905590593815, 0.3942435383796692, -0.15173423290252686, -0.3670426905155182, -0.0794992595911026, 0.3411388695240021, 0.5028589963912964, 0.1384693831205368, -0.34817707538604736, 0.3652975261211395, -0.005177627317607403], [0.00035613909130916, -0.029670564457774162, -0.03810048848390579, -0.005824187770485878, -0.000986653147265315, 0.3331989645957947, -0.20824110507965088, 0.07548283040523529, 0.27144598960876465, 0.7439394593238831, 0.09813076257705688, 0.07162336260080338, 0.6440632343292236, -0.505709707736969, 0.01665537804365158], [-0.02118568681180477, -0.04913697391748428, -0.07206603139638901, 0.09187592566013336, 0.028390588238835335, -0.9625712037086487, 0.24067990481853485, 0.020085534080863, 0.21269337832927704, 0.1970500499010086, 0.5724360942840576, -0.240371972322464, 0.047437191009521484, 0.04653099924325943, -0.24398483335971832], [-0.02193787880241871, 0.04989837110042572, 0.21881531178951263, 0.03111320361495018, 0.02247501164674759, -0.020545903593301773, 0.17691950500011444, 0.30536088347435, 0.4514465034008026, 0.5562553405761719, -1.0112102031707764, -0.189529687166214, -0.20517194271087646, 0.23996858298778534, -0.07352529466152191], [-0.005407119169831276, -0.18793165683746338, -0.02477247454226017, 0.09066897630691528, 0.02381575107574463, 0.4117761552333832, 0.3807966113090515, -0.25926196575164795, 0.12784476578235626, 0.32000845670700073, 0.04759907349944115, 0.2462773323059082, 0.5615782141685486, 0.4787980914115906, 0.05874400958418846], [0.2002643197774887, 0.08420055359601974, 0.037720970809459686, -0.20274053514003754, -0.030499132350087166, 0.031179262325167656, 0.05689980462193489, 0.3625858724117279, 0.4547973871231079, 1.9132413864135742, -0.12219580262899399, -0.1303081214427948, -0.5815982222557068, 0.03379014506936073, -0.17178885638713837], [-0.49093112349510193, -0.15793849527835846, -0.3917238414287567, -0.17155058681964874, -0.2594951093196869, -0.35081031918525696, 0.8940203189849854, 0.5559589266777039, 0.5246134996414185, 0.7089105844497681, -0.14531314373016357, -0.2741163969039917, -1.0982242822647095, -0.05484330654144287, 0.18382787704467773], [-0.2108924239873886, -0.12679095566272736, 0.1401282250881195, 0.00666618999093771, 0.049660101532936096, -0.10340473055839539, -1.2194433212280273, -0.5654765963554382, 0.5251575708389282, 0.14545154571533203, 0.024957576766610146, -0.7352792024612427, -0.2904062867164612, -1.1981700658798218, -0.019439026713371277], [-0.1030094251036644, 0.07816644757986069, 0.034560780972242355, -0.02038649283349514, 0.021864114329218864, 1.6381094455718994, -0.29169055819511414, -0.23839406669139862, -0.04044964909553528, -0.06391163915395737, 0.9555980563163757, -0.021573375910520554, 0.02001057006418705, -0.4572533667087555, -0.0263577438890934], [-0.09757278114557266, -0.591069757938385, 0.27810531854629517, -0.04225792735815048, -0.03472530469298363, -0.27395182847976685, -0.18677964806556702, 0.3114139437675476, 0.6669495701789856, -0.6431382298469543, -1.3273922204971313, -0.23196205496788025, -1.2667913436889648, 0.5106438994407654, -0.1619998663663864], [0.09501314163208008, 0.7247730493545532, 0.005575574468821287, 0.00048326028627343476, 0.004401248414069414, -0.23466087877750397, 2.1521503925323486, -0.2096106857061386, 0.9539963006973267, 0.23460786044597626, -0.4727071523666382, -0.8153253197669983, 0.2635708153247833, 0.004287611693143845, -0.07456202059984207], [0.0036404270213097334, -0.3384433388710022, -0.3521827459335327, -0.3244161307811737, -0.25717878341674805, 0.3253311216831207, -0.8539051413536072, 0.760492742061615, 0.283094197511673, 0.4276316463947296, -0.6339632868766785, -0.8755860924720764, -0.6578762531280518, 0.3827802836894989, 0.5406675934791565], [0.22746337950229645, 0.19352559745311737, 0.1078798696398735, 0.11555135250091553, 0.2671971321105957, 0.8009347915649414, 0.5076093077659607, -0.12104997038841248, 1.1609177589416504, 0.05907373130321503, -0.7920023202896118, -0.4630277454853058, -0.8548850417137146, -0.6737794876098633, -0.04316640645265579], [-0.2370067685842514, 0.21515950560569763, -0.24019962549209595, 0.08775164186954498, 0.25924259424209595, -0.26874619722366333, -0.04006177559494972, 0.008478013798594475, -0.10235581547021866, 0.025650061666965485, -0.6075988411903381, -0.08423895388841629, 0.7266677021980286, 1.817060947418213, -0.12974773347377777], [0.17717650532722473, 0.19142547249794006, 0.29077988862991333, -0.1718953400850296, -0.1841898411512375, 0.47832679748535156, -0.26384398341178894, -0.5024672150611877, 0.30440059304237366, -0.966634213924408, -1.0404884815216064, -0.9633121490478516, 0.9815499186515808, -0.7393818497657776, 0.16372497379779816], [-0.06333763897418976, 0.06255613267421722, -0.10275177657604218, 0.008579027839004993, -0.055983513593673706, 0.2858859598636627, 0.1868465393781662, -0.20737983286380768, 0.10423783212900162, 0.17890731990337372, 0.19663341343402863, 0.24915850162506104, -0.018935907632112503, 0.3741496205329895, 0.10080794990062714], [-0.23264819383621216, 0.48439571261405945, -0.2900198698043823, -0.16273735463619232, -0.13941702246665955, -0.028095919638872147, -0.43167686462402344, -0.1348719745874405, -0.14579834043979645, -0.12211745977401733, -0.3495308458805084, -0.002746347337961197, -0.5187088847160339, 0.7517563104629517, 0.05327639728784561], [0.004260915331542492, 0.0368015430867672, 0.01747741922736168, 0.019280079752206802, 0.02005722001194954, 0.2035522311925888, -0.05075731873512268, 0.05789414420723915, 0.32910677790641785, -0.6550001502037048, 0.01602952927350998, 0.03656892478466034, 0.29123052954673767, 0.2751602828502655, -0.08448144048452377], [0.41849061846733093, 0.12802113592624664, -0.22635629773139954, 0.2724345028400421, 0.004861949943006039, 1.5192469358444214, -0.29728764295578003, 0.8613807559013367, 0.5835997462272644, 0.3819565176963806, -0.7108062505722046, 0.039275288581848145, -0.09222826361656189, 0.6052712202072144, -0.13250520825386047], [0.025458069518208504, -0.3040577471256256, 0.12746073305606842, -0.22810152173042297, -0.024284731596708298, 0.12924450635910034, -0.7369093298912048, 0.10857951641082764, -0.01852341927587986, 0.01574612595140934, 0.1207486167550087, -0.22711816430091858, 0.5996537208557129, 0.14030605554580688, -0.11051584035158157], [-0.03190736845135689, -0.06753727048635483, 0.09972160309553146, 0.029636837542057037, 0.03772557154297829, -0.005914931185543537, -0.12851248681545258, 0.06628697365522385, 0.0255423691123724, -0.1655196249485016, -0.410910427570343, 0.07830508798360825, 0.31734931468963623, -0.16319087147712708, -0.09419719129800797], [-0.185800239443779, 0.013206598348915577, -0.06173563748598099, 0.07130800187587738, -0.15485098958015442, -0.5792483687400818, 0.6994487047195435, -0.06311885267496109, 0.013734295032918453, 0.009520412422716618, -0.152520090341568, -0.07968419790267944, 1.0306618213653564, -0.7056275606155396, 0.1588270217180252], [0.23602794110774994, 0.11042072623968124, -0.1887526661157608, -0.019290974363684654, -0.06535810232162476, 0.06699418276548386, -0.07722671329975128, -0.38420459628105164, -0.5794253945350647, -0.241665780544281, 0.4533441960811615, 0.15494942665100098, 0.7712780833244324, 0.16227270662784576, -0.0450180321931839], [0.1855386197566986, 0.2823617458343506, -0.08839390426874161, -0.0012938282452523708, -0.06439521908760071, -0.38153788447380066, 0.22103890776634216, -0.16459020972251892, -0.1212262362241745, 0.05386873707175255, 0.38055214285850525, 0.2644962966442108, -0.24592168629169464, -0.11706981062889099, -0.06746543198823929], [0.06588982045650482, 0.0846448466181755, -0.29119452834129333, 0.09857340157032013, 0.46508413553237915, 0.5648373961448669, 0.2817860245704651, 0.20878562331199646, -0.34317997097969055, -0.11658681929111481, -0.4919049143791199, 0.651613712310791, 0.11130224168300629, -0.6756759881973267, -0.42702868580818176], [-0.07492543756961823, -0.030940907076001167, -0.09205169230699539, -0.008535648696124554, 0.05100582540035248, -0.4435729682445526, -0.02000843919813633, 0.5985211133956909, -0.24577394127845764, -3.1121554374694824, 0.45746520161628723, -0.2924570143222809, 0.2201744019985199, -0.01720484159886837, -0.27129581570625305], [0.21217864751815796, 0.3066781461238861, -0.11029177904129028, 0.11683371663093567, 0.327142596244812, 0.6909926533699036, 0.6215344071388245, -0.01230065431445837, 0.12033261358737946, 0.13334393501281738, -0.2613167464733124, 0.2615227997303009, -0.11620106548070908, 1.1231489181518555, -0.1342540830373764], [0.12329795211553574, -0.06092388182878494, 0.11644627898931503, -0.018761135637760162, -0.08527638018131256, 0.42126742005348206, -1.4128694534301758, -0.2301185578107834, 0.7243638038635254, -0.3755800127983093, 0.2536963224411011, -0.36472010612487793, -0.5721659064292908, 0.7201839089393616, -0.08987371623516083], [-0.003107415046542883, 0.24533462524414062, -0.018647590652108192, -0.09678201377391815, -0.1247183158993721, -0.15520407259464264, 0.05906670540571213, -0.08944877982139587, 0.2239423394203186, 1.0159296989440918, 0.09209391474723816, -0.005321861710399389, 0.6279687881469727, -0.36582136154174805, -0.03667168319225311], [0.09147746860980988, -0.11085613071918488, -0.08885978162288666, -0.09394174069166183, -0.03235883638262749, 0.7749289274215698, 0.4146278202533722, -0.17493200302124023, 0.4549059569835663, 0.40515515208244324, 0.5119336843490601, 0.5291739702224731, 0.3607446849346161, -0.18432267010211945, -0.2990705668926239], [0.024540217593312263, 0.017443720251321793, -0.0844184011220932, 0.004639554303139448, -0.03129356727004051, 0.1055828109383583, 0.22964975237846375, 0.2285289466381073, 0.10248181223869324, 0.21873536705970764, 0.30035266280174255, 0.15087959170341492, -0.18039855360984802, -0.09279569983482361, 0.19809842109680176], [0.060344696044921875, 0.16863593459129333, 0.09563092142343521, 0.03032837063074112, -0.16426146030426025, -0.0651223435997963, -0.1949744075536728, 0.07969721406698227, 0.006560338661074638, 0.6504412293434143, -1.0670270919799805, -0.3462629020214081, 1.0893844366073608, 0.2712516486644745, 0.4620558023452759], [-0.023758383467793465, -0.1617303192615509, 0.11984624713659286, -0.007492735516279936, 0.17679926753044128, -0.05416301265358925, 0.26515576243400574, -0.4848574697971344, 0.030545415356755257, -0.070261649787426, -0.4301012456417084, 0.001854266389273107, -0.008836708031594753, 0.125039204955101, -0.0036945047322660685], [0.08531592041254044, -0.08564091473817825, 0.03380988538265228, -0.3522321283817291, 0.1393604874610901, -0.24843145906925201, 0.005452343728393316, -0.028638603165745735, 0.3383181393146515, 0.2862389087677002, -1.4584999084472656, 0.28290683031082153, 0.4699154198169708, 0.13239605724811554, 0.20431220531463623], [0.1605551540851593, 0.26603296399116516, 0.3287423253059387, -0.03783097490668297, -0.08068811893463135, 0.4792989194393158, 0.6372307538986206, 0.380869597196579, 0.3448280990123749, -0.30089110136032104, -0.936644434928894, -0.18172696232795715, -0.3413466215133667, 0.029525842517614365, -0.1252739578485489], [-0.10714291781187057, -0.03194860741496086, -0.31683123111724854, -0.4066653549671173, 0.10226298123598099, 0.04322502017021179, 0.19309517741203308, -0.023301368579268456, -0.34411942958831787, 0.004464451689273119, 0.23331336677074432, -0.031886935234069824, 0.05322979763150215, -0.10758603364229202, -0.0610942505300045], [0.17526158690452576, 0.4507392942905426, -0.07452629506587982, -0.2424117624759674, 0.18736255168914795, -0.75493985414505, 0.007609242107719183, 0.43160438537597656, -0.24737951159477234, 0.1449744999408722, -0.4352357089519501, 0.21522508561611176, -0.6561453938484192, 0.5038869976997375, -0.274345338344574], [0.017127342522144318, 0.47287654876708984, -0.23217293620109558, 0.13216909766197205, 0.13545086979866028, 0.39524611830711365, -0.03251428157091141, 0.13724063336849213, -0.6408884525299072, -0.4839128255844116, 0.09478282928466797, -0.4715346097946167, 0.0791715607047081, 0.7769505977630615, 0.16165389120578766], [0.3099892735481262, -0.3066839873790741, -0.07805182039737701, -0.005603931378573179, -0.06768769770860672, -0.05715830624103546, -0.3635604977607727, -0.10300078988075256, -0.7207821011543274, 0.00043814352829940617, 0.1128430962562561, -0.41302618384361267, -0.4188658595085144, 0.05281310901045799, -0.1664167046546936], [0.1807078868150711, 0.15797393023967743, -0.053834982216358185, 0.031202265992760658, -0.16893595457077026, 0.3632332384586334, 0.2360384464263916, 0.14513081312179565, 0.7058319449424744, 0.4298774003982544, -0.8356491327285767, 0.732447624206543, -0.7120112180709839, 1.0603621006011963, -0.08025963604450226], [-0.18025459349155426, 0.1676437109708786, 0.10448948293924332, 0.22038774192333221, 0.1407383233308792, -0.04383152723312378, 0.018177660182118416, 0.38379567861557007, 0.3428245782852173, -0.5988342761993408, -0.7764765024185181, -0.33235493302345276, 0.15877696871757507, 0.36802151799201965, -0.0753091350197792], [-0.06354206800460815, -0.17555896937847137, 0.14629922807216644, 0.07755879312753677, 0.01863211579620838, -0.31150883436203003, -0.45699846744537354, 0.15829722583293915, 0.16101184487342834, 0.24307262897491455, 0.33447179198265076, -0.40272030234336853, 0.38774362206459045, -0.42464083433151245, -0.010569716803729534], [0.09755804389715195, 0.02006402239203453, -0.2066202163696289, -0.1955493688583374, -0.034567441791296005, 0.009010790847241879, -0.14365476369857788, -0.04290154203772545, -0.573131799697876, -0.03732696920633316, 0.2629314959049225, -0.25853678584098816, -1.3145698308944702, -0.19412927329540253, -0.015842851251363754], [0.07400433719158173, -0.38184985518455505, -0.33723899722099304, -0.21173885464668274, -0.37774860858917236, -0.6782847046852112, -0.5252299308776855, -0.15018156170845032, -0.2592804729938507, 0.23701708018779755, 0.05651651322841644, 0.8144959807395935, -0.8414273262023926, -0.43820637464523315, -0.4849630296230316], [-0.006652411539107561, 0.125632181763649, -0.5141996145248413, 0.029211534187197685, -0.21990497410297394, 0.3954838514328003, 0.38825350999832153, 0.3353291451931, -0.20847974717617035, 2.3295223712921143, 0.8193747401237488, -0.19164974987506866, 0.4003555476665497, -0.1248953640460968, 0.21715053915977478], [-0.014944127760827541, 0.0076364073902368546, -0.07683047652244568, -0.04413416236639023, 0.020883502438664436, 0.22983340919017792, -0.0695185735821724, 0.09076271206140518, 0.17296202480793, 1.070860505104065, 0.10992389172315598, 0.2605345845222473, 0.11324403434991837, -0.02706022374331951, -0.03491261973977089], [-0.3509143590927124, 0.10235762596130371, -0.05518621206283569, 0.13381138443946838, -0.4103699326515198, 0.4431024193763733, -1.4684008359909058, -0.021280799061059952, 0.5244777202606201, -0.2625865638256073, 0.2497314065694809, -0.03466114401817322, -0.3332614004611969, -0.6422792673110962, -0.4295055866241455], [0.0710238516330719, 0.10092422366142273, 0.03802841156721115, -0.34180164337158203, -0.1114862784743309, -0.3100457787513733, 0.20515742897987366, -0.20174719393253326, 0.7690109610557556, 0.08847465366125107, 0.7702237963676453, -0.427582323551178, -0.24620892107486725, -0.0655883327126503, 0.004302453249692917], [0.2361556887626648, 0.08849481493234634, -0.051311831921339035, -0.1960335671901703, -0.0071755265817046165, -0.625785231590271, 0.5645830631256104, -0.20139679312705994, 0.8033245205879211, 0.5772858262062073, 0.3848148286342621, -0.3233445882797241, 0.2889866530895233, 0.335522323846817, 0.08510667830705643], [-0.1780441850423813, -0.5300084948539734, -0.44158264994621277, -0.27899080514907837, -0.027220290154218674, 0.17398348450660706, -0.08109790831804276, -0.11895277351140976, 0.0024620098993182182, -0.1477818638086319, 0.48520705103874207, -0.26113879680633545, -0.2819285988807678, -0.6957915425300598, 0.14551550149917603], [0.03595789894461632, -0.05967484414577484, 0.11272791773080826, -0.05084116384387016, -0.01394453551620245, 0.0067587182857096195, 0.1939670592546463, 0.05236653983592987, 0.13804161548614502, -0.1545976996421814, 0.020210839807987213, 0.08072807639837265, 0.08027783036231995, 0.026647765189409256, 0.06710819900035858], [-0.08218076080083847, -0.44321638345718384, -0.22538208961486816, 0.015379049815237522, 0.00035557776573114097, -0.22318704426288605, -0.5151023864746094, 0.6108583807945251, 0.43538349866867065, 0.36369726061820984, 1.2356864213943481, -0.5910999774932861, -0.41328486800193787, -0.2814546227455139, 0.4207436144351959], [0.18714074790477753, -0.03625703975558281, 0.018223991617560387, -0.06548432260751724, 0.153085395693779, 0.4923711121082306, 0.41087937355041504, -0.276365727186203, 0.3674185872077942, -0.8978081941604614, 0.1827145367860794, -0.024397924542427063, -2.23028302192688, 0.6327120065689087, -0.07981708645820618], [-0.08368202298879623, -0.010992458090186119, 0.0197028536349535, -0.09748193621635437, 0.0769961029291153, -0.13501320779323578, 0.00486117135733366, 0.07639209926128387, 0.18468494713306427, 0.11964736133813858, -0.25759032368659973, 0.1467055082321167, 0.3319358229637146, 0.16210906207561493, -0.17623059451580048], [-0.0030614505521953106, 0.2557305693626404, -0.23594237864017487, -0.12139644473791122, -0.19407230615615845, 0.3137279450893402, 0.21190597116947174, -0.15086455643177032, -0.2949022650718689, -0.12076738476753235, 0.2749035954475403, 0.048473555594682693, 0.6007940173149109, -0.14823779463768005, 0.2817848324775696], [-0.4418316185474396, -0.4616173803806305, -0.007512706331908703, -0.04004336893558502, 0.21541427075862885, 0.7736618518829346, 0.02468174137175083, -0.31661108136177063, -0.6096842885017395, 0.11035694926977158, 0.49313318729400635, -0.3190634548664093, -1.1805577278137207, -1.252344012260437, -0.10762450844049454], [-0.268710732460022, -0.1336517035961151, -0.2369316667318344, -0.1331290304660797, 0.10677844285964966, -0.08421524614095688, -0.08227631449699402, 0.12747663259506226, -0.27509036660194397, -0.057708047330379486, -0.50368332862854, -0.30740076303482056, -0.9142593741416931, 0.38282573223114014, 0.5033373832702637], [0.19685904681682587, -0.02278972789645195, 0.06028450280427933, -0.20229604840278625, 0.2271617352962494, -0.06973274052143097, -0.39076587557792664, -0.2564327120780945, -0.7176557779312134, -0.04864960536360741, -0.365229994058609, -0.05881964787840843, -1.296494722366333, -0.2431565821170807, -0.187361478805542], [-0.1287885159254074, -0.16332031786441803, -0.0934731513261795, -0.030149731785058975, 0.053013402968645096, 0.12957458198070526, -0.153326615691185, -0.25415608286857605, -0.2268102616071701, -0.2789464294910431, 0.3944959342479706, -0.2625715434551239, 0.6259154677391052, -0.5040228366851807, -0.06551388651132584], [-0.14819055795669556, 0.022852707654237747, -0.042377933859825134, -0.13406135141849518, 0.04774054139852524, -0.15440288186073303, -0.34652701020240784, -0.017576467245817184, 0.4485694169998169, 0.053634874522686005, 0.33846309781074524, 0.050889819860458374, -0.11131583899259567, -0.06669493764638901, -0.076658695936203], [0.14427347481250763, -0.4462723433971405, 0.3087574243545532, 0.054115939885377884, -0.011671623215079308, 0.3027825355529785, -1.963451862335205, -0.14855578541755676, 1.2166804075241089, -0.6693829298019409, -0.8008139729499817, -0.8094029426574707, -0.10419993102550507, -0.035457029938697815, -0.10426179319620132], [-0.2707587778568268, 0.4115801453590393, -0.026722179725766182, -0.04775825887918472, -0.11103523522615433, 0.6524273157119751, -0.33023014664649963, -0.14683490991592407, 0.01660291850566864, 0.2838081121444702, 0.497341513633728, 0.039795588701963425, 1.0712519884109497, -1.0871875286102295, -0.3575465977191925], [0.04318463057279587, 0.31264564394950867, -0.045285359025001526, -0.12428417056798935, -0.15310564637184143, 0.5753151178359985, -0.4971156716346741, -0.28818604350090027, 0.534345805644989, -0.04360455647110939, 0.6946642994880676, 0.0005242527113296092, -0.7350159287452698, -0.2944204807281494, 0.11677362024784088], [-0.19827066361904144, 0.23092706501483917, 0.024813314899802208, 0.011836174875497818, -0.018852710723876953, -1.7852303981781006, 1.4697519540786743, 0.2263980656862259, 0.9487103223800659, 0.28429797291755676, 0.052487537264823914, 0.33345091342926025, 0.24911688268184662, 0.06229308247566223, -0.09722477942705154], [-0.023704398423433304, 0.19064579904079437, -0.23698870837688446, -0.004322459921240807, -0.05496229603886604, 0.9736434817314148, 0.07342913001775742, 0.7111856341362, -0.42158612608909607, -3.4548425674438477, 0.23524995148181915, -0.16714933514595032, 0.08931837975978851, -0.11545246839523315, -0.19300127029418945], [-0.30914485454559326, 0.035007674247026443, -0.30976006388664246, 0.16300275921821594, 0.2595904767513275, -0.07515735924243927, 0.09251759946346283, 0.28115198016166687, -0.5655452609062195, -0.3377690613269806, -0.015344789251685143, -0.33661526441574097, -0.030746378004550934, -0.2945301830768585, -0.2705181837081909], [0.03620104864239693, -0.1051013320684433, 0.16485124826431274, 0.005086500663310289, 0.21346288919448853, 0.059511102735996246, 0.09416451305150986, -0.06215018406510353, -0.22865915298461914, -0.08755659312009811, -0.44889432191848755, -0.2360580712556839, -0.5389572381973267, -0.5452003479003906, 0.015816615894436836], [0.061676762998104095, 0.21674844622612, 0.12412455677986145, -0.006170560605823994, -0.16685903072357178, -0.4746377170085907, -0.6803820729255676, -0.04367317631840706, -0.05703616514801979, -0.24817778170108795, 0.1654168963432312, -0.2788069248199463, -0.9944096207618713, 0.881543755531311, 0.12717247009277344], [-0.16119326651096344, 0.02264835312962532, -0.2789965271949768, 0.020545579493045807, 0.3063795566558838, -0.2449927031993866, -0.10191448032855988, 0.22572512924671173, 0.06702616810798645, -1.4267600774765015, -0.3112806975841522, 0.33280161023139954, 0.08407718688249588, -0.05710570886731148, 0.18413889408111572], [-0.2623561918735504, 0.35636213421821594, -0.35847312211990356, 0.41664427518844604, -0.1267038881778717, 0.4353170096874237, 0.08249823749065399, 0.20723199844360352, -0.3803252875804901, -0.29443174600601196, 0.1603289246559143, 0.02829114906489849, 0.2950022220611572, -0.31517934799194336, -0.29470935463905334], [-0.06881116330623627, -0.08497542142868042, 0.002554673235863447, 0.21893104910850525, -0.03910726681351662, 1.211211085319519, -0.18981586396694183, 0.08759211748838425, 0.2564656138420105, 0.4496319591999054, 0.06702015548944473, -0.10148589313030243, 0.8131695985794067, 0.6450986862182617, -0.29165953397750854], [0.10048048198223114, -0.10466823726892471, -0.28312966227531433, 0.09217174351215363, -0.1429266333580017, -0.1385999619960785, -0.3847062885761261, -0.05391351506114006, -0.45465484261512756, -0.24463342130184174, 0.31515711545944214, -0.7657080888748169, -1.6170296669006348, -1.2790231704711914, 0.25902384519577026], [-0.011553959921002388, 0.16835786402225494, 0.014874154701828957, -0.1025281548500061, 0.19169244170188904, -0.017937568947672844, 0.40253812074661255, 0.001962939277291298, -0.2257726937532425, 0.09529593586921692, 0.15994323790073395, -0.24949055910110474, 1.0888053178787231, 0.34993839263916016, -0.23867075145244598], [0.06961554288864136, 0.06503235548734665, 0.04595204070210457, -0.06553013622760773, -0.05220658704638481, -0.43968167901039124, -0.14112095534801483, 0.0966351181268692, 0.22787663340568542, 0.09036945551633835, 0.3105340898036957, 0.10715491324663162, -0.025904236361384392, -0.28159192204475403, -0.0497814305126667], [0.019082289189100266, 0.09207751601934433, 0.0170542411506176, 0.12566591799259186, -0.007238927762955427, 0.6283669471740723, 0.10787558555603027, 0.11224862188100815, 0.4630589485168457, -0.6127070188522339, -0.0883013978600502, 0.11399554461240768, -0.5943741202354431, 1.0223016738891602, -0.26628515124320984], [0.15352192521095276, 0.22064630687236786, -0.2172493189573288, 0.07920800149440765, 0.013186990283429623, 0.7438430190086365, 0.3774687945842743, 0.0503833070397377, 0.044923085719347, -0.954290509223938, -0.32471197843551636, 0.19372932612895966, 0.9147660732269287, -0.06626769155263901, 0.20839770138263702], [-0.12749092280864716, -0.05900096893310547, -0.1000487431883812, 0.09740668535232544, -0.04888700693845749, -0.15658241510391235, -0.007549996487796307, -0.1314583420753479, -0.6651384830474854, -0.0974554643034935, -0.055817119777202606, -0.2922634482383728, -0.13436442613601685, -0.17134617269039154, -0.17864523828029633], [-0.17556582391262054, 0.24506226181983948, -0.06493576616048813, 0.3466549813747406, -0.0012571130646392703, -1.2172884941101074, 0.714316189289093, 0.23866045475006104, 0.6305986642837524, 1.286935806274414, 0.7145412564277649, -0.7336278557777405, 0.8584879040718079, 0.6752787828445435, -0.2562677562236786], [0.12827278673648834, 0.07351355999708176, 0.06717626005411148, -0.11041908711194992, 0.07118333131074905, 0.07222066819667816, 0.23011082410812378, -0.3034803569316864, -0.3027096390724182, -0.17642958462238312, 0.19183336198329926, -0.34695950150489807, 0.30294862389564514, -0.661022424697876, 0.102105513215065], [0.012842042371630669, -0.3630865216255188, -0.2581811249256134, -0.1423754245042801, 0.5790544152259827, -0.06311102956533432, -0.7120705246925354, -0.02276047319173813, 0.20592693984508514, -0.3530799150466919, 0.3830326199531555, -0.1108328327536583, -0.30938613414764404, 0.5518068671226501, 0.011431646533310413], [-0.3395044207572937, -0.26618149876594543, 0.09463679790496826, -0.06548156589269638, 0.08770930767059326, -0.9692696332931519, 1.1918946504592896, -0.1173292025923729, 0.9036491513252258, -1.4735585451126099, -0.4285615384578705, 0.033965978771448135, 0.26400578022003174, 0.0514746829867363, 0.03879852965474129], [-0.24188022315502167, -0.24356454610824585, -0.08280884474515915, 0.21249251067638397, -0.007753402926027775, -0.27189692854881287, -0.4440268576145172, 0.5908529162406921, 0.24068580567836761, 1.6050848960876465, 0.08889791369438171, 0.046217553317546844, -0.17170007526874542, 0.16731835901737213, 0.16555149853229523], [-0.0050774975679814816, 0.08204478770494461, -0.08953793346881866, 0.23185113072395325, 0.0059227547608315945, 0.7378911375999451, -0.015447903424501419, -0.24972519278526306, 0.2999627888202667, -0.07089167833328247, 0.5288172364234924, 0.21419091522693634, -0.13156409561634064, 0.30849072337150574, 0.06959713250398636], [0.25391456484794617, 0.04361278936266899, 0.07298982888460159, 0.06923133134841919, -0.3291502296924591, 0.66591876745224, 0.18593890964984894, -0.17320263385772705, 0.6811903119087219, -0.06268756091594696, -0.006460811011493206, -0.01703776977956295, 0.9732783436775208, 0.7448254823684692, -0.6772040128707886], [0.35150954127311707, 0.16758888959884644, 0.10788565874099731, 0.37125423550605774, 0.0794682726264, 0.23538175225257874, 0.6010565161705017, 0.33135947585105896, 0.2700898051261902, -0.18112275004386902, -1.5778645277023315, -0.4326828420162201, 0.18914973735809326, 0.5119369029998779, 0.14013856649398804], [0.13588491082191467, 0.009626397863030434, -0.037061452865600586, 0.16473090648651123, 0.030497755855321884, 0.1951039582490921, 0.796671986579895, -0.5265041589736938, 0.007482355926185846, -0.11010833084583282, -0.1387661099433899, 0.15825147926807404, 0.37098753452301025, 0.33675822615623474, 0.30861806869506836], [0.11716865003108978, -0.1452055126428604, -0.18797080218791962, -0.40461835265159607, 0.16944235563278198, -1.8145579099655151, -0.19589115679264069, 0.7266245484352112, 0.4405171275138855, -0.05365179479122162, 0.20088544487953186, 0.26971516013145447, -0.09506618976593018, 0.27166497707366943, -0.1448092758655548], [0.05223537236452103, -0.2658289670944214, 0.07576148957014084, 0.018823498860001564, 0.04180821776390076, -0.08307740837335587, -0.13449576497077942, 0.13163146376609802, -0.17134997248649597, -0.6904601454734802, -0.5234123468399048, -0.150601327419281, -0.10349518060684204, 0.1411300152540207, 0.15223243832588196], [-0.1248057410120964, -0.3340706527233124, 0.1010405495762825, -0.18859648704528809, -0.056248851120471954, -0.08348700404167175, 0.739660918712616, -0.8006962537765503, 0.6497387886047363, 0.27244800329208374, -0.23696309328079224, 0.28931912779808044, 0.48104503750801086, -0.5870088934898376, -0.1715158373117447], [-0.36806410551071167, 0.041621554642915726, -0.25443515181541443, 0.10355795174837112, -0.0035690052900463343, -0.02520875446498394, -0.2008971869945526, -0.48099374771118164, -0.14102578163146973, -0.16245722770690918, 0.41854581236839294, -0.10897073894739151, -0.4737245440483093, -1.1411774158477783, 0.1384454369544983], [-0.1648356169462204, 0.6200275421142578, -0.13371708989143372, 0.23784960806369781, -0.11373533308506012, 0.29297882318496704, 1.1708966493606567, -0.4450049102306366, 0.629929780960083, 0.7760680317878723, 0.010426145046949387, -0.9426584243774414, -0.14092883467674255, 0.5965542793273926, -0.27991414070129395], [-0.06086204573512077, -0.033079229295253754, -0.10921645909547806, 0.1518467217683792, 0.13425368070602417, 0.15916123986244202, -0.1512739062309265, -0.0759788230061531, 0.11675732582807541, -0.003521337639540434, 0.13848333060741425, -0.3378174304962158, 1.226330280303955, -1.2042274475097656, 0.15613815188407898], [0.19751058518886566, -0.3006472587585449, -0.32660356163978577, 0.254291296005249, 0.23394836485385895, -0.0011924866121262312, -0.9911872148513794, 0.2079884111881256, 0.3201180696487427, -0.21380220353603363, 0.3700118362903595, 0.0794139951467514, 0.2807156443595886, 0.39599019289016724, -0.23237593472003937], [-0.0448349267244339, -0.22053635120391846, 0.02103218249976635, -0.02754794992506504, 0.08410704135894775, 0.19464793801307678, -0.3484203517436981, -0.2468661069869995, 0.09513110667467117, -0.8536078929901123, -0.08397135883569717, -0.48402711749076843, -0.3610134422779083, -0.6006975173950195, 0.28009629249572754], [-0.02783995121717453, 0.005353506188839674, 0.1284000426530838, -0.021242797374725342, -0.0035747154615819454, -0.4751123785972595, 0.23138496279716492, -0.3121214210987091, 0.3470156490802765, 0.009098922833800316, 0.003280501114204526, 0.4413977265357971, -0.9335664510726929, -0.7725471258163452, -0.21795512735843658], [0.03585745766758919, -0.17954470217227936, -0.13379749655723572, -0.0681004673242569, 0.07972602546215057, -0.06345684826374054, -0.356651246547699, 0.03223796933889389, -0.7303348779678345, -0.0725606307387352, -0.4768332839012146, -0.009664174169301987, 0.09441941976547241, -0.10311581194400787, -0.5912655591964722], [0.07150793075561523, -0.29158860445022583, -0.6958823800086975, -0.11270064860582352, -0.15848833322525024, -1.8261042833328247, 0.5898547172546387, 0.4312353730201721, -0.6113312840461731, -0.5692691802978516, 0.3917533755302429, 0.258873850107193, 0.06415446847677231, -0.19421933591365814, 0.383338063955307], [-0.1333623230457306, 0.1376299262046814, -0.24951604008674622, 0.2832295000553131, 0.09286442399024963, 1.9846315383911133, 0.30698060989379883, 0.3096742033958435, -0.18514996767044067, 0.5362071394920349, 0.29727765917778015, -0.20720267295837402, -0.4928377866744995, 0.8479202389717102, 0.03936439007520676], [-0.09547973424196243, 0.09487544000148773, -0.13136953115463257, -0.0884714350104332, 0.09805389493703842, -0.1373143345117569, 0.0530642569065094, 0.0278706643730402, -0.2042774260044098, 0.2517472803592682, 0.35693037509918213, -0.00397205026820302, -0.3816586434841156, -2.0906925201416016, -0.23534058034420013], [-0.1923043578863144, -0.25891315937042236, -0.21784766018390656, 0.1807681769132614, 0.020946811884641647, 0.19610607624053955, -0.2703222930431366, 0.205478698015213, 0.04163191467523575, -0.17208053171634674, 0.058837272226810455, 0.0805126503109932, -0.6615081429481506, 0.6511923670768738, -0.0005230935639701784], [0.1431354433298111, -0.419193834066391, -0.010701234452426434, -0.01170988380908966, -0.026298334822058678, -0.608218252658844, -0.14757448434829712, -0.25659096240997314, -0.20906448364257812, 0.3072100281715393, 0.060247376561164856, -0.43836918473243713, 0.4069017469882965, -0.27474695444107056, -0.14659754931926727], [0.04492732882499695, -0.05472516641020775, 0.019671445712447166, -0.01677224226295948, -0.020791178569197655, 0.2586657702922821, -0.23701027035713196, -0.12887537479400635, 0.3384828269481659, -0.7551952600479126, -0.24789947271347046, 0.2252952605485916, -0.602672278881073, -0.5070798397064209, -0.12532438337802887], [0.11756693571805954, -0.009247652254998684, -0.002330231247469783, 0.2220652997493744, -0.026813827455043793, -0.5061069130897522, 0.2556873857975006, -0.07651813328266144, 0.31682997941970825, 0.620653510093689, 0.140106663107872, -0.46678075194358826, -1.5743995904922485, -0.7846193313598633, -0.07928185909986496], [-0.014200170524418354, -0.03320534899830818, 0.1252782642841339, 0.009368023835122585, 0.12628763914108276, 0.7491503953933716, -0.24829301238059998, 0.11699283123016357, 0.5945886373519897, 0.48083508014678955, -0.3366590738296509, 0.07887178659439087, -0.20024710893630981, 0.09449329227209091, -0.516128659248352], [0.15196369588375092, 0.27330565452575684, -0.16134405136108398, 0.36379194259643555, -0.061740707606077194, 1.0812404155731201, 0.037484318017959595, 0.4452156722545624, 0.9715459942817688, -0.5586854219436646, -1.6816210746765137, 0.2514092028141022, 0.0415305569767952, -0.7916678786277771, 0.051814399659633636], [0.4173068702220917, 0.20231422781944275, -0.0903644934296608, -0.039449285715818405, -0.02684311755001545, 1.8494683504104614, 0.6032397150993347, 0.35601529479026794, 0.8928897976875305, 0.5309466123580933, -0.46956026554107666, 0.35548004508018494, 0.009191710501909256, -0.3669654428958893, 0.11126480996608734], [-0.0214723888784647, -0.15941530466079712, 0.011492024175822735, 0.11472390592098236, 0.020474130287766457, -0.37820324301719666, 0.18767313659191132, -0.38316038250923157, -0.03315567225217819, -0.043556395918130875, 0.527531087398529, 0.21300271153450012, 0.14693275094032288, -0.7483853101730347, 0.0493043027818203], [-0.18077470362186432, -0.012063875794410706, 0.0602920837700367, 0.09238236397504807, -0.13098759949207306, -0.2954655885696411, -0.19823722541332245, -0.047758862376213074, -0.09886381775140762, -0.6073905825614929, -0.49884432554244995, -0.3096693158149719, 0.10131076723337173, 0.6272794604301453, -0.0545460470020771], [-0.02956416830420494, 0.0715707466006279, 0.09867160767316818, -0.030607499182224274, 0.10309959203004837, 0.19380100071430206, -0.10613769292831421, -0.35119572281837463, -0.42628490924835205, -0.17927250266075134, 0.15030431747436523, 0.2715376913547516, 0.1596357375383377, -0.10756517946720123, 0.0906253233551979], [-0.1269780695438385, -0.34324342012405396, 0.12091521173715591, 0.008427219465374947, -0.04267801716923714, -0.09259844571352005, -1.8670798540115356, -0.22225582599639893, 1.0023831129074097, 0.5919914841651917, 0.2677295506000519, -0.469723105430603, 0.11086585372686386, 0.5825168490409851, -0.42647331953048706], [-0.10619698464870453, -0.17203688621520996, -0.15570619702339172, 0.15881779789924622, 0.03619874268770218, 0.04465608298778534, 0.23220869898796082, -0.3550185263156891, -0.23904502391815186, -0.03555690497159958, 0.2015199065208435, 0.27594295144081116, 0.06791279464960098, -0.3663642704486847, 0.14506666362285614], [0.09972791373729706, -0.10670863837003708, 0.14484192430973053, -0.025695810094475746, 0.020954472944140434, 0.658996045589447, -1.119762659072876, 0.5309357047080994, 0.7464215159416199, 0.06927495449781418, 0.19178996980190277, -0.3717105984687805, 0.004737704060971737, 0.1916319727897644, 0.06260575354099274], [-0.09292319416999817, 0.003887948812916875, -0.39094245433807373, 0.12587180733680725, -0.21853883564472198, 0.19938988983631134, -0.06854909658432007, -0.07456118613481522, 0.008209764026105404, -0.053756292909383774, 0.32909828424453735, 3.635241955635138e-05, 1.4027472734451294, -0.33152100443840027, 0.19139334559440613], [0.018894195556640625, 0.03134113922715187, 0.0216166153550148, 0.010401959531009197, -0.009554600343108177, 0.4065327048301697, 0.3919782340526581, -0.2984025776386261, -0.029068557545542717, -0.2532811164855957, 0.20207150280475616, 0.29608219861984253, -0.22810490429401398, -0.13627660274505615, 0.08508048951625824], [0.13976573944091797, -0.19832660257816315, 0.06694726645946503, -0.06384675949811935, -0.09106592833995819, -0.0990198478102684, 0.11237457394599915, 0.07821915298700333, -0.16722436249256134, -0.5343922972679138, -0.2451837956905365, 0.05612589046359062, -0.33818620443344116, 0.2643093764781952, -0.1311446577310562], [0.1300121396780014, 0.12551811337471008, -0.16980323195457458, 0.009436695836484432, 0.25184422731399536, 0.1098792776465416, 0.2055346816778183, 0.10184524208307266, -0.44900786876678467, 0.040632832795381546, -0.08259294927120209, -0.2604890763759613, 0.09287483245134354, 0.09962644428014755, 0.2717374265193939], [-0.0992017388343811, 0.13750073313713074, 0.08222127705812454, -0.025639301165938377, 0.02626621350646019, -1.231682300567627, 0.2594982385635376, 0.30493298172950745, -0.05722436681389809, -0.02352427877485752, -0.1223430186510086, -0.09088928252458572, 0.21520307660102844, -0.13046590983867645, -0.06428065896034241], [0.05114975571632385, -0.04851267859339714, 0.06456943601369858, -0.10636301338672638, 0.03980860114097595, -0.1946343332529068, -0.08908665925264359, -0.18039894104003906, 0.10300551354885101, -0.4700901210308075, -0.04148494079709053, -0.17413358390331268, 0.05819648504257202, 0.32512807846069336, 0.13251642882823944], [-0.025978757068514824, 0.1301310807466507, -0.17772576212882996, -0.1418946087360382, -0.13159030675888062, -0.32044172286987305, -0.05721558257937431, 0.18541917204856873, 0.10693143308162689, 0.8634194135665894, 0.41143760085105896, 0.008767793886363506, 0.4892788231372833, -0.029526066035032272, -0.14364932477474213], [-0.16261523962020874, -0.1539044827222824, -0.1726747751235962, -0.12408272922039032, -0.16538041830062866, 0.3240586221218109, 0.49600064754486084, 0.5370803475379944, -0.3295941650867462, -0.2449716478586197, -1.0985673666000366, -0.3701428472995758, -0.8973560333251953, -0.08222932368516922, 0.13292770087718964], [-0.13579745590686798, -0.3422369956970215, 0.1339472234249115, -0.18273673951625824, 0.05247056484222412, 0.46460679173469543, 0.4990350604057312, 0.22032876312732697, 0.5391725301742554, -0.025289759039878845, -0.462439626455307, -0.9841512441635132, -0.2987889051437378, -0.12454932183027267, 0.1494157314300537], [0.18825730681419373, 0.2962965667247772, -0.05130542442202568, 0.014708442613482475, -0.05995757505297661, -0.2540908455848694, -0.7369628548622131, -0.05227087438106537, -0.1480795443058014, -0.3140857219696045, 0.3329939544200897, -0.06114332005381584, 0.9578342437744141, -0.0681338831782341, 0.11022905260324478], [0.12286998331546783, -0.013437478803098202, 0.04601044952869415, -0.14286816120147705, 0.06876010447740555, -0.0050228252075612545, 0.12505534291267395, 0.0071972026489675045, 0.009968255646526814, -0.08503028005361557, 0.2035353183746338, 0.13123385608196259, -0.19080862402915955, 0.25135573744773865, 0.13474738597869873], [-0.0009511698735877872, -0.1042918711900711, 0.1023566797375679, -0.046642005443573, 0.06517594307661057, -0.6874432563781738, -0.33248019218444824, -0.04209079220890999, 0.3849494755268097, 0.7699752449989319, 0.20673586428165436, -0.5011680722236633, -1.1348603963851929, -0.8498048782348633, -0.1426142156124115], [0.2202041745185852, -0.24565346539020538, -0.1437835693359375, 0.049417644739151, -0.4896225035190582, 0.7758045196533203, -0.6002217531204224, 0.6659630537033081, 0.4684157371520996, 0.5560857653617859, -0.17204439640045166, -0.3216748535633087, 0.6806990504264832, 0.04604450613260269, -0.20478402078151703], [-0.002960614627227187, -0.057847317308187485, 0.0723467469215393, 0.025291504338383675, 0.06395149230957031, -0.2782428562641144, 0.2718769311904907, 0.00203682784922421, 0.1780007928609848, -0.11772086471319199, 0.14003299176692963, 0.12900742888450623, 0.21174384653568268, 0.0819723978638649, 0.09609139710664749], [-0.08591052144765854, -0.010636704973876476, 0.059667181223630905, 0.01390125136822462, 0.015072017908096313, -0.15154114365577698, -0.36697202920913696, 0.3280380368232727, 0.4718249440193176, 1.1468608379364014, 0.19150780141353607, -0.1414158195257187, 0.02240813709795475, -0.27366167306900024, 0.03929176554083824], [-0.257934033870697, -0.6210123300552368, -0.26022303104400635, 0.09076089411973953, -0.1428080052137375, 0.8854609131813049, 0.9622724056243896, 0.753294050693512, -0.37838611006736755, -0.1107235997915268, -0.4057087004184723, -0.31555598974227905, -0.765030562877655, 1.576637864112854, -0.5662860870361328], [0.11796563118696213, -0.28775885701179504, -0.14644578099250793, 0.035417668521404266, 0.020905211567878723, 0.11722499877214432, -0.03455887362360954, 0.07950855046510696, -0.8744432926177979, -0.07598233968019485, -0.3344005346298218, -0.44571807980537415, 0.1565254181623459, -0.5803643465042114, -0.13992862403392792], [-0.1503898948431015, 0.008760703727602959, 0.13846009969711304, -0.059625525027513504, -0.17971689999103546, -0.610432505607605, 0.8587461113929749, -0.17359872162342072, -0.1156759187579155, -0.8451203107833862, -0.42995384335517883, -0.32817134261131287, 0.6754491329193115, 0.07795827835798264, -0.1383177787065506], [-0.044646184891462326, 0.08635753393173218, -0.20685672760009766, 0.2499733418226242, 0.01864277757704258, 0.34232479333877563, -0.13313432037830353, -0.20438310503959656, -0.6985215544700623, -0.24181634187698364, -0.04300049692392349, -0.07056080549955368, 0.7753201127052307, -0.054439153522253036, 0.19080616533756256], [0.3338813781738281, -0.14444643259048462, -0.13917438685894012, -0.029582852497696877, 0.045481596142053604, -0.16330747306346893, -0.33296382427215576, -0.002464498393237591, -0.36207470297813416, 0.40794259309768677, 0.20219044387340546, -0.26252278685569763, -0.42091915011405945, -0.42918115854263306, 0.23239056766033173], [0.046180326491594315, -0.10668371617794037, 0.11989377439022064, 0.11200333386659622, 0.08111942559480667, 0.038029760122299194, 0.0431504100561142, 0.18615251779556274, -0.003456417704001069, -0.36533787846565247, -0.06603526324033737, -0.5779681205749512, -0.38146328926086426, 0.5854870080947876, 0.04558075964450836], [0.31797975301742554, 0.21591433882713318, -0.17238201200962067, 0.16939465701580048, 0.052759598940610886, -0.18149498105049133, 0.27206310629844666, -0.26810285449028015, -0.7409053444862366, 0.020987648516893387, 0.5717505216598511, 0.1399512141942978, 0.3048328161239624, -0.9383200407028198, -0.12613807618618011], [-0.026433948427438736, -0.02688506431877613, 0.061170924454927444, 0.028814809396862984, 0.006532127968966961, -0.009199904277920723, 0.09335539489984512, -0.05788455531001091, 0.03898100182414055, 0.06460965424776077, -0.4843461811542511, -0.21433965861797333, -0.22086083889007568, 0.22142912447452545, 0.19513747096061707], [-0.07393557578325272, 0.13517305254936218, 0.006628562696278095, -0.18009638786315918, -0.1302286833524704, -0.4593348205089569, -0.21694737672805786, -0.06189354136586189, -0.24180138111114502, -0.2405870407819748, -0.5112074017524719, 0.38026371598243713, -0.44209760427474976, -0.049752894788980484, -0.06331834197044373], [0.15755467116832733, 0.09439972788095474, -0.1285887211561203, -0.009023383259773254, -0.008945864625275135, 