{
  "version": 1,
  "id": "u27_H16x2",
  "K": 4,
  "featureDim": 29,
  "inputMean": [
    0.005562088452279568,
    0.010740191675722599,
    -12.107275009155273,
    31.060359954833984,
    -0.007391314022243023,
    -0.0014237378491088748,
    532.5204467773438,
    -2.6612308025360107,
    0.464982271194458,
    -0.7509861588478088,
    -0.10860028117895126,
    -1.9606475830078125,
    0.18706649541854858,
    -1.641610860824585,
    -1.6478159427642822,
    -0.00996802281588316,
    0.008924822323024273,
    -0.004896283615380526,
    0.00541970320045948,
    -0.008952147327363491,
    0.0056013003922998905,
    -0.006117881741374731,
    -0.0008334347512573004,
    173.2367401123047,
    208.20065307617188,
    239.71226501464844,
    263.1102294921875,
    0,
    0
  ],
  "inputStd": [
    1.4483128786087036,
    1.4255748987197876,
    463.25140380859375,
    464.70733642578125,
    0.7176584601402283,
    0.6962109208106995,
    384.8221130371094,
    144.51588439941406,
    153.10362243652344,
    168.19386291503906,
    175.0343475341797,
    189.44021606445312,
    196.030029296875,
    204.62815856933594,
    212.96701049804688,
    0.7010394334793091,
    0.7129970192909241,
    0.7035136818885803,
    0.7106441855430603,
    0.7021756768226624,
    0.7119254469871521,
    0.6989261507987976,
    0.715167224407196,
    119.6740951538086,
    124.8169174194336,
    129.8355712890625,
    134.1865997314453,
    0.0010000000474974513,
    0.0010000000474974513
  ],
  "outputScale": 0.05,
  "clipMagnitude": 0.05,
  "layers": [
    {
      "inDim": 29,
      "outDim": 16,
      "activation": "relu",
      "W": [
        -0.6009706258773804,
        -0.478346586227417,
        0.1148490309715271,
        1.0248907804489136,
        1.8400688171386719,
        -2.4030933380126953,
        -2.5614168643951416,
        2.504424571990967,
        -0.4303780198097229,
        0.017419788986444473,
        -0.42110976576805115,
        -2.4519927501678467,
        2.0634491443634033,
        -1.0468497276306152,
        2.39699125289917,
        1.261911153793335,
        -1.7399427890777588,
        0.026443785056471825,
        -0.25277000665664673,
        -0.7829329371452332,
        0.4906085431575775,
        -2.4008407592773438,
        -2.2333662509918213,
        -2.1254961490631104,
        3.1402292251586914,
        0.003532442497089505,
        0.8199500441551208,
        -0.031142940744757652,
        -1.8883458375930786,
        -1.9008817672729492,
        -1.5002436637878418,
        1.3986566066741943,
        0.007768816780298948,
        0.014503533951938152,
        -0.0053549534641206264,
        0.0066065192222595215,
        -0.0015003234148025513,
        0.0025160121731460094,
        0.007855711504817009,
        -0.015074360184371471,
        0.001792680355720222,
        -0.002662175102159381,
        0.017429325729608536,
        -0.006058491766452789,
        0.015602457337081432,
        -0.00806466769427061,
        0.08484037965536118,
        0.0006053500692360103,
        0.009737570770084858,
        0.012183114886283875,
        -0.006120629142969847,
        -0.0692271739244461,
        0.025699293240904808,
        0.017208697274327278,
        -0.007612800225615501,
        0.01301780715584755,
        -0.031662311404943466,
        0.00635102204978466,
        0.013206439092755318,
        -0.03237045928835869,
        0.03487549349665642,
        0.006897320039570332,
        -0.01166699081659317,
        0.003263475839048624,
        -0.026916397735476494,
        -0.004135041497647762,
        0.06418205797672272,
        -1.567579746246338,
        -0.005234991200268269,
        2.8058838844299316,
        2.9605488777160645,
        -2.8390002250671387,
        0.4398888349533081,
        -0.00972607359290123,
        -0.0376015231013298,
        3.301563262939453,
        0.00893340166658163,
        -0.01484054233878851,
        -0.2700687050819397,
        -1.6031498908996582,
        0.023957088589668274,
        -0.03882667049765587,
        0.04109029099345207,
        1.888461947441101,
        0.007572699338197708,
        2.7335076332092285,
        2.5534920692443848,
        2.3750386238098145,
        -3.521993398666382,
        -0.0016694858204573393,
        0.0012026167241856456,
        0.31795015931129456,
        0.008834412321448326,
        -0.00010423854837426916,
        0.8970652222633362,
        -1.6243423223495483,
        -0.014357276260852814,
        0.014375637285411358,
        -0.01000206544995308,
        -0.00882639829069376,
        -0.02378208003938198,
        -0.0028078739996999502,
        0.0031015994027256966,
        -0.006888106465339661,
        0.0020241800229996443,
        -0.0050405170768499374,
        -0.014575855806469917,
        0.015346303582191467,
        -0.003954475279897451,
        0.010403995402157307,
        -0.03846525773406029,
        -0.003056364832445979,
        -0.2550276815891266,
        -3.6135470867156982,
        2.592411756515503,
        -0.025884373113512993,
        0.4443008005619049,
        -0.0006014038226567209,
        -0.008089658804237843,
        0.018664563074707985,
        -0.013572963885962963,
        0.28970009088516235,
        -0.2471509575843811,
        0.0027809003368020058,
        0.020605383440852165,
        -0.3357362449169159,
        0.02002507820725441,
        -0.01927868090569973,
        -1.0717871189117432,
        2.2695279121398926,
        -2.1526780128479004,
        0.014205214567482471,
        -0.09433533251285553,
        0.0028811704833060503,
        -0.0004990131710655987,
        0.0017137378454208374,
        0.018409935757517815,
        -0.8009154200553894,
        0.6148151755332947,
        0.01687943935394287,
        0.007479541469365358,
        -0.7776380777359009,
        -0.015750452876091003,
        -0.008982687257230282,
        0.02936183288693428,
        -0.03664842247962952,
        0.024628208950161934,
        0.023760568350553513,
        -0.016269825398921967,
        -0.001820848323404789,
        0.0010589075973257422,
        -0.004251490812748671,
        0.0012601199559867382,
        0.0056023928336799145,
        -0.04750809073448181,
        0.014764384366571903,
        0.050987277179956436,
        0.043788958340883255,
        0.05101815611124039,
        0.04291205480694771,
        0.04406103491783142,
        -0.08367621153593063,
        0.06294979155063629,
        -0.009999481961131096,
        0.008827335201203823,
        0.0039772032760083675,
        -0.0000894172044354491,
        -0.0012067519128322601,
        -0.004198029171675444,
        0.014368752017617226,
        -0.06336319446563721,
        -0.0022383106406778097,
        0.02742614783346653,
        0.022197838872671127,
        -0.009097440168261528,
        0.015048163011670113,
        0.028526172041893005,
        0.018510686233639717,
        -0.011673814617097378,
        0.010757101699709892,
        0.017985647544264793,
        0.0046749962493777275,
        0.0009990606922656298,
        -0.007378102280199528,
        0.0008851615712046623,
        -0.011040687561035156,
        0.02464994601905346,
        -0.01197664812207222,
        0.007398094050586224,
        0.031284745782613754,
        -0.036594800651073456,
        -0.002393435686826706,
        -0.018510770052671432,
        -0.027798404917120934,
        -0.002486425219103694,
        -0.011168059892952442,
        -0.02057408168911934,
        0.004644234664738178,
        -0.0008899402455426753,
        -0.0031961004715412855,
        -0.005617137067019939,
        -0.004895568359643221,
        0.03780452162027359,
        -0.017579030245542526,
        0.04410204291343689,
        0.00941429752856493,
        0.06217554211616516,
        0.0013559343060478568,
        -0.028253477066755295,
        0.01665777899324894,
        -0.015873726457357407,
        0.009038222953677177,
        -0.030550723895430565,
        -0.005026573780924082,
        -0.005793973337858915,
        0.014049545861780643,
        0.022500397637486458,
        0.0030399453826248646,
        0.00568743608891964,
        0.02034853585064411,
        -0.012542782351374626,
        0.017262212932109833,
        -0.04059069603681564,
        0.0022776336409151554,
        0.007059638854116201,
        0.020182795822620392,
        -0.011723180301487446,
        0.010812023654580116,
        -0.0031452926341444254,
        -0.0002909346658270806,
        -0.0029022255912423134,
        -0.007973887026309967,
        -0.011111689731478691,
        0.002922499319538474,
        -0.018336214125156403,
        -0.02075876295566559,
        0.014210118912160397,
        0.02878211811184883,
        0.07087764889001846,
        -0.009432894177734852,
        0.8024188280105591,
        2.0097107887268066,
        -1.1530091762542725,
        0.04264087229967117,
        -2.3286356925964355,
        -0.002049042610451579,
        0.005296939983963966,
        -0.01394995953887701,
        0.020023632794618607,
        -0.10651174187660217,
        0.6145945191383362,
        0.023211047053337097,
        -2.396369457244873,
        1.3420798778533936,
        0.05776491016149521,
        0.0196954607963562,
        2.4288218021392822,
        -1.008531928062439,
        1.1473747491836548,
        -0.035593196749687195,
        -0.5704010128974915,
        0.0026317003648728132,
        0.000009909531399898697,
        -0.0021981417667120695,
        -0.02929536998271942,
        0.29825493693351746,
        -1.110719919204712,
        -0.03278442099690437,
        2.3656511306762695,
        2.5650362968444824,
        0.10994400829076767,
        0.025318022817373276,
        -0.02826344594359398,
        0.039052583277225494,
        -0.0028498657047748566,
        -0.018372640013694763,
        0.008260983042418957,
        0.0026057830546051264,
        -0.004916216246783733,
        0.015283344313502312,
        -0.004413563758134842,
        0.004806331358850002,
        0.01625129207968712,
        -0.008271110244095325,
        -0.00861032959073782,
        -0.006591906305402517,
        -0.1058475524187088,
        -0.02545669488608837,
        -0.010954772122204304,
        0.016840849071741104,
        -0.026440393179655075,
        0.021467098966240883,
        -0.0025702558923512697,
        0.0018666456453502178,
        -0.0022012535482645035,
        0.010748620145022869,
        -0.0003765190194826573,
        -0.016577865928411484,
        0.03882569819688797,
        0.00410231901332736,
        -0.0009226692491210997,
        0.00852364394813776,
        -0.028765933588147163,
        -0.002094665775075555,
        0.015542121604084969,
        -0.005057705100625753,
        0.00042349041905254126,
        0.0018131692195311189,
        -0.010266567580401897,
        -0.002417720388621092,
        -0.0010696144308894873,
        -0.005553022492676973,
        -0.0040988377295434475,
        0.008158190175890923,
        0.0025908828247338533,
        0.007221010979264975,
        -0.012812855653464794,
        -0.015050637535750866,
        0.01240636222064495,
        0.014171621762216091,
        0.005515419878065586,
        -0.004119092598557472,
        -0.003106503514572978,
        0.02320515178143978,
        0.0017606435576453805,
        -0.007472709286957979,
        0.004409652668982744,
        0.0003253327449783683,
        0.0063211084343492985,
        -0.0016724601155146956,
        0.01214886549860239,
        0.01738804019987583,
        -0.01967543549835682,
        -0.014564028941094875,
        -0.061076246201992035,
        -0.0014232825487852097,
        0.007174710743129253,
        0.004217597655951977,
        0.016663933172822,
        -0.008500120602548122,
        0.028156554326415062,
        0.0003201393410563469,
        0.005458323284983635,
        -0.0051373629830777645,
        -0.03322712704539299,
        0.003304930403828621,
        -0.005847399588674307,
        -0.011009224690496922,
        0.019565816968679428,
        0.007351918611675501,
        0.04086684808135033,
        0.005783380009233952,
        0.0051116119138896465,
        -0.0387188121676445,
        0.022319970652461052,
        -0.0010563574032858014,
        -0.005138169042766094,
        -0.001527399756014347,
        0.002468195278197527,
        0.008283340372145176,
        0.005732256453484297,
        0.0004590957541950047,
        0.0031278617680072784,
        0.010438704863190651,
        -0.01941409893333912,
        -0.007793774362653494,
        -0.0592891164124012,
        0.027905520051717758,
        -0.33580905199050903,
        -3.949207067489624,
        -4.65482759475708,
        0.00404220400378108,
        -0.2987835109233856,
        -0.0018243431113660336,
        0.004934856668114662,
        -0.010905962437391281,
        -0.0008071012562140822,
        -7.514045715332031,
        0.6098366379737854,
        0.04349987208843231,
        -4.731001377105713,
        -0.5105342268943787,
        0.01593245007097721,
        -0.0034889790695160627,
        0.030208583921194077,
        -0.00007151145837269723,
        0.001465453184209764,
        -0.015303238295018673,
        -0.02468763291835785,
        0.015828970819711685,
        -0.005415916442871094,
        0.006840230897068977,
        -0.020675718784332275,
        0.00397191708907485,
        -0.021061502397060394,
        -0.03193002566695213,
        -0.018235385417938232,
        0.05224332958459854,
        -0.045943427830934525,
        0.0062160915695130825,
        0.01214118953794241,
        -0.009645793586969376,
        0.01484499592334032,
        0.013894813135266304,
        0.0488598495721817,
        -0.00417625205591321,
        0.0009376651141792536,
        -0.008470031432807446,
        0.010992069728672504,
        -0.0006110008107498288,
        -0.0018173468997702003,
        -0.008340874686837196,
        0.01620856486260891,
        0.005546673201024532,
        0.22217707335948944,
        0.00032491987803950906,
        0.0011458382941782475,
        -0.007907737046480179,
        0.011939575895667076,
        0.026421187445521355,
        -0.051647402346134186,
        -0.006275446154177189,
        0.00043610864668153226,
        0.00016386376228183508,
        -0.015077994205057621,
        -0.005255287513136864,
        0.0008957020472735167,
        0.019083432853221893,
        -0.014988251961767673,
        -0.007568249478936195,
        -0.19912195205688477,
        -0.015527309849858284,
        0.16043993830680847,
        0.043521080166101456,
        0.08171486109495163,
        0.28463098406791687,
        -0.5459160208702087,
        0.22960114479064941,
        -0.02222970500588417,
        -0.07806640863418579,
        -0.062402453273534775,
        -0.12869633734226227,
        0.3452437222003937,
        -0.26265591382980347,
        -0.3404843807220459,
        0.21474546194076538,
        -0.359992653131485,
        -0.21638961136341095,
        -0.5438955426216125,
        0.24607381224632263,
        0.3003716468811035,
        -0.33889272809028625,
        -0.013150460086762905,
        -0.043002042919397354,
        -0.22567348182201385,
        0.0357075035572052,
        -0.022846734151244164,
        -0.27270182967185974,
        -0.2297648936510086,
        -0.028251871466636658,
        -0.02208993025124073,
        -0.07461720705032349,
        -0.06536491215229034,
        0.16836202144622803
      ],
      "b": [
        -1.0995409488677979,
        -2.5585763454437256,
        -3.082744836807251,
        1.2665539979934692,
        -0.034794583916664124,
        0.07052566111087799,
        -0.23185959458351135,
        0.2430034726858139,
        0.24166390299797058,
        -5.776458263397217,
        0.8012470006942749,
        0.7473549246788025,
        -3.687044858932495,
        0.08554686605930328,
        -2.926651954650879,
        -0.09752295166254044
      ]
    },
    {
      "inDim": 16,
      "outDim": 16,
      "activation": "relu",
      "W": [
        0.18828755617141724,
        0.22670677304267883,
        1.0858430862426758,
        0.9769501090049744,
        -0.026646902784705162,
        0.1287304162979126,
        -1.0796223878860474,
        1.2604045867919922,
        0.0813588947057724,
        -0.03378136083483696,
        0.10158080607652664,
        0.07522150129079819,
        0.030433570966124535,
        -0.012801806442439556,
        0.020652487874031067,
        -0.02630927972495556,
        -0.2640538811683655,
        -0.42418068647384644,
        -0.8252438902854919,
        -0.5560622811317444,
        1.4099669456481934,
        0.40516960620880127,
        -0.4693744480609894,
        1.794951319694519,
        0.2879313826560974,
        -0.15758255124092102,
        -0.08515916019678116,
        -0.5943220257759094,
        0.040946949273347855,
        0.17465434968471527,
        -0.5356351137161255,
        -0.15762962400913239,
        0.03233079984784126,
        0.2524780035018921,
        -1.3301019668579102,
        -0.6372447609901428,
        2.227977991104126,
        -0.1996058076620102,
        -0.2388031929731369,
        2.4801204204559326,
        -0.6111502051353455,
        0.527482271194458,
        0.5978521108627319,
        -0.6914262771606445,
        0.004623723216354847,
        -0.13735535740852356,
        0.75194251537323,
        0.2891937494277954,
        0.025848135352134705,
        0.03823414444923401,
        -0.11617512255907059,
        -0.10880457609891891,
        0.22070737183094025,
        0.27808696031570435,
        -0.1298491358757019,
        0.3632894456386566,
        0.5225174427032471,
        -0.45217305421829224,
        -0.09629417210817337,
        -0.07172074168920517,
        -0.04877359792590141,
        -0.009093837812542915,
        -0.15311230719089508,
        -0.341587632894516,
        0.2000660002231598,
        0.2592741549015045,
        -0.2338511198759079,
        0.13098208606243134,
        -4.039997100830078,
        -0.003596876049414277,
        -0.12451392412185669,
        0.13001078367233276,
        0.0031642180401831865,
        0.020041825249791145,
        -0.13085024058818817,
        0.4481571614742279,
        0.018961366266012192,
        -0.004565287847071886,
        0.23959249258041382,
        -0.007380903232842684,
        -0.10285165160894394,
        -0.22786922752857208,
        0.05844759941101074,
        -0.006569147575646639,
        -0.16058599948883057,
        -1.5529526472091675,
        0.06637170910835266,
        -0.008817234076559544,
        0.373094379901886,
        0.08777281641960144,
        -0.015073095448315144,
        0.22323492169380188,
        -1.4610642194747925,
        1.624497890472412,
        -0.10037147998809814,
        -2.3671061992645264,
        0.11573857069015503,
        0.2605559825897217,
        -0.020327366888523102,
        0.07016769051551819,
        0.12858185172080994,
        1.368577003479004,
        -0.10018591582775116,
        -0.06888357549905777,
        -0.40864190459251404,
        -0.38287675380706787,
        0.022575942799448967,
        -0.2435334473848343,
        1.478245735168457,
        -1.6654298305511475,
        0.1285833865404129,
        2.3030123710632324,
        0.03953792527318001,
        0.055370032787323,
        0.07539865374565125,
        -0.0017682566540315747,
        -0.12639954686164856,
        -0.06920825690031052,
        0.035994235426187515,
        -0.16846963763237,
        -0.2491954118013382,
        -1.8717570304870605,
        0.11541406810283661,
        0.0953255370259285,
        0.42785096168518066,
        -0.1575048714876175,
        0.10752332955598831,
        -0.15154984593391418,
        0.04868059232831001,
        0.06025896966457367,
        -0.03387407213449478,
        -0.07482011616230011,
        0.024377020075917244,
        -0.49671444296836853,
        -0.037903204560279846,
        0.046893056482076645,
        -2.074916362762451,
        0.07226499170064926,
        0.022258292883634567,
        -0.01112054567784071,
        0.1429641842842102,
        -0.16956032812595367,
        0.027660679072141647,
        0.0423385426402092,
        -1.2823281288146973,
        2.971410036087036,
        1.0171715021133423,
        -13.405250549316406,
        -1.8751353025436401,
        -18.795116424560547,
        -0.21392160654067993,
        -1.472159743309021,
        -17.995759963989258,
        -19.174606323242188,
        -1.7419744729995728,
        2.9702367782592773,
        1.8323087692260742,
        1.473634958267212,
        2.4031200408935547,
        -13.685441970825195,
        -0.466283917427063,
        -0.6154211759567261,
        -0.20561572909355164,
        0.05935745686292648,
        -0.968745231628418,
        0.040467407554388046,
        -0.13421519100666046,
        -1.6374722719192505,
        -0.008051697164773941,
        -0.004329458810389042,
        -0.0787467509508133,
        0.2481616884469986,
        0.04085300490260124,
        -0.004601183347404003,
        0.26176726818084717,
        -0.0005539117264561355,
        -0.010560641996562481,
        -0.019498957321047783,
        0.007456710562109947,
        -0.02859422005712986,
        0.0003902712487615645,
        -0.8474642038345337,
        -0.014417914673686028,
        0.053334709256887436,
        -0.10446298122406006,
        0.14985120296478271,
        -0.025936774909496307,
        0.021076178178191185,
        -0.2055327445268631,
        0.22639572620391846,
        -0.04410666227340698,
        -0.4252453148365021,
        2.0292603969573975,
        -0.12090479582548141,
        -0.00611948361620307,
        -0.06790059804916382,
        -0.20013493299484253,
        -0.016964413225650787,
        0.8122410774230957,
        -0.848784863948822,
        0.0037675891071558,
        0.00993182323873043,
        1.985956072807312,
        0.11024875193834305,
        -0.013132024556398392,
        0.012803493067622185,
        -0.17652258276939392,
        0.0035421878565102816,
        0.010256415233016014,
        0.03380729258060455,
        -0.8348851203918457,
        -0.8282178044319153,
        -0.48881635069847107,
        -0.02573069930076599,
        1.2222574949264526,
        -2.934239149093628,
        -0.04724390432238579,
        0.02868056111037731,
        -0.19083817303180695,
        0.05948745086789131,
        0.005467426963150501,
        0.006081499624997377,
        0.21308787167072296,
        0.00621537072584033,
        -0.08390907198190689,
        -0.1977802962064743,
        0.21241909265518188,
        0.17644093930721283,
        -0.02188175730407238,
        0.45081785321235657,
        0.3579000234603882,
        -0.23554998636245728,
        0.05321861431002617,
        0.7157878279685974,
        -0.09796393662691116,
        -0.06505487859249115,
        0.2250514179468155,
        -0.44577088952064514,
        -0.09641557931900024,
        -0.2854522168636322,
        -0.05497371405363083,
        -0.06632492691278458,
        -0.022395676001906395,
        0.09552416950464249,
        0.03907425329089165,
        0.4608120918273926,
        0.028743280097842216,
        0.09459536522626877,
        -0.8657160401344299,
        -0.6199867725372314,
        -0.047219932079315186,
        -0.0034325974993407726,
        0.005404937081038952,
        0.05311208963394165,
        -0.07530353963375092,
        0.16527342796325684
      ],
      "b": [
        -0.14262685179710388,
        -0.19289757311344147,
        2.496175527572632,
        2.230884552001953,
        0.596484363079071,
        1.6365827322006226,
        0.9950131177902222,
        -0.18447057902812958,
        1.468328595161438,
        2.0133378505706787,
        1.0062381029129028,
        -0.24446550011634827,
        -0.07145868986845016,
        0.10730243474245071,
        -1.3961904048919678,
        2.034876823425293
      ]
    },
    {
      "inDim": 16,
      "outDim": 2,
      "activation": "linear",
      "W": [
        0.5461345314979553,
        -0.44138652086257935,
        -0.4080055058002472,
        0.354784220457077,
        -0.15708166360855103,
        -0.28720492124557495,
        0.34945493936538696,
        0.524169385433197,
        0.2881963551044464,
        0.08256367594003677,
        -0.3815019130706787,
        -0.0801435261964798,
        0.046262625604867935,
        0.23479922115802765,
        -0.031651586294174194,
        -0.18469730019569397,
        -0.037342414259910583,
        0.2668590247631073,
        0.2766982614994049,
        -0.2720241844654083,
        -0.5709872841835022,
        0.3951490521430969,
        -0.35895127058029175,
        -0.10841450095176697,
        0.2333647608757019,
        -0.014666312374174595,
        0.26820194721221924,
        0.0075547643937170506,
        0.45094576478004456,
        -0.27843475341796875,
        -0.2367325872182846,
        -0.44997361302375793
      ],
      "b": [
        0.24307239055633545,
        -0.5725188255310059
      ]
    }
  ]
}