{"version": 1, "arch": "radial", "params": 10352, "best_pat_cos": 0.98783, "K": 6, "HALF": 840.0, "BOID_MAX": 6.0, "PRED_MAX_SPEED": 2.5, "PRED_MAX_FORCE": 0.05, "POLICY_R": 80.0, "fmean": [-0.0071175191551446915, 0.00306771881878376, 0.0008061910630203784, 0.0029088719747960567, 0.9383460283279419], "fstd": [0.7278122305870056, 0.7269763946533203, 0.5471773147583008, 0.5501588582992554, 0.42163053154945374], "logR": [5.187898635864258, 5.170749664306641, 5.181787490844727, 5.190948486328125, 5.2068257331848145, 5.332813739776611], "logt": [4.02335786819458, 1.6591664552688599, 6.911232948303223, 3.1441686153411865, 1.3168846368789673, 1.2840986251831055], "log_tau": -1.9143025875091553, "score": [{"inDim": 15, "outDim": 16, "W": [-0.15636268258094788, 0.0575147420167923, -0.2205059975385666, 0.08780130743980408, 0.04237386956810951, -0.14296641945838928, -0.05401303246617317, -0.09673647582530975, -0.028201933950185776, -0.2086494266986847, -0.1675218641757965, 0.20338332653045654, -0.007543019484728575, 0.04556544870138168, -0.06944713741540909, 0.024908021092414856, -0.12103328108787537, -0.04450153931975365, -0.12140727043151855, -0.2117757350206375, 0.04991362988948822, -0.1951267123222351, 0.26954010128974915, 0.06888219714164734, -0.07353033125400543, -0.04780242592096329, -0.08387831598520279, -0.28533634543418884, -0.13319174945354462, -0.1802845597267151, 0.09175475686788559, 0.12821127474308014, 0.2094372808933258, -0.13824455440044403, 0.061146147549152374, 0.1375078707933426, 0.0018977787112817168, -0.1470065712928772, 0.2517390251159668, -0.012018691748380661, 0.28712761402130127, -0.17496363818645477, 0.4522722661495209, -0.07986550778150558, 0.4590509533882141, -0.23112134635448456, 0.32012611627578735, -0.14192470908164978, -0.09386846423149109, -0.08060365170240402, -0.2565031349658966, -0.26666298508644104, -0.005437363870441914, 0.1092916950583458, -0.18493424355983734, -0.14259997010231018, -0.06620221585035324, -0.22856682538986206, 0.146972194314003, -0.046501561999320984, 0.0808548852801323, -0.06664552539587021, -0.17074325680732727, 0.3532378375530243, -0.1310046911239624, 0.12504267692565918, -0.1632338911294937, -0.18376627564430237, -0.17139150202274323, 0.06949955970048904, 0.1377013474702835, -0.1609978973865509, 0.08949093520641327, -0.19481003284454346, -0.02749710902571678, 0.028205454349517822, -0.3141835927963257, 0.10793019831180573, 0.03523626551032066, -0.138370081782341, 0.054487407207489014, 0.14157022535800934, 0.2305990606546402, 0.22734157741069794, -0.2365032434463501, -0.090351402759552, 0.14956675469875336, -0.2434353232383728, -0.139854297041893, 0.10507694631814957, -0.059738948941230774, -0.1158510372042656, 0.2127084583044052, 0.1913781464099884, 0.04285039007663727, -0.051228974014520645, -0.26973098516464233, -0.038992274552583694, -0.2539542019367218, -0.20041696727275848, -0.20620444416999817, 0.08641607314348221, -0.19493713974952698, -0.2408677637577057, -0.0888952985405922, -0.12685568630695343, 0.07457491755485535, -0.10391046106815338, -0.23522725701332092, 0.14567093551158905, 0.06908252835273743, -0.13152766227722168, -0.1189940944314003, -0.017412224784493446, 0.006565068382769823, 0.01998138800263405, -0.21289703249931335, -0.0015304016415029764, -0.0422595776617527, -0.23102326691150665, 0.08975496143102646, 0.17283564805984497, 0.056221649050712585, -0.10515543073415756, 0.16517998278141022, 0.056552983820438385, -0.07093854993581772, 0.21362991631031036, 0.12087564915418625, -0.06865525245666504, -0.046257589012384415, -0.13693192601203918, 0.16526184976100922, -0.19196543097496033, -0.2621416449546814, 0.020155146718025208, -0.10303472727537155, -0.07882942259311676, 0.12568233907222748, -0.2982030510902405, -0.11185658723115921, -0.05391431972384453, -0.04721879959106445, -0.020149217918515205, 0.16275352239608765, -0.05332743003964424, 0.16443821787834167, 0.23498854041099548, -0.13730861246585846, 0.21534359455108643, -0.186213880777359, -0.2579541802406311, -0.0845818817615509, 0.16116397082805634, 0.11777731776237488, -0.2858266532421112, -0.1021328791975975, 0.13929909467697144, -0.16640259325504303, -0.1810518503189087, 0.15849852561950684, 0.6034746170043945, 0.19209809601306915, -0.09230215102434158, -0.21057099103927612, 0.06352029740810394, -0.32968491315841675, 0.1254217028617859, -0.1436227411031723, -0.22129414975643158, -0.6046387553215027, 0.014454293996095657, -0.13138961791992188, 0.19175943732261658, -0.601065993309021, 0.5653759241104126, -0.023513896390795708, -0.16820645332336426, -0.23372602462768555, -0.24916216731071472, -0.0005673515843227506, 0.1159803569316864, 0.06904991716146469, 0.008588694036006927, -0.19377286732196808, 0.1306268274784088, -0.0996997058391571, -0.12176797538995743, -0.1178789958357811, 0.3312305510044098, -0.24141818284988403, -0.1524142324924469, -0.11697715520858765, 0.06383473426103592, 0.06455341726541519, 0.05598641186952591, -0.22403325140476227, 0.16695719957351685, -0.05202694609761238, -0.18112227320671082, -0.05021711066365242, -0.09513427317142487, 0.287747859954834, 0.1232447400689125, 0.03943401575088501, -0.17214564979076385, -0.23637478053569794, -0.09074731171131134, -0.0917137861251831, -0.0753544494509697, -0.07128696888685226, 0.0017905147979035974, -0.029514696449041367, 0.12647414207458496, 0.25525811314582825, 0.013527784496545792, -0.031941648572683334, 0.2241918295621872, -0.03860948979854584, 0.1547449827194214, -0.16760019958019257, -0.05672236531972885, -0.11851717531681061, -0.08356299251317978, 0.014454513788223267, -0.046013906598091125, 0.21882882714271545, 0.07603467255830765, -0.13908332586288452, 0.025479000061750412, 0.12858346104621887, -0.20587797462940216, 0.16193288564682007, 0.027633344754576683, 0.01757749170064926, 0.30485454201698303, 0.142410546541214, 0.11040723323822021, -0.23443008959293365, 0.14200401306152344], "b": [0.22127413749694824, -0.5369181632995605, 0.13465823233127594, 0.2303040325641632, -0.06787092983722687, -0.1381603628396988, 0.40696239471435547, -0.18818731606006622, 0.4349595308303833, 0.041418470442295074, -0.08243861049413681, 0.02111009880900383, -0.6963889598846436, 0.345064640045166, -0.5060503482818604, -0.19953308999538422], "activation": "relu"}, {"inDim": 16, "outDim": 16, "W": [0.013949912041425705, 0.020521311089396477, -0.04326385632157326, -0.1147162914276123, 0.14748603105545044, 0.2168956845998764, 0.011617490090429783, 0.02642003446817398, -0.01357731781899929, 0.18551678955554962, -0.18585845828056335, 0.13795818388462067, -0.11008352041244507, -0.21297919750213623, 0.10412819683551788, -0.023844195529818535, 0.022044990211725235, 0.02191377617418766, -0.021297167986631393, 0.2198440581560135, 0.1404765397310257, -0.23654469847679138, -0.054618023335933685, -0.13126161694526672, -0.2989652454853058, -0.071084164083004, -0.003320202464237809, -0.21121267974376678, -0.14884403347969055, -0.19980482757091522, 0.1852898746728897, -0.15603867173194885, -0.08935826271772385, 0.21191637217998505, 0.09596169739961624, -0.05080818384885788, 0.15036720037460327, 0.034984029829502106, 0.15234048664569855, 0.18054647743701935, -0.10921433568000793, 0.21778133511543274, 0.21294242143630981, 0.010565141215920448, -0.04980933666229248, -0.22761328518390656, -0.23478654026985168, -0.21486246585845947, -0.23240876197814941, 0.015290144830942154, -0.00424463115632534, -0.029313577339053154, 0.1358971744775772, 0.24649760127067566, -0.014929352328181267, -0.07624876499176025, 0.18734443187713623, 0.16601680219173431, -0.053967252373695374, 0.08475475013256073, 0.17273038625717163, 0.2676103711128235, 0.19537071883678436, 0.010387251153588295, 0.1344510167837143, 0.14912468194961548, -0.060917504131793976, -0.13255301117897034, -0.07871662080287933, -0.0793663039803505, -0.058403097093105316, 0.14426419138908386, -0.2869407534599304, -0.1458672732114792, -0.11245092749595642, -0.2857067286968231, 0.06707602739334106, 0.058876678347587585, 0.1217980682849884, -0.17133933305740356, 0.07216932624578476, 0.16510730981826782, -0.24174799025058746, -0.07763288170099258, 0.005262365099042654, -0.10509300231933594, 0.07487473636865616, 0.2334144115447998, 0.20801697671413422, -0.08188170194625854, 0.05156465619802475, -0.17699135839939117, -0.06335923075675964, 0.05679161101579666, 0.044130049645900726, -0.08891969174146652, -0.2426469773054123, 0.044340625405311584, 0.022232461720705032, -0.2328733503818512, -0.07339493185281754, -0.19171428680419922, 0.20681226253509521, 0.2546534538269043, 0.0827120766043663, -0.126601904630661, 0.24854713678359985, 0.1747564673423767, -0.2357845902442932, 0.25359004735946655, 0.05898275226354599, 0.1352059543132782, 0.25414612889289856, -0.027581823989748955, -0.20646610856056213, 0.07481986284255981, 0.04046523943543434, 0.1660563200712204, 0.03811628371477127, 0.1058921217918396, -0.05490058287978172, -0.22495709359645844, -0.061386216431856155, -0.25341901183128357, 0.06797915697097778, 0.02606143243610859, -0.23452544212341309, -0.1875530183315277, 0.1354556381702423, 0.05516204982995987, -0.11631999909877777, -0.09738129377365112, 0.12788435816764832, -0.07772976160049438, -0.09089551120996475, 0.08295515179634094, -0.2763352394104004, 0.14343740046024323, 0.22969689965248108, 0.08693761378526688, -0.012487530708312988, 0.12921157479286194, 0.06509896367788315, 0.028565319254994392, -0.12335912883281708, 0.14745162427425385, -0.1669136881828308, -0.09008276462554932, 0.2123245745897293, -0.24431324005126953, 0.18838702142238617, 0.21443778276443481, -0.14107745885849, 0.05960337817668915, -0.199871227145195, -0.08152639865875244, 0.20709362626075745, -0.08028508722782135, -0.12494361400604248, 0.07001017779111862, 0.18633997440338135, -0.2618164122104645, 0.11534693837165833, -0.0495581328868866, 0.07311205565929413, -0.046833161264657974, 0.2911452651023865, 0.0829620510339737, 0.09038950502872467, 0.15703853964805603, 0.4950556755065918, -0.00912568997591734, -0.020727843046188354, 0.3118736743927002, -0.23087240755558014, 0.2414020448923111, -0.24715615808963776, -0.0775524228811264, 0.20003564655780792, 0.1095392182469368, 0.0850810781121254, -0.16710971295833588, -0.06042027100920677, 0.07289475947618484, -0.07314004749059677, -0.0905967652797699, 0.1440822333097458, 0.06957405805587769, -0.1477087140083313, -0.19897398352622986, -0.1566593199968338, -0.18476693332195282, 0.1629059612751007, -0.1530386209487915, 0.07621447741985321, 0.008947880007326603, -0.19967618584632874, -0.2147807478904724, 0.06625324487686157, -0.11547542363405228, 0.08149370551109314, -0.23639987409114838, 0.12612126767635345, -0.21168449521064758, -0.19978591799736023, 0.0969785749912262, 0.03138166293501854, 0.28021955490112305, -0.2360667586326599, -0.06809771060943604, 0.2586531341075897, 0.0013264206936582923, 0.021418804302811623, -0.039381206035614014, 0.1770406812429428, -0.0520135872066021, 0.0278770849108696, 0.005731896031647921, -0.14490294456481934, 0.1400594413280487, -0.1495545506477356, -0.03780822828412056, 0.20480798184871674, 0.05526110902428627, -0.09903061389923096, -0.25445136427879333, -0.1749165952205658, -0.20052355527877808, -0.08207156509160995, -0.17998413741588593, 0.36879655718803406, -0.2624960243701935, 0.070927694439888, -0.012406698428094387, 0.013830993324518204, 0.006687944754958153, -0.024255365133285522, 0.12096615135669708, -0.0532720685005188, 0.20479370653629303, -0.2615934908390045, -0.028125399723649025, 0.20037861168384552, -0.14825306832790375, -0.2111743539571762, -0.08886872231960297, 0.14392748475074768, -0.09609577059745789, 0.116883784532547, 0.2119089514017105, -0.2715158760547638, 0.04485378786921501, -0.2267804741859436, -0.21218493580818176, 0.26848548650741577, -0.12024816125631332], "b": [0.04156960919499397, -0.06566336750984192, -0.09376557916402817, -0.23074300587177277, -0.2507946193218231, -0.004387787077575922, 0.24650229513645172, 0.0333922877907753, 0.04825524613261223, 0.18438996374607086, -0.1303601711988449, 0.5938701033592224, -0.23572304844856262, -0.20060552656650543, 0.4152010679244995, -0.12971356511116028], "activation": "relu"}, {"inDim": 16, "outDim": 1, "W": [-0.06063055992126465, -0.18335191905498505, 0.09791906923055649, 0.1007310152053833, -0.19944551587104797, 0.1279207319021225, 0.1987248957157135, 0.028618769720196724, 0.05283711105585098, 0.19906800985336304, 0.16423171758651733, 0.006374632008373737, 0.042808711528778076, 0.06398718059062958, -0.24326291680335999, 0.18710365891456604], "b": [-0.08078368753194809], "activation": "linear"}], "rho": [{"inDim": 10, "outDim": 128, "W": [0.05803743377327919, 0.14982129633426666, -0.05373223498463631, 0.170207217335701, 0.2102474570274353, 0.12361502647399902, -0.269829124212265, 0.23450639843940735, -0.042268361896276474, -0.38952597975730896, -0.40668439865112305, 0.15912210941314697, -0.22691135108470917, -0.21475248038768768, -0.07625845074653625, 0.41340431571006775, 0.06813649833202362, 0.3015092611312866, -0.34906360507011414, 0.12685059010982513, -0.22475866973400116, 0.3649084270000458, 0.18812550604343414, -0.24879661202430725, -0.1951410323381424, -0.04417429491877556, 0.27148038148880005, 0.4483392536640167, 0.033302973955869675, 0.21022091805934906, 0.19391167163848877, -0.2851158380508423, -0.006283734925091267, -0.12745320796966553, 0.2512081563472748, -0.32111719250679016, -0.0029818338807672262, 0.054455727338790894, 0.27730798721313477, 0.23776359856128693, -0.4369455575942993, -0.31390380859375, -0.166936993598938, 0.13127538561820984, 0.6074234843254089, -0.09584225714206696, -0.6578319072723389, 0.16888302564620972, 0.2189546376466751, -0.32469478249549866, -0.5568218231201172, 0.5066440105438232, 0.340507447719574, -0.271904319524765, 0.5576067566871643, -0.4234393537044525, 0.16498014330863953, 0.21262434124946594, -0.4533502757549286, 0.06214185059070587, -0.5064038634300232, -0.42585134506225586, 0.35558831691741943, 0.3136213719844818, -0.010418369434773922, 0.5474138259887695, 0.4229740500450134, 0.05046243220567703, -0.30627283453941345, 0.49832773208618164, 0.2539274990558624, 0.19429095089435577, 0.44696420431137085, -0.5188257098197937, 0.09594125300645828, 0.5080288648605347, 0.055776141583919525, -0.17998571693897247, -0.5986203551292419, -0.3268417418003082, -0.07341527193784714, -0.29487794637680054, 0.5926603674888611, -0.02792302519083023, 0.2941769063472748, 0.44993048906326294, -0.1277901828289032, -0.01204728614538908, 0.34916719794273376, 0.3767222762107849, -0.11334177106618881, -0.3936624228954315, -0.4040917158126831, -0.07243751734495163, 0.15290828049182892, -0.3394091725349426, -0.4838294982910156, -0.47337621450424194, -0.20839174091815948, -0.6120519638061523, 0.2739284634590149, 0.32277101278305054, 0.24747352302074432, 0.38820359110832214, -0.44766122102737427, 0.23621733486652374, -0.09302057325839996, -0.06385792791843414, -0.19937404990196228, -0.15478797256946564, 0.0062761446461081505, -0.02935837209224701, -0.4838522970676422, -0.06446685642004013, 0.0958624854683876, -0.024506062269210815, -0.188463032245636, 0.48145580291748047, -0.23245936632156372, 0.30242228507995605, -0.02263416163623333, 0.17973992228507996, 0.34399303793907166, 0.24090898036956787, -0.1861601024866104, 0.17675119638442993, 0.06672987341880798, -0.2204144299030304, 0.10898340493440628, 0.332237184047699, -0.41050300002098083, 0.2938399314880371, -0.31899935007095337, -0.025848351418972015, 0.01652061939239502, -0.09784875810146332, 0.12456390261650085, -0.5368719100952148, 0.12048156559467316, 0.425600528717041, 0.12947946786880493, -0.4319312274456024, 0.12100303173065186, -0.2594650089740753, 0.41588419675827026, -0.3094181716442108, -0.30463287234306335, 0.22452639043331146, 0.09481608867645264, -0.22012627124786377, -0.009373042732477188, 0.27643123269081116, 0.17038141191005707, -0.5910091400146484, 0.32922229170799255, -0.435459703207016, -0.13758592307567596, -0.43515560030937195, 0.40737372636795044, -0.24057665467262268, 0.4448348879814148, -0.2975585460662842, -0.42603781819343567, 0.06394074112176895, -0.4488592743873596, -0.09887953847646713, 0.13195081055164337, -0.07156433165073395, -0.5471399426460266, 0.011757321655750275, -0.1298954039812088, -0.6064375042915344, -0.04819047078490257, 0.03976023942232132, -0.2901380658149719, -0.3741561472415924, 0.40858474373817444, 0.022745827212929726, -0.4017621874809265, -0.0756920874118805, -0.19022251665592194, 0.16656772792339325, 0.026969486847519875, -0.3233235478401184, -0.02062275819480419, 0.0814627930521965, 0.37332868576049805, -0.2368307113647461, 0.3489537537097931, -0.10697739571332932, -0.020577900111675262, -0.21630173921585083, -0.0422462522983551, -0.26913580298423767, -0.017423050478100777, 0.1305287480354309, 0.09188012033700943, 0.1390293389558792, 0.18514254689216614, -0.5060867071151733, -0.3050578236579895, 0.14626824855804443, 0.12857988476753235, 0.209081768989563, -0.277632474899292, 0.001789986388757825, -0.19095559418201447, 0.03298579156398773, -0.022288568317890167, 0.12662532925605774, -0.36860528588294983, 0.14244090020656586, 0.4021051228046417, -0.41939830780029297, 0.024740999564528465, -0.19499237835407257, -0.03611903637647629, 0.2413160353899002, -0.300462007522583, -0.10707058757543564, 0.02174440771341324, -0.18944023549556732, -0.01823626272380352, 0.43739303946495056, -0.027236737310886383, 0.010136880911886692, -0.42506200075149536, -0.240800142288208, 0.5405453443527222, -0.25609758496284485, 0.3396158814430237, -0.1271016150712967, 0.20855484902858734, -0.6174506545066833, -0.3602116107940674, 0.03918227180838585, 0.4734819829463959, -0.173186793923378, -0.564452052116394, 0.12521588802337646, -0.168012797832489, -0.5832890868186951, 0.028617238625884056, 0.2930704355239868, -0.12850308418273926, 0.04612615704536438, -0.18806737661361694, 0.1733119785785675, -0.19675561785697937, 0.3428361415863037, 0.4520178735256195, -0.21613258123397827, -0.12192496657371521, 0.30523809790611267, -0.19763407111167908, 0.3133060932159424, 0.06976369768381119, 0.06365229934453964, 0.020048288628458977, -0.09209277480840683, 0.16564401984214783, -0.03982759639620781, 0.2925378382205963, 0.4908003807067871, 0.03776302561163902, 0.22070172429084778, 0.0611359104514122, -0.16868582367897034, 0.16186641156673431, 0.21171428263187408, -0.22830021381378174, 0.21439503133296967, -0.3319215476512909, -0.42249906063079834, -0.2074928879737854, -0.22187015414237976, -0.2689375877380371, -0.1787949651479721, -0.43716055154800415, -0.011713879182934761, -0.281708300113678, -0.08767737448215485, -0.10450869053602219, -0.166127011179924, -0.13981516659259796, 0.43365851044654846, 0.23023509979248047, 0.05308873951435089, 0.11261532455682755, 0.1603870987892151, -0.4596879184246063, 0.0690428838133812, -0.4073120951652527, -0.2035621553659439, 0.4906177222728729, -0.14753159880638123, -0.14209522306919098, 0.31829172372817993, 0.30158495903015137, 0.2420264184474945, 0.0008139742421917617, 0.021239330992102623, 0.14916498959064484, 0.38138291239738464, -0.10279440879821777, -0.309161514043808, 0.04373665899038315, 0.06355316191911697, -0.26080095767974854, 0.1446809470653534, 0.03083883412182331, 0.008214444853365421, 0.3828309178352356, 0.12243784964084625, -0.06944599747657776, -0.023980747908353806, 0.48637130856513977, 0.01040863897651434, -0.18337666988372803, -0.35061752796173096, -0.0028556629549711943, 0.06852581351995468, -0.005245719105005264, -0.009090867824852467, -0.07581353932619095, 0.1080411821603775, -0.03618736192584038, 0.12919265031814575, 0.23232020437717438, 0.23026977479457855, 0.2711729109287262, -0.3703327178955078, -0.0891096442937851, -0.06748437881469727, 0.10060226172208786, 0.27189767360687256, 0.1596914678812027, 0.15490736067295074, 0.10723790526390076, 0.21533432602882385, 0.4203414022922516, -0.10395994037389755, 0.3432909846305847, 0.3538374602794647, 0.39844563603401184, 0.39272540807724, -0.2951093912124634, -0.23855429887771606, 0.19182434678077698, 0.2552697956562042, 0.22922277450561523, -0.08889612555503845, 0.017464719712734222, 0.20742027461528778, -0.0754818469285965, -0.009747272357344627, -0.014182472601532936, -0.10502274334430695, -0.11858098953962326, 0.1197645515203476, -0.2862077057361603, -0.0621333010494709, -0.12287560105323792, 0.0028305919840931892, 0.4139156937599182, 0.09484231472015381, -0.05856550857424736, 0.0816781148314476, -0.13402466475963593, 0.17761699855327606, -0.27744895219802856, -0.12012428045272827, -0.1089588850736618, -0.14742130041122437, 0.13067859411239624, -0.29882895946502686, 0.5213615298271179, 0.41206181049346924, 0.05376287177205086, 0.06889893859624863, 0.010792611166834831, -0.09801611304283142, -0.344014048576355, -0.3786379098892212, -0.2298465371131897, 0.17202840745449066, 0.2942955493927002, 0.4526686370372772, -0.21587975323200226, -0.20571032166481018, 0.1578146517276764, 0.007394011598080397, -0.3146081268787384, -0.12337439507246017, -0.04491428658366203, 0.04306585714221001, -0.27648043632507324, -0.3614204227924347, -0.0800415426492691, 0.25300517678260803, -0.16988740861415863, 0.12856726348400116, -0.07990401983261108, 0.15101400017738342, 0.2887929081916809, -0.25335636734962463, -0.2739577293395996, 0.01915655843913555, 0.291088730096817, 0.12770099937915802, 0.0036774417385458946, 0.4560319483280182, -0.06492666155099869, -0.36502599716186523, 0.4820552468299866, 0.27969157695770264, 0.03617669269442558, 0.03227026388049126, 0.03537796065211296, 0.17494581639766693, 0.3054295778274536, 0.2329549491405487, 0.1798253208398819, 0.03747527301311493, 0.008435709401965141, -0.4110136926174164, 0.17923693358898163, 0.06661257147789001, 0.07000130414962769, 0.25792181491851807, 0.046063512563705444, -0.3449587821960449, 0.21618086099624634, -0.09752456843852997, 0.060216762125492096, 0.14718791842460632, 0.09449251741170883, -0.028272666037082672, -0.4583858847618103, -0.36406606435775757, 0.19348612427711487, -0.0887121856212616, -0.012415130622684956, 0.17487235367298126, 0.24569284915924072, 0.08641677349805832, -0.08581110090017319, -0.2781548798084259, 0.0643707886338234, -0.04770169407129288, -0.12995335459709167, 0.27169913053512573, 0.36225590109825134, 0.10499093681573868, -0.15043047070503235, 0.05130968987941742, 0.33282771706581116, -0.0795937180519104, -0.12572160363197327, 0.18410928547382355, 0.028918983414769173, -0.16634972393512726, -0.18065883219242096, 0.03668302297592163, 0.16317696869373322, 0.26184260845184326, -0.20429880917072296, 0.35433048009872437, -0.4360599219799042, -0.1360682100057602, 0.21253739297389984, 0.23063747584819794, 0.4555399417877197, -0.19114072620868683, 0.4126009941101074, -0.17514750361442566, -0.10708365589380264, -0.36885422468185425, 0.14040230214595795, 0.46995866298675537, -0.08504398167133331, -0.2605166733264923, -0.12873941659927368, 0.2576364576816559, -0.2861648201942444, 0.12543036043643951, 0.06033725664019585, 0.16958168148994446, -0.3632393181324005, 0.26246607303619385, -0.27654746174812317, -0.13894858956336975, -0.029037166386842728, -0.3463176190853119, -0.3493255376815796, -0.5129354000091553, -0.008368952199816704, 0.1345515102148056, 0.13269223272800446, -0.01808604970574379, -0.10497868806123734, -0.4348334074020386, -0.3498803377151489, -0.16239872574806213, 0.1385369747877121, 0.07764676213264465, 0.09742450714111328, -0.15838485956192017, 0.30655309557914734, -0.13812482357025146, 0.32919108867645264, -0.2535712718963623, 0.18736645579338074, 0.026250524446368217, 0.21880267560482025, -0.20254051685333252, 0.18869714438915253, 0.25397083163261414, -0.19209539890289307, 0.17609435319900513, -0.09415820986032486, -0.3183729648590088, -0.038762398064136505, 0.05032940208911896, 0.26972198486328125, -0.09215690940618515, -0.288627028465271, 0.22709457576274872, -0.26533907651901245, -0.18064133822917938, -0.3969400227069855, 0.3289417624473572, 0.2487698793411255, 0.12414028495550156, 0.2591501772403717, -0.24469886720180511, -0.012416294775903225, -0.050015777349472046, -0.023840583860874176, 0.26484745740890503, -0.2955428659915924, -0.32870328426361084, -0.09031180292367935, -0.37903717160224915, 0.2382373958826065, 0.2736162841320038, 0.12151789665222168, -0.19794902205467224, -0.4383707642555237, -0.04497246816754341, -0.07359396666288376, 0.39585673809051514, 0.01197870448231697, -0.22548045217990875, -0.3139194846153259, 0.5397003293037415, 0.4659285843372345, -0.14648044109344482, -0.41691452264785767, 0.07506230473518372, 0.4267790913581848, -0.47020676732063293, -0.3104530870914459, 0.6345027089118958, 0.2826493978500366, -0.27925965189933777, 0.3204697072505951, -0.36122602224349976, 0.05093401297926903, 0.2552259564399719, -0.37668973207473755, -0.06185460463166237, -0.500453770160675, -0.4159613251686096, 0.03718789294362068, 0.10244625061750412, 0.08007992058992386, 0.3621933162212372, 0.437246173620224, 0.15950459241867065, -0.08264537900686264, 0.4994681179523468, 0.02895224653184414, 0.1233331635594368, -0.0283224955201149, -0.44116711616516113, 0.4712885022163391, -0.015506502240896225, 0.3565453290939331, -0.18380507826805115, -0.6749066114425659, -0.04006263241171837, -0.377678781747818, 0.01886359602212906, 0.5944567918777466, -0.22014175355434418, -0.06372847408056259, 0.14969195425510406, 0.2995379865169525, 0.3674266040325165, 0.4201263189315796, -0.07268686592578888, 0.02425413765013218, 0.009158558212220669, -0.1947188377380371, 0.2746178209781647, -0.31709593534469604, -0.019248731434345245, -0.5301522612571716, -0.25230035185813904, -0.3477943241596222, -0.2237585335969925, 0.24949248135089874, 0.11728961765766144, 0.07137245684862137, 0.06470925360918045, -0.39144885540008545, -0.20571771264076233, -0.15971514582633972, -0.08308248966932297, 0.0037055606953799725, -0.21072785556316376, 0.06576521694660187, -0.16314417123794556, -0.4230000078678131, 0.2919207215309143, 0.3447250425815582, 0.10503576695919037, -0.18864087760448456, 0.09075319021940231, -0.18619614839553833, -0.23209209740161896, 0.17674362659454346, 0.2411595731973648, -0.0026150867342948914, 0.35348162055015564, -0.4749489426612854, 0.08748003095388412, -0.09296204894781113, 0.253904789686203, 0.09171834588050842, 0.20568421483039856, -0.3074703812599182, 0.11891807615756989, 0.07447555661201477, -0.291829377412796, 0.4351687431335449, 0.21803659200668335, -0.2752681076526642, -0.20844052731990814, -0.144551083445549, 0.29884013533592224, -0.06073900684714317, -0.27185019850730896, -0.01001268532127142, -0.12688104808330536, 0.44968026876449585, -0.34744182229042053, -0.5210674405097961, 0.3682154715061188, 0.03176107630133629, -0.12633664906024933, 0.26703014969825745, -0.009272146970033646, 0.4165552854537964, -0.5263261795043945, 0.418592244386673, -0.14627446234226227, 0.02439141646027565, -0.11595028638839722, 0.12163793295621872, -0.3275100290775299, 0.31908079981803894, -0.1093331053853035, -0.38330891728401184, -0.16352137923240662, -0.23271924257278442, 0.11762278527021408, 0.36827605962753296, 0.26210862398147583, -0.006257798057049513, 0.2435120791196823, -0.3394269049167633, -0.373202919960022, -0.1396620124578476, 0.1766113042831421, -0.22702962160110474, 0.10451022535562515, 0.1855437308549881, 0.17850559949874878, 0.07084936648607254, 0.2764313220977783, -0.1491032987833023, 0.5301275253295898, 0.11146567016839981, -0.2783295512199402, -0.42562589049339294, -0.2950762212276459, 0.2417602837085724, -0.4310019314289093, -0.1436295211315155, -0.14442850649356842, -0.19867780804634094, 0.02886933833360672, 0.26174473762512207, -0.36869874596595764, -0.14745402336120605, 0.11296048760414124, 0.16747331619262695, 0.43136584758758545, -0.21578070521354675, -0.3652123808860779, -0.21307158470153809, 0.29931771755218506, 0.20819278061389923, 0.37442201375961304, 0.005701686255633831, -0.19243384897708893, 0.026964159682393074, -0.27970167994499207, 0.2311984896659851, 0.39236512780189514, -0.1785912662744522, 0.35697829723358154, 0.35148975253105164, -0.4802846908569336, -0.013317669741809368, 0.08775382488965988, 0.07172474265098572, -0.19656722247600555, 0.11964574456214905, -0.12286327034235, 0.36279603838920593, -0.28935813903808594, -0.4712061583995819, 0.2259061485528946, 0.1264350414276123, 0.015456904657185078, -0.4823354482650757, 0.013738555833697319, 0.5452442169189453, -0.4625213146209717, 0.3500441014766693, -0.06632173806428909, -0.0810474380850792, -0.3803791403770447, -0.4903894066810608, -0.20669908821582794, 0.24525128304958344, -0.04599044471979141, -0.009208543226122856, -0.4058283865451813, 0.030700406059622765, -0.609282910823822, -0.3061394989490509, -0.09819892793893814, -0.17310543358325958, -0.43371373414993286, 0.4068281352519989, 0.17319144308567047, -0.5330562591552734, 0.3589920401573181, 0.4565283954143524, -0.294214129447937, 0.18765299022197723, -0.12838520109653473, -0.18022805452346802, -0.0786953866481781, -0.22522243857383728, 0.5819362998008728, 0.10338714718818665, 0.1612561196088791, 0.4532136023044586, 0.06194880232214928, 0.21317031979560852, 0.35755860805511475, -0.1643373817205429, 0.25192633271217346, -0.38406792283058167, 0.0469418540596962, 0.06466083973646164, 0.4066877067089081, -0.2542986273765564, 0.4246493875980377, -0.3591579794883728, -0.32497355341911316, 0.24280163645744324, -0.15240158140659332, 0.01775103248655796, 0.17661109566688538, -0.21923840045928955, 0.03219066187739372, -0.32845407724380493, -0.07265923917293549, 0.17189306020736694, 0.24110688269138336, -0.02335721254348755, 0.10045716166496277, 0.36224985122680664, -0.07742948830127716, -0.1391213983297348, -0.15131959319114685, -0.28112128376960754, -0.2867230772972107, -0.4023032486438751, 0.3193342983722687, 0.42934226989746094, 0.1447373777627945, 0.12190325558185577, 0.3439145088195801, 0.5182327628135681, -0.11465337872505188, 0.01674562878906727, -0.10031604766845703, -0.08717010170221329, -0.18595217168331146, -0.3849090039730072, 0.01702193357050419, 0.10046736896038055, -0.11187636107206345, -0.24954785406589508, -0.10169555991888046, 0.024503184482455254, 0.20685584843158722, 0.21642912924289703, 0.32295411825180054, 0.04677256569266319, 0.3129006326198578, 0.0980633944272995, 0.2069264054298401, -0.05257636681199074, -0.22091135382652283, -0.2185155153274536, -0.00555096659809351, 0.1350785195827484, 0.18876217305660248, -0.39268770813941956, -0.02214999683201313, 0.24238409101963043, -0.013777217827737331, 0.25890183448791504, -0.1285029798746109, 0.16411758959293365, -0.28236040472984314, 0.17342452704906464, -0.3888692557811737, -0.02619566209614277, -0.09626490622758865, 0.40360209345817566, -0.18680237233638763, -0.1245819628238678, 0.09579605609178543, 0.3761286437511444, -0.3431621789932251, -0.17411170899868011, 0.19948379695415497, 0.3275333642959595, 0.32534098625183105, -0.12425798177719116, -0.40541309118270874, 0.008563131093978882, 0.2749476730823517, 0.36255064606666565, -0.17790336906909943, -0.18733762204647064, -0.2107428014278412, -0.14146719872951508, 0.08879944682121277, 0.2785264551639557, 0.01955546624958515, -0.2382693886756897, 0.4422593116760254, -0.2531622052192688, -0.03299893066287041, 0.07872836291790009, -0.3403150141239166, 0.19670036435127258, -0.3948073983192444, 0.08350245654582977, -0.06466501951217651, -0.4171418249607086, -0.06430844217538834, -0.39436060190200806, 0.11618580669164658, -0.3472614288330078, -0.28348442912101746, -0.039724305272102356, 0.3592906594276428, 0.3234787583351135, 0.1213817372918129, -0.01406683586537838, -0.21732395887374878, -0.1361893266439438, 0.18287275731563568, -0.1896149218082428, -0.38502129912376404, -0.41077134013175964, 0.05188561975955963, -0.1474999040365219, 0.2522276043891907, -0.20580317080020905, 0.16243739426136017, 0.4067831039428711, -0.28157752752304077, 0.08098587393760681, 0.2216842621564865, -0.2230892926454544, -0.08415574580430984, -0.17083433270454407, -0.07410488277673721, -0.03637338802218437, 0.13762886822223663, 0.1031491681933403, -0.19591082632541656, 0.02065192349255085, 0.5055886507034302, -0.07471989095211029, -0.4356987476348877, -0.24492685496807098, 0.2786748707294464, -0.007408360484987497, -0.08846251666545868, -0.04824104160070419, 0.2242554873228073, -0.09213149547576904, -0.05787122994661331, -0.005101592279970646, -0.23326057195663452, 0.0035215227399021387, -0.4048609733581543, 0.04179857671260834, 0.539727509021759, -0.07634549587965012, -0.14733226597309113, -0.12605780363082886, -0.019415905699133873, 0.060309723019599915, 0.049682799726724625, -0.08192946761846542, 0.021171532571315765, 0.00131886824965477, 0.07743039727210999, -0.02949981577694416, -0.13729092478752136, 0.32243114709854126, -0.32773804664611816, -0.059537604451179504, -0.024664955213665962, 0.11292433738708496, -0.1484990417957306, -0.22178196907043457, -0.3461587131023407, 0.3323812782764435, -0.3547046184539795, -0.061958882957696915, -0.2638309597969055, 0.2053377479314804, -0.1669328361749649, 0.0992811843752861, 0.1696111559867859, -0.03600787743926048, 0.12593211233615875, 0.16147148609161377, 0.15623055398464203, 0.0645044669508934, -0.15455618500709534, 0.07515308260917664, -0.07309694588184357, 0.3246385157108307, 0.19814926385879517, -0.36901339888572693, -0.16081871092319489, -0.1310271918773651, -0.21282126009464264, 0.07004603743553162, 0.05848374217748642, -0.16730158030986786, 0.41083717346191406, 0.13423340022563934, 0.26210060715675354, 0.14186541736125946, -0.42462030053138733, -0.00810092594474554, -0.32316234707832336, 0.20134060084819794, 0.2540035843849182, 0.34206482768058777, -0.26419395208358765, 0.0016362253809347749, -0.38194403052330017, -0.18992944061756134, 0.2603546679019928, 0.10973121970891953, -0.5714535117149353, 0.23285600543022156, 0.47027942538261414, -0.14526669681072235, -0.17019054293632507, -0.2575506865978241, -0.2859240174293518, -0.3276388943195343, 0.1738974153995514, 0.22261066734790802, 0.039007220417261124, -0.17807485163211823, 0.1900586038827896, -0.526237964630127, -0.08401134610176086, 0.48037630319595337, -0.06092201545834541, 0.32170581817626953, 0.10512792319059372, -0.3103201389312744, -0.23145216703414917, 0.21014781296253204, 0.10908379405736923, 0.10152928531169891, 0.28425589203834534, 0.07021016627550125, -0.040493160486221313, -0.27470776438713074, 0.23250173032283783, 0.134253591299057, -0.17622347176074982, -0.11681174486875534, -0.22822825610637665, 0.04878691956400871, 0.1822464019060135, -0.038160666823387146, -0.23361995816230774, -0.2808072566986084, -0.16179601848125458, -0.028151942417025566, 0.0980212539434433, 0.2659318149089813, 0.037460118532180786, -0.34000077843666077, -0.06856812536716461, 0.1837107241153717, -0.010302132926881313, -0.06688662618398666, -0.12983576953411102, -0.007444882299751043, 0.20196883380413055, -0.24907156825065613, 0.0778777077794075, -0.20908047258853912, -0.24454210698604584, 0.28446558117866516, 0.033170830458402634, 0.005314703099429607, 0.08202861249446869, 0.1542724370956421, 0.01083272323012352, -0.07232934981584549, -0.04580332338809967, 0.07153945416212082, 0.33312955498695374, -0.11841411888599396, -0.19113054871559143, 0.050214964896440506, 0.06763827055692673, -0.2660098969936371, -0.040812160819768906, 0.03533107414841652, 0.006043580826371908, 0.10004337131977081, 0.042329851537942886, -0.05178631469607353, -0.03754877299070358, -0.007760730572044849, 0.008977367542684078, 0.005175337195396423, -0.021693892776966095, 0.09242770820856094, 0.04932080954313278, 0.2284422516822815, 0.038999877870082855, 0.14241144061088562, -0.14211897552013397, 0.017286276444792747, -0.37021368741989136, -0.0518203042447567, 0.041704993695020676, 0.15309211611747742, 0.003131482983008027, -0.1846127212047577, -0.13749483227729797, -0.1955638974905014, -0.02360684983432293, 0.027411261573433876, -0.2617776691913605, 0.11644131690263748, 0.10331457108259201, -0.1172088086605072, 0.011015360243618488, 0.1690269559621811, -0.03351994976401329, 0.1586086004972458, 0.16228564083576202, -0.09717359393835068, -0.33437982201576233, 0.05175264924764633, 0.18739481270313263, 0.04504769295454025, 0.24162152409553528, 0.012815363705158234, -0.123118095099926, 0.13561898469924927, 0.062050238251686096, 0.0020790782291442156, -0.45723623037338257, 0.12215445935726166, 0.34015747904777527, -0.03802372142672539, 0.10069120675325394, -0.072588711977005, 0.0870671272277832, -0.070339135825634, 0.17536433041095734, -0.10214551538228989, -0.10608885437250137, -0.023499010130763054, -0.17236147820949554, 0.025691572576761246, 0.032579001039266586, -0.11557088792324066, -0.24153220653533936, -0.0609094463288784, -0.01698368787765503, -0.0007934870664030313, -0.18112412095069885, 0.1415218859910965, 0.08003786951303482, -0.04563857242465019, -0.010309146717190742, -0.089739128947258, -0.023762788623571396, -0.13095441460609436, -0.016647113487124443, 0.2551646828651428, 0.27968958020210266, 0.06679642200469971, -0.02707182988524437, -0.08231384307146072, 0.0009128886740654707, -0.08109372854232788, 0.09832930564880371, 0.02618054300546646, -0.037908948957920074, -0.026303870603442192, -0.15800152719020844, -0.017947044223546982, 0.1345723271369934, 0.1641448736190796, -0.03854570910334587, 0.17328698933124542, -0.06811538338661194, 0.05497366935014725, 0.04360056295990944, -0.1044057086110115, -0.12114027887582779, 0.506788432598114, 0.0243555698543787, -0.3510953485965729, -0.18059569597244263, -0.1617749184370041, -0.22669290006160736, 0.016019832342863083, -0.11568597704172134, -0.001441853935830295, 0.05323423445224762, -0.29175785183906555, -0.06439218670129776, 0.22017113864421844, -0.14408087730407715, -0.12567298114299774, 0.043371912091970444, 0.09107475727796555, 0.11007124185562134, 0.09506899863481522, -0.07444379478693008, -0.1462356299161911, 0.007748447824269533, -0.024110043421387672, 0.24169230461120605, -0.28195589780807495, 0.15982405841350555, -0.1501348912715912, 0.09512509405612946, 0.24035513401031494, 0.07681599259376526, 0.0004717233241535723, -0.1102520152926445, -0.1989123821258545, -0.0583215206861496, 0.05723503977060318, -0.25096943974494934, 0.0689680352807045, -0.19278551638126373, 0.0587749108672142, 0.08566746860742569, 0.057036757469177246, -0.014871896244585514, -0.11337517946958542, 0.1319330483675003, -0.013420630246400833, -0.03996790573000908, 0.034231074154376984, 0.19251829385757446, 0.11998927593231201, 0.002868593903258443, 0.15233944356441498, -0.09238561987876892, 0.07905945181846619, 0.153328076004982, -0.2709607481956482, 0.005998673848807812, -0.02946574054658413, -0.12265824526548386, -0.17513112723827362, 0.11123663187026978, -0.004249389283359051, -0.09131021052598953, 0.0018319006776437163, 0.005503284744918346, 0.17081576585769653, 0.25322821736335754, -0.21088072657585144, -0.1640639454126358, 0.1034245565533638, 0.09911265969276428, -0.008875839412212372, 0.001446062233299017, 0.0021773171611130238, 0.2706151008605957, 0.17990495264530182, -0.014808140695095062, 0.15091431140899658, 0.020374387502670288, 0.0040020812302827835, 0.11014839261770248, 0.21177451312541962, 0.20756961405277252, -0.021360570564866066, -0.30861955881118774, -0.08981288224458694, -0.23960861563682556, 0.007817631587386131, -0.02438265271484852, -0.016986068338155746, 0.02912406250834465, -0.16618472337722778, -0.005666905082762241, 0.21938443183898926, 0.08597090095281601, -0.008168446831405163, 0.09580280631780624, -0.06360388547182083, -0.1160578727722168, -0.047948818653821945, -0.06054297462105751, 0.3864385485649109, 0.1688334345817566, -0.283359557390213, -0.04441789165139198, 0.17697294056415558, -0.13699765503406525, 0.2143653780221939, -0.19103612005710602, 0.07978514581918716, -0.29054519534111023, -0.23654457926750183, -0.1901618391275406, 0.2019585222005844, 0.02761833742260933, 0.0023968899622559547, -0.18914982676506042, -0.09141037613153458, -0.1885787546634674], "b": [-0.2899283170700073, -0.23692768812179565, 0.25921159982681274, 0.1270606517791748, 0.1694486290216446, -0.1406240463256836, -0.369205504655838, -0.06078636273741722, 0.20608636736869812, -0.36786699295043945, -0.22756747901439667, 0.2357810139656067, 0.08600723743438721, -0.38485848903656006, 0.3386639654636383, -0.2742481827735901, -0.4623171389102936, -0.48478710651397705, 0.2566976249217987, -0.3422258198261261, 0.11452382802963257, -0.3919999897480011, -0.3313414454460144, -0.2659958600997925, -0.21991147100925446, 0.24007363617420197, 0.3012522757053375, -0.5063461661338806, 0.09512775391340256, -0.4571179747581482, -0.2994072139263153, 0.23207102715969086, 0.20608747005462646, -0.17494818568229675, -0.3775639533996582, -0.32515808939933777, -0.4832571744918823, 0.11271822452545166, -0.3502119779586792, 0.20571117103099823, 0.1481218785047531, -0.38509702682495117, -0.4268657863140106, 0.3081148564815521, 0.16328951716423035, -0.09806518256664276, 0.32585689425468445, 0.30275648832321167, -0.4630548059940338, -0.33750760555267334, 0.26256775856018066, 0.2848740518093109, -0.05371345579624176, 0.2818002998828888, -0.44156238436698914, -0.43849286437034607, -0.2786614000797272, 0.26338520646095276, 0.35274842381477356, 0.09431653469800949, -0.5321048498153687, 0.21899890899658203, -0.4027038812637329, -0.39125263690948486, 0.3939830958843231, 0.2319733053445816, 0.1356211155653, 0.12324178218841553, -0.14957170188426971, 0.42953529953956604, -0.05773571506142616, 0.26950469613075256, -0.18351884186267853, 0.25443726778030396, -0.3367528021335602, -0.4354117810726166, -0.0518551766872406, 0.07094331085681915, 0.23837287724018097, -0.34763938188552856, -0.5485705733299255, 0.31949546933174133, 0.3397533893585205, -0.23103292286396027, -0.4305187463760376, -0.4776417315006256, 0.14468489587306976, -0.2951136529445648, -0.49082183837890625, 0.04941365867853165, -0.258051335811615, 0.2324017733335495, 0.29262974858283997, 0.18627901375293732, -0.4283908009529114, 0.32404401898384094, 0.18889281153678894, -0.4820825159549713, 0.1755988895893097, -0.4782387316226959, -0.5137784481048584, 0.17592504620552063, -0.27908051013946533, 0.2479754090309143, -0.5137518644332886, -0.4749046266078949, 0.18520258367061615, 0.1523059457540512, -0.48328882455825806, -0.057576052844524384, 0.38781899213790894, 0.08076994121074677, -0.32907161116600037, 0.3139358162879944, -0.510810911655426, 0.1976507306098938, 0.23257441818714142, -0.4599154591560364, 0.08167120814323425, 0.4696815013885498, -0.5305154323577881, 0.13244077563285828, 0.2581850588321686, 0.2649702727794647, 0.016022084280848503, 0.2839135527610779, -0.30854350328445435, -0.3078993260860443], "activation": "relu"}, {"inDim": 128, "outDim": 64, "W": [0.09116575866937637, 0.005587865132838488, -0.06083277240395546, -0.019350405782461166, -0.059222299605607986, -0.09054741263389587, -0.021498646587133408, -0.17214158177375793, 0.007678196765482426, -0.05820852145552635, -0.10844125598669052, 0.2513866722583771, 0.014287473633885384, 0.17123162746429443, 0.12632833421230316, -0.14579622447490692, 0.14821824431419373, 0.3101559579372406, -0.26940634846687317, -0.029699089005589485, 0.21594157814979553, 0.039059486240148544, 0.17663611471652985, 0.1287333220243454, -0.12990529835224152, 0.18182820081710815, -0.06156247481703758, -0.14239683747291565, 0.07134068757295609, 0.14090512692928314, 0.09883222728967667, -0.022549394518136978, -0.08862005174160004, -0.07851900160312653, 0.011266903951764107, 0.024948984384536743, -0.22778218984603882, -0.4743735194206238, -0.2076805680990219, -0.0427103154361248, -0.11846710741519928, 0.14051727950572968, 0.1450807750225067, -0.1941167563199997, 0.15470074117183685, 0.048116885125637054, 0.057987332344055176, -0.03435634821653366, 0.043806277215480804, 0.21556706726551056, 0.13136248290538788, -0.10069829970598221, 0.232158362865448, 0.2018314152956009, -0.0013461965136229992, -0.0007656465168111026, 0.1723579466342926, 0.09476155787706375, -0.15668338537216187, -0.16598094999790192, 0.11968699097633362, 0.19446195662021637, 0.13498517870903015, -0.24025776982307434, 0.058334313333034515, -0.027890518307685852, 0.22408197820186615, 0.1771267205476761, -0.08459849655628204, 0.04253432899713516, 0.046075209975242615, 0.0719028189778328, -0.12445403635501862, -0.04122800752520561, 0.05064066872000694, 0.1210756003856659, -0.007462929934263229, -0.18350636959075928, 0.23841774463653564, 0.3339063227176666, -0.032140281051397324, 0.15443634986877441, 0.3350072205066681, -0.3173992335796356, 0.014581873081624508, -0.06072651222348213, -0.022755183279514313, 0.05866339057683945, 0.19899505376815796, -0.12413682043552399, 0.1611730307340622, 0.3275981843471527, 0.057136598974466324, -0.156747967004776, 0.013910746201872826, 0.09354180842638016, 0.035439252853393555, -0.045880887657403946, 0.25501102209091187, 0.08638156205415726, 0.08953338116407394, -0.05162060260772705, 0.2445351928472519, -0.1046748161315918, 0.22775548696517944, -0.1206265464425087, -0.13547153770923615, 0.18014419078826904, -0.2032415270805359, -0.11098473519086838, 0.012878862209618092, -0.15392272174358368, 0.22347599267959595, -0.07480081170797348, -0.09760933369398117, 0.1597011238336563, -0.13523250818252563, -0.07823663204908371, -0.06847044080495834, -0.007961062714457512, -0.17013469338417053, -0.10121282935142517, 0.2588614225387573, -0.14268307387828827, -0.40707331895828247, 0.04538685083389282, -0.0544668473303318, 0.33059296011924744, -0.010706724599003792, -0.13695664703845978, -0.07489949464797974, 0.015504581853747368, -0.15440016984939575, -0.14249397814273834, -0.017240239307284355, -0.35583963990211487, 0.005397511646151543, -0.05302267521619797, 0.05925959721207619, -0.008029665797948837, -0.07007748633623123, 0.10701704025268555, 0.03566686064004898, -0.17722676694393158, 0.19154967367649078, 0.07858306169509888, -0.048439446836709976, 0.23790790140628815, 0.2028539627790451, -0.01812831684947014, -0.0006727667641825974, 0.06525146216154099, -0.28839486837387085, -0.08987075090408325, 0.06399018317461014, -0.4125547409057617, -0.012261672876775265, 0.14682474732398987, 0.05434582009911537, -0.4655841588973999, -0.340093731880188, -0.07551213353872299, -0.0701325312256813, 0.08660730719566345, -0.42637062072753906, 0.016637835651636124, -0.20063231885433197, 0.003751591080799699, -0.10247858613729477, 0.11617676913738251, -0.0041400594636797905, -0.11100941896438599, 0.11864039301872253, -0.03012365847826004, -0.028248412534594536, 0.07407990097999573, -0.02083597145974636, 0.08522351086139679, 0.0396602563560009, -0.16081850230693817, 0.14518286287784576, 0.09935826808214188, -0.11530002951622009, -0.23286816477775574, 0.11613746732473373, -0.07539242506027222, -0.3807257413864136, 0.1352640986442566, 0.08164384216070175, 0.1898156702518463, -0.014001492410898209, -0.2959502637386322, 0.029150251299142838, 0.10477201640605927, 0.14840036630630493, 0.10234986990690231, 0.1685972958803177, 0.28082916140556335, -0.006968304514884949, 0.21788185834884644, -0.007925339043140411, -0.07479078322649002, -0.08997263014316559, 0.05520108342170715, 0.1728016585111618, -0.18894308805465698, 0.032603152096271515, 0.030089743435382843, -0.0517488569021225, -0.02008586749434471, 0.14606471359729767, -0.07518034428358078, 0.0010691321222111583, 0.006531182210892439, -0.23527079820632935, 0.1082943007349968, 0.12937648594379425, 0.018785301595926285, 0.20610101521015167, 0.06925823539495468, -0.01921824738383293, 0.021341919898986816, 0.04052502661943436, 0.14099562168121338, 0.13302533328533173, -0.053527772426605225, 0.14979608356952667, 0.13686369359493256, 0.1380573809146881, 0.11153402924537659, 0.06196831166744232, -0.0049495575949549675, 0.11527172476053238, -0.04782872647047043, -0.08103008568286896, 0.20197421312332153, 0.05029115453362465, 0.03740481659770012, -0.07164672017097473, 0.06557795405387878, 0.015924563631415367, 0.03623739629983902, -0.06253436952829361, 0.19767042994499207, -0.17387285828590393, -0.12192735821008682, 0.18359391391277313, 0.16426196694374084, -0.08809130638837814, 0.2140939086675644, 0.10200001299381256, -0.036559127271175385, -0.06447447836399078, 0.05730500817298889, -0.03536365553736687, 0.04325342923402786, -0.17522327601909637, 0.1205049529671669, 0.13007760047912598, 0.06490069627761841, 0.002285200171172619, 0.11972354352474213, -0.056626223027706146, 0.06205296888947487, -0.08254022151231766, 0.016535328701138496, -0.04158109426498413, 0.13471464812755585, -0.06697005778551102, -0.006107644643634558, 0.11946676671504974, 0.023297768086194992, 0.1026863157749176, 0.1783653050661087, 0.03987620398402214, 0.2452138215303421, 0.2092580646276474, -0.2605457603931427, -0.06026619300246239, 0.1435800939798355, -0.053196828812360764, -0.04603174328804016, 0.20444610714912415, -0.03704751655459404, -0.08962885290384293, -0.19503886997699738, 0.2745332419872284, 0.16231858730316162, 0.10131289064884186, 0.047304604202508926, 0.037624601274728775, 0.203065887093544, 0.10734254866838455, -0.42154696583747864, 0.007052029017359018, -0.07636001706123352, 0.027468934655189514, -0.11930534988641739, 0.0070533230900764465, 0.03645182028412819, 0.2413107007741928, 0.10293934494256973, 0.07578298449516296, 0.13034610450267792, 0.05015108734369278, 0.2273993343114853, -0.20077140629291534, 0.053968336433172226, -0.04816018044948578, 0.18365448713302612, 0.014512645080685616, 0.06265278160572052, -0.013715237379074097, 0.1853834092617035, -0.029454026371240616, 0.2676031291484833, 0.07319733500480652, 0.19153253734111786, -0.13585928082466125, 0.06775862723588943, 0.07357939332723618, -0.1585920751094818, 0.07356385141611099, 0.06040845066308975, -0.019904058426618576, 0.028948038816452026, -0.07027435302734375, -0.13292555510997772, 0.03824014216661453, 0.002993100555613637, 0.012251078151166439, -0.08774133026599884, 0.023876214399933815, -0.06901803612709045, -0.004421423189342022, 0.0821877121925354, -0.02068481035530567, -0.017045820131897926, 0.12845025956630707, 0.012696219608187675, -0.09001687914133072, 0.0988864004611969, 0.03245658800005913, -0.11558226495981216, -0.04300839081406593, -0.14768636226654053, 0.13732866942882538, 0.0026306998915970325, 0.05671194568276405, -0.021199654787778854, -0.05709882080554962, -0.41944706439971924, 0.3410196602344513, 0.038827598094940186, -0.0019973814487457275, 0.031102975830435753, 0.04850977286696434, 0.23042139410972595, 0.1301390826702118, -0.1029636561870575, 0.10226578265428543, -0.0918290913105011, -0.019389409571886063, 0.14548909664154053, -0.03188006207346916, -0.03412685543298721, 0.07335414737462997, 0.03240246698260307, -0.03936723247170448, -0.01983712427318096, 0.05934138596057892, 0.02175208181142807, 0.05101988837122917, -0.10812611877918243, -0.026612143963575363, 0.010532677173614502, -0.003000580472871661, -0.12089969217777252, -0.1977742612361908, -0.07575148344039917, 0.023978175595402718, 0.05739009380340576, -0.057719144970178604, 0.008119163103401661, -0.058636002242565155, 0.04894721880555153, 0.008386757224798203, -0.11245284229516983, 0.0883307009935379, 0.2538493871688843, 0.03258248046040535, 0.20337577164173126, -0.07036343216896057, 0.01478867419064045, -0.09557409584522247, -0.01575792394578457, 0.166899636387825, -0.22139805555343628, 0.03766793757677078, 0.17169539630413055, 0.09947537630796432, -0.15924052894115448, 0.1974199265241623, -0.00414087763056159, -0.055468861013650894, -0.07168110460042953, -0.24598586559295654, -0.13070419430732727, 0.4299834966659546, -0.03327782452106476, -0.09475702047348022, 0.23090149462223053, 0.04420872777700424, -0.2886556386947632, -0.06905995309352875, 0.4236636459827423, 0.10306377708911896, 0.018060363829135895, 0.3032603859901428, -0.21281610429286957, 0.13691221177577972, 0.2910953164100647, 0.09166533499956131, -0.066037617623806, 0.19295009970664978, -0.1698242872953415, -0.23943908512592316, 0.10429228842258453, -0.4727243483066559, -0.03879239037632942, 0.05746246129274368, -0.006471401080489159, -0.07580570876598358, -0.08115874975919724, -0.19411598145961761, 0.03889821469783783, -0.2062833458185196, -0.13595253229141235, 0.13796864449977875, 0.10514980554580688, -0.22546721994876862, 0.10820954293012619, 0.4665573537349701, -0.05650020390748978, -0.31963488459587097, -0.2787637710571289, -0.1797519475221634, 0.21611915528774261, 0.01472488697618246, 0.08373083919286728, 0.28998199105262756, 0.20405776798725128, -0.047214388847351074, -0.14023715257644653, 0.06379900872707367, -0.019594183191657066, 0.011163166724145412, -0.0028522389475256205, -0.017669133841991425, 0.15676847100257874, -0.0881875604391098, 0.06051870062947273, 0.12672564387321472, 0.14609889686107635, 0.08104287832975388, 0.05728039890527725, 0.007371901068836451, 0.06940505653619766, 0.07668787986040115, -0.2323819100856781, 0.05297493189573288, -0.0034808379132300615, 0.03492432460188866, -0.07127811014652252, 0.1261524111032486, 0.22764039039611816, -0.08144398778676987, -0.08449754863977432, 0.19331225752830505, 0.02804654836654663, 0.06508821249008179, 0.0037150823045521975, 0.07833071053028107, 0.2972243130207062, 0.13089077174663544, -0.3065336048603058, 0.059104014188051224, -0.04400151968002319, 0.18312065303325653, -0.04197334870696068, 0.07172194123268127, 0.10219191014766693, 0.055766768753528595, -0.14882655441761017, 0.041977304965257645, -0.014292129315435886, 0.439212441444397, 0.272071897983551, -0.08733979612588882, 0.17106276750564575, 0.11769552528858185, 0.12460437417030334, -0.03365910053253174, -0.10164997726678848, -0.04182075336575508, -0.1057070642709732, 0.10818497091531754, 0.08522427082061768, -0.058709967881441116, 0.2419849932193756, 1.0046281317954708e-07, 0.18868429958820343, 0.02915307693183422, 0.03970537707209587, 0.1439298689365387, -0.012992952950298786, 0.05845784768462181, -0.029735997319221497, -0.04711136966943741, 0.15239067375659943, -0.09844186902046204, -0.04803065210580826, 0.021182361990213394, 0.0057762302458286285, 0.047240618616342545, 0.12299805134534836, -0.0533929280936718, 0.13147081434726715, 0.035540543496608734, -0.020340409129858017, 0.016980532556772232, 0.05088556185364723, 0.04890257492661476, 0.0784681960940361, 0.055810440331697464, 0.16752590239048004, 0.06489308178424835, 0.05295944586396217, 0.061970245093107224, 0.006283581256866455, 0.010103325359523296, 0.1463988572359085, 0.0581231489777565, 0.10304908454418182, 0.14609090983867645, 0.004633554257452488, 0.055977534502744675, 0.10695694386959076, 0.01487678848206997, -0.09393147379159927, 0.08523648977279663, -0.15821053087711334, 0.04365161061286926, 0.10505875200033188, 0.1525602787733078, -0.044929005205631256, 0.04798064008355141, 0.02441779337823391, -0.01261296309530735, 0.01446192990988493, 0.07720456272363663, 0.12523221969604492, 0.12957735359668732, 0.06719096004962921, 0.0865044966340065, 0.11123362928628922, 0.024840692058205605, -0.0029081087559461594, 0.03511391952633858, 0.01793438382446766, 0.0762210413813591, 0.10863181203603745, 0.09985692799091339, -0.00798684824258089, 0.11306709051132202, 0.11374806612730026, 0.017051618546247482, -0.07235407084226608, -0.4764667749404907, -0.04109383374452591, -0.008117860183119774, 0.14165104925632477, 0.04259926825761795, -0.09889126569032669, -0.044521693140268326, -0.0014467996079474688, -0.06839980185031891, 0.17743873596191406, -0.02317233569920063, -0.2855430245399475, 0.03100593388080597, -0.21151919662952423, 0.04364589601755142, 0.10728475451469421, 0.25051119923591614, 0.07586012780666351, 0.04318852722644806, -0.06357981264591217, -0.20867176353931427, -0.10740650445222855, 0.17322731018066406, -0.06593260914087296, -0.05734637379646301, 0.05205077305436134, 0.04304369539022446, -0.26553642749786377, 0.21300189197063446, 0.1467674970626831, -0.02283879555761814, -0.0029011901933699846, 0.20121896266937256, -0.20306220650672913, -0.0649963989853859, 0.36635860800743103, -0.3129599690437317, -0.05295524373650551, 0.069481261074543, -0.22328899800777435, -0.2546496093273163, 0.15933939814567566, 0.08135973662137985, -0.048649802803993225, 0.05273766443133354, 0.1368953287601471, -0.32726365327835083, 0.142494797706604, -0.04175809398293495, -0.2093304693698883, -0.24232006072998047, 0.10240412503480911, -0.04204854741692543, 0.020494485273957253, -0.3203485608100891, -0.03620269149541855, 0.377299427986145, 0.06191713362932205, 0.06832760572433472, -0.013101056218147278, -0.28338494896888733, -0.005616963841021061, 0.14263005554676056, 0.1688225269317627, 0.23586709797382355, 0.24617907404899597, -0.056551504880189896, -0.01608467847108841, -0.029917914420366287, 0.012812426313757896, 0.08857140690088272, -0.06246814876794815, 0.03887835517525673, 0.08803185075521469, 0.08232023566961288, 0.07247055321931839, 0.18356555700302124, 0.0034902654588222504, -0.041734229773283005, 0.02246834710240364, -0.17031829059123993, 0.04057585820555687, 0.017747361212968826, 0.243671715259552, 0.2089890092611313, 0.14237704873085022, -0.11393898725509644, 0.22682465612888336, 0.2624277174472809, 0.024988781660795212, 0.048257481306791306, 0.14146915078163147, -0.06355920433998108, -0.06790857017040253, -0.06413869559764862, 0.07231634110212326, 0.12229786068201065, 0.20760634541511536, -0.19996222853660583, -0.7487576007843018, -0.1146160438656807, -0.0415102019906044, -0.012628646567463875, 0.2828948497772217, -0.2082173079252243, -0.023159192875027657, 0.29475167393684387, 0.1662965565919876, 0.0677676722407341, -0.06776753813028336, 0.1822168231010437, -0.0905182883143425, 0.3512911796569824, 0.10666162520647049, 0.0630938857793808, -0.08397036045789719, 0.06499556452035904, -0.028019696474075317, 0.0031343677546828985, 0.062017686665058136, -0.07604460418224335, 0.027733266353607178, -0.12447480857372284, 0.05543108657002449, 0.10990659147500992, -0.05587470903992653, 0.11615031212568283, 0.19403886795043945, 0.1491830050945282, 0.15345315635204315, 0.08214640617370605, 0.19650359451770782, 0.07038363814353943, 0.201094850897789, 0.025280192494392395, -0.06123906373977661, 0.017221961170434952, 0.09530166536569595, 0.13295115530490875, -0.18390849232673645, 0.09532655775547028, 0.08047997206449509, 0.04187178611755371, 0.13815070688724518, 0.07568032294511795, 0.02751345932483673, 0.020570695400238037, 0.0736963152885437, -0.03932621330022812, 0.10272055864334106, 0.06457434594631195, 0.07037287205457687, 0.15619227290153503, 0.018310245126485825, 0.04708731546998024, -0.14960914850234985, -0.040444985032081604, 0.16452142596244812, 0.020030552521348, 0.011884286999702454, 0.029717547819018364, 0.044694993644952774, 0.13874578475952148, 0.0734478011727333, 0.01599082536995411, -0.17648951709270477, -0.02815142832696438, -0.14611701667308807, -0.3704655170440674, 0.1303800344467163, 0.16324089467525482, 0.15761122107505798, 0.008074809797108173, -0.18998213112354279, 0.14470234513282776, 0.053173620253801346, 0.052095718681812286, 0.11969523876905441, -0.09777367115020752, -0.049853287637233734, 0.11774177849292755, 0.17416627705097198, -0.037839375436306, 0.13320687413215637, -0.03086286410689354, -0.060309622436761856, -0.1250976175069809, 0.039505839347839355, -0.0457904152572155, 0.06266365200281143, 0.1145220398902893, 0.09389133006334305, 0.3060271441936493, 0.11527401953935623, 0.1407119482755661, 0.025651369243860245, -0.0362154021859169, 0.09646448493003845, -0.04904051870107651, -0.0037281743716448545, -0.08198782801628113, -0.06828980892896652, -0.02422463521361351, 0.07507707923650742, 0.07718656212091446, 0.12320350110530853, -0.01900256611406803, -0.031562283635139465, -0.1495600789785385, 0.024497710168361664, -0.03190823271870613, -0.044847968965768814, 0.05757469683885574, 0.012049472890794277, -0.05658465251326561, 0.015969110652804375, 0.23121249675750732, 0.14225764572620392, 0.04661814868450165, 0.10616344213485718, 0.20248475670814514, 0.1536308079957962, 0.18447135388851166, -0.08670997619628906, -0.02225775644183159, 0.3081281781196594, 0.09896835684776306, -0.4242304563522339, 0.14196041226387024, -0.0707428827881813, -0.009944012388586998, 0.17314594984054565, 0.1148129552602768, 0.01820356771349907, 0.2289251834154129, 0.06423413008451462, 0.055774759501218796, 0.025019986554980278, 0.23168402910232544, 0.129398375749588, 0.03745369240641594, 0.117249496281147, 0.04179104045033455, 0.24028588831424713, -0.028979647904634476, -0.051049359142780304, 0.16244728863239288, 0.05277373641729355, -0.10953088849782944, -0.02856462448835373, 0.11569443345069885, 0.007286414038389921, 0.1114499419927597, 0.12647254765033722, -0.1845945566892624, -0.3109852373600006, -0.004852511920034885, 0.09696651250123978, -0.2207358330488205, -0.19529810547828674, 0.08775679767131805, -0.1542946696281433, -0.022752607241272926, -0.035603322088718414, 0.014773935079574585, 0.14752119779586792, -0.1212206557393074, 0.02156476303935051, 0.09702444076538086, -0.20679330825805664, 0.09313080459833145, 0.230091392993927, 0.029175417497754097, 0.2000945508480072, 0.23546835780143738, -0.1274288296699524, -0.05850977078080177, -0.21816492080688477, -0.289421021938324, -0.2462754249572754, -0.0035689854994416237, -0.3719383478164673, 0.001001051627099514, -0.2084726095199585, 0.30770212411880493, -0.25345540046691895, -0.020159099251031876, 0.0336577482521534, 0.01092820055782795, -0.012396126054227352, -0.3339633643627167, -0.032884590327739716, -0.23411153256893158, -0.04287916421890259, -0.19818896055221558, -0.11952035129070282, 0.06035694479942322, -0.317386656999588, 0.019851204007864, -0.23695924878120422, 0.015401695854961872, 0.32837167382240295, -0.11165723204612732, 0.37611153721809387, -0.14324747025966644, -0.12170951813459396, -0.08412095904350281, 0.2305004745721817, -0.34385502338409424, -0.17943158745765686, -0.022927673533558846, -0.22723157703876495, -0.25433823466300964, 0.2681558430194855, 0.3017381429672241, 0.034429412335157394, -0.125922292470932, -0.32164278626441956, 0.02939613349735737, 0.15917158126831055, 0.1212879866361618, 0.014696041122078896, 0.17651408910751343, 0.04041505977511406, -0.07373371720314026, 0.06906533241271973, -0.09801448881626129, 0.01112234964966774, -0.001432779710739851, 0.011775183491408825, 0.03864983469247818, 0.23543056845664978, 0.02141687646508217, 0.06232330948114395, 0.0018309787847101688, -0.09018968045711517, -0.20756782591342926, 0.03162595257163048, 0.03961930796504021, 0.09790905565023422, 0.07135498523712158, 0.21128785610198975, 0.07724133133888245, 0.1436028629541397, 0.009293671697378159, 0.051233869045972824, -0.0034937611781060696, 0.09649194031953812, -0.011080904863774776, 0.10056819766759872, 0.05506499111652374, -0.06678540259599686, 0.015526785515248775, 0.08100621402263641, 0.10502318292856216, -0.2531384229660034, 0.14515374600887299, 0.008898627944290638, -0.040147729218006134, 0.0966993123292923, 0.18904244899749756, -0.12024091184139252, 0.05650578811764717, 0.21804317831993103, 0.007620116695761681, -0.035855844616889954, 0.253659725189209, 0.08041496574878693, 0.08619119971990585, 0.048457711935043335, 0.2590978443622589, 0.14811961352825165, 0.11001516133546829, 0.14273501932621002, 0.15621906518936157, 0.20120416581630707, 0.07872655987739563, -0.02105035074055195, 0.09910804778337479, 0.006742784287780523, 0.18964864313602448, 0.13404646515846252, -0.11107135564088821, -0.1037517860531807, 0.012010622769594193, 0.2078126221895218, -0.24568995833396912, -0.040946442633867264, 0.03996455669403076, -0.06838689744472504, 0.02655571699142456, -0.020738894119858742, -0.07759512215852737, 0.23026858270168304, -0.10489190369844437, -0.07332104444503784, 0.20692498981952667, 0.12306328117847443, -0.031521596014499664, 0.13101588189601898, 0.24659527838230133, 0.10892363637685776, 0.13773281872272491, -0.03203762322664261, -0.15192218124866486, -0.16114294528961182, -0.11336866021156311, -0.1390092372894287, 0.29186517000198364, -0.1635257601737976, -0.00808361079543829, -0.18406681716442108, 0.13742327690124512, -0.5563508868217468, 0.2249709665775299, 0.05222410336136818, 0.17975130677223206, 0.13812071084976196, -0.11820942908525467, 0.2382432222366333, 0.11159361153841019, 0.0367799736559391, 0.08987248688936234, -0.16763775050640106, -0.17209070920944214, 0.194467693567276, 0.2938286364078522, -0.1843496412038803, -0.03157688304781914, 0.10222798585891724, 0.1386563628911972, 0.0526852086186409, -0.07243642956018448, 0.18511927127838135, -0.16634811460971832, -0.008231780491769314, -0.012982670217752457, -0.023589124903082848, -0.04311114922165871, -0.12055733054876328, -0.3296329975128174, 0.08838771283626556, -0.0368725024163723, 0.24439582228660583, -0.2025439292192459, -0.0801856592297554, 0.4356306195259094, 0.10702120512723923, -0.6350176334381104, -0.6843083500862122, -0.04224853217601776, 0.00465143658220768, 0.029057351872324944, -0.03219904378056526, -0.07001655548810959, 0.0018049071077257395, 0.031251486390829086, -0.16564835608005524, 0.17872239649295807, 0.3102225959300995, -0.2960985600948334, -0.496233195066452, -0.09163001924753189, -0.227337047457695, -0.37525904178619385, -0.3174234926700592, -0.23117971420288086, 0.4311246871948242, 0.3746381103992462, 0.19573593139648438, -0.26582983136177063, 0.27431660890579224, -0.6187716126441956, -0.5319084525108337, -0.06264103949069977, 0.2955390214920044, 0.06687261164188385, -0.2084376960992813, -0.3286047875881195, -0.059124600142240524, -0.4034007489681244, -0.6587137579917908, -0.2673643231391907, 0.1217900812625885, -0.3307510316371918, -0.11862122267484665, -0.4889221489429474, 0.29200807213783264, -0.012149037793278694, -0.3233700096607208, -0.5197978019714355, 0.34820473194122314, -0.007695776876062155, -0.4506642818450928, -0.5739483833312988, 0.08106999844312668, 0.5119084119796753, -0.5194762349128723, 0.28848540782928467, 0.22856004536151886, 0.0798594057559967, 0.1910627782344818, 0.2816837430000305, 0.21255885064601898, -0.3792664408683777, -0.5784099102020264, -0.028943026438355446, -0.467656672000885, 0.29846838116645813, -0.3979164659976959, 0.2360449731349945, -0.13288210332393646, -0.4041631519794464, -0.3923729658126831, -0.05134769156575203, -0.06185073405504227, 0.05957212299108505, -0.11969369649887085, -0.08505521714687347, -0.06268550455570221, 0.004750153515487909, -0.389248251914978, -0.09323461353778839, 0.33168625831604004, -0.26357969641685486, -0.3099486827850342, -0.03133988007903099, -0.31796687841415405, -0.1855507791042328, -0.15302367508411407, -0.13158325850963593, 0.25502750277519226, 0.32985571026802063, 0.1804782897233963, -0.24361871182918549, 0.054865363985300064, -0.27274012565612793, -0.33297809958457947, 0.008025937713682652, 0.27473554015159607, -0.08332674950361252, -0.24223802983760834, -0.3656080365180969, 0.03372078388929367, -0.4226679801940918, -0.36300128698349, -0.5416312217712402, 0.14670570194721222, -0.33709535002708435, -0.02823617495596409, -0.31558042764663696, 0.3194241225719452, 0.18292342126369476, -0.21760967373847961, -0.28016379475593567, 0.13448917865753174, -0.0826236829161644, -0.1333768665790558, -0.26041191816329956, -0.04081480950117111, 0.22973357141017914, -0.3711645305156708, 0.403407484292984, 0.036578256636857986, 0.025365477427840233, -0.05390463396906853, 0.274128258228302, -0.14710873365402222, 0.17528612911701202, -0.1341327726840973, -0.03834671527147293, -0.2011978179216385, 0.36094000935554504, -0.27941301465034485, 0.07779914140701294, 0.013796217739582062, -0.2899334132671356, -0.21894392371177673, 0.07117963582277298, -0.11245261877775192, -0.0027090010698884726, -0.13429021835327148, -0.004299044143408537, 0.02219199389219284, 0.07426488399505615, -0.163521870970726, 0.019008060917258263, 0.10499875992536545, -0.23656797409057617, -0.3271971046924591, -0.06283432990312576, -0.1652904599905014, -0.08675437420606613, -0.037105537950992584, -0.09999267011880875, 0.026994075626134872, 0.13338565826416016, 0.15615007281303406, -0.25803515315055847, -0.031578246504068375, -0.24082525074481964, -0.46724215149879456, 0.04957036301493645, 0.054404906928539276, 0.00192185677587986, -0.12306923419237137, -0.3143311142921448, -0.10056640207767487, -0.13890999555587769, -0.3212822377681732, -0.24759656190872192, 0.0891764834523201, -0.46627289056777954, -0.028497183695435524, -0.21821317076683044, 0.15638518333435059, 0.14715637266635895, -0.31006425619125366, -0.05058100074529648, 0.12996390461921692, 0.0481589213013649, 0.11016419529914856, -0.46039900183677673, 0.026351220905780792, 0.13163556158542633, -0.2903887927532196, 0.10711055994033813, 0.2010251134634018, -0.08845704793930054, -0.03660312667489052, 0.2419472634792328, -0.04708053544163704, -0.2263811230659485, 0.04454057663679123, 0.21064995229244232, -0.16619524359703064, 0.13380779325962067, -0.5306015014648438, 0.2641506493091583, 0.0010865378426387906, -0.10796847194433212, -0.1334046721458435, 0.3303261995315552, 0.35680243372917175, -0.004700244404375553, 0.2652570903301239, 0.033440541476011276, -0.06161579489707947, 0.07408781349658966, -0.2694443166255951, 0.34958919882774353, -0.23654235899448395, -0.2574201226234436, 0.02534279227256775, -0.15505953133106232, -0.19964741170406342, 0.03379976004362106, -0.1788869947195053, -0.1964922547340393, 0.3201785385608673, -0.07021921873092651, -0.034651145339012146, 0.2257043719291687, -0.02519972063601017, -0.13994330167770386, -0.04489541053771973, 0.0509197860956192, -0.23861615359783173, -0.03908134624361992, 0.17078638076782227, 0.3618966042995453, -0.052000150084495544, -0.04485213756561279, -0.12748321890830994, 0.3303850591182709, 0.4340500831604004, -0.02470937930047512, -0.06355728954076767, -0.017277352511882782, -0.418216347694397, -0.43949300050735474, 0.15425874292850494, -0.14855526387691498, 0.1548880636692047, -0.014448901638388634, -0.16158321499824524, -0.20169155299663544, -0.15036867558956146, 0.24727515876293182, -0.06001129373908043, 0.08767538517713547, -0.35955122113227844, 0.28569406270980835, 0.28559982776641846, -0.15875932574272156, 0.09373625367879868, 0.12286905944347382, -0.3276311159133911, -0.2251616269350052, -0.22457271814346313, -0.12196379154920578, 0.007232384290546179, 0.12572695314884186, -0.055567070841789246, 0.13554933667182922, 0.03833187371492386, 0.0375710055232048, 0.0632779523730278, -0.018325261771678925, 0.2819983959197998, -0.10222627222537994, 0.0387248620390892, 0.07600687444210052, 0.016443107277154922, 0.11337760835886002, 0.15675699710845947, 0.0095414062961936, 0.12383652478456497, 0.07867993414402008, -0.10775551944971085, -0.19178059697151184, 0.03620893508195877, -0.0773487314581871, 0.03350922465324402, 0.23031805455684662, 0.03924506530165672, 0.14965476095676422, 0.1353781670331955, -0.01930711790919304, 0.0013815100537613034, -0.04372881352901459, 0.08637167513370514, -0.09688149392604828, 0.2496224045753479, 0.2471737414598465, -0.0007608633604831994, -0.08327701687812805, 0.08338019251823425, 0.2741330862045288, -0.07785526663064957, 0.20396144688129425, -0.01111457496881485, -0.12273494154214859, 0.10642417520284653, 0.14219926297664642, -0.059287235140800476, -0.09513045847415924, 0.08200324326753616, 0.03318405523896217, -0.037962816655635834, 0.2585090696811676, 0.007943112403154373, 0.02763501927256584, 0.01699981279671192, 0.1505715399980545, 0.10795198380947113, 0.20099538564682007, 0.18300653994083405, 0.14651060104370117, 0.03232245892286301, 0.14475445449352264, -0.03172498196363449, 0.1809948831796646, 0.0401235967874527, 0.04484010115265846, 0.209429070353508, -0.25040382146835327, 0.009902909398078918, -0.008730128407478333, -0.008549995720386505, -0.0992223471403122, -0.33062979578971863, -0.0030868223402649164, -0.19279015064239502, 0.01116032712161541, 0.0877101793885231, -0.009497491642832756, 0.09962072968482971, -0.10690701752901077, 0.1670500487089157, 0.15279902517795563, -0.15003111958503723, 0.3052113652229309, 0.12655994296073914, -0.07377803325653076, 0.12613986432552338, 0.2648683190345764, 0.08189626038074493, 0.15095901489257812, -0.031678687781095505, -0.2751380205154419, -0.07252329587936401, -0.0724211260676384, -0.2213769257068634, 0.014947231858968735, 0.057801321148872375, 0.21395166218280792, 0.005135065875947475, -0.2115471065044403, -0.04401986673474312, -0.06838148087263107, -0.09429384768009186, -0.2607772946357727, -0.2777250111103058, -0.2563132643699646, 0.02352701686322689, -0.20502522587776184, 0.010705603286623955, 0.19239626824855804, -0.616355299949646, -0.043622396886348724, -0.06509745121002197, -0.05185624957084656, 0.34158867597579956, -0.15686623752117157, 0.26455697417259216, -0.2987629175186157, -0.09691149741411209, 0.07774942368268967, 0.3329257667064667, -0.11423745006322861, -0.20628131926059723, 0.2117587774991989, -0.04231648147106171, -0.364675372838974, 0.2716657519340515, 0.29169636964797974, 0.14555880427360535, 0.1543247103691101, -0.31330549716949463, 0.26177796721458435, 0.0922805666923523, -0.15557244420051575, -0.13403087854385376, 0.11664045602083206, 0.13427339494228363, 0.03503217175602913, 0.08617276698350906, 0.05352203920483589, 0.030632244423031807, 0.03803316131234169, -0.0659322589635849, 0.1852540820837021, 0.06689511984586716, -0.0809880718588829, -0.16832122206687927, -0.00555027462542057, 0.025401657447218895, -0.2161247879266739, -0.014129236340522766, -0.0760306864976883, 0.28041109442710876, 0.07731980085372925, -0.0984022319316864, -0.03480878844857216, 0.10733619332313538, -0.0827358141541481, -0.1414499282836914, -0.09819577634334564, 0.08377107232809067, -0.009692098945379257, 0.006837599445134401, 0.03635947406291962, 0.05169712379574776, -0.03594432771205902, -0.1646413505077362, -0.07306922972202301, -0.06771985441446304, -0.16055180132389069, -0.06260042637586594, -0.13768091797828674, -0.097540944814682, 0.03215804696083069, -0.06516274809837341, 0.0887717455625534, 0.1123865395784378, -0.002352507319301367, -0.04439513012766838, -0.1252811998128891, -0.05648968368768692, 0.14148718118667603, -0.1871151626110077, 0.2222934067249298, 0.10808680206537247, 0.209019273519516, 0.24327465891838074, 0.1508791446685791, 0.11748172342777252, -0.04275209829211235, -0.06016258895397186, 0.0948290005326271, -0.023918725550174713, 0.050007164478302, -0.16700580716133118, 0.1026029884815216, -0.015727948397397995, -0.01697774976491928, -0.1347235143184662, 0.1411154419183731, 0.11833830922842026, 0.025311268866062164, -0.024602757766842842, -0.11611497402191162, -0.06836141645908356, -0.006982320453971624, 0.026207728311419487, 0.07680989056825638, 0.008546975441277027, -0.15239286422729492, -0.07913810759782791, -0.06312137097120285, -0.08762573450803757, 0.11565236002206802, 0.07751085609197617, -0.13652382791042328, -0.10010585933923721, -0.15462490916252136, 0.04146476089954376, 0.07379554212093353, 0.007878393866121769, -0.2582494020462036, 0.049479201436042786, 0.014903032220900059, -0.08619683235883713, 0.021721042692661285, 0.18779204785823822, -0.06252575665712357, 0.02115199901163578, 0.07187841087579727, -0.11450985074043274, 0.07925039529800415, 0.2922091484069824, 0.005143449176102877, -0.08279657363891602, -0.08723463118076324, -0.13802747428417206, -0.07640053331851959, 0.057554420083761215, -0.17680703103542328, -0.08989302814006805, -0.041097190231084824, 0.11939210444688797, -0.08924882113933563, -0.0608912892639637, -0.05713474750518799, 0.031518515199422836, -2.9306256692507304e-05, 0.08496374636888504, 0.09051945805549622, 0.09316333383321762, -0.08535417169332504, -0.03335986286401749, 0.32170596718788147, 0.0428229421377182, 0.032649170607328415, -0.0641360878944397, -0.021274173632264137, 0.003865339793264866, 0.08185311406850815, 0.2363487035036087, -0.23959189653396606, 0.05493323504924774, 0.20736803114414215, 0.3461717963218689, -0.09481967240571976, 0.18913812935352325, -0.04533827677369118, 0.029276221990585327, 0.045438800007104874, -0.008363957516849041, 0.284746915102005, 0.03435385972261429, 0.02328534983098507, -0.16999420523643494, -0.018310684710741043, -0.035997677594423294, -0.13260705769062042, 0.10403159260749817, 0.02988632768392563, 0.2286369949579239, -0.09723658114671707, -0.11878623813390732, -0.05528319254517555, 0.2142011821269989, -0.025750400498509407, -0.1525552123785019, -0.041914112865924835, -0.06422039866447449, 0.0934344232082367, -0.013490302488207817, -0.07436701655387878, 0.010221436619758606, -0.14997826516628265, -0.033732809126377106, -0.02841610088944435, 0.28023210167884827, -0.17239171266555786, -0.004721406847238541, -0.16941902041435242, -0.1314138025045395, -0.09643618762493134, 0.0506780743598938, -0.03575245663523674, 0.10714106261730194, -0.005559483543038368, 0.01110822893679142, -0.0929582267999649, 0.026661302894353867, 0.003545875195413828, -0.18157213926315308, 0.12421056628227234, 0.2567717730998993, 0.2614388167858124, 0.30947837233543396, 0.12457285076379776, 0.22579607367515564, -0.12062303721904755, 0.07654310017824173, 0.17109926044940948, 0.11871030926704407, 0.006669907830655575, -0.21536536514759064, -0.016367223113775253, -0.16180174052715302, -0.08608133345842361, 0.01420325506478548, -0.16766759753227234, -0.37706640362739563, -0.07513242959976196, -0.5297301411628723, -0.06347507238388062, -0.07008647918701172, 0.0013817346189171076, 0.0702313780784607, -0.14177098870277405, 0.23050184547901154, 0.18379054963588715, -0.07366562634706497, 0.17425550520420074, 0.1455865055322647, 0.03467182815074921, 0.0529104508459568, 0.11793434619903564, 0.07929760962724686, 0.042662717401981354, 0.006041249725967646, -0.3071337938308716, -0.013408578932285309, 0.02255708910524845, -0.14840160310268402, -0.07770084589719772, 0.07290486991405487, 0.07027100026607513, -0.3730321228504181, -0.29780980944633484, 0.04048100858926773, -0.0061081042513251305, 0.10465550422668457, -0.45042359828948975, -0.10412941128015518, -0.1672629714012146, 0.09134507924318314, -0.05224919691681862, 0.0586182102560997, 0.10646764934062958, -0.12991467118263245, 0.12453638762235641, -0.02201649732887745, 0.011892346665263176, 0.1461700201034546, -0.04468386620283127, 0.19539302587509155, 0.07818760722875595, 0.05502498894929886, 0.0733272060751915, 0.14919441938400269, -0.2754325270652771, -0.26012393832206726, 0.16825807094573975, -0.23119591176509857, -0.19695360958576202, 0.08883102983236313, 0.11090726405382156, 0.10248634964227676, 0.1300393044948578, -0.21898464858531952, 0.2194441556930542, 0.09120868146419525, 0.13007065653800964, 0.13638588786125183, 0.1020839661359787, 0.09899934381246567, -0.06600823253393173, 0.16443891823291779, -0.07614494860172272, -0.02224023826420307, -0.04895230010151863, 0.049645960330963135, 0.22535169124603271, -0.02750832587480545, 0.12706111371517181, 0.17551571130752563, -0.18587960302829742, -0.00942229013890028, 0.054036177694797516, -0.22278602421283722, -0.17298643290996552, 0.046747200191020966, 0.009015681222081184, 0.10981462150812149, 0.149148628115654, 0.09115328639745712, 0.1602741777896881, 0.13135527074337006, -0.07428081333637238, -0.026644673198461533, -0.034299079328775406, 0.2134152352809906, 0.17890726029872894, -0.0636279284954071, 0.05597633868455887, 0.04977012798190117, 0.09425578266382217, 0.10932222753763199, 0.1986074447631836, -0.028182899579405785, 0.10123276710510254, -0.02546844631433487, -0.34130004048347473, 0.05617199465632439, 0.0036918078549206257, 0.13916504383087158, -0.042942892760038376, -0.28065958619117737, 0.1559397280216217, -0.10342667251825333, 0.21833699941635132, 0.17601041495800018, -0.04277534410357475, -0.23758956789970398, 0.17379812896251678, 0.10767458379268646, -0.003635923145338893, 0.2394782453775406, 0.17689736187458038, -0.2665405571460724, -0.22735735774040222, -0.006442450452595949, -0.04894426837563515, 0.129791259765625, 0.09442538022994995, 0.09783077985048294, -0.2254340648651123, 0.05205380916595459, -0.09154239296913147, 0.4141216278076172, -0.0009644429082982242, 0.1825089454650879, -0.016919124871492386, 0.08652151376008987, 0.024347474798560143, -0.41675832867622375, 0.22492343187332153, -0.31596842408180237, -0.4834497272968292, 0.3254341781139374, -0.5627363920211792, -0.4311141073703766, 0.4148782789707184, -0.4839840531349182, -0.4331601560115814, 0.34826305508613586, -0.23075854778289795, -0.03206299617886543, 0.3364667296409607, -0.23800665140151978, 0.0458410419523716, -0.05373482406139374, -0.006183347199112177, -0.20224463939666748, -0.5658847093582153, -0.17640413343906403, 0.5173030495643616, -0.03062503971159458, 0.18490146100521088, -0.17605194449424744, 0.15684883296489716, 0.5200430750846863, 0.25756150484085083, -0.04365129768848419, 0.40184903144836426, -0.14995136857032776, -0.45370960235595703, 0.6432622075080872, 0.022389430552721024, 0.02422972209751606, -0.031155698001384735, -0.46527624130249023, -0.15522682666778564, -0.5217829346656799, 0.0338805615901947, 0.014891551807522774, -0.2073400616645813, -0.5028648376464844, 0.15865296125411987, -0.04561192914843559, -0.40152058005332947, -0.1264307200908661, 0.23867274820804596, -0.5302424430847168, -0.48758384585380554, -0.466709166765213, -0.24474845826625824, 0.12677717208862305, 0.047935809940099716, 0.02224046178162098, -0.04650437459349632, 0.01882324554026127, 0.04670073464512825, 0.07325897365808487, -0.08966425806283951, 0.07505206018686295, -0.02381131239235401, -0.04749205335974693, -0.0896020457148552, -0.03199436143040657, -0.000234344566706568, 0.055414702743291855, 0.007832172326743603, -0.04767950251698494, -0.0148270009085536, -0.014204813167452812, -0.0958896279335022, -0.029179170727729797, -0.03703226521611214, 0.12509983777999878, -0.03671884164214134, 0.1566639393568039, 0.04636942967772484, 0.12981534004211426, 0.01457336824387312, 0.039586152881383896, -0.019011663272976875, 0.016687927767634392, 0.04878846928477287, 0.07824046164751053, -0.01939736306667328, -0.026414601132273674, -0.00543932756409049, 0.12645061314105988, 0.15683729946613312, -0.16054415702819824, -0.011381550692021847, -0.055453501641750336, 0.030784972012043, 0.143569678068161, 0.1685936599969864, 0.02906542271375656, 0.07037030905485153, 0.10737112909555435, -0.09184083342552185, 0.02203393168747425, 0.1201786994934082, 0.04720662906765938, 0.005456544924527407, -0.028229599818587303, 0.14477749168872833, 0.18472135066986084, 0.01296988409012556, 0.0504310242831707, 0.06836287677288055, 0.13836124539375305, 0.028353644534945488, 0.046319276094436646, 0.13337571918964386, -0.054531462490558624, 0.08343111723661423, 0.03884381800889969, -0.33122220635414124, -0.19681601226329803, 0.01961449719965458, 0.24147315323352814, -0.2699158489704132, -0.2930450141429901, 0.07254531234502792, -0.48480337858200073, -0.01356827188283205, -0.07859440892934799, 0.04459000006318092, 0.23124389350414276, -0.20154131948947906, -0.05676089599728584, 0.20545022189617157, -0.1104419082403183, 0.09116462618112564, 0.2326633632183075, 0.2162856012582779, 0.2669520378112793, 0.2379930466413498, -0.3441973924636841, -0.2846118211746216, -0.28205323219299316, -0.14034532010555267, -0.419278621673584, 0.06137905269861221, -0.22769267857074738, 0.07722347974777222, -0.285351425409317, 0.3820154070854187, -0.23749741911888123, 0.055509328842163086, 0.008069992065429688, 0.12796072661876678, -0.015370573848485947, -0.3552369177341461, -0.017064403742551804, -0.079862080514431, -0.019548717886209488, 0.04976670816540718, -0.2017514705657959, 0.042263153940439224, 0.0060079689137637615, 0.1525157243013382, -0.15831755101680756, -0.005305945407599211, 0.3852890431880951, -0.09087932109832764, 0.33753299713134766, -0.2938700020313263, -0.056108228862285614, -0.17568691074848175, 0.23669233918190002, -0.49870216846466064, -0.20758230984210968, -0.1101132184267044, -0.18620261549949646, -0.2361350804567337, 0.28230834007263184, 0.15126650035381317, 0.22479070723056793, -0.15661993622779846, -0.030271034687757492, -0.06972379237413406, 0.042401716113090515, -0.038517147302627563, -0.07190565764904022, 0.09597745537757874, 0.17231214046478271, 0.02960108034312725, 0.16904546320438385, 0.01885209232568741, -0.02095528319478035, 0.04315236583352089, -0.02029080130159855, -0.07283417880535126, 0.07933438569307327, 0.001858315896242857, 0.14734023809432983, 0.08005818724632263, -0.07383651286363602, 0.16517773270606995, -0.026963062584400177, -0.04538453742861748, -0.11066890507936478, 0.042498182505369186, 0.11618306487798691, 0.3048032820224762, 0.08634769916534424, -0.1884322166442871, 0.43682190775871277, -0.0031351163052022457, -0.10756123065948486, 0.02544754184782505, 0.3668907582759857, 0.203561931848526, -0.06264331191778183, -0.012436737306416035, -0.12976272404193878, 0.3534253239631653, 0.022496206685900688, 0.08825526386499405, 0.029866116121411324, 0.10840961337089539, -0.0810936912894249, 0.2447853535413742, 0.14958705008029938, -0.22141340374946594, -0.001966193551197648, 0.08107131719589233, 0.09077886492013931, -0.05233459547162056, 0.0897040069103241, -0.24796001613140106, 0.047081638127565384, -0.04600490257143974, 0.05336514487862587, 0.09330787509679794, 0.11960571259260178, 0.049386341124773026, 0.06197284162044525, 0.42122113704681396, 0.1044301986694336, 0.005766517482697964, -0.1006983146071434, 0.09785962849855423, 0.3943181335926056, 0.16398687660694122, 0.02153039537370205, -0.37714147567749023, -0.15439699590206146, 0.07571280747652054, 0.014682929031550884, -0.07371778041124344, 0.01030348613858223, -0.11713143438100815, 0.0052051241509616375, -0.019063355401158333, -0.0772501677274704, 0.11467088013887405, 0.06892035901546478, -0.06329251825809479, -0.23933589458465576, 0.07967548072338104, -0.0481126606464386, 0.02044704556465149, 0.10529603064060211, 0.06249486282467842, 0.08736839890480042, 0.1555846780538559, 0.16177673637866974, -0.06019365042448044, 0.08241962641477585, -0.15050187706947327, -0.2590310275554657, -0.0570516474545002, 0.17333027720451355, 0.009033029899001122, -0.11710967868566513, -0.2700185477733612, -0.07286865264177322, -0.06470245122909546, -0.17170493304729462, -0.10811064392328262, -0.0011901614489033818, -0.34579914808273315, -0.015652954578399658, -0.14513808488845825, 0.1288994401693344, 0.12542004883289337, -0.22691558301448822, -0.15749476850032806, 0.15212833881378174, -0.0014422766398638487, 0.0735323578119278, -0.3438923954963684, 0.05063027888536453, 0.10394541174173355, -0.2377232313156128, 0.1780460923910141, 0.09333935379981995, 0.028612766414880753, 0.03949722275137901, 0.0766744539141655, 0.05726993456482887, -0.11391834169626236, 0.15612967312335968, 0.19327042996883392, -0.10825424641370773, 0.057950954884290695, -0.3324379324913025, -0.006393973715603352, 0.060514941811561584, 0.1118430644273758, 0.09161420166492462, 0.1506672352552414, 0.11429871618747711, 0.009529289789497852, 0.10809702426195145, -0.06598198413848877, -0.03326985612511635, -0.08915149420499802, 0.09182818233966827, 0.15505464375019073, -0.06593900173902512, 0.1358729600906372, 0.021266324445605278, -0.016919728368520737, 0.13163502514362335, 0.16634616255760193, -0.10055059939622879, 0.09778965264558792, 0.04457860440015793, -0.21290335059165955, 0.06091497465968132, 0.07312009483575821, 0.09135125577449799, 0.13132669031620026, 0.10300583392381668, -0.0655369982123375, -0.17334583401679993, 0.08637218177318573, 0.2032352238893509, 0.18645860254764557, -0.06721708178520203, 0.13968707621097565, -0.026874694973230362, 0.16538305580615997, 0.23756398260593414, 0.0737827941775322, -0.0960012748837471, 0.0929696187376976, -0.10464058816432953, -0.23439230024814606, 0.14822174608707428, 0.012063122354447842, 0.11270030587911606, 0.060176342725753784, -0.20442409813404083, 0.038682885468006134, -0.08695937693119049, 0.03182503208518028, 0.08372259885072708, -0.14111781120300293, -0.04311337694525719, 0.13007096946239471, 0.1151702031493187, 0.0012126713991165161, 0.1541149765253067, 0.04567156359553337, -0.08344351500272751, -0.09468081593513489, 0.012112841010093689, -0.04675356671214104, 0.1275835782289505, -0.14067342877388, -0.0709957480430603, -0.03325701504945755, -0.01888561062514782, -0.10741008818149567, -0.04437847062945366, -0.05401087552309036, -0.0131943728774786, -0.027824843302369118, -0.07577942311763763, -0.02915983460843563, 0.04762136936187744, -0.02219311334192753, 0.10471125692129135, 0.07600967586040497, -0.13309021294116974, 0.09573958814144135, 0.10696803778409958, -0.19076091051101685, 0.09514890611171722, 0.032554708421230316, -0.07766464352607727, -0.16017141938209534, -0.11754345148801804, 0.20352642238140106, 0.08413700014352798, -0.012300071306526661, 0.19333648681640625, -0.07656548172235489, 0.007183520123362541, 0.17965437471866608, 0.17806854844093323, -0.04510235786437988, -0.05390769988298416, -0.07659198343753815, 0.019260194152593613, 0.06446308642625809, 0.0209369920194149, -0.01652476005256176, -0.08343625068664551, 0.07846734672784805, -0.09520559757947922, 0.018788110464811325, -0.044719960540533066, -0.06294321268796921, -0.13731010258197784, 0.01531657949090004, 0.18951678276062012, -0.03790980204939842, 0.0869811400771141, -0.02989848144352436, -0.08706235140562057, 0.03473614901304245, 0.20953387022018433, 0.004191931337118149, -0.07673444598913193, 0.1769198626279831, -0.025815153494477272, 0.3294639587402344, 0.2227136194705963, 0.13490425050258636, 0.08089739084243774, 0.10583191365003586, 0.16112083196640015, 0.18111203610897064, -0.15627923607826233, -0.24313700199127197, -0.25642961263656616, 0.012038970366120338, -0.18529342114925385, -0.044410206377506256, -0.16576021909713745, 0.028258850798010826, -0.057997528463602066, -0.02057385817170143, -0.22714164853096008, -0.040456488728523254, 0.2734255790710449, -0.2344871610403061, -0.1293603926897049, -0.03917086124420166, -0.26725292205810547, -0.06891514360904694, -0.20916078984737396, -0.17643623054027557, 0.188800647854805, 0.3842032849788666, 0.1469177007675171, -0.0970972403883934, 0.07895191013813019, -0.15782134234905243, -0.0037398971617221832, 0.06791216135025024, 0.36328789591789246, -0.14107093214988708, -0.385669469833374, -0.13167434930801392, -0.07764503359794617, -0.2125827521085739, -0.10751605033874512, -0.19475781917572021, 0.26512300968170166, -0.06425447016954422, -0.053690798580646515, -0.0805976465344429, 0.2734500765800476, 0.17822347581386566, 0.06496169418096542, -0.20486871898174286, 0.0031997892074286938, 0.04724343866109848, -0.15264016389846802, -0.11303398013114929, -0.20992031693458557, 0.17600777745246887, -0.14861765503883362, 0.2598365545272827, -0.1767784059047699, -0.0038520698435604572, -0.15605083107948303, 0.23279988765716553, -0.22509393095970154, 0.017305590212345123, -0.06977511942386627, -0.07854799926280975, -0.21918587386608124, 0.36424511671066284, 0.03723184019327164, 0.16838285326957703, 0.10685916244983673, 0.014771993272006512, -0.06809698045253754, 0.12220470607280731, -0.044312573969364166, 0.05830574035644531, -0.00834429357200861, 0.0023761263582855463, -0.02627231366932392, -0.005260125268250704, -0.01701534539461136, 0.13402800261974335, -0.04140995442867279, -0.02273731306195259, -0.0018197577446699142, -0.2230105847120285, -0.2682027816772461, 0.1351829320192337, -0.2635129392147064, -0.22905343770980835, 0.14938701689243317, 0.015957389026880264, 0.16340918838977814, 0.10178815573453903, 0.10038569569587708, -0.008257105015218258, 0.012723404914140701, 0.04201049730181694, 0.046860337257385254, -0.1927892416715622, 0.17373506724834442, -0.09971215575933456, 0.019323181360960007, 0.20227114856243134, -0.06688889861106873, -0.17153462767601013, 0.4481351375579834, -0.10856014490127563, 0.06650782376527786, -0.02270607277750969, 0.0010347784264013171, -0.09355634450912476, -0.10176487267017365, -0.26978233456611633, 0.09160499274730682, -0.02482379972934723, -0.21720509231090546, 0.04630708321928978, -0.19068561494350433, 0.1817461997270584, -0.008781390264630318, 0.0583765022456646, -0.2459285408258438, 0.21401330828666687, 0.11076786369085312, -0.015401449054479599, 0.11911746859550476, 0.1601627767086029, -0.09691053628921509, -0.13876716792583466, 0.17203277349472046, -0.13290341198444366, -0.03129182010889053, 0.44229334592819214, 0.22073188424110413, -0.42688778042793274, -0.21895897388458252, 0.10201073437929153, -0.14121535420417786, -0.06672918051481247, -0.37710487842559814, 0.052965279668569565, 0.05143703520298004, 0.04227324202656746, -0.40393826365470886, 0.20267687737941742, 0.047048039734363556, -0.4607943594455719, -0.3248031437397003, -0.3508961498737335, -0.31247711181640625, 0.11375483125448227, -0.26325538754463196, -0.37662822008132935, 0.4812813103199005, 0.5020672678947449, 0.3314940631389618, -0.3668692409992218, 0.31114625930786133, -0.3213205635547638, -0.1809895634651184, 0.062322087585926056, 0.36247411370277405, -0.34845638275146484, -0.3934854567050934, -0.8769453167915344, -0.01818111166357994, -0.048512738198041916, -0.331804096698761, -0.6061772108078003, 0.3059031367301941, -0.4993031322956085, -0.06548114866018295, -0.08927114307880402, 0.4511909484863281, -0.08896384388208389, -0.20026691257953644, -0.19751504063606262, 0.327210009098053, -0.058519210666418076, -0.25356435775756836, -0.42728033661842346, -0.3178647756576538, 0.5120901465415955, -0.1796431690454483, 0.30800172686576843, -0.2080354541540146, 0.1389230191707611, 0.2029169797897339, 0.19297948479652405, 0.055978234857320786, -0.030525531619787216, -0.23895880579948425, -0.22736051678657532, -0.3022819757461548, 0.21917524933815002, -0.4239523112773895, 0.033539626747369766, 0.21709422767162323, -0.04728267341852188, 0.020028702914714813, 0.12606249749660492, 0.03137103468179703, -0.009155613370239735, 0.10643802583217621, -0.1017984077334404, -0.03983309119939804, 0.045768409967422485, 0.10952716320753098, 0.1369204819202423, -0.012448292225599289, 0.19682331383228302, -0.0009436308755539358, 0.004220250993967056, 0.10677165538072586, 0.04142352566123009, 0.1275196075439453, 0.012664404697716236, -0.06092216074466705, -0.03411928936839104, 0.02553229220211506, 0.12668007612228394, 0.0515669621527195, 0.08994277566671371, 0.0533219538629055, -0.05683569237589836, 0.0906386524438858, 0.03819642961025238, 0.06938028335571289, -0.038466136902570724, 0.010918859392404556, 0.09878125786781311, 0.08613138645887375, 0.09889435023069382, -0.027622360736131668, 0.014109965413808823, 0.010039406828582287, 0.060971423983573914, 0.0152768325060606, 0.11962756514549255, 0.008938319981098175, -0.028022702783346176, 0.001718308893032372, -0.06617460399866104, 0.04482532665133476, 0.044267989695072174, 0.04606731981039047, -0.004246118012815714, 0.08146052062511444, 0.11635079979896545, -0.03481358662247658, 0.03388597071170807, 0.12947441637516022, 0.03531284257769585, 0.0624610111117363, 0.1081942617893219, 0.1732146143913269, -0.03290584683418274, 0.09095655381679535, -0.0016821735771372914, 0.006742436904460192, -0.13640527427196503, -0.20151948928833008, 0.2527599036693573, 0.032352883368730545, -0.08795511722564697, -0.10083020478487015, -0.08858392387628555, -0.16036559641361237, -0.052373602986335754, -0.03646260127425194, -0.04285423085093498, 0.19372938573360443, -0.2693050503730774, 0.07393386960029602, 0.281093955039978, 0.30830419063568115, -0.0804055705666542, 0.1908714473247528, 0.36776241660118103, -0.47281575202941895, -0.14783166348934174, -0.15138471126556396, -0.1007898598909378, -0.047361575067043304, 0.07688230276107788, -0.18743982911109924, 0.06025954708456993, 0.32579538226127625, -0.04658716917037964, -0.09179680794477463, -0.030426474288105965, 0.10149046033620834, 0.04107077792286873, 0.05207201838493347, 0.3087470233440399, 0.13435348868370056, 0.046377286314964294, 0.0032978432718664408, 0.2619183361530304, 0.07572199404239655, 0.3601951003074646, -0.01879091188311577, 0.06272105872631073, 0.31134697794914246, -0.07028976827859879, -0.23543229699134827, -0.028942743316292763, -0.2350003719329834, 0.18077439069747925, 0.052078500390052795, -0.22330360114574432, 0.2299225926399231, -0.06498542428016663, -0.12653139233589172, -0.1348496675491333, -0.16390477120876312, -0.12113066017627716, -0.10556823760271072, 0.2176641821861267, -0.12521745264530182, -0.20361916720867157, 0.031225329264998436, -0.13581979274749756, 0.3574983775615692, -0.10847920179367065, 0.03592369332909584, 0.030798086896538734, 0.005521710030734539, -0.0336611345410347, 0.13624492287635803, 0.053231243044137955, 0.02585129253566265, -0.011578613892197609, -0.060420796275138855, 0.06661845743656158, 0.03820169344544411, 0.03913578763604164, -0.12032389640808105, -0.0034576482139527798, 0.12961633503437042, 0.07984399795532227, 0.031092587858438492, 0.08284025639295578, 0.16489849984645844, 0.0741666704416275, -0.01828378438949585, -0.08541038632392883, -0.1609382927417755, 0.17106559872627258, -0.1778818666934967, 0.09628916531801224, 0.13938912749290466, 0.025245487689971924, -0.1818142533302307, 0.049880679696798325, 0.08853865414857864, 0.048048216849565506, -0.0191984660923481, 0.023995153605937958, -0.022567706182599068, 0.1406966745853424, 0.019659359008073807, 0.14086736738681793, 0.01912395842373371, -0.01755629852414131, -0.1806335300207138, -0.03092842921614647, 0.11599144339561462, 0.11315768957138062, -0.10748971253633499, 0.07092777639627457, 0.1731564700603485, 0.04209156706929207, -0.0013854134595021605, -0.1192592978477478, 0.09584737569093704, -0.08207602053880692, -0.032125089317560196, 0.10872954875230789, -0.04119911417365074, -0.10221066325902939, -0.08164700865745544, 0.08012662827968597, 0.03848393261432648, 0.050704579800367355, 0.15518106520175934, -0.14774996042251587, 0.1323373019695282, -0.018535444512963295, 0.07309813052415848, -0.1287747174501419, 0.02197815664112568, 0.040349654853343964, -0.18174497783184052, -0.07596985995769501, -0.20405860245227814, -0.04025649279356003, 0.009572410024702549, 0.03410624340176582, 0.009446904063224792, -0.09706338495016098, 0.13479109108448029, -0.09487754851579666, -0.1949876844882965, 0.10345124453306198, -0.03815967217087746, -0.0019704208243638277, 0.12114521861076355, 0.007155798375606537, -0.02116607129573822, 0.01950519159436226, -0.013929974287748337, -0.19663433730602264, 0.01634981296956539, -0.0716715157032013, -0.2018536627292633, 0.04600146785378456, 0.1788371205329895, 0.047208890318870544, -0.15583474934101105, -0.3118915259838104, 0.0013953129528090358, -0.013593509793281555, -0.11456304788589478, -0.26905566453933716, -0.23004861176013947, -0.31774452328681946, -0.05726785957813263, -0.11346561461687088, 0.10167515277862549, 0.16816112399101257, -0.2000821977853775, 0.07084859162569046, 0.011368890292942524, 0.010571673512458801, 0.09484207630157471, -0.07628490775823593, 0.12961074709892273, 0.1382036656141281, -0.16194073855876923, 0.1244635060429573, 0.09768500179052353, -0.12246699631214142, 0.006193291395902634, 0.17255164682865143, -0.013792316429316998, -0.09966947138309479, 0.15589134395122528, 0.1136651560664177, -0.019536061212420464, 0.10442610085010529, -0.21260571479797363, -0.33320876955986023, -0.33937349915504456, -0.03802420198917389, -0.08833426237106323, -0.3326561748981476, -0.28620803356170654, -0.06926823407411575, -0.13847258687019348, 0.02987869642674923, 0.02684905380010605, 0.016891157254576683, 0.003663725219666958, -0.25436869263648987, 0.18773604929447174, 0.1030484139919281, 0.10937147587537766, -0.13750575482845306, -0.059013042598962784, 0.1988564282655716, -0.11794328689575195, -0.2646656334400177, -0.2482156902551651, -0.06022072583436966, -0.3210022449493408, -0.025921158492565155, -0.3782971501350403, -0.1882098764181137, 0.14282402396202087, 0.01892269030213356, -0.05870979279279709, 0.29566505551338196, -0.16397656500339508, -0.08086799085140228, -0.002542850561439991, 0.19475162029266357, -0.2246982753276825, -0.04702363163232803, 0.0334642268717289, -0.035235557705163956, -0.09753818064928055, 0.07280509173870087, -0.10940458625555038, 0.165565624833107, 0.19404272735118866, -0.5329504013061523, -0.35884344577789307, -0.05828332155942917, 0.0031984373927116394, 0.040068309754133224, 0.42002367973327637, -0.4280056655406952, 0.16023306548595428, -0.06461749225854874, 0.2834215760231018, 