{"fc": 19, "fctx": 4, "hidden": 48, "depth": 2, "fmu": [0.084245465695858, 0.09329591691493988, 2.0613272190093994, 0.0625, 2.748436450958252, 0.087970070540905, 0.03868919238448143, 0.024399492889642715, 0.05548374727368355, 0.9834034442901611, 2.017322540283203, -0.015590386465191841, 0.006270355544984341, 0.07735647261142731, 0.11481689661741257, -0.044004570692777634, 0.9664486646652222, 1.6306977272033691, 0.04373753443360329], "fsd": [1.8702110052108765, 1.8548985719680786, 1.6447030305862427, 0.24206209182739258, 2.1929373741149902, 1.7194560766220093, 1.6944382190704346, 0.6019180417060852, 0.5897265076637268, 0.8368656635284424, 1.3293887376785278, 0.6661121249198914, 2.1228199005126953, 0.30366435647010803, 0.30627819895744324, 0.8961348533630371, 0.1648196280002594, 1.2885857820510864, 0.20451107621192932], "xmu": [0.015849413350224495, 0.01067606545984745, 0.9323824644088745, 0.8991988897323608], "xsd": [0.22299547493457794, 0.2220837026834488, 0.053216345608234406, 0.18063150346279144], "layers": [{"w": [[-0.11238648742437363, -0.0003049635561183095, 0.07950476557016373, 0.0961097702383995, 0.10168245434761047, -0.11925395578145981, 0.003685680218040943, -0.20021317899227142, -0.3750092685222626, 0.2824459969997406, 0.15213586390018463, -0.010031740181148052, 0.133792445063591, 0.045320749282836914, 0.23519784212112427, 0.2229793667793274, 0.0903540775179863, -0.0965985506772995, 0.05218063294887543, -0.2790350914001465, -0.17805178463459015, 0.2594066262245178, -0.23568858206272125], [0.087785504758358, -0.1402541846036911, -0.013217737898230553, 0.187286376953125, -0.11372489482164383, 0.07087027281522751, -0.024016326293349266, -0.23556523025035858, -0.01201404444873333, -0.19718757271766663, 0.042187318205833435, 0.2573835253715515, -0.18225760757923126, 0.05831820145249367, 0.2585957944393158, 0.12316810339689255, -0.06893234699964523, 0.016448935493826866, -0.05102706700563431, -0.23721450567245483, 0.22610080242156982, -0.1453665792942047, -0.20297208428382874], [-0.0035122402478009462, 0.3495514392852783, 0.04606100916862488, -0.08037953078746796, -0.04732833430171013, -0.07769615203142166, 0.3030499517917633, 0.2850920855998993, -0.349518746137619, 0.11151620000600815, -0.1378389596939087, 0.11676982790231705, -0.07023274153470993, 0.088841512799263, 0.060363613069057465, -0.12359778583049774, -0.0669296383857727, 0.059503376483917236, 0.07100021839141846, 0.31908631324768066, -0.3357125222682953, 0.13149447739124298, -0.053762730211019516], [-0.05133179947733879, 0.015039527788758278, 0.03010319545865059, 0.018458031117916107, -0.03635391965508461, 0.04792919382452965, 0.0804707407951355, 0.0096505768597126, -0.22102296352386475, -0.164469376206398, -0.21284757554531097, -0.07716543972492218, -0.14751239120960236, 0.105876624584198, -0.06860006600618362, -0.013100328855216503, 0.25579124689102173, -0.11836966872215271, -0.23477502167224884, 0.041376493871212006, -0.2522336542606354, -0.017704658210277557, -0.05001012980937958], [-0.04123609513044357, 0.029960131272673607, 0.0003969494719058275, 0.05714103952050209, -0.096681609749794, -0.029535533860325813, 0.0690777376294136, 0.2958427369594574, 0.03395899012684822, -0.2089121788740158, -0.018129095435142517, -0.08353717625141144, 0.23641596734523773, -0.015305334702134132, 0.05896938964724541, 0.22293627262115479, 0.10292582958936691, 0.13130120933055878, -0.14801762998104095, -0.12684474885463715, -0.008028772659599781, -0.0665145218372345, 0.15547282993793488], [0.09443342685699463, 0.11492838710546494, 0.08353470265865326, -0.14067547023296356, -0.2531130015850067, -0.1416965126991272, 0.05980442464351654, -0.19747771322727203, -0.15710711479187012, -0.12922737002372742, -0.10967405885457993, 0.15977618098258972, 0.12163963913917542, 0.046756088733673096, 0.1385308802127838, 0.08049388974905014, 0.2257000207901001, 0.15696872770786285, 0.03129001706838608, 0.26833921670913696, 0.10449694097042084, -0.1466490924358368, 0.17461931705474854], [-0.10055570304393768, -0.21026726067066193, 0.08414966613054276, 0.13489189743995667, 0.12555965781211853, 0.05398135259747505, -0.162050262093544, 0.28620854020118713, 0.10113651305437088, -0.15506808459758759, 0.2725083827972412, 0.1453152447938919, -0.004338118247687817, -0.13143600523471832, -0.009152818471193314, -0.06411556154489517, 0.2760515511035919, 0.14469073712825775, -0.022039175033569336, -0.22289519011974335, -0.11812890321016312, -0.10155019164085388, -0.04262847825884819], [0.1284661889076233, 0.21292901039123535, -0.2439897060394287, -0.17782709002494812, -0.23970653116703033, 0.15543444454669952, -0.05063310265541077, 0.01163040567189455, 0.07926414161920547, -0.11089157313108444, -0.006862685550004244, -0.13952858746051788, 0.05629932880401611, 0.1161583960056305, -0.0127043342217803, 0.06422650068998337, -0.04342883452773094, -0.035488951951265335, -0.09753261506557465, 0.14213761687278748, -0.11224458366632462, -0.061489544808864594, -0.005362573079764843], [0.1582045704126358, -0.25416961312294006, -0.21596451103687286, 0.1762879341840744, -0.15218988060951233, 0.03581578657031059, -0.29437369108200073, 0.14313817024230957, -0.046044476330280304, -0.14114725589752197, -0.21373748779296875, 0.23977485299110413, -0.018464457243680954, 0.16193066537380219, 0.041881412267684937, -0.13763488829135895, 0.01590900868177414, 0.07615416496992111, -0.17449292540550232, -0.1052703857421875, -0.17240525782108307, 0.23855258524417877, 0.0915297195315361], [0.0569474995136261, -0.09114797413349152, -0.03027285821735859, -0.10074835270643234, -0.10727014392614365, -0.06677506119012833, -0.08557332307100296, -0.13053423166275024, -0.0966738611459732, 0.06340798735618591, 0.01969739980995655, -0.03830401226878166, -0.13188473880290985, -0.21479368209838867, -0.04411142319440842, -0.16782502830028534, -0.022444190457463264, -0.05620020627975464, 0.19506429135799408, -0.2662087678909302, -0.15327024459838867, -0.328774631023407, -0.11197958141565323], [-0.13876529037952423, 0.1716294139623642, 0.24466972053050995, 0.1884532868862152, -0.0260360948741436, 0.11390607059001923, 0.16895440220832825, -0.059583574533462524, 0.26864975690841675, -0.26712068915367126, -0.008529523387551308, 0.10015326738357544, -0.1946316510438919, 0.21904082596302032, 0.19847290217876434, -0.24121832847595215, 0.0775216594338417, 0.2697863280773163, -0.11094852536916733, 0.09727918356657028, 0.32540813088417053, -0.19076786935329437, -0.1645353138446808], [-0.02611074410378933, -0.07153934240341187, -0.017113514244556427, -0.1413409560918808, -0.05593132972717285, -0.23818373680114746, -0.27526217699050903, -0.17111147940158844, 0.054224517196416855, -0.1271815448999405, -0.2728476822376251, -0.09321093559265137, -0.04303494840860367, 0.02687060460448265, 0.039776552468538284, 0.12034980952739716, -0.07269490510225296, -0.08427628129720688, -0.0408046655356884, -0.20145688951015472, -0.10599925369024277, 0.2931192219257355, 0.14167235791683197], [0.026958506554365158, -0.07407063990831375, -0.2817489504814148, -0.1675587296485901, -0.2807965576648712, -0.18126384913921356, -0.028453757986426353, -0.05533000826835632, 0.14568936824798584, -0.0326007641851902, 0.08249688893556595, -0.009992359206080437, 0.20999538898468018, -0.14052921533584595, 0.010351583361625671, 0.13475927710533142, 0.10494290292263031, -0.1685096174478531, -0.09639937430620193, -0.1321621835231781, -0.23154278099536896, -0.05272046476602554, -0.026874395087361336], [-0.1731254905462265, 0.13618429005146027, -0.2267414927482605, 0.13974866271018982, -0.17439568042755127, -0.19202980399131775, 0.03696151450276375, -0.177440345287323, 0.1270819455385208, -0.09612935781478882, -0.21743102371692657, 0.032517410814762115, -0.09519267827272415, 0.04633397236466408, -0.1343541145324707, 0.005591874942183495, 0.2090766727924347, -0.2549150288105011, -0.13619978725910187, 0.12106776982545853, -0.04817851632833481, -0.08300425112247467, -0.13749665021896362], [-0.20251891016960144, -0.08497641235589981, -0.06524645537137985, 0.05806514248251915, 0.1905975341796875, 0.16848017275333405, 0.12167079746723175, 0.22023481130599976, -0.23041754961013794, -0.09505177289247513, -0.10857725143432617, -0.1077953428030014, 0.08229966461658478, 0.04341254383325577, 0.1310369074344635, -0.0201491117477417, 0.06990604847669601, 0.027634959667921066, 0.13147906959056854, 0.30664607882499695, -0.28142574429512024, 0.04164142534136772, 0.061347734183073044], [0.17948207259178162, 0.2938419282436371, 0.013795617036521435, -0.09994256496429443, 0.23371368646621704, -0.0016092285513877869, 0.027545206248760223, -0.1782522052526474, 0.15513674914836884, 0.0779847651720047, 0.013225087895989418, -0.17286144196987152, 0.036702241748571396, -0.14566396176815033, -0.13417741656303406, -0.08837854117155075, -0.08556656539440155, 0.26146477460861206, 0.13319899141788483, -0.10307614505290985, 0.13038435578346252, 0.1477988064289093, -0.1491760015487671], [0.04860447347164154, -0.09741397202014923, -0.08102936297655106, -0.12027329951524734, 0.09742016345262527, 0.1981506049633026, 0.03042563982307911, 0.20115035772323608, 0.27355146408081055, -0.05761028826236725, -0.13768331706523895, -0.025525934994220734, -0.17828598618507385, -0.24260950088500977, -0.1351969689130783, 0.059464652091264725, -0.20312649011611938, 0.2015790492296219, 0.1277424842119217, 0.20620352029800415, 0.039639268070459366, -0.17815439403057098, -0.043470580130815506], [0.19868150353431702, 0.004066081717610359, -0.11155552417039871, 0.15594038367271423, 0.14956828951835632, 0.1878601312637329, 0.11519081145524979, -0.13073104619979858, -0.17670641839504242, -0.143361896276474, 0.060433611273765564, 0.09366938471794128, -0.03490067273378372, 0.0305233933031559, 0.1809098720550537, -0.19215697050094604, -0.0483412891626358, 0.1535445600748062, -0.1121799498796463, 0.0048539480194449425, -0.1854618489742279, -0.06558030843734741, 0.0997084453701973], [-0.12608620524406433, 0.07112903147935867, 0.04604903981089592, 0.13156485557556152, -0.047539107501506805, 0.10909737646579742, 0.28553861379623413, -0.06795475631952286, 0.15744906663894653, -0.1431870460510254, -0.25667837262153625, 0.1263199746608734, 0.22457367181777954, -0.006952703930437565, -0.02443123236298561, 0.031856637448072433, -0.1686297357082367, 0.04368925467133522, 0.14936725795269012, -0.0031298131216317415, -0.24869221448898315, -0.07262641936540604, 0.22319358587265015], [-0.2836036682128906, 0.146723210811615, 0.017713621258735657, 0.16776341199874878, -0.09226944297552109, 0.15883098542690277, -0.007341447751969099, -0.1203780248761177, -0.2947727143764496, -0.06161285564303398, 0.006140376441180706, -0.04518640786409378, 0.09023407101631165, 0.05754055455327034, 0.0037554411683231592, 0.19356726109981537, 0.005333869718015194, 0.028413932770490646, 0.05738821253180504, -0.06820163875818253, 0.14428609609603882, -0.09471168369054794, 0.25199779868125916], [0.06843385845422745, 0.18985925614833832, -0.028170404955744743, 0.09565430879592896, 0.16371756792068481, 0.23045320808887482, 0.4392929971218109, 0.17372995615005493, 0.023785904049873352, -0.167503222823143, 0.1574775129556656, -0.3074609041213989, 0.035799749195575714, -0.2644886374473572, -0.1527823656797409, -0.2186363935470581, 0.0458514504134655, 0.29561278223991394, -0.3013306260108948, 0.25819650292396545, 0.08668670803308487, -0.21690987050533295, 0.10086353123188019], [0.009589942172169685, 0.10980191081762314, -0.1784960776567459, -0.163517564535141, -0.07779640704393387, 0.1622900813817978, 0.19759270548820496, -0.18613797426223755, -0.04522252827882767, 0.011901372112333775, -0.20939143002033234, -0.1541702300310135, 0.10884971171617508, -0.04696030914783478, -0.008653650991618633, 0.09410107880830765, 0.21555770933628082, 0.1525527983903885, 0.09634567052125931, -0.09829113632440567, -0.12589237093925476, -0.023561879992485046, -0.05716501176357269], [0.15841913223266602, 0.0809437707066536, -0.05046271160244942, 0.09009091556072235, -0.132115438580513, 0.10188237577676773, -0.003605682635679841, 0.2532927393913269, 0.024277379736304283, -0.05010838061571121, -0.21228088438510895, -0.04069678485393524, -0.031230583786964417, -0.09614247828722, -0.0636032447218895, -0.18055149912834167, 0.044631313532590866, -0.13917440176010132, -0.2325625717639923, -0.29131704568862915, -0.14253254234790802, 0.22045916318893433, -0.07607989758253098], [-0.11148904263973236, -0.05211225152015686, -0.16508319973945618, 0.19958575069904327, -0.18682335317134857, 0.20267637073993683, -0.05712668597698212, -0.10898244380950928, 0.23301567137241364, -0.026018256321549416, 0.13285799324512482, 0.22777767479419708, -0.08133398741483688, -0.09091120213270187, -0.0037656386848539114, -0.05403001606464386, -0.14233359694480896, 0.02759251743555069, -0.15086160600185394, -0.0578235425055027, -0.2507070004940033, -0.06612048298120499, -0.1432419866323471], [-0.16081088781356812, -0.22419777512550354, 0.1291245073080063, -0.2516154944896698, 0.04986109957098961, -0.02721107378602028, -0.09558147192001343, 0.0835471898317337, -0.3665856719017029, 0.08264407515525818, 0.09992673248052597, 0.011372938752174377, -0.2791270315647125, 0.1122983992099762, -0.06077016144990921, 0.16499777138233185, -0.037742603570222855, 0.15566742420196533, -0.14652852714061737, 0.1716315895318985, -0.24779869616031647, 0.2386837601661682, -0.35063081979751587], [0.09511399269104004, -0.016328180208802223, 0.1734282374382019, 0.1892034262418747, 0.18323907256126404, 0.03571706265211105, -0.10834772884845734, 0.14956724643707275, -0.12592251598834991, -0.08617594838142395, -0.16745881736278534, -0.23005419969558716, -0.010345487855374813, -0.2108910232782364, 0.0907197967171669, 0.009814863093197346, 0.018314894288778305, -0.029705263674259186, -0.16020449995994568, 0.23186549544334412, -0.2850578725337982, -0.19189557433128357, -0.08570023626089096], [0.03458739072084427, -0.15214164555072784, 0.030459528788924217, -0.002874669386073947, 0.1326967477798462, 0.23978915810585022, 0.17866398394107819, -0.25377532839775085, -0.14563879370689392, -0.2156258374452591, -0.019256340339779854, -0.10531570762395859, 0.10107702761888504, -0.21159455180168152, 0.03271108493208885, -0.039684049785137177, 0.012477648444473743, -0.0718551054596901, 0.022982969880104065, -0.3354428708553314, -0.05311887711286545, -0.14960096776485443, -0.1282556802034378], [-0.029969584196805954, -0.14377407729625702, -0.018040595576167107, -0.09916357696056366, -0.06766167283058167, -0.10499123483896255, 0.03154658153653145, 0.09787122905254364, -0.03138185665011406, -0.07399695366621017, -0.17399759590625763, 0.26134416460990906, 0.049582600593566895, -0.2154466211795807, 0.13712124526500702, -0.155965656042099, 0.08852296322584152, -0.030292026698589325, 0.17689849436283112, -0.08762688934803009, -0.05791380628943443, -0.058108728379011154, -0.20170338451862335], [0.10471374541521072, 0.1996457874774933, -0.20861852169036865, -0.1801745891571045, -0.0778062641620636, -0.17571794986724854, 0.11085322499275208, 0.028945408761501312, 0.15152886509895325, -0.08112466335296631, 0.03573691099882126, 0.038933463394641876, 0.060579415410757065, -0.07573521882295609, 0.1343364268541336, -0.09739730507135391, -0.007437900640070438, -0.1471606343984604, -0.023781420662999153, -0.08640394359827042, 0.027840275317430496, -0.01916642114520073, 0.11740431934595108], [0.05210677161812782, 0.04390706494450569, -0.11316609382629395, -0.12099629640579224, -0.19953416287899017, -0.007443555630743504, 0.11870254576206207, 0.3212983012199402, -0.2863469123840332, -0.19336530566215515, 0.014278840273618698, -0.08410468697547913, -0.14719228446483612, -0.15997056663036346, 0.13351601362228394, 0.14031627774238586, 0.15710321068763733, -0.013522247783839703, -0.056963950395584106, -0.29285454750061035, 0.059949882328510284, 0.04350796714425087, -0.024032382294535637], [0.10473212599754333, 0.30193737149238586, 0.0038802102208137512, -0.12782828509807587, 0.04017291218042374, 0.18284334242343903, 0.2103530615568161, 0.17045515775680542, -0.2713349461555481, -0.18311092257499695, -0.07120439410209656, 0.2716076672077179, -0.13716769218444824, 0.04115881398320198, -0.1454133689403534, 0.19092653691768646, 0.02967565506696701, -0.16861969232559204, 0.19724653661251068, -0.07390625774860382, -0.052466053515672684, 0.18816445767879486, 0.2761954367160797], [-0.23063798248767853, 0.028263596817851067, 0.02230389229953289, 0.19359052181243896, 0.07250656187534332, -0.19874651730060577, 0.20040388405323029, 0.2066977173089981, -0.013051852583885193, 0.017745330929756165, -0.14175495505332947, 0.19507335126399994, -0.17488594353199005, 0.032070983201265335, 0.05550685524940491, -0.0698433667421341, -0.047697458416223526, -0.1300986409187317, 0.14704181253910065, -0.25237786769866943, -0.13804388046264648, -0.14214414358139038, -0.024194318801164627], [0.14993247389793396, -0.1308988481760025, -0.10007345676422119, -0.014200586825609207, -0.032342925667762756, 0.1465584933757782, -0.07455635815858841, 0.27556708455085754, -0.310930997133255, -0.023977626115083694, -0.18913866579532623, 0.07434900850057602, -0.028427474200725555, 0.15858779847621918, -0.1627127230167389, 0.14954937994480133, 0.08541230857372284, -0.02257806994020939, -0.06275879591703415, -0.06279846280813217, 0.2050679624080658, -0.18314944207668304, -0.014337766915559769], [-0.0812184065580368, -0.332825630903244, -0.1661604642868042, 0.11562526226043701, 0.051080312579870224, -0.10331481695175171, -0.025313809514045715, 0.1600075215101242, 0.07652528584003448, -0.08518361300230026, 0.03992273285984993, -0.054356757551431656, 0.06413351744413376, 0.010143673047423363, 0.1508714109659195, 0.10567795485258102, 0.17937593162059784, -0.2617909908294678, 0.2016245722770691, -0.05470971390604973, 0.2648364007472992, 0.20005014538764954, -0.05942435562610626], [0.13165560364723206, 0.09592504799365997, -0.17473025619983673, 0.09319459646940231, -0.23403973877429962, 0.23609627783298492, -0.046543896198272705, -0.22001221776008606, -0.11727431416511536, 0.1863284856081009, -0.2996078133583069, -0.12673379480838776, 0.01083530206233263, 0.09169584512710571, 0.13039357960224152, -0.3407536447048187, 0.04441475123167038, -0.26705050468444824, -0.23713116347789764, 0.18287043273448944, 0.04173224791884422, 0.04993906244635582, 0.053962111473083496], [-0.09711513668298721, 0.08785595744848251, 0.1351158320903778, -0.037265192717313766, 0.06277670711278915, -0.04262605682015419, 0.023153215646743774, 0.07334674894809723, 0.20934782922267914, -0.25386032462120056, -0.021046223118901253, 0.024655679240822792, 0.11724213510751724, -0.09205719083547592, -0.08034927397966385, -0.18323194980621338, -0.0095917833968997, 0.05706248804926872, -0.025744132697582245, -0.07589814066886902, 0.2982655167579651, 0.03571227937936783, 0.22261695563793182], [0.08733658492565155, 0.3011697232723236, 0.046974070370197296, 0.2114650160074234, 0.1578809767961502, -0.12125168740749359, 0.11312820017337799, -0.176290825009346, 0.002004969632253051, -0.0797097310423851, -0.12571652233600616, 0.15122604370117188, 0.015351860783994198, -0.09305597096681595, 0.15190525352954865, -0.09498828649520874, 0.059371232986450195, 0.07052275538444519, -0.11553074419498444, 0.08924863487482071, 0.11901812255382538, 0.0025649762246757746, 0.017885396257042885], [-0.020185820758342743, 0.12062717229127884, -0.2687729597091675, -0.17354905605316162, -0.16715021431446075, 0.029437052085995674, 0.15772517025470734, -0.012613946571946144, -0.02395915612578392, -0.23103639483451843, -0.2625773251056671, 0.22871389985084534, 0.09158740192651749, -0.22113598883152008, 0.11108718067407608, 0.19190144538879395, -0.14019560813903809, 0.038741398602724075, 0.031495604664087296, 0.01937004365026951, 0.14497949182987213, 0.20228588581085205, -0.02085837535560131], [-0.08553630858659744, 0.13663449883460999, 0.0011896955547854304, 0.01670335978269577, 0.058709923177957535, -0.16688935458660126, -0.04937492311000824, -0.235065758228302, 0.14589260518550873, 0.14638642966747284, 0.080954909324646, 0.06389962136745453, -0.09436468034982681, -0.10238387435674667, 0.07553669810295105, 0.18520449101924896, 0.0787162110209465, -0.2380569875240326, -0.18648730218410492, 0.2785874903202057, -0.10266269743442535, 0.16175805032253265, -0.08717311918735504], [-0.11674505472183228, 0.039198800921440125, 0.05188487842679024, -0.15135341882705688, -0.2491125464439392, -0.1543251872062683, 0.11513853818178177, -0.05925570800900459, 0.09253016114234924, -0.08926285058259964, -0.03852006047964096, 0.11115103960037231, 0.057041749358177185, 0.007558432407677174, -0.1882864087820053, -0.07912547141313553, 0.17025414109230042, 0.0906771644949913, 0.2218848615884781, 0.17921245098114014, 0.13719075918197632, 0.11557786166667938, -0.1126314327120781], [-0.1297920048236847, -0.13491666316986084, 0.005041741766035557, -0.043113432824611664, -0.034193649888038635, 0.02147132344543934, -0.1283976286649704, -0.16979482769966125, -0.18529459834098816, -0.1306796371936798, 0.04781495779752731, 0.22253793478012085, -0.021568335592746735, -0.015103975310921669, -0.016456302255392075, 0.03141409531235695, 0.07518590241670609, -0.14590950310230255, -0.01364490482956171, 0.05630261451005936, 0.03470911830663681, -0.0435781329870224, 0.2295413315296173], [-0.1674310714006424, 0.12081051617860794, -0.2932717800140381, 0.0921378955245018, 0.09997346997261047, 0.0310908742249012, 0.08711361140012741, -0.13453897833824158, 0.03456768020987511, -0.057759642601013184, -0.1992036998271942, 0.06432559341192245, 0.03944433480501175, 0.029833396896719933, 0.010305567644536495, -0.09549442678689957, 0.10323788225650787, -0.27265051007270813, -0.1373341828584671, -0.05461987107992172, 0.15283162891864777, 0.1923794150352478, 0.10734407603740692], [-0.012004535645246506, 0.13431474566459656, -0.2364145666360855, 0.19702816009521484, -0.1328488290309906, 0.010931916534900665, -0.05439825728535652, 0.09617929905653, -0.15782615542411804, 0.04511098563671112, 0.06368331611156464, 0.24163636565208435, 0.10990104079246521, -0.008207668550312519, 0.053846802562475204, -0.13886582851409912, 0.14573580026626587, -0.16873909533023834, 0.18966706097126007, -0.054355084896087646, -0.017562367022037506, -0.05388299748301506, -0.0429609976708889], [0.10514891892671585, -0.011399855837225914, 0.2300175577402115, 0.02946799248456955, 0.13379618525505066, 0.05036167800426483, 0.0014159036800265312, -0.18201030790805817, -0.20215973258018494, 0.17715111374855042, 0.2092684507369995, 0.07306021451950073, -0.4206487834453583, -0.04555821791291237, 0.09841888397932053, -0.1315806359052658, 0.15884476900100708, 0.3127804100513458, -0.19588756561279297, 0.34395673871040344, 0.03403904289007187, 0.20151320099830627, 0.10361605882644653], [-0.030201034620404243, 0.04246211796998978, 0.07371967285871506, -0.0849769189953804, -0.1463792473077774, 0.10489027202129364, 0.0039625163190066814, -0.007824929431080818, -0.1327592134475708, 0.41962698101997375, 0.2072630226612091, 0.12985680997371674, -0.1672458052635193, -0.13671757280826569, 0.20058473944664001, -0.0037837112322449684, 0.06062125787138939, 0.02457159198820591, -0.053466927260160446, 0.03088674694299698, -0.13989178836345673, -0.2718378007411957, -0.004760957323014736], [0.09729546308517456, -0.1064186841249466, -0.054983239620923996, 0.07042771577835083, -0.09678530693054199, -0.08483641594648361, -0.24174591898918152, -0.26095667481422424, -0.24366521835327148, 0.0978931114077568, -0.2545383870601654, 0.25399065017700195, -0.13980023562908173, -0.1957530826330185, 0.060184985399246216, -0.043288178741931915, -0.03660810366272926, -0.22372592985630035, 0.0820850282907486, 0.04043745622038841, 0.2056160420179367, 0.18781650066375732, -0.09431155771017075], [-0.1281011700630188, 0.12200871855020523, -0.016835777088999748, -0.11017585545778275, -0.09246403723955154, -0.0011597983539104462, 0.0973672941327095, 0.02370777539908886, 0.06893559545278549, 0.013993766158819199, 0.0947302058339119, 0.16227272152900696, -0.26063454151153564, -0.13315396010875702, 0.14435535669326782, -0.16105882823467255, -0.1950700879096985, -0.22497573494911194, 0.10252031683921814, -0.1605384349822998, -0.051429133862257004, 0.08935921639204025, 0.11268007755279541], [-0.036997538059949875, -0.2347683310508728, -0.12122059613466263, 0.17155976593494415, -0.24313180148601532, -0.04752153530716896, -0.12619787454605103, -0.14883774518966675, -0.1078573688864708, -0.11151552945375443, -0.20723922550678253, 0.03398919850587845, -0.022798048332333565, 0.011605500243604183, 0.08221284300088882, 0.08465241640806198, -0.1961202621459961, -0.12409412115812302, -0.030240735039114952, -0.20370040833950043, -0.06652256846427917, 0.23727072775363922, 0.24853888154029846]], "b": [-0.11930353194475174, -0.0622696690261364, -0.016717344522476196, -0.040256015956401825, 0.1471528559923172, 0.060036350041627884, 0.0479167141020298, -0.007723473012447357, 0.14556197822093964, -0.09618628770112991, 0.005166327580809593, 0.1079183891415596, 0.0472898967564106, 0.03491466864943504, -0.16372977197170258, 0.26411202549934387, -0.013078581541776657, 0.1928466409444809, 0.1506575345993042, 0.18653753399848938, -0.02246204949915409, 0.18369026482105255, 0.09492296725511551, 0.0723901018500328, -0.07924789935350418, -0.20180672407150269, -0.0007942228112369776, 0.08846656233072281, 0.041199177503585815, -0.0811910331249237, 0.18623405694961548, 0.16056524217128754, 0.17363277077674866, 0.14537569880485535, -0.14033976197242737, -0.08122508227825165, 0.1509137898683548, 0.0434400774538517, 0.11131775379180908, 0.10800199955701828, 0.06262458860874176, 0.06018398329615593, -0.11409448087215424, 0.19019345939159393, -0.09620028734207153, 0.034849684685468674, 0.16035620868206024, 0.10705093294382095], "in": 23, "out": 48}, {"w": [[0.04003215208649635, 0.031847644597291946, 0.0028290669433772564, 0.024535417556762695, -0.02911381796002388, -0.09979848563671112, -0.013622088357806206, -0.0428556464612484, 0.01431968156248331, -0.059656184166669846, 0.06783099472522736, -0.1106695830821991, -0.003561341669410467, -0.054989032447338104, 0.042142804712057114, -0.02730466239154339, 0.08124300092458725, 0.018530348315835, 0.11015496402978897, 0.0937565490603447, 0.0916202962398529, -0.09727136790752411, -0.10852941125631332, 0.08994829654693604, 0.0969211682677269, -0.1483260542154312, -0.11659535765647888, 0.0827486515045166, 0.043458323925733566, -0.01603705994784832, 0.10421246290206909, 0.14064396917819977, 0.15443263947963715, -0.1150885596871376, 0.049972206354141235, 0.08127904683351517, 0.05611616000533104, 0.03772415965795517, -0.15419882535934448, -0.028996743261814117, -0.08294188976287842, -0.09750504791736603, 0.05439049378037453, 0.1545441448688507, 0.09977899491786957, -0.07187497615814209, -0.04539906606078148, -0.037163637578487396], [0.07022658735513687, 0.2312314510345459, 0.013784386217594147, 0.03159832954406738, -0.021591627970337868, -0.01693778485059738, -0.2945423126220703, -0.06702424585819244, 0.0321989431977272, -0.04766007140278816, -0.036705683916807175, 0.01811283640563488, 0.031160732731223106, -0.1190466582775116, -0.004297252278774977, -0.26019221544265747, -0.11235585808753967, -0.1415601372718811, -0.044676002115011215, -0.06313789635896683, -0.047433432191610336, -0.02463100105524063, -0.01523992232978344, -0.02298014424741268, -0.20636805891990662, 0.011520524509251118, 0.012007501907646656, 0.11154384911060333, 0.024450084194540977, 0.03845362737774849, 0.042757101356983185, -0.02688656747341156, -0.09299987554550171, 0.11164277046918869, -0.0925668478012085, -0.0790039524435997, -0.07403877377510071, -0.009349601343274117, -0.054416097700595856, 0.09842433035373688, 0.09589104354381561, 0.10583620518445969, -0.09535842388868332, -0.2287534922361374, -0.12402018159627914, 0.11275844275951385, -0.1692822277545929, -0.13893789052963257], [-0.13578447699546814, -0.15124817192554474, -0.1676785796880722, 0.11919455230236053, -0.04938561096787453, 0.01802828162908554, 0.06923561543226242, 0.1226213350892067, 0.08351359516382217, 0.0646219551563263, -0.24402418732643127, 0.07972004264593124, 0.012259156443178654, 0.02399052307009697, -0.20355433225631714, 0.019668199121952057, 0.052469730377197266, -0.1375536471605301, -0.015913663432002068, -0.07354383915662766, -0.20304247736930847, -0.10106389224529266, 0.18580259382724762, 0.14388427138328552, -0.2839277684688568, -0.11221351474523544, -0.18638752400875092, 0.1507110595703125, -0.02710825763642788, 0.17851214110851288, 0.038828570395708084, 0.06050187349319458, 0.10315077751874924, 0.03396167606115341, 0.2592240869998932, -0.03852735832333565, -0.220857635140419, 0.17050349712371826, -0.050720058381557465, 0.027160465717315674, 0.058932412415742874, -0.032805223017930984, 0.08582361787557602, 0.028960220515727997, -0.08061403781175613, 0.05339479446411133, 0.11122643947601318, 0.0114507544785738], [0.21437373757362366, 0.09930113703012466, 0.05630269646644592, -0.0008705022046342492, 0.12771888077259064, -0.05761576071381569, -0.1318005919456482, 0.029137544333934784, -0.14482316374778748, 0.11079324781894684, -0.00660035852342844, 0.12924985587596893, 0.02955133095383644, -0.07019776850938797, -0.04105750098824501, -0.24031376838684082, 0.0931747779250145, -0.2244749218225479, 0.010382061824202538, -0.06712599098682404, -0.05086543411016464, -0.07918328046798706, -0.12251066416501999, 0.08628612011671066, 0.08170390129089355, -0.09090418368577957, 0.12188103795051575, -0.1347804069519043, 0.12680646777153015, -0.055624932050704956, 0.024412496015429497, -0.006840434856712818, 0.09213778376579285, 0.020389733836054802, 0.0064491345547139645, 0.00654393807053566, -0.28750890493392944, 0.04694477468729019, -0.046296376734972, -0.1001836284995079, -0.18849524855613708, 0.13701653480529785, 0.19470462203025818, -0.11079434305429459, -0.0023570707999169827, 0.1077231839299202, -0.07716073840856552, 0.09204290062189102], [-0.04007619246840477, -0.02141265571117401, 0.012439577840268612, -0.10634403675794601, -0.09304185211658478, 0.04734324663877487, 0.006295612547546625, -0.0659254714846611, 0.2090960592031479, 0.031545355916023254, -0.2226390838623047, 0.14037811756134033, -0.06482571363449097, 0.1081383004784584, -0.18717724084854126, 0.1260414868593216, 0.021684838458895683, -0.04920155182480812, 0.0066968947649002075, 0.05389075726270676, -0.12913331389427185, -0.05512300506234169, 0.009500151500105858, 0.06689247488975525, -0.20244836807250977, -0.023658953607082367, -0.22818173468112946, 0.16021911799907684, 0.1128089427947998, 0.13824723660945892, 0.09125407040119171, 0.005985878873616457, 0.1568639576435089, 0.047656334936618805, 0.20047470927238464, -0.15411922335624695, -0.06782375276088715, 0.1586359739303589, 0.126974418759346, 0.09044460952281952, 0.12776558101177216, 0.11248215287923813, 0.1270163208246231, 0.055978089570999146, -0.1681821495294571, -0.05604986846446991, 0.061379097402095795, -0.043420713394880295], [-0.04843497276306152, -0.08629581332206726, 0.04417020082473755, 0.032790567725896835, 0.19819332659244537, 0.12311817705631256, 0.19977319240570068, 0.01149575412273407, 0.0642879381775856, 0.10255845636129379, 0.08016636967658997, -0.07952078431844711, -0.015835687518119812, -0.08288170397281647, -0.1189509704709053, -0.109822116792202, -0.12872424721717834, 0.07579338550567627, 0.1499413102865219, -0.01934431865811348, 0.13042224943637848, 0.12327346950769424, 0.17329539358615875, -0.07976245135068893, -0.014502756297588348, 0.04556320235133171, -0.13728778064250946, 0.18601882457733154, 0.1105659231543541, 0.13199912011623383, 0.0893578976392746, 0.15802012383937836, -0.0008265802171081305, 0.003133328864350915, -0.04436752200126648, -0.05872959643602371, -0.027108192443847656, 0.043804604560136795, -0.09768819808959961, -0.13456378877162933, 0.175902858376503, -0.06721723824739456, 0.018192056566476822, -0.041390229016542435, 0.07073266804218292, 0.04419930651783943, -0.05758219584822655, -0.02504856139421463], [-0.2031117081642151, 0.055047377943992615, -0.10911315679550171, -0.0621812529861927, 0.15843258798122406, -0.009684808552265167, 0.0515751950442791, -0.1047263815999031, 0.13579080998897552, 0.08983059227466583, -0.02265004999935627, 0.050764668732881546, 0.08903862535953522, 0.17830899357795715, -0.13718779385089874, 0.017595496028661728, 0.12277104705572128, 0.007219518534839153, 0.02676961198449135, -0.017772043123841286, 0.0317789725959301, -0.05489322915673256, 0.10169286280870438, -0.062084876000881195, -0.17196299135684967, -0.0669727548956871, -0.1542409360408783, 0.13266748189926147, -0.09424389898777008, 0.14763480424880981, -0.07793476432561874, 0.07391756772994995, 0.10815694183111191, 0.058617375791072845, 0.17950928211212158, -0.016753574833273888, 0.0006715143099427223, -0.007450488395988941, -0.025694714859128, 0.1459151804447174, 0.010630082339048386, -0.05818447098135948, 0.036717046052217484, -0.08479034900665283, -0.15247072279453278, 0.0699404925107956, -0.0977046936750412, 0.0011941756820306182], [0.007982529699802399, 0.0851304829120636, -0.04002653434872627, 0.1936291754245758, 0.06533324718475342, 0.07610849291086197, -0.2639434039592743, -0.0030028873588889837, 0.02459206059575081, 0.052233800292015076, -0.1585298478603363, -0.09465089440345764, -0.06813084334135056, -0.10198519378900528, 0.09092620015144348, -0.010319588705897331, -0.1577206403017044, -0.0577046275138855, 0.00048005927237682045, -0.15001444518566132, -0.07710525393486023, 0.08997412025928497, -0.009998601861298084, 0.13712166249752045, -0.05934115871787071, 0.04380593076348305, -0.004008991178125143, -0.09007836133241653, -0.05621873214840889, 0.07909080386161804, -0.06008174270391464, -0.05604541674256325, 0.12038162350654602, -0.02098669484257698, 0.04769892245531082, -0.14659622311592102, -0.05623935908079147, -0.03671518713235855, 0.008306433446705341, 0.006545817945152521, 0.11406493186950684, -0.05887400358915329, -0.024812038987874985, -0.25380221009254456, -0.19742260873317719, -0.024365194141864777, -0.060224633663892746, -0.1313261091709137], [0.10471028834581375, -0.021954677999019623, -0.017971396446228027, -0.13461028039455414, -0.07404205948114395, 0.0558290109038353, -0.03202109783887863, -0.08865172415971756, 0.05397619679570198, 0.06980245560407639, 0.05790439248085022, -0.007324578240513802, -0.17857769131660461, 0.04083138704299927, 0.08239534497261047, -0.06618446111679077, 0.04348399117588997, 0.04587752744555473, -0.0006144179496914148, -0.08612964302301407, 0.09525062888860703, -0.11851482838392258, 0.07039164751768112, -0.152560755610466, 0.10785163938999176, 0.08249253034591675, 0.14307348430156708, 0.0546577163040638, -0.026544012129306793, 0.05275017395615578, -0.13785038888454437, -0.021706193685531616, 0.07857093960046768, 0.04246031120419502, -0.14435158669948578, 0.14166449010372162, -0.0414724126458168, -0.04741707444190979, 0.08671879023313522, -0.1261010617017746, 0.0890522301197052, -0.17172326147556305, -0.09418205171823502, -0.10273425281047821, -0.007256536744534969, 0.09683094173669815, -0.1396833062171936, 0.1015564352273941], [-0.2154792696237564, 0.19614587724208832, -0.06867171823978424, 0.06836414337158203, -0.011003924533724785, -0.058495886623859406, -0.05489511415362358, -0.14480558037757874, 0.07212982326745987, 0.028543317690491676, 0.0864093154668808, 0.060585055500268936, -0.07109791040420532, -0.1202542707324028, 0.058859605342149734, 0.08240797370672226, 0.1657089740037918, 0.007650401443243027, -0.13185745477676392, -0.005088431295007467, 0.03786531463265419, 0.10423987358808517, -0.07708615809679031, 0.1292465478181839, 0.003891171421855688, -0.08845311403274536, -0.1376160979270935, 0.10478498041629791, 0.03093421645462513, 0.08805491030216217, -0.048917002975940704, -0.04466420039534569, -0.11819227039813995, 0.1723763346672058, 0.04809749126434326, 0.006204781588166952, -0.0885373130440712, -0.03748387098312378, 0.13062341511249542, -0.04381765052676201, -0.02902485802769661, 0.08234167098999023, -0.04757039621472359, 0.012129449285566807, -0.0633079931139946, -0.07841148972511292, -0.07437380403280258, 0.018099086359143257], [0.27579814195632935, -0.013741359114646912, 0.11155480146408081, -0.08203015476465225, 0.0349561832845211, -0.16878642141819, -0.008805003017187119, -0.11526691913604736, -0.08722058683633804, -0.02091316133737564, 0.09132031351327896, -0.07592222839593887, -0.08764810860157013, -0.0281914584338665, -0.05723201856017113, 0.08443683385848999, 0.08033862709999084, -0.0415559746325016, -0.0875675231218338, 0.07729589939117432, -0.0918959453701973, -0.1512611359357834, -0.06334622204303741, -0.005607773549854755, 0.14212128520011902, 0.02864295057952404, 0.1693180352449417, 0.010403216816484928, -0.1571737676858902, -0.16042140126228333, 0.08017576485872269, -0.08008573204278946, -0.0890430435538292, 0.06398887187242508, -0.1874581277370453, 0.05698958784341812, 0.11243017017841339, -0.06558986753225327, 0.02532952092587948, 0.07476488500833511, 0.03994051739573479, -0.010590419173240662, -0.07732805609703064, 0.08958885073661804, -0.09644819796085358, 0.06961742788553238, -0.05828429386019707, -0.11689728498458862], [0.04751477390527725, 0.06553138792514801, -0.06736665219068527, -0.04409761354327202, -0.049874067306518555, 0.009220636449754238, -0.0066739534959197044, -0.017683755606412888, 0.0850319117307663, -0.03258311375975609, -0.03788932412862778, 0.020041074603796005, -0.14003519713878632, 0.055341918021440506, -0.019950315356254578, 0.03974531218409538, 0.0970100536942482, 0.0486302375793457, -0.13245531916618347, 0.05186518654227257, 0.15774159133434296, 0.007135724648833275, -0.1127503365278244, -0.1653185486793518, 0.13825632631778717, -0.05278380215167999, -0.03128088638186455, -0.006955398246645927, -0.012292508967220783, 0.0553818941116333, 0.09442157298326492, 0.07417037338018417, 0.05844202637672424, -0.1459670215845108, 0.035696569830179214, -0.0487561896443367, -0.1141018271446228, 0.059860311448574066, 0.0729282796382904, -0.06048496067523956, 0.04932110384106636, -0.06818410009145737, 0.09753977507352829, -0.08353246003389359, -0.05409911274909973, -0.019219594076275826, -0.1444808393716812, 0.09065168350934982], [0.005849112756550312, -0.0757644921541214, -0.14590716361999512, 0.05665432661771774, 0.12586946785449982, 0.05517454445362091, -0.015896286815404892, 0.054851315915584564, 0.12604045867919922, -0.14575164020061493, 0.026799697428941727, 0.16576816141605377, -0.037670113146305084, 0.08590259402990341, -0.17398905754089355, -0.09971333295106888, -0.08560961484909058, 0.020690999925136566, 0.08653662353754044, 0.15611326694488525, -0.15986433625221252, 0.02096940204501152, -0.037029098719358444, 0.12693901360034943, -0.2037133127450943, -0.16725866496562958, -0.17616835236549377, 0.20541462302207947, -0.006952159106731415, 0.025887388736009598, 0.12789331376552582, 0.12689992785453796, -0.015009220689535141, -0.15723095834255219, 0.0574641227722168, -0.06436564773321152, 0.0677424967288971, 0.17789047956466675, 0.046536244451999664, 0.09800563752651215, 0.172737717628479, -0.07317252457141876, -0.0907914862036705, 0.12908507883548737, -0.03429997339844704, 0.025616325438022614, 0.02065744809806347, 0.20268693566322327], [-0.17453019320964813, -0.07689365744590759, -0.07172954082489014, -0.0027831350453197956, 0.03435581550002098, 0.2032991200685501, -0.013009988702833652, -0.012982752174139023, -0.013908361084759235, 0.07908117026090622, -0.20432955026626587, 0.17182613909244537, -0.08134398609399796, 0.07011979818344116, -0.16889798641204834, -0.10663340240716934, -0.04804970324039459, -0.18251299858093262, 0.10835369676351547, 0.167684406042099, -0.10549860447645187, -0.03942984715104103, -0.022515108808875084, 0.01128538977354765, -0.052250832319259644, -0.14061295986175537, -0.22731412947177887, 0.11110258847475052, 0.11084028333425522, 0.08350446820259094, 0.18568271398544312, 0.1391364485025406, 0.15513868629932404, -0.19269944727420807, 0.10387875884771347, -0.060545869171619415, -0.008777080103754997, 0.016542311757802963, -0.021010901778936386, -0.019941335543990135, 0.12082567065954208, 0.11758885532617569, 0.16520074009895325, -0.004034071695059538, -0.12931886315345764, 0.18037204444408417, 0.0015737969661131501, 0.14308811724185944], [-0.10768669843673706, 0.018562227487564087, 0.0024858994875103235, 0.03521706163883209, 0.13860243558883667, 0.10881534218788147, 0.10673737525939941, -0.08563684672117233, 0.08133281022310257, -0.03070264495909214, -0.1309812217950821, 0.0035690930671989918, 0.042619675397872925, 0.08380690962076187, -0.05110911652445793, -0.0960317999124527, -0.12413834035396576, -0.11653672158718109, -0.042663801461458206, 0.14706328511238098, -0.2193063348531723, -0.06606623530387878, -0.013817674480378628, -0.08185262978076935, -0.09275130927562714, -0.18336863815784454, -0.21125073730945587, -0.04121943563222885, 0.07992559671401978, 0.1851896345615387, 0.1910560131072998, 0.028996475040912628, 0.1503150761127472, -0.10875017940998077, 0.045538973063230515, -0.11987544596195221, -0.018981898203492165, 0.032619740813970566, -0.004876806866377592, -0.08854255080223083, 0.06441150605678558, 0.07599980384111404, 0.016709033399820328, 0.18781110644340515, -0.2163739651441574, 0.17517748475074768, 0.0105442488566041, 0.10066976398229599], [-0.11864743381738663, 0.01650405488908291, 0.018450269475579262, 0.08240032196044922, 0.03808381035923958, -0.06284704059362411, -0.06850392371416092, -0.08511804044246674, 0.007902763783931732, 0.06503260135650635, -0.09660393744707108, -0.08856838941574097, -0.026148630306124687, 0.10576604306697845, 0.12985990941524506, 0.005219441372901201, 0.020760618150234222, 0.05450328439474106, -0.1361377090215683, -0.10523225367069244, 0.04451645910739899, 0.12078534811735153, -0.10719438642263412, 0.07149084657430649, -0.05396007001399994, -0.12505199015140533, 0.09948921948671341, 0.06391877681016922, 0.14242321252822876, -0.10909558832645416, 0.03674718365073204, -0.01842721365392208, -0.08608181029558182, 0.2139642983675003, -0.020040489733219147, -0.008800960145890713, 0.028338870033621788, -0.14318382740020752, -0.17934653162956238, -0.06736956536769867, 0.052466295659542084, -0.1041904017329216, 0.05407687649130821, -0.12938639521598816, -0.1097087413072586, -0.00911526195704937, 0.07012131810188293, 0.08978068828582764], [-0.0415237620472908, -0.0933050885796547, 0.013404298573732376, 0.011966579593718052, 0.002948272041976452, 0.13245785236358643, 0.11128640174865723, 0.0734795331954956, -0.06952447444200516, -0.04950616508722305, -0.23688286542892456, 0.1263921707868576, 0.022444935515522957, 0.02906445600092411, -0.187730610370636, 0.0009162448695860803, 0.04144119843840599, 0.08292390406131744, 0.013493671081960201, -0.0013076207833364606, 0.07760092616081238, 0.0070518567226827145, 0.11864162236452103, 0.1033656969666481, -0.142318993806839, -0.18947453796863556, -0.19343721866607666, 0.02631978690624237, -0.06411755084991455, -0.05478318780660629, 0.031199762597680092, -0.08513221889734268, -0.015215522609651089, 0.05710839480161667, 0.24878384172916412, -0.20028041303157806, 0.06807886809110641, 0.09927432984113693, 0.05791698023676872, 0.049542125314474106, 0.11331768333911896, 0.08160574734210968, 0.06855852901935577, -0.000746772566344589, -0.04929351806640625, -0.0025513898581266403, -0.017298296093940735, 0.11405705660581589], [-0.0015657910844311118, -0.11972590535879135, -0.17606234550476074, 0.02257639542222023, -0.1605721265077591, 0.01907581463456154, -0.15293914079666138, -0.07161008566617966, -0.07725327461957932, -0.15452152490615845, -0.0009963196935132146, 0.021587863564491272, -0.13147056102752686, -0.045157525688409805, -0.15006771683692932, -0.06459822505712509, -0.1402786523103714, -0.08554691076278687, 0.032267794013023376, 0.09105474501848221, 0.046484023332595825, -0.14549650251865387, -0.13235850632190704, -0.18374104797840118, -0.06143074482679367, -0.011570748873054981, 0.08552674949169159, 0.07445783168077469, 0.1499841809272766, 0.06747610867023468, 0.044452305883169174, 0.09198951721191406, 0.13532862067222595, 0.009788263589143753, -0.1194995865225792, -0.13157010078430176, -0.11647578328847885, 0.019404608756303787, -0.11357790976762772, 0.10450775921344757, 0.1150377094745636, -0.037252992391586304, 0.04625605791807175, -0.004001358523964882, -0.1495285928249359, -0.0786948874592781, -0.1780088096857071, 0.04624522477388382], [0.016392692923545837, 0.07688113301992416, -0.1396937370300293, 0.04525011032819748, 0.14639927446842194, -0.05889842286705971, -0.16027404367923737, -0.08024590462446213, -0.12341709434986115, 0.10939584672451019, -0.11694859713315964, 0.1500674933195114, -0.051124207675457, -0.1510162651538849, 0.12452812492847443, -0.1285821497440338, 0.10978733748197556, 0.0032192375510931015, -0.019371433183550835, 0.11003908514976501, -0.16923090815544128, -0.12570594251155853, -0.04335315525531769, -0.09772111475467682, -0.23024897277355194, -0.01836061105132103, 0.15966208279132843, 0.09848815202713013, 0.1471984088420868, -0.10289227217435837, -0.13704274594783783, -0.03516634181141853, 0.045610059052705765, 0.1438547819852829, 0.04767164587974548, 0.16611213982105255, -0.08761774003505707, 0.02190929837524891, 0.07229383289813995, -0.04388774558901787, -0.00022814069234300405, -0.12774811685085297, 0.06313776969909668, -0.13162773847579956, -0.0005575016257353127, 0.1285613775253296, -0.06549857556819916, 0.012368445284664631], [0.06752706319093704, 0.20557105541229248, 0.11651837080717087, 0.08488953858613968, -0.1330435574054718, -0.05034533888101578, -0.3546064496040344, 0.05410188436508179, -0.06326059252023697, 0.0122304018586874, 0.04107510298490524, -0.019760625436902046, 0.11983389407396317, 0.06482509523630142, 0.14913444221019745, -0.05864178389310837, -0.13784977793693542, 0.0539872907102108, 0.027789803221821785, 0.0011981461429968476, -0.071836456656456, 0.12841510772705078, -0.024603981524705887, -0.02315370738506317, -0.2133115530014038, 0.041283443570137024, 0.09644104540348053, 0.07745027542114258, -0.05081327259540558, 0.1252138316631317, 0.04761616140604019, 0.10880474001169205, -0.08942598104476929, 0.07342369109392166, -0.10223397612571716, 0.11634267866611481, -0.04177996888756752, 0.13191261887550354, -0.1366363763809204, 0.07038194686174393, 0.0763070359826088, -0.07131275534629822, 0.038258906453847885, -0.07550390064716339, -0.009108074009418488, -0.14421626925468445, -0.11974924057722092, -0.07201571017503738], [-0.1398342102766037, 0.02654709666967392, -0.06423360854387283, 0.09751724451780319, 0.03709786385297775, 0.1338786482810974, 0.09272124618291855, 0.02445705235004425, 0.02006058394908905, 0.02869774028658867, 0.08269066363573074, 0.08879659324884415, 0.0072399829514324665, -0.05982765927910805, -0.0026535780634731054, 0.10466580092906952, -0.11001382023096085, -0.03199675679206848, 0.012490070424973965, -0.014307156205177307, -0.07881402224302292, 0.12026210129261017, 0.0012168786488473415, 0.07806260883808136, 0.0907059982419014, -0.03701278567314148, 0.009030099026858807, 0.11312922090291977, -0.08498899638652802, 0.13453486561775208, 0.07590756565332413, 0.07006462663412094, -0.07461192458868027, -0.1206132248044014, 0.05950275436043739, -0.11693014949560165, -0.1421765834093094, -0.023954570293426514, -0.08792873471975327, 0.037669263780117035, 0.11063242703676224, 0.01603992097079754, 0.013938097283244133, 0.01877395063638687, 0.08838323503732681, -0.04542416334152222, 0.006620936095714569, 0.13209299743175507], [-0.18816378712654114, -0.05690106749534607, 0.007876020856201649, 0.21738320589065552, -0.10128502547740936, 0.05017787218093872, -0.2437129020690918, 0.03737381100654602, 0.06934583187103271, -0.09614566713571548, -0.03166110813617706, -0.13075679540634155, -0.12438420951366425, -0.07535897940397263, 0.0017686985665932298, -0.1041133776307106, 0.08030103147029877, -0.18589158356189728, 0.09004079550504684, 0.037086304277181625, -0.0860729068517685, 0.03341292217373848, 0.0235472209751606, -0.07827489078044891, -0.06858756393194199, 0.04013844206929207, 0.09582526981830597, 0.008848396129906178, -0.05230915546417236, 0.04325414448976517, -0.13811103999614716, -0.08690696209669113, -0.0892694741487503, 0.02075003832578659, -0.11492718011140823, -0.12411247193813324, -0.05148160085082054, -0.06726797670125961, -0.10394930839538574, -0.11915268003940582, -0.050760846585035324, 0.027120698243379593, -0.030345745384693146, -0.2150937169790268, 0.05156077817082405, 0.08210162818431854, -0.022982215508818626, -0.10710366070270538], [-0.10832905769348145, -0.021259641274809837, -0.09986720234155655, 0.0357564315199852, -0.0626877099275589, 0.058304719626903534, -0.03187282010912895, 0.11583932489156723, 0.09759612381458282, -0.07085180282592773, -0.054672721773386, 0.09919305145740509, -0.15010510385036469, -0.14244234561920166, 0.10263768583536148, -0.14645610749721527, 0.003948583267629147, -0.03170657157897949, -0.008883051574230194, -0.16615985333919525, -0.08575832843780518, -0.10526697337627411, -0.11239604651927948, -0.0424814447760582, -0.20526650547981262, 0.15054254233837128, 0.0076911915093660355, -0.02464107610285282, -0.03367181867361069, 0.09060686081647873, 0.08746970444917679, 0.02921297214925289, -0.12308751046657562, 0.02796393632888794, 0.06059332564473152, 0.09664969891309738, 0.10250498354434967, 0.06501789391040802, -0.19335240125656128, -0.048400964587926865, 0.09314978867769241, -0.06562813371419907, -0.05270744487643242, -0.1342363953590393, -0.12408619374036789, 0.033282190561294556, -0.036046646535396576, -0.1672154814004898], [-0.21502171456813812, -0.04064689576625824, 0.10649906098842621, -0.09469686448574066, -0.0881819799542427, -0.1021357923746109, 0.04113242030143738, -0.049065299332141876, -0.004834709223359823, -0.08660005033016205, -0.013081888668239117, -0.15386787056922913, -0.04983120039105415, 0.07989338785409927, 0.003166444366797805, -0.07107284665107727, -0.030037546530365944, 0.01332805771380663, 0.09732685983181, -0.07520692050457001, -0.009507711976766586, -0.09637298434972763, 0.01102636381983757, -0.16895458102226257, 0.09066011011600494, 0.07025602459907532, -0.11561702936887741, -0.1461840271949768, 0.02892874740064144, 0.05781550705432892, 0.0994923934340477, -0.030041201040148735, -0.08590921014547348, 0.08985335379838943, 0.0849563255906105, -0.08441201597452164, -2.1147914594621398e-05, -0.08481701463460922, -0.11497553437948227, -0.13519145548343658, -0.14579665660858154, -0.05920211970806122, 0.011231258511543274, 0.0005271401023492217, 0.08636201918125153, 0.06603702157735825, 0.00960500631481409, -0.024917028844356537], [0.15156131982803345, 0.0793241336941719, 0.07390972226858139, 0.06183323636651039, 0.011375581845641136, 0.130448579788208, -0.23058272898197174, 0.02768775075674057, 0.10281047970056534, 0.1960352659225464, -0.13008123636245728, 0.04207727685570717, 0.08296328783035278, 0.0011048552114516497, 0.009864396415650845, -0.17567908763885498, -0.18002918362617493, 0.08284248411655426, -0.0723414272069931, -0.1465168297290802, 0.09032481908798218, 0.09957728534936905, -0.02726690098643303, -0.06337978690862656, -0.05294724181294441, -0.14646007120609283, 0.18657614290714264, -0.04706426337361336, -0.13186590373516083, -0.05374489352107048, 0.011370913125574589, -0.14410801231861115, 0.08599766343832016, 0.16104656457901, -0.15827742218971252, 0.008262855000793934, -0.1770627647638321, 0.12553179264068604, 0.0628703385591507, 0.03287039324641228, -0.1528264433145523, -0.02098825015127659, 0.06835018843412399, -0.20019367337226868, -0.11947734653949738, -0.09364938735961914, 0.04041631147265434, 0.11347342282533646], [-0.033661726862192154, -0.12283224612474442, 0.013020539656281471, -0.09774177521467209, 0.17064155638217926, 0.03956615924835205, -0.02523539401590824, 0.08054506033658981, 0.09637491405010223, -0.18424072861671448, -0.02134801633656025, 0.17523275315761566, 0.07529476284980774, 0.17834798991680145, 0.03637136146426201, -0.004222388844937086, -0.11295290291309357, 0.11498242616653442, 0.04902705177664757, 0.04458172991871834, -0.06430239230394363, -0.09741298854351044, 0.02624598890542984, -0.012583647854626179, -0.22611574828624725, -0.1295255720615387, 0.04960308223962784, 0.14503097534179688, 0.11173946410417557, 0.008584943599998951, -0.04135105758905411, -0.0713738426566124, 0.011191817000508308, -0.13753505051136017, 0.18464626371860504, 0.061027202755212784, 0.14507296681404114, 0.1665215790271759, -0.03435424342751503, -0.1317548304796219, -0.06275895237922668, 0.024983437731862068, 0.006150169763714075, 0.1886337548494339, -0.09483625739812851, 0.19763799011707306, 0.03359302133321762, 0.04859833046793938], [-0.25011786818504333, -0.06435646116733551, -0.008429612964391708, 0.05831529200077057, 0.1322602778673172, 0.04030729457736015, 0.04168955981731415, -0.011518474668264389, 0.15380878746509552, 0.015498986467719078, -0.21977132558822632, 0.08611128479242325, 0.030006717890501022, 0.10544569790363312, -0.16502675414085388, -0.12475638836622238, 0.07665684074163437, 0.0780353844165802, 0.013899690471589565, 0.007792903110384941, 0.004319927655160427, 0.09102454781532288, 0.20656323432922363, 0.027280084788799286, -0.0038706655614078045, -0.10827389359474182, -0.06484884768724442, -0.0342257022857666, 0.11923285573720932, 0.12346875667572021, -0.05097466707229614, 0.049485910683870316, 0.1677897870540619, -0.04255491495132446, 0.20042654871940613, -0.25131163001060486, -0.11051256954669952, 0.13450132310390472, -0.017723770812153816, 0.0508250817656517, 0.09055878221988678, 0.13124464452266693, 0.14059703052043915, -0.06714639067649841, -0.049754075706005096, 0.09182659536600113, -0.09202099591493607, 0.02770886942744255], [-0.012602011673152447, 0.014674501493573189, -0.14666344225406647, -0.036697499454021454, 0.13653497397899628, -0.08402916043996811, 0.06344515830278397, 0.08486764878034592, -0.05902838706970215, 0.004446417558938265, 0.029188187792897224, 0.05539628490805626, -0.04294098913669586, 0.16890469193458557, 0.04726628214120865, 0.06555121392011642, -0.06145229935646057, 0.031111760064959526, -0.02935945987701416, -0.017347849905490875, 0.04533877223730087, 0.07247307151556015, 0.12479714304208755, -0.07541481405496597, -0.14707711338996887, 0.09171850234270096, -0.17847028374671936, 0.03270489722490311, -0.020623520016670227, 0.20004123449325562, -0.03076210990548134, 0.0298346858471632, 0.12638749182224274, 0.08466003090143204, 0.07291053235530853, -0.0011198458960279822, -0.07979641854763031, 0.1569196879863739, -0.10746761411428452, -0.03478831425309181, -0.08606130629777908, 0.059348586946725845, 0.08765187114477158, 0.04211438074707985, -0.11352243274450302, 0.09465330839157104, -0.011652890592813492, -0.009827942587435246], [-0.04052109643816948, -0.017088335007429123, 0.02692105993628502, 0.18783897161483765, 0.1326608955860138, -0.005940016824752092, -0.1991003155708313, -0.02297941781580448, -0.12908901274204254, -0.017528584226965904, -0.09741955250501633, -0.13533346354961395, 0.019254399463534355, 0.0064903367310762405, 0.10991116613149643, -0.011969096958637238, -0.06201796606183052, 0.038585856556892395, 0.05062900856137276, -0.09749244153499603, -0.11663182079792023, -0.037509460002183914, 0.023592181503772736, -0.02893074043095112, -0.08872434496879578, -0.12933528423309326, -0.12519364058971405, -0.04126983880996704, -0.014419238083064556, -0.12501272559165955, -0.05713991820812225, -0.08831440657377243, 0.10867428034543991, 0.20628918707370758, -0.03166543319821358, -0.0282448623329401, -0.12934181094169617, 0.09605210274457932, 0.1250976175069809, 0.09307882189750671, 0.0705292597413063, -0.04379360005259514, 0.15251775085926056, -0.07218112051486969, 0.03794218972325325, -0.12315326184034348, -0.013414870016276836, -0.015870941802859306], [-0.09407959133386612, 0.0327964685857296, 0.026658181101083755, 0.051092732697725296, 0.06403157860040665, 0.12216249108314514, 0.02055107057094574, -0.031877558678388596, 0.07655170559883118, -0.04206930473446846, -0.2206622213125229, 0.17380699515342712, -0.0442449152469635, 0.02841530367732048, 0.01915108971297741, 0.15004318952560425, 0.130219966173172, -0.11569666862487793, 0.1804240196943283, 0.0661587193608284, 0.07946283370256424, -0.10667065531015396, 0.12983065843582153, 0.1303381770849228, -0.07242270559072495, 0.10485631972551346, -0.08229675143957138, 0.17920561134815216, -0.011531286872923374, -0.03846375271677971, -0.03626924380660057, 0.1490233987569809, -0.04502328857779503, -0.0024811765179038048, 0.034083299338817596, -0.028845777735114098, 0.07888446003198624, 0.1503564715385437, -0.1288435012102127, 0.024477271363139153, 0.011386387050151825, 0.0422770231962204, 0.0583818145096302, 0.022830834612250328, 0.058891661465168, 0.1259744018316269, 0.052539099007844925, -0.07625649124383926], [0.08338877558708191, 0.04312064126133919, -0.010091305710375309, 0.08572933822870255, -0.07309845089912415, -0.08287196606397629, -0.24812449514865875, -0.020646918565034866, -0.004647460766136646, -0.039060480892658234, -0.11379953473806381, 0.039865002036094666, 0.056716836988925934, -0.08259617537260056, -0.07493119686841965, -0.282514750957489, -0.11109717190265656, -0.00022876019647810608, -0.10202158242464066, 0.11993016302585602, -0.04907189682126045, -0.06303643435239792, -0.0741429403424263, -0.04474668204784393, -0.20939162373542786, 0.02823766879737377, 0.012634855695068836, 0.1132395938038826, -0.11485958099365234, -0.08693765848875046, -0.13678382337093353, -0.0070779589004814625, 0.14520853757858276, 0.006061790976673365, -0.009479762054979801, -0.05516759306192398, -0.16145408153533936, -0.017152410000562668, 0.08702463656663895, -0.08336640894412994, 0.11823166906833649, -0.06241857632994652, 0.16962198913097382, -0.3727740943431854, -0.16789762675762177, -0.0502830445766449, 0.01853848248720169, -0.1269829124212265], [-0.07358989864587784, 0.02281249687075615, 0.002287360141053796, -0.019953759387135506, -0.02107633836567402, -0.04439827427268028, 0.055370066314935684, 0.10614286363124847, 0.021565644070506096, -0.06288942694664001, -0.09529507905244827, 0.09741783142089844, 0.09919755160808563, 0.17904667556285858, 0.029940713196992874, -0.12318084388971329, -0.10377928614616394, -0.08852381259202957, 0.13331854343414307, -0.048499368131160736, 0.03842031955718994, 0.03281974419951439, 0.21470430493354797, 0.12491659820079803, -0.0367228128015995, -0.061289772391319275, -0.22337152063846588, 0.07598607242107391, 0.13194727897644043, 0.134104385972023, -0.026305243372917175, 0.17366352677345276, -0.10226425528526306, 0.017535598948597908, 0.00879000499844551, -0.02679010108113289, -0.09154237806797028, 0.10306903719902039, -0.12530431151390076, -0.028137076646089554, 0.15292754769325256, -0.050088416785001755, 0.12909869849681854, 0.15953782200813293, -0.2327081859111786, 0.11543647199869156, 0.16218771040439606, -0.060265764594078064], [0.04296954348683357, 0.07787640392780304, 0.09057294577360153, 0.15751193463802338, -0.12095054239034653, 0.09685251116752625, -0.21121077239513397, 0.05870271846652031, 0.025102052837610245, 0.16323524713516235, -0.002217021072283387, -0.05808374285697937, -0.022502433508634567, -0.09302649646997452, -0.005038707051426172, -0.2835378050804138, -0.19497326016426086, 0.12743648886680603, -0.1332610696554184, -0.10555988550186157, -0.02414277009665966, 0.05023054778575897, 0.0010980587685480714, 0.06259029358625412, -0.2332286238670349, 0.11708493530750275, -0.10664986073970795, -0.03697202727198601, -0.07723234593868256, 0.03409586846828461, -0.04007137566804886, -0.1030273512005806, -0.10757513344287872, 0.12082170695066452, 0.09280884265899658, 0.051291655749082565, -0.13718317449092865, 0.043445516377687454, 0.017552874982357025, 0.06572366505861282, 0.08219708502292633, -0.11390820890665054, 0.1588321179151535, -0.2544187903404236, -0.04105442017316818, -0.05157371982932091, 0.010738683864474297, -0.04807724803686142], [-0.13496951758861542, -0.09865210205316544, -0.07279368489980698, -0.004375366494059563, -0.002306059468537569, -0.04523291066288948, 0.09051826596260071, 0.16056503355503082, 0.15863275527954102, -0.06334774196147919, -0.11555007100105286, -0.05350159481167793, -0.028974872082471848, -0.022518157958984375, 0.024991460144519806, -0.0832238644361496, 0.04476260021328926, -0.10593869537115097, 0.13627052307128906, 0.0794014260172844, 0.10954255610704422, 0.06455016881227493, -0.007336110342293978, 0.0790785551071167, -0.20378470420837402, -0.20499767363071442, -0.06487160921096802, 0.05655596777796745, 0.0976470485329628, 0.08229774236679077, -0.04397081211209297, -0.03961480036377907, -0.059649933129549026, -0.1663125902414322, -0.023067208006978035, -0.16085031628608704, 0.06909778714179993, 0.108571358025074, 0.08152143657207489, 0.06299027800559998, 0.015287023968994617, -0.0017957929521799088, -0.0038903644308447838, 0.09284130483865738, -0.0920047014951706, -0.07608626782894135, 0.027351802214980125, 0.11313235014677048], [-0.06787338852882385, 0.04898029938340187, -0.09194537252187729, 0.04211052507162094, -0.10072282701730728, 0.07464048266410828, -0.03725704923272133, -0.03783740475773811, -0.027907218784093857, -0.05745835229754448, -0.04777076840400696, 0.08319560438394547, -0.17946648597717285, 0.041505828499794006, 0.06455785781145096, -0.1864425390958786, -0.045996081084012985, -0.014584227465093136, -0.04388917610049248, 0.0670425146818161, -0.10299934446811676, -0.11465922743082047, 0.11265240609645844, -0.13474009931087494, -0.10103119164705276, 0.014117102138698101, 0.08335008472204208, 0.12313037365674973, -0.025859223678708076, -0.01719529554247856, 0.03842896595597267, -0.08589921146631241, -0.11935657262802124, 0.11429490894079208, 0.005152551457285881, 0.022364526987075806, 0.111404187977314, 0.0619065947830677, -0.0962570309638977, -0.102662093937397, 0.04249747470021248, -0.030667530372738838, -0.042625367641448975, -0.21826443076133728, -0.05761649087071419, -0.15321145951747894, -0.14820899069309235, -0.059269391000270844], [-0.19061744213104248, 0.03530700132250786, 0.06362876296043396, 0.017319323495030403, -0.01988971419632435, 0.02468498796224594, -0.265513151884079, 0.02424745075404644, 0.011592160910367966, -0.09183066338300705, -0.06961898505687714, -0.12269190698862076, -0.004846164491027594, 0.0756525844335556, 0.03560486063361168, -0.2527141571044922, -0.010530742816627026, 0.0742555782198906, 0.05972898006439209, -0.09026426821947098, -0.12387308478355408, -0.09459362179040909, 0.040979430079460144, 0.13557058572769165, -0.08170237392187119, 0.17651699483394623, -0.11663482338190079, -0.1498526930809021, -0.09325441718101501, 0.048365700989961624, 0.0943562462925911, -0.12111492455005646, 0.10457880049943924, 0.1863158792257309, 0.07046899199485779, 0.04501279443502426, -0.06271491199731827, 0.0023741251789033413, -0.09634961932897568, 0.026703614741563797, 0.06807912141084671, -0.1598132997751236, 0.04691466689109802, -0.1848507672548294, -0.10372855514287949, -0.17704762518405914, -0.08482266962528229, -0.03607528284192085], [-0.11983424425125122, 0.05318700894713402, -0.16603702306747437, 0.033890314400196075, 0.14290647208690643, 0.07924667745828629, 0.16699089109897614, 0.0414818711578846, 0.08406762033700943, -0.0414818711578846, 0.11829818040132523, 0.11400382220745087, 0.04528868570923805, -0.07698780298233032, -0.07080531120300293, -0.13000448048114777, -0.1556331068277359, 0.07713322341442108, 0.1659146547317505, -0.05042930319905281, -0.033540029078722, 0.05185266211628914, 0.14242418110370636, 0.05071043595671654, 0.04363376647233963, 0.05496245622634888, -0.03204118087887764, 0.06448663771152496, 0.046213872730731964, -0.016517512500286102, 0.07967247813940048, 0.05289996787905693, 0.13290812075138092, 0.01537568774074316, 0.057018011808395386, 0.07690959423780441, 0.07002988457679749, -0.08031515032052994, 0.021892914548516273, 0.117747001349926, -0.10658324509859085, 0.14638006687164307, 0.04740259423851967, -0.008971651084721088, -0.17604446411132812, 0.13354770839214325, -0.08466977626085281, 0.0821368470788002], [-0.054204583168029785, -0.16590364277362823, -0.1211286410689354, -0.05236602574586868, 0.07221546769142151, -0.0184951089322567, 0.15473808348178864, 0.09621932357549667, -0.05807113274931908, 0.07223214954137802, -0.10818018764257431, 0.07274750620126724, 0.07921598851680756, 0.08326971530914307, -0.1791718602180481, 0.055369678884744644, 0.1274610012769699, -0.008362282067537308, 0.07653623074293137, 0.12234477698802948, 0.0667167529463768, 0.05115488916635513, 0.0624728687107563, -0.033693499863147736, -0.1118965744972229, -0.07984820008277893, -0.11063481867313385, 0.12860161066055298, 0.06412366777658463, -0.07827486842870712, -0.060997623950242996, 0.061707839369773865, -0.049129389226436615, 0.04112079367041588, 0.1214563399553299, -0.1661125272512436, 0.14585477113723755, -0.07842853665351868, 0.1257801204919815, -0.004012967925518751, 0.09661892056465149, 0.13028353452682495, 0.05903775990009308, 0.025444136932492256, -0.18640588223934174, 0.009800988249480724, -0.012322939932346344, 0.18891896307468414], [-0.000551302102394402, 0.15282930433750153, 0.0536208376288414, 0.2391510307788849, 0.11243535578250885, -0.0062340558506548405, -0.005491640418767929, 0.06593617051839828, -0.10613979399204254, 0.034861043095588684, 0.012627843767404556, -0.10521585494279861, 0.04997473210096359, -0.10366148501634598, -0.02314360812306404, -0.21744900941848755, -0.1660960614681244, 0.05108058825135231, 0.12573638558387756, 0.032578639686107635, -0.16498610377311707, -0.0874626636505127, -0.04498764127492905, -0.11360052973031998, -0.18129920959472656, -0.015406441874802113, 0.19250856339931488, -0.013124322518706322, -0.05205835402011871, 0.060182198882102966, -0.10233042389154434, -0.1173945963382721, -0.11913605034351349, 0.038167476654052734, 0.09621156752109528, -0.07658030092716217, -0.11061813682317734, -0.007421023678034544, -0.028540441766381264, -0.08083909749984741, -0.02365889959037304, -0.021358171477913857, 0.18674524128437042, -0.25185078382492065, -0.22021517157554626, -0.12682168185710907, 0.10139557719230652, -0.05393397808074951], [-0.04034314304590225, -0.1253126561641693, -0.03504533693194389, -0.13656362891197205, -0.02508280612528324, 0.07682465761899948, -0.09825100004673004, 0.07969892770051956, -0.09690568596124649, -0.0058344644494354725, -0.061309415847063065, 0.06792592257261276, -0.09489007294178009, -0.08642926812171936, 0.07619663327932358, -0.12726718187332153, 0.020352566614747047, -0.14236147701740265, 0.08602655678987503, -0.0489780493080616, 0.08496829867362976, 0.12283159792423248, -0.07933251559734344, -0.08881502598524094, 0.04730178788304329, 0.032978642731904984, -0.003815371310338378, 0.07224781811237335, -0.0909290462732315, 0.08329750597476959, 0.09954573214054108, 0.021853959187865257, 0.0317038968205452, -0.04923084005713463, 0.04997730255126953, 0.025966551154851913, 0.0033802709076553583, 0.10612285137176514, -0.03309997171163559, 0.04133143275976181, 0.03354928269982338, 0.05946468189358711, -0.04576054960489273, 0.1411370038986206, -0.04731685668230057, -0.07456548511981964, 0.0021041231229901314, -0.07173436880111694], [-0.15807704627513885, -0.1603192239999771, 0.12814317643642426, 0.12300344556570053, -0.10348827391862869, 0.016420554369688034, -0.08541234582662582, 0.14613685011863708, 0.012346689589321613, -0.05888516828417778, -0.003156826598569751, 0.05860614404082298, -0.07858951389789581, -0.07317338138818741, -0.06686730682849884, 0.17678341269493103, 0.08749318867921829, -0.037313688546419144, 0.11034820973873138, 0.003953256644308567, 0.07350893318653107, 0.13718581199645996, 0.05773745849728584, -0.06479791551828384, 0.11835629492998123, -0.034571580588817596, -0.1104179099202156, 0.06951694190502167, 0.02340720221400261, 0.03741559013724327, 0.10310224443674088, 0.060124825686216354, 0.06325548142194748, -0.09351921081542969, 0.0017394819296896458, -0.13638325035572052, 0.0354112945497036, -0.11077464371919632, -0.07431747764348984, -0.11664653569459915, 0.03950854390859604, 0.10020632296800613, 0.1473378986120224, 0.1870410293340683, -0.08883842825889587, 0.016844332218170166, -0.09527413547039032, -0.10276661068201065], [-0.2215481698513031, 0.05406476557254791, -0.1615573912858963, 0.0660705640912056, 0.07948711514472961, 0.10644339770078659, 0.04575355350971222, 0.11821606010198593, 0.2013731747865677, -0.021612772718071938, -0.20264746248722076, 0.10387981683015823, 0.09786950051784515, 0.05264875292778015, -0.04422396421432495, 0.04464218392968178, 0.08691228181123734, 0.05166342481970787, 0.05911846458911896, -0.08876746147871017, -0.031617339700460434, 0.12819230556488037, 0.07676389813423157, 0.09001096338033676, -0.1708977222442627, -0.02689562924206257, 0.032441943883895874, 0.15664002299308777, -0.09329395741224289, 0.0804574266076088, 0.0911426693201065, 0.017989924177527428, 0.16374148428440094, -0.07441726326942444, -0.01858253963291645, 0.054814934730529785, 0.07225172966718674, 0.09222335368394852, -0.019560130313038826, 0.06266620755195618, -0.07498964667320251, 0.034534089267253876, -0.012469259090721607, 0.06551443040370941, -0.020900961011648178, 0.0858190506696701, 0.1439429521560669, 0.19504912197589874], [-0.26838093996047974, -0.11215300858020782, -0.29164841771125793, -0.014423842541873455, 0.1801167130470276, -0.08219338953495026, -0.015635015442967415, -0.00802227295935154, 0.22808486223220825, -0.223769411444664, -0.011436866596341133, 0.17413927614688873, 0.0012882318114861846, 0.09326346218585968, -0.17268826067447662, 0.011045165359973907, -0.1388552486896515, -0.12113524228334427, 0.05542268604040146, 0.185696080327034, -0.14545109868049622, -0.02432425692677498, 0.23508062958717346, -0.0366741344332695, -0.13308073580265045, -0.003503801766782999, -0.0075672040693461895, 0.006049385294318199, 0.1376318335533142, 0.2102021723985672, -0.04935932159423828, 0.11583002656698227, 0.0490259975194931, -0.08211739361286163, 0.2721729278564453, -0.22206275165081024, -0.07871094346046448, 0.06186685711145401, 0.01823125220835209, 0.004606186877936125, 0.14115451276302338, -0.047622714191675186, -0.006747300736606121, 0.19582970440387726, -0.07817941904067993, 0.08829725533723831, 0.05182786285877228, 0.24618826806545258], [-0.11788089573383331, 0.1397739201784134, -0.06476641446352005, -0.02143462374806404, 0.03988352417945862, 0.052515603601932526, -0.04260057583451271, 0.012467999942600727, -0.13745363056659698, -0.06104709208011627, -0.030964236706495285, -0.046847883611917496, -0.02780856564640999, -0.06413054466247559, -0.046951774507761, 0.0067365653812885284, -0.15887849032878876, -0.10873036831617355, -0.05039944872260094, 0.04568811133503914, -0.15808823704719543, -0.1682841032743454, -0.07071318477392197, -0.117409348487854, -0.04201506823301315, 0.0917312428355217, 0.04390987753868103, 0.08573988825082779, 0.15525346994400024, -0.13948550820350647, -0.11518748849630356, -0.077934630215168, 0.06175005063414574, 0.20805443823337555, -0.005379470065236092, 0.1201784685254097, -0.08190678805112839, 0.04800672084093094, -0.0055853743106126785, -0.05965016782283783, 0.09921661764383316, 0.10832025855779648, 0.11976438015699387, -0.2137945294380188, -0.12710782885551453, -0.05958256125450134, 0.027660850435495377, 0.0012068507494404912], [0.02864401787519455, -0.058847349137067795, -0.12796851992607117, -0.09380370378494263, -0.016276098787784576, 0.11116427928209305, -0.0525611974298954, -0.009751914069056511, -0.15474091470241547, 0.12783963978290558, -0.05175859481096268, -0.03525891900062561, -0.07355231046676636, 0.07579664140939713, -0.13607142865657806, -0.16092117130756378, 0.10361852496862411, 0.07362565398216248, -0.02895776554942131, 0.0266901645809412, 0.057994768023490906, 0.10015929490327835, -0.12376666069030762, 0.06861907988786697, -0.09387380629777908, 0.010355385020375252, 0.05847707390785217, -0.036022529006004333, -0.020365886390209198, 0.015024933032691479, -0.16070173680782318, 0.04276693984866142, 0.0378645621240139, 0.05338863655924797, 0.09769129008054733, -0.002008408308029175, -0.10683946311473846, 0.049131445586681366, -0.1394100934267044, -0.020352613180875778, -0.16842035949230194, 0.026275979354977608, 0.08517642319202423, 0.025287942960858345, 0.1210283562541008, -0.10279528796672821, -0.12811100482940674, -0.09557509422302246], [-0.10712255537509918, 0.029429301619529724, -0.2386447936296463, 0.16949808597564697, -0.01874053291976452, 0.16101622581481934, -0.1914469599723816, 0.17583659291267395, -0.048768118023872375, -0.2627827823162079, -0.016513392329216003, 0.16346898674964905, -0.08936633169651031, 0.07043108344078064, -0.2023189812898636, 0.0005377997294999659, -0.12476858496665955, 0.09869986027479172, 0.022689122706651688, 0.07563556730747223, -0.23442324995994568, 0.009259086102247238, 0.1361176073551178, -0.030234647914767265, -0.08008071035146713, -0.08297248184680939, -0.2082999050617218, 0.07680492103099823, -0.08152872323989868, 0.14187610149383545, 0.10926730185747147, -0.1306595355272293, 0.01677207089960575, -0.1575884371995926, 0.14049790799617767, -0.05233720690011978, 0.08070389181375504, 0.007178119383752346, 0.08798127621412277, 0.045127734541893005, 0.046824924647808075, 0.16067485511302948, -0.062144361436367035, 0.02360706217586994, -0.09362078458070755, 0.15767741203308105, 0.008767972700297832, 0.16854068636894226], [-0.023751845583319664, 0.04427860677242279, -0.21971702575683594, -0.11934122443199158, -0.03428876772522926, -0.1326785385608673, -0.15173014998435974, -0.09242065995931625, -0.03751948103308678, -0.019800685346126556, 0.011116470210254192, -0.06752895563840866, -0.13067442178726196, 0.032554991543293, 0.19101718068122864, -0.17266185581684113, -0.1717810332775116, -0.11213727295398712, -0.009062105789780617, -0.11072489619255066, -0.03669220954179764, 0.04890196770429611, -0.021964531391859055, -0.07802508771419525, -0.1592862904071808, 0.012748345732688904, -0.12288936227560043, -0.09062064439058304, -0.012044239789247513, 0.06637974828481674, -0.01224350742995739, -0.10441557317972183, -0.017199724912643433, 0.045086320489645004, 0.01656884141266346, -0.09481071680784225, -0.002979259705170989, 0.09761152416467667, 0.03501693531870842, 0.08474373817443848, -0.022857019677758217, -0.11622361838817596, 0.03983306139707565, -0.08136247098445892, -0.1253889501094818, -0.0008689553360454738, 0.024808723479509354, -0.01607576385140419], [-0.0258626826107502, -0.23876884579658508, -0.0029396596364676952, -0.07166896015405655, 0.08669670671224594, 0.1835402399301529, 0.15159136056900024, -0.014238768257200718, 0.03664953261613846, -0.07030759751796722, -0.049536146223545074, -0.060787539929151535, 0.16189751029014587, 0.15424950420856476, 0.042360398918390274, -0.053854379802942276, -0.033336833119392395, -0.16002170741558075, 0.06674929708242416, 0.1598893254995346, -0.0989425927400589, 0.17656125128269196, 0.039675455540418625, 0.1480252742767334, 0.019438449293375015, -0.17537879943847656, 0.020084721967577934, -0.0600275956094265, -0.001288596075028181, -0.016817167401313782, -0.05961313843727112, 0.05646878108382225, -0.035714782774448395, -0.050507061183452606, 0.060215696692466736, -0.17538118362426758, 0.13173328340053558, 0.13896167278289795, 0.1082516685128212, 0.014850633218884468, -0.10301370173692703, 0.09889669716358185, -0.004737905226647854, 0.10975785553455353, -0.13510794937610626, 0.009130716323852539, 0.038187336176633835, 0.04020826146006584]], "b": [0.13151974976062775, -0.1062789112329483, 0.07865814864635468, -0.159589484333992, 0.004944606684148312, -0.0017456702189520001, -0.07675424218177795, -0.10281633585691452, 0.04971102625131607, -0.05156891047954559, 0.08802480250597, -0.1017584428191185, -0.10185335576534271, -0.11860964447259903, -0.061973147094249725, -0.0671495869755745, 0.127534419298172, -0.09923003613948822, -0.11960800737142563, -0.10952071100473404, -0.015291376039385796, 0.045653875917196274, -0.12526360154151917, -0.06957745552062988, -0.16862355172634125, 0.16145943105220795, -0.012231413275003433, -0.003748011775314808, -0.08583076298236847, 0.06517349183559418, 0.007567728403955698, 0.047562140971422195, 0.07805592566728592, 0.16712114214897156, 0.019622279331088066, -0.11677057296037674, 0.08971579372882843, 0.1609847992658615, 0.08879217505455017, -0.10558009147644043, 0.03526885062456131, 0.13130062818527222, -0.09957917034626007, 0.012627625837922096, 0.08264394104480743, -0.1295216828584671, -0.07952577620744705, 0.0937650203704834], "in": 48, "out": 48}, {"w": [[0.11972686648368835, -0.06780488789081573, 0.17559528350830078, -0.06951027363538742, 0.1746472865343094, 0.09629807621240616, 0.0334276407957077, -0.055606454610824585, 0.01149685773998499, -0.12046205997467041, 0.033195167779922485, 0.017590774223208427, 0.06058550998568535, 0.15566925704479218, 0.16369928419589996, -0.1304144710302353, 0.1646362692117691, -0.054710254073143005, -0.1257764995098114, -0.1261521279811859, 0.0713411420583725, -0.05977606400847435, -0.0860615149140358, -0.045754432678222656, -0.10898691415786743, 0.19681115448474884, 0.12952038645744324, 0.058871470391750336, -0.16539037227630615, 0.07462805509567261, -0.15317505598068237, 0.11779492348432541, -0.1503485143184662, 0.0463239960372448, -0.12808148562908173, -0.11833670735359192, 0.04859311133623123, 0.1451881229877472, -0.12351694703102112, 0.024299215525388718, -0.03358642756938934, 0.08366966247558594, 0.19983577728271484, -0.17072851955890656, 0.00573973823338747, 0.10587932169437408, -0.16604216396808624, 0.15729688107967377]], "b": [-0.0994536504149437], "in": 48, "out": 1}]}