{"fc": 19, "fctx": 4, "hidden": 48, "depth": 2, "fmu": [0.05640668794512749, -0.005105817224830389, 2.0098578929901123, 0.0625, 2.6798102855682373, 0.027581848204135895, 0.017133362591266632, 0.042606040835380554, -0.014164071530103683, 0.8707953095436096, 1.8800415992736816, -0.05733496695756912, 0.018097149208188057, 0.05066101253032684, 0.08582162857055664, -0.1298161894083023, 0.9467238187789917, 1.614498496055603, 0.06610780954360962], "fsd": [1.794498324394226, 1.802046775817871, 1.559253215789795, 0.24206164479255676, 2.0790042877197266, 1.6043564081192017, 1.6171467304229736, 0.5827447175979614, 0.5752665400505066, 0.7422654032707214, 1.2867072820663452, 0.6256610751152039, 3.1949357986450195, 0.18899862468242645, 0.29100432991981506, 0.7810718417167664, 0.20624606311321259, 1.2905336618423462, 0.24847064912319183], "xmu": [0.0065064020454883575, 0.0024655386805534363, 0.6964337229728699, 1.0288918018341064], "xsd": [0.21562735736370087, 0.21833018958568573, 0.18466636538505554, 0.11199140548706055], "layers": [{"w": [[-0.19451230764389038, -0.13655485212802887, -0.06977733224630356, -0.2287062406539917, -0.03879733383655548, 0.08025567978620529, -0.0833955854177475, 0.17518964409828186, -0.05524969473481178, -0.19441291689872742, -0.11912732571363449, 0.02462514489889145, -0.012932192534208298, 0.09306593984365463, -0.2772913873195648, -0.09805652499198914, 0.15940986573696136, -0.12430102378129959, 0.08323680609464645, -0.12486251443624496, -0.1278427094221115, 0.12162772566080093, -0.1727679818868637], [-0.13943228125572205, -0.056148286908864975, -0.02034149318933487, 0.1902412623167038, -0.181595578789711, -0.1814575046300888, 0.08914230018854141, -0.040020767599344254, -0.2093736231327057, -0.24960413575172424, -0.08912338316440582, 0.14560027420520782, -0.04294972121715546, -0.14301306009292603, 0.08959725499153137, 0.046413276344537735, -0.16078068315982819, 0.11343679577112198, 0.05964689329266548, -0.018988778814673424, 0.18900375068187714, 0.005219021812081337, 0.19930468499660492], [-0.04087228327989578, -0.11048068106174469, 0.13021793961524963, 0.03041081689298153, 0.05863182991743088, 0.013693304732441902, 0.21087074279785156, -0.07335860282182693, -0.12717889249324799, 0.07077506184577942, -0.07742392271757126, -0.07199598848819733, -0.1548411101102829, 0.05177760496735573, 0.009220211766660213, 0.05107211321592331, 0.16312678158283234, -0.14818625152111053, 0.15599238872528076, 0.02977725863456726, 0.13181062042713165, -0.13005417585372925, -0.11420688033103943], [-0.0460800863802433, -0.1193755567073822, 0.14530645310878754, -0.0894443690776825, -0.13744400441646576, -0.05881012976169586, -0.10963154584169388, -0.08488065749406815, -0.18656618893146515, 0.1221652626991272, -0.23376698791980743, 0.13088639080524445, -0.09489986300468445, 0.06503211706876755, 0.04167606309056282, -0.19613458216190338, -0.196281298995018, -0.1317657232284546, -0.047675710171461105, 0.21142816543579102, 0.2415074110031128, 0.24500179290771484, 0.12035990506410599], [0.1442529857158661, 0.12555062770843506, 0.11368878930807114, 0.15461167693138123, -0.1752312332391739, 0.0326598584651947, -0.10217486321926117, -0.1731710433959961, 0.2304583042860031, -0.03428512439131737, -0.10154163837432861, 0.05300166457891464, -0.01348795834928751, 0.018598772585392, -0.1969986855983734, 0.1964830458164215, 0.02250676415860653, -0.18146002292633057, 0.03917218744754791, -0.0846710056066513, -0.03227226436138153, 0.2561822235584259, 0.2618783712387085], [-0.24786245822906494, -0.15793797373771667, -0.1627674102783203, -0.049564193934202194, -0.24778585135936737, 0.03919001296162605, 0.04561774805188179, -0.22655324637889862, -0.02216373197734356, -0.17232006788253784, -0.14807330071926117, 0.07513218373060226, -0.23649142682552338, 0.010454049333930016, 0.032325368374586105, 0.07427038252353668, 0.17049668729305267, 0.018352271988987923, -0.22506137192249298, 0.2303607016801834, -0.017747843638062477, -0.18737296760082245, 0.04863831400871277], [-0.2266816347837448, 0.06361325085163116, -0.02568449266254902, -0.0728711262345314, 0.2136773020029068, -0.08992899954319, -0.005540818907320499, -0.13028584420681, 0.08178688585758209, 0.11860284209251404, -0.03468802571296692, -0.19503456354141235, 0.16190209984779358, -0.1997622400522232, -0.1419287621974945, -0.23335158824920654, 0.12317432463169098, 0.012954349629580975, -0.13317783176898956, 0.2503599524497986, -0.24464750289916992, -0.06385556608438492, -0.16253498196601868], [0.09397803992033005, -0.11349961161613464, 0.11070600152015686, -0.06787921488285065, 0.1524648219347, -0.17184580862522125, 0.016651896759867668, -0.006149603053927422, -0.0699167549610138, -0.0891181156039238, 0.010587655007839203, -0.10895056277513504, -0.0864674299955368, 0.03580671548843384, 0.07126403599977493, 0.16034112870693207, 0.02503158338367939, -0.1312233954668045, -0.04970685765147209, -0.09429079294204712, -0.0780598595738411, -0.04584584757685661, -0.15839943289756775], [0.12249714881181717, -0.13512904942035675, -0.10103127360343933, 0.16834503412246704, -0.26935282349586487, 0.12209171056747437, 0.0990237444639206, 0.17002952098846436, 0.2143668234348297, 0.0778965950012207, -0.2010839432477951, 0.20698514580726624, -0.23727953433990479, 0.04540637508034706, 0.02741427533328533, -0.01109918113797903, 0.11484341323375702, -0.03595156595110893, 0.0747678279876709, -0.09456785768270493, -0.20735640823841095, 0.07334791123867035, 0.03920186683535576], [0.10239873826503754, 0.02660118043422699, -0.12563693523406982, 0.13414806127548218, 0.08447519689798355, 0.02179005928337574, 0.12598568201065063, -0.11963915079832077, 0.04945593327283859, 0.10607042163610458, -0.15886515378952026, -0.2307485044002533, -0.13588891923427582, 0.09921027719974518, -0.06120816245675087, 0.08018410205841064, -0.13109643757343292, -0.010998398996889591, -0.010552254505455494, -0.07538380473852158, -0.02500995062291622, -0.08546328544616699, 0.12358391284942627], [-0.059390682727098465, -0.15810544788837433, -0.04484082758426666, -0.0873274877667427, -0.15790054202079773, 0.17011648416519165, -0.11545931547880173, 0.19564954936504364, -0.24417279660701752, -0.06799301505088806, -0.21595250070095062, 0.013046616688370705, -0.21330025792121887, -0.07705583423376083, 0.11230753362178802, 0.19565658271312714, -0.09270413964986801, 0.1536211371421814, 0.07808330655097961, -0.057996924966573715, 0.27269959449768066, -0.16376207768917084, 0.10896278917789459], [-0.026661036536097527, -0.13974706828594208, 0.0013820123858749866, 0.12840746343135834, 0.17686337232589722, -0.011057876981794834, -0.04358730837702751, -0.11701041460037231, 0.11174828559160233, -0.033693745732307434, 0.173824742436409, -0.06107811629772186, 0.11054451018571854, 0.054441098123788834, 0.0032314660493284464, 0.07671953737735748, 0.06472209095954895, -2.0481984392972663e-05, -0.011628539301455021, -0.03210059180855751, 0.07915008068084717, 0.13844625651836395, -0.1679520308971405], [0.22819414734840393, -0.1939103901386261, -0.12282087653875351, -0.20570820569992065, 0.07954198867082596, -0.02494446001946926, 0.00979397539049387, 0.06891391426324844, 0.1055842861533165, -0.08303675800561905, -0.08672704547643661, 0.03375958651304245, 0.19279882311820984, -0.026774805039167404, -0.20425191521644592, -0.12576952576637268, 0.08153427392244339, -0.1362648606300354, -0.19309590756893158, -0.17157483100891113, 0.2003624439239502, 0.19509539008140564, 0.14349961280822754], [0.10824908316135406, 0.15370114147663116, 0.13966946303844452, -0.06232147663831711, -0.1402970552444458, 0.14125779271125793, -0.15634377300739288, -0.08609814941883087, -0.035481322556734085, -0.1663464605808258, -0.06353344768285751, 0.1613817811012268, -0.03136785328388214, 0.09029167145490646, -0.20610983669757843, 0.11719570308923721, -0.09603238105773926, 0.13996580243110657, 0.21298249065876007, -0.04631226137280464, -0.03420750051736832, 0.18219517171382904, 0.0687590017914772], [0.06462778896093369, -0.016855793073773384, 0.01564144901931286, -0.12833356857299805, -0.1657540202140808, 0.16673721373081207, 0.138777956366539, 0.021825777366757393, 0.07074180990457535, -0.027767371386289597, 0.08787629753351212, -0.012288671918213367, 0.06299622356891632, 0.11770637333393097, -0.10337434709072113, -0.20393431186676025, 0.10879245400428772, 0.23220115900039673, 0.16039824485778809, 0.1201627105474472, 0.06067390367388725, 0.13679666817188263, -0.1546495109796524], [0.19809536635875702, 0.2130071073770523, 0.005100525449961424, -0.1839175969362259, -0.14863838255405426, 0.08343566209077835, 0.01089855469763279, -0.19923563301563263, 0.19998236000537872, 0.13783815503120422, -0.03504021838307381, 0.013172933831810951, -0.19259104132652283, 0.08120571076869965, -0.24208861589431763, -0.17989015579223633, 0.1616913229227066, -0.09899783134460449, -0.0023872521705925465, -0.168635293841362, -0.21327117085456848, 0.0073813628405332565, 0.06526695936918259], [0.1448177844285965, -0.18083809316158295, 0.023385975509881973, 0.1715032160282135, 0.19626283645629883, 0.18136592209339142, -0.07191314548254013, 0.21164129674434662, -0.03542500361800194, 0.15647928416728973, -0.07518792152404785, -0.1817782074213028, -0.19321897625923157, 0.0035739047452807426, -0.22315724194049835, -0.12983255088329315, 0.11776948720216751, -0.01950644515454769, -0.11077043414115906, -0.23923686146736145, 0.10445749759674072, -0.1617981195449829, -0.011851129122078419], [-0.08868808299303055, -0.17562557756900787, -0.19794899225234985, 0.22710548341274261, 0.026364784687757492, -0.06960827857255936, -0.18488988280296326, 0.08791685104370117, 0.11662353575229645, -0.24614110589027405, 0.09749986976385117, 0.010525100864470005, 0.20152489840984344, 0.10017380863428116, -0.03554548695683479, -0.0977429524064064, 0.057177770882844925, -0.2439614236354828, -0.17796160280704498, 0.17016606032848358, -0.03408970311284065, 0.029139958322048187, -0.12991748750209808], [-0.14691193401813507, -0.09383252263069153, -0.16919730603694916, -0.12420862913131714, -0.08372599631547928, 0.18078845739364624, -0.10997767746448517, -0.0024538880679756403, 0.05023564398288727, -0.06488117575645447, 0.20326758921146393, 0.08669210225343704, 0.12954840064048767, 0.06189960241317749, 0.10658268630504608, 0.04192117229104042, -0.10107305645942688, -0.13191673159599304, 0.017745254561305046, -0.06382133811712265, -0.016421737149357796, -0.02457422949373722, 0.06047610193490982], [0.09136808663606644, -0.020927656441926956, -0.25041499733924866, 0.19592484831809998, -0.010503707453608513, -0.14214085042476654, 0.09384720027446747, -0.24250510334968567, 0.056796200573444366, -0.07384691387414932, -0.21136213839054108, -0.09387930482625961, 0.0028879123274236917, 0.01971477083861828, -0.22328229248523712, 0.20018422603607178, 0.0562029704451561, -0.07713332027196884, 0.030653076246380806, -0.0193950105458498, 0.017767874523997307, -0.110530324280262, -0.13689446449279785], [-0.07424533367156982, -0.06969966739416122, 0.23733700811862946, 0.023421093821525574, 0.16054615378379822, -0.16218888759613037, -0.19040152430534363, 0.07517757266759872, 0.03197568282485008, 0.1387861967086792, 0.14118295907974243, 0.06544557958841324, -0.059872422367334366, 0.12850210070610046, 0.1824169158935547, -0.12369370460510254, 0.12336472421884537, 0.0033639681059867144, 0.1050005778670311, 0.15111039578914642, 0.014868300408124924, -0.04067337512969971, 0.15778450667858124], [0.003752704244107008, 0.10433641821146011, -0.1896221935749054, -0.20083636045455933, -0.09792812913656235, -0.14292794466018677, -0.18657799065113068, -0.03804224357008934, -0.1113586276769638, -0.24309927225112915, 0.06424540281295776, 0.18279898166656494, 0.19607901573181152, 0.13693641126155853, 0.023539669811725616, 0.16044846177101135, -0.236873060464859, -0.1214820072054863, 0.04732920229434967, -0.011453116312623024, 0.10430523008108139, 0.1254245936870575, 0.09792869538068771], [-0.22311078011989594, 0.22606945037841797, -0.2608378231525421, 0.16912318766117096, 0.14603188633918762, 0.008970794267952442, 0.011579591780900955, 0.05433322489261627, 0.1999153345823288, -0.1226474940776825, -0.08927925676107407, 0.0359945222735405, -0.007911655120551586, -0.10439927875995636, 0.12277107685804367, 0.19807147979736328, 0.11605314165353775, -0.23033206164836884, -0.17986473441123962, 0.09318957477807999, 0.052023421972990036, -0.042563602328300476, -0.07282712310552597], [0.24812322854995728, 0.19999583065509796, -0.11839500814676285, -0.00045875090290792286, -0.037381891161203384, -0.18212692439556122, 0.2314542680978775, 0.20375169813632965, 0.10117320716381073, -0.16911658644676208, -0.24456240236759186, 0.11681508272886276, 0.20779716968536377, -0.16190983355045319, -0.0442831888794899, -0.006997596472501755, -0.1039227694272995, 0.1122840940952301, 0.035985931754112244, -0.13529209792613983, -0.021785622462630272, 0.16832222044467926, -0.09475543349981308], [0.07676246017217636, -0.20436009764671326, -0.16141031682491302, 0.10174023360013962, 0.12726953625679016, -0.07695479691028595, 0.04119199886918068, -0.0566045306622982, -0.22648917138576508, 0.14237675070762634, 0.08555275201797485, 0.20133528113365173, -0.09301120787858963, 0.11720994859933853, 0.2272786945104599, 0.04050357639789581, -0.015367268584668636, 0.11849767714738846, 0.10755675286054611, -0.16479307413101196, -0.2157059907913208, 0.1720166653394699, -0.19836512207984924], [0.2700141966342926, 0.21431617438793182, 0.13777205348014832, 0.1790248304605484, -0.13192526996135712, -0.18994031846523285, 0.1923404037952423, 0.17492787539958954, 0.206878200173378, -0.024828260764479637, -0.09930086880922318, -0.24387460947036743, 0.25500762462615967, 0.2648332417011261, -0.01456812396645546, -0.15253204107284546, 0.03152526170015335, 0.023912789300084114, -0.16593846678733826, 0.1916549801826477, -0.24767303466796875, 0.13443224132061005, -0.08031101524829865], [-0.02913162298500538, -0.015469840727746487, -0.16784657537937164, -0.030772490426898003, -0.06087695434689522, -0.01691494509577751, 0.16849909722805023, 0.17720405757427216, 0.14208458364009857, -0.23297294974327087, -0.18988311290740967, -0.1618894338607788, -0.1374078094959259, -0.03797958418726921, -0.171528622508049, 0.13559629023075104, -0.1316230148077011, -0.1536916345357895, 0.11109133809804916, -0.07092029601335526, -0.2006455361843109, 0.1914341002702713, -0.13773000240325928], [-0.11847648024559021, 0.19340483844280243, 0.02969692088663578, 0.1747814267873764, 0.060445595532655716, 0.19708958268165588, -0.011349194683134556, 0.11494415998458862, -0.09852112084627151, -0.1332247406244278, -0.18291981518268585, 0.25696292519569397, 0.1417868435382843, 0.11834890395402908, -0.008228939957916737, -0.0065996781922876835, -0.08041965961456299, -0.019352400675415993, -0.18133586645126343, -0.1179569885134697, -0.12168742716312408, 0.18077373504638672, 0.22448158264160156], [0.009574482217431068, -0.07898090779781342, -0.2330397218465805, 0.08127050846815109, -0.08587773144245148, 0.0860857293009758, -0.14313915371894836, 0.15543746948242188, 0.16895420849323273, 0.1096913293004036, 0.028234055265784264, 0.08473782241344452, -0.11940191686153412, 0.10576323419809341, -0.11800821870565414, 0.10618241131305695, -0.21185678243637085, -0.11364688724279404, 0.21698684990406036, -0.16439589858055115, -0.21965523064136505, -0.004649341572076082, 0.09423447400331497], [-0.07554318755865097, -0.06140151992440224, 0.05200652405619621, 0.00016757201228756458, -0.1129012182354927, 0.04070568084716797, 0.1375875025987625, 0.10951904952526093, 0.033228397369384766, -0.19579848647117615, -0.16412290930747986, 0.16672056913375854, -0.05742332339286804, -0.09571261703968048, -0.08272421360015869, 0.08827079832553864, -0.0726860761642456, -0.2266845405101776, 0.05342569947242737, -0.14387428760528564, 0.14319618046283722, 0.16897545754909515, -0.07480096817016602], [0.14338168501853943, 0.12921938300132751, 0.07567284256219864, 0.08344653248786926, 0.09904388338327408, 0.08964646607637405, -0.02829589694738388, 0.10415629297494888, 0.17218813300132751, -0.24546518921852112, 0.09369967877864838, -0.14672833681106567, 0.13326765596866608, -0.16381025314331055, -0.1770874708890915, 0.0856407955288887, 0.05175873637199402, 0.16974356770515442, 0.20616650581359863, 0.21457058191299438, -0.23101697862148285, -0.20079772174358368, -0.030387014150619507], [0.0469791516661644, 0.17755486071109772, 0.0004485460522118956, -0.029573777690529823, 0.12835495173931122, -0.18054883182048798, 0.08861373364925385, -0.06518504023551941, -0.09749272465705872, 0.12351632863283157, -0.11352964490652084, -0.06615398079156876, -0.08065357059240341, 0.21975219249725342, 0.2065526694059372, -0.09617052227258682, 0.05891599878668785, 0.13186810910701752, 0.14176461100578308, -0.0029760031029582024, 0.03622393682599068, 0.06340186297893524, 0.10509663075208664], [-0.21388183534145355, 0.125579833984375, -0.0030217894818633795, -0.023642245680093765, 0.2904321253299713, -0.16346582770347595, -0.008583204820752144, -0.10720006376504898, 0.14495053887367249, 0.19824492931365967, 0.07718750089406967, -0.06786751747131348, 0.08481723815202713, -0.0988798439502716, -0.01460336148738861, 0.06432215124368668, 0.07325676828622818, 0.09021678566932678, -0.04453611373901367, 0.1409011036157608, 0.11252720654010773, -0.13259902596473694, -0.014374854043126106], [-0.03190704807639122, 0.030667811632156372, 0.10405046492815018, -0.17190170288085938, -0.034498728811740875, -0.06072000786662102, 0.0003753222117666155, -0.20204570889472961, 0.166243314743042, -0.10567956417798996, -0.17050690948963165, -0.05346499755978584, 0.024308543652296066, -0.13199980556964874, 0.04653843864798546, -0.07226685434579849, -0.15044085681438446, 0.026283498853445053, 0.14904819428920746, -0.11776052415370941, 0.16561444103717804, -0.124271921813488, 0.09664589166641235], [-0.21273957192897797, 0.13043108582496643, 0.017297683283686638, 0.1209685280919075, -0.19301843643188477, -0.19826588034629822, -0.02395644597709179, -0.1552322804927826, -0.19602704048156738, -0.16999544203281403, -0.25565436482429504, 0.24267160892486572, 0.17953012883663177, 0.18858560919761658, -0.2530660033226013, 0.19211702048778534, 0.12858162820339203, -0.16014182567596436, -0.013510687276721, 0.2116265892982483, -0.054045360535383224, 0.02900051511824131, -0.030706331133842468], [-0.12364298105239868, 0.19870857894420624, -0.1924760788679123, -0.06816516816616058, -0.14940734207630157, -0.16028651595115662, -0.1842731237411499, 0.1338731199502945, 0.13499361276626587, -0.03689222410321236, 0.0857805535197258, 0.1334160715341568, -0.19005614519119263, 0.08540906757116318, 0.026064176112413406, 0.048044782131910324, -0.21019910275936127, 0.18063569068908691, -0.03369276598095894, -0.00857466273009777, -0.16857202351093292, -0.12092325091362, -0.0156878549605608], [-0.17810674011707306, 0.19576844573020935, 0.14940212666988373, -0.20033320784568787, -0.0546976700425148, 0.2017834484577179, -0.018324080854654312, 0.1774430274963379, -0.18931473791599274, 0.12041766941547394, -0.2601868510246277, 0.24250583350658417, -0.010613917373120785, 0.04150360822677612, 0.1145302876830101, -0.09621743112802505, 0.08261024206876755, -0.17762230336666107, 0.0956169068813324, -0.11204517632722855, 0.0313844308257103, 0.21519941091537476, 0.20232625305652618], [0.21145600080490112, -0.13044658303260803, -0.14074501395225525, -0.048658836632966995, -0.06226256117224693, 0.1181071475148201, -0.052561864256858826, -0.17649802565574646, -0.2093413919210434, -0.22095072269439697, -0.1541423201560974, -0.04696686565876007, 0.0014414440374821424, 0.04775851219892502, -0.01607438549399376, 0.09039146453142166, 0.12565818428993225, -0.12605193257331848, 0.09619195014238358, -0.08630011230707169, -0.1131644994020462, 0.19936546683311462, -0.052388451993465424], [-0.17240919172763824, -0.10559452325105667, -0.20688632130622864, -0.014935784973204136, -0.14888538420200348, -0.11634286493062973, 0.01736254058778286, 0.14032617211341858, -0.1150079220533371, 0.11061778664588928, -0.24024274945259094, -0.06094726547598839, -0.20186680555343628, -0.026587091386318207, 0.04694958031177521, 0.19564276933670044, -0.1373647153377533, 0.0988364890217781, 0.04866302013397217, 0.1259494572877884, 0.011816206388175488, 0.2417858988046646, 0.18893462419509888], [-0.18159396946430206, -0.13481523096561432, 0.12131297588348389, -0.058875203132629395, 0.056045278906822205, -0.254336953163147, 0.006220425479114056, -0.06784160435199738, -0.23152774572372437, 0.15274174511432648, -0.03826218843460083, -0.03408027067780495, -0.07260802388191223, -0.201650932431221, -0.16024740040302277, -0.13125182688236237, -0.08107167482376099, -0.027731548994779587, -0.0641433447599411, 0.09634901583194733, 0.09616401791572571, -0.11635568737983704, -0.1027415320277214], [0.03608435392379761, 0.09811524301767349, 0.06684780865907669, -0.1491188406944275, 0.06499241292476654, -0.06133319437503815, -0.004991575144231319, -0.15490905940532684, 0.08035257458686829, 0.25128811597824097, 0.10621310770511627, -0.03006966970860958, -0.07303809374570847, 0.2432887852191925, 0.09745889902114868, 0.15127737820148468, 0.04803696647286415, -0.03191199526190758, 0.139999657869339, -0.14875201880931854, 0.09318171441555023, -0.10014238208532333, -0.24670270085334778], [-0.18214581906795502, 0.12332714349031448, 0.05646796524524689, -0.13867653906345367, 0.0448283851146698, -0.05686128884553909, 0.11328097432851791, 0.17249974608421326, 0.1600750833749771, 0.10079683363437653, -0.0705208107829094, 0.10325471311807632, -0.21946655213832855, -0.10728907585144043, -0.05257208272814751, -0.11040755361318588, 0.0707537978887558, -0.09378371387720108, 0.17320473492145538, -0.17005868256092072, 0.18181341886520386, -0.13331304490566254, -0.16368402540683746], [0.08211584389209747, -0.1138906478881836, 0.14156079292297363, 0.08756690472364426, -0.21423088014125824, 0.1867670714855194, 0.10119705647230148, 0.11025235056877136, 0.2093227505683899, -0.0688708946108818, -0.03784817457199097, 0.05093291774392128, 0.04178189858794212, 0.05174067243933678, 0.0919002965092659, 0.0005862544057890773, -0.18680091202259064, 0.16155216097831726, 0.02767585590481758, -0.20629630982875824, -0.1508670449256897, 0.05924282222986221, 0.16200537979602814], [0.1006481871008873, -0.005151272285729647, 0.08863439410924911, 0.14937657117843628, 0.021807700395584106, -0.09334160387516022, -0.11379201710224152, 0.020793167874217033, 0.20150817930698395, -0.07567329704761505, 0.030458537861704826, 0.14568749070167542, 0.10731981694698334, -0.15521205961704254, -0.039529867470264435, -0.07874482125043869, -0.08224969357252121, -0.24601787328720093, 0.06574064493179321, -0.015536075457930565, 0.18388140201568604, -0.15216568112373352, 0.00972879771143198], [0.0007322777528315783, 0.2308932989835739, -0.035896945744752884, 0.12661141157150269, -0.1622043401002884, 0.11252962052822113, -0.14314459264278412, -0.008350216783583164, -0.12666356563568115, 0.06125181168317795, -0.07645873725414276, -0.22977036237716675, -0.04167225956916809, 0.17717766761779785, 0.013246474787592888, 0.1140606552362442, 0.16411158442497253, -0.03805995732545853, 0.13959388434886932, 0.0855574682354927, -0.08903500437736511, -0.004948198329657316, 0.07670257985591888], [0.1846023052930832, -0.05893050134181976, -0.24804697930812836, -0.09290163218975067, -0.18572622537612915, 0.16320735216140747, -0.019733021035790443, -0.15538612008094788, -0.19845421612262726, -0.15485547482967377, -0.21319295465946198, 0.08913175016641617, 0.1267806738615036, -0.04452096298336983, 0.04920944944024086, 0.1779099404811859, -0.12530311942100525, 0.01009769830852747, 0.11517814546823502, -0.21096296608448029, 0.0760599672794342, -0.12276218086481094, 0.21192990243434906], [0.05681103467941284, 0.24054084718227386, -0.03627018630504608, -0.18147867918014526, -0.03322971239686012, 0.1328699141740799, 0.2060355544090271, -0.20862947404384613, -0.12293397635221481, -0.08167070150375366, 0.08219823241233826, -0.011383474804461002, -0.008573947474360466, 0.16430264711380005, 0.05346657708287239, 0.01591084524989128, -0.20320779085159302, 0.07481910288333893, 0.23442736268043518, 0.14660564064979553, -0.012552797794342041, -0.055533960461616516, 0.018060488626360893], [0.18400700390338898, 0.015076919458806515, -0.09642253816127777, -0.12904717028141022, -0.12284140288829803, 0.029523396864533424, 0.22184722125530243, -0.23855647444725037, -0.1288575828075409, -0.032760635018348694, -0.24154438078403473, 0.231009379029274, 0.19863839447498322, -0.0956665500998497, -0.017945237457752228, 0.15302345156669617, 0.11170240491628647, 0.05643334239721298, -0.02913200855255127, 0.1827210634946823, -0.08432891964912415, -0.020880764350295067, -0.15316322445869446]], "b": [-0.15339437127113342, -0.10121721029281616, 0.13998471200466156, -0.15321499109268188, 0.1514347344636917, -0.1521987020969391, 0.027310490608215332, -0.21706005930900574, -0.12407965213060379, -0.12384730577468872, -0.005565045401453972, -0.11970625817775726, 0.2113787680864334, -0.07924051582813263, -0.16387690603733063, -0.03924613073468208, 0.04129304364323616, 0.08316481113433838, 0.027304632589221, 0.22138014435768127, 0.13419827818870544, 0.1780623197555542, 0.19273118674755096, 0.22969099879264832, -0.1914864331483841, -0.15308864414691925, 0.053058136254549026, 0.025689056143164635, 0.14148074388504028, 0.18970590829849243, 0.1850929856300354, -0.08523149788379669, 0.14014095067977905, 0.06189078092575073, 0.15651331841945648, 0.08327746391296387, 0.21549583971500397, 0.15207859873771667, 0.08529679477214813, -0.1589171439409256, -0.05666125565767288, -0.02086586318910122, 0.04591904208064079, 0.11351514607667923, -0.20518843829631805, -0.1327713578939438, -0.08922552317380905, 0.0981045812368393], "in": 23, "out": 48}, {"w": [[-0.03407461941242218, 0.14628122746944427, -0.12049916386604309, 0.044490255415439606, 0.163361057639122, 0.08583162724971771, 0.15917479991912842, 0.08684005588293076, -0.012731928378343582, 0.17345541715621948, -0.10011062026023865, 0.050023965537548065, 0.049190670251846313, 0.07815485447645187, -0.008730425499379635, 0.10373849421739578, -0.1260366439819336, 0.08643835783004761, 0.08644219487905502, 0.00410983432084322, -0.04110928997397423, 0.0888868123292923, 0.021648870781064034, 0.046677734702825546, -0.12116654217243195, 0.035402365028858185, 0.09511735290288925, -0.07024490088224411, -0.07308296859264374, 0.02054775319993496, 0.13138055801391602, 0.09897826611995697, 0.12497253715991974, -0.045545611530542374, 0.16953305900096893, 0.03301294893026352, 0.1867031455039978, 0.12008058279752731, -0.07389476895332336, 0.13011793792247772, -0.14645671844482422, 0.01506989635527134, 0.11416298151016235, 0.014918745495378971, 0.14840610325336456, -0.06473911553621292, 0.11805517226457596, 0.07714049518108368], [-0.08406810462474823, -0.08754158765077591, 0.0972319096326828, 0.08084619045257568, -0.17465348541736603, 0.010984870605170727, -0.15567386150360107, 0.17324280738830566, -0.17043375968933105, -0.0387837216258049, -0.13286328315734863, 0.09676098823547363, 0.07452745735645294, 0.06013677269220352, -0.10444417595863342, 0.07106378674507141, -0.18824081122875214, 0.006278931628912687, -0.03671872243285179, 0.05421070381999016, -0.16606047749519348, 0.09575783461332321, -0.12692683935165405, -0.07417196780443192, -0.09219694882631302, -0.08331717550754547, -0.11540461331605911, -0.11430168896913528, -0.14948293566703796, -0.021796636283397675, -0.08912035822868347, -0.09094005823135376, -0.005674928892403841, 0.07829096168279648, -0.1772882491350174, -0.16704724729061127, -0.018419262021780014, 0.0341159924864769, 0.10477682948112488, -0.009506835602223873, 0.11059822142124176, 0.09033465385437012, 0.037798650562763214, -0.07103226333856583, 0.10204220563173294, 0.004840253386646509, -0.12838272750377655, -0.06786686182022095], [0.07172214984893799, 0.0035250585060566664, -0.059965163469314575, 0.01239073183387518, -0.13935452699661255, -0.0023118231911212206, -0.19078320264816284, 0.1659700721502304, -0.10329966992139816, 0.09594541043043137, -0.15288309752941132, 0.020751817151904106, -0.17205187678337097, -0.050267525017261505, -0.004971448797732592, -0.05273449420928955, -0.021127386018633842, 0.008166446350514889, 0.0003934608248528093, 0.005351394880563021, -0.12349655479192734, -0.17196516692638397, -0.04038182646036148, -0.140631765127182, 0.027577752247452736, 0.09067197144031525, -0.023787351325154305, -0.021649951115250587, -0.14796674251556396, 0.10878151655197144, -0.12879079580307007, 0.03455027565360069, 0.06430380046367645, 0.04462471976876259, -0.13132494688034058, -0.10312027484178543, 0.04598337411880493, -0.15574343502521515, -0.0873304158449173, -0.23200006783008575, -0.028672639280557632, -0.11036191135644913, 0.10797975957393646, 0.06267308443784714, 0.02665051631629467, 0.05756921321153641, -0.15944550931453705, 0.03279766067862511], [-0.031769897788763046, -0.17655135691165924, 0.007856742478907108, 0.056827180087566376, 0.04720073193311691, -0.09843231737613678, -0.17828388512134552, -0.07095156610012054, -0.04980557784438133, -0.0485885851085186, -0.1233651340007782, 0.0310702845454216, 0.047577209770679474, -0.044811684638261795, -0.09526629745960236, -0.10314831137657166, -0.1359233409166336, -0.1278802901506424, -0.1624048352241516, -0.09990084171295166, 0.07854115217924118, -0.01514341589063406, -0.14195677638053894, -0.0961633026599884, 0.08565493673086166, -0.04199499264359474, -0.11941730231046677, -0.10747475922107697, -0.055847931653261185, 0.01830127462744713, -0.08448851853609085, 0.06446605175733566, 0.0063390592113137245, -0.13783733546733856, 0.04202796518802643, -0.08964327722787857, -0.017517730593681335, -0.05518876016139984, -0.14902475476264954, -0.0003908498038072139, -0.014143230393528938, 0.11665494740009308, 0.09150883555412292, 0.11254135519266129, 0.058848652988672256, -0.15679803490638733, -0.034685999155044556, 0.07668349146842957], [-0.0016146479174494743, -0.016051167622208595, 0.08437628298997879, -0.0500200092792511, 0.0781337320804596, -0.09506680816411972, -0.14162836968898773, 0.07085840404033661, 0.014646102674305439, -0.063358373939991, -0.05621208995580673, -0.045041561126708984, 0.03164610266685486, -0.07786183804273605, -0.06289775669574738, -0.04542086273431778, -0.1569557934999466, -0.021619023755192757, 0.0749543085694313, -0.01139135006815195, -0.03638513758778572, 0.08339408040046692, 0.03222690895199776, -0.17194364964962006, 0.056968480348587036, -0.06147655099630356, -0.17144091427326202, -0.1159566342830658, -0.07769279181957245, 0.022611195221543312, 0.11225355416536331, -0.10352349281311035, 0.019732138141989708, -0.0695328488945961, -0.07609792798757553, -0.07878430187702179, 0.06044917181134224, -0.06351128965616226, 0.007603850215673447, -0.057645246386528015, 0.01500169187784195, 0.017405696213245392, -0.05108672007918358, -0.020740317180752754, 0.013599996455013752, -0.17452041804790497, -0.10145153105258942, -0.15611527860164642], [0.03357257694005966, -0.024835195392370224, 0.044182904064655304, 0.08255630731582642, -0.14880003035068512, -0.08387291431427002, -0.09640008211135864, 0.0760696604847908, -0.14552848041057587, -0.14788568019866943, -0.08441177755594254, 0.043438635766506195, -0.12227202206850052, 0.08202119171619415, 0.011768531985580921, 0.050725892186164856, -0.030296428129076958, -0.160426065325737, -0.13048750162124634, -0.17430981993675232, -0.06455805152654648, 0.004476125817745924, -0.048454899340867996, 0.04408954456448555, -0.024940144270658493, 0.023483315482735634, 0.09754937887191772, 0.07089485228061676, -0.18291260302066803, 0.029226575046777725, -0.06779031455516815, -0.05947452783584595, 0.06329645961523056, 0.0333220437169075, -7.820212340448052e-05, -0.16080287098884583, -0.02974148839712143, -0.06552992016077042, -0.12059146910905838, -0.18839329481124878, 0.04419918358325958, -0.1507950872182846, 0.019992725923657417, 0.04333365708589554, 0.05443898215889931, -0.1808643937110901, 0.05115839093923569, 0.07194919139146805], [0.059136610478162766, 0.08597779273986816, -0.10504540055990219, -0.17382140457630157, -0.012864264659583569, 0.05267183110117912, 0.03459903597831726, 0.011792712844908237, -0.03420698642730713, 0.060578569769859314, -0.011574020609259605, 0.07279665023088455, 0.07935300469398499, -0.11781375855207443, 0.005702640395611525, -0.16238370537757874, 0.08789419382810593, 0.012524784542620182, 0.029671313241124153, 0.06844080984592438, -0.13636495172977448, -0.16958557069301605, -0.03172024339437485, -0.13652583956718445, -0.009157421067357063, -0.05788193270564079, -0.0985424667596817, -0.029284048825502396, 0.09113489836454391, -0.08362816274166107, -0.10158009827136993, 0.013897590339183807, -0.08491938561201096, 0.0840117335319519, -0.13104897737503052, 0.04547041282057762, -0.15521617233753204, 0.05489185079932213, 0.06202058121562004, 0.050984229892492294, -0.07744023948907852, -0.09264503419399261, -0.14137078821659088, -0.0525977648794651, -0.08723591268062592, -0.009143702685832977, -0.11918174475431442, 0.03751055896282196], [0.057294730097055435, -0.1880078911781311, -0.06004524976015091, -0.06411942094564438, 0.08539947122335434, 0.04016294702887535, 0.06225180998444557, 0.16851678490638733, -0.07077180594205856, -0.03648730739951134, 0.07756605744361877, -0.08465699851512909, -0.1747400015592575, -0.06091349571943283, 0.06305278092622757, -0.19329793751239777, -0.04712718352675438, -0.13039305806159973, 0.10001259297132492, -0.13337719440460205, 0.022271286696195602, 0.03975030034780502, 0.02367599681019783, -0.065713070333004, -0.05716404318809509, -0.06297831982374191, -0.11953169107437134, -0.024609871208667755, 0.05172125622630119, 0.056285157799720764, 0.038494665175676346, 0.08913058042526245, -0.09065950661897659, -0.04250837489962578, 0.0755089670419693, -0.057179708033800125, -0.0014173147501423955, -0.1662963628768921, -0.16413921117782593, -0.12563219666481018, 0.037236738950014114, -0.06827536225318909, -0.12301831692457199, -0.048131123185157776, -0.09512422233819962, -0.162695050239563, -0.16407670080661774, -0.03482142835855484], [0.02646695263683796, 0.05139847472310066, 0.005655619315803051, -0.02092081494629383, -0.14578136801719666, -0.06873094290494919, -0.07481298595666885, -0.09891572594642639, 0.07445833832025528, 0.037526458501815796, 0.018651653081178665, -0.016441818326711655, -0.05105804279446602, -0.06937568634748459, 0.11103951930999756, -0.024638645350933075, -0.2154461294412613, -0.12327277660369873, -0.15782295167446136, -0.18257085978984833, 0.058859556913375854, 0.09664743393659592, 0.04892788454890251, -0.11207924783229828, -0.05878113955259323, -0.0718577653169632, 0.044422660022974014, -0.02128741145133972, -0.10495767742395401, -0.07994299381971359, 0.11126120388507843, 0.01389381568878889, -0.1772545427083969, -0.10253417491912842, -0.10033594071865082, 0.09284470975399017, -0.12101845443248749, 0.04811534285545349, 0.02625672146677971, -0.13168485462665558, 0.1818981170654297, -0.1157657578587532, -0.1129729300737381, 0.05462154746055603, -0.015928970649838448, 0.06810973584651947, -0.15744204819202423, -0.037571001797914505], [0.1689651906490326, -0.06867972016334534, 0.10146086663007736, 0.17461347579956055, 0.1792503297328949, 0.07727444171905518, 0.12670139968395233, -0.15733082592487335, 0.12458936870098114, 0.04545340687036514, -0.09693443030118942, -0.15961430966854095, 0.14626847207546234, -0.0017460563685745, -0.13171175122261047, 0.12611283361911774, 0.12564623355865479, -0.02437981776893139, -0.030513031408190727, 0.09236332029104233, -0.006479431409388781, 0.05774185433983803, -0.077400341629982, -0.012441330589354038, -0.21725992858409882, 0.013580499216914177, 0.027749864384531975, 0.0739305168390274, 0.1251121163368225, 0.04172424599528313, 0.0043038539588451385, -0.12683016061782837, -0.011512809433043003, 0.07907941937446594, 0.020852575078606606, -0.06297365576028824, -0.07156504690647125, 0.18715324997901917, 0.173159658908844, -0.14261993765830994, -0.021023238077759743, 0.0614580400288105, 0.005975691135972738, -0.01660527102649212, -0.05444628745317459, 0.12891167402267456, -0.023834366351366043, 0.09622155874967575], [0.0940130352973938, -0.06096431985497475, -0.1042541116476059, 0.06431696563959122, 0.0717712938785553, 0.10796959698200226, 0.0370078980922699, 0.0777217373251915, 0.18642733991146088, 0.007947002537548542, 0.009410582482814789, -0.11790116876363754, 0.1963830143213272, 0.1166604533791542, -0.07018435001373291, -0.05390366166830063, 0.1595168262720108, -0.11222972720861435, 0.05590680241584778, 0.02337457612156868, -0.0241529680788517, 0.09867117553949356, 0.13449236750602722, -0.08708824217319489, -0.04972712695598602, 0.07983443886041641, 0.01033238135278225, -0.00489750225096941, 0.16543494164943695, -0.014021705836057663, 0.05214724689722061, 0.09322305768728256, -0.11619728058576584, 0.02230760082602501, 0.0017604042077437043, 0.08514369279146194, 0.11454162001609802, -0.07087145745754242, 0.10658816993236542, 0.02399456314742565, 0.019531242549419403, 0.030688658356666565, 0.060143809765577316, -0.09285108000040054, 0.012946474365890026, -0.1052885577082634, -0.007672774605453014, -0.07813175022602081], [-0.05707833915948868, 0.11802895367145538, -0.03081413358449936, 0.004205146338790655, 0.04525470361113548, 0.13579495251178741, -0.003462019143626094, -0.04503319784998894, -0.008989322930574417, -0.02850385569036007, 0.0903814285993576, -0.08201587200164795, 0.045299943536520004, 0.13233070075511932, -0.0903911367058754, -0.07154694944620132, -0.17503900825977325, 0.044542890042066574, 0.001443615765310824, 0.1202859878540039, -0.17112115025520325, 0.14252646267414093, -0.025421997532248497, 0.03731046989560127, -0.04856403172016144, -0.14954723417758942, -0.025464896112680435, 0.2087821662425995, 0.15552830696105957, 0.03482582047581673, 0.12521177530288696, 0.06187945604324341, -0.0059493849985301495, -0.08638639748096466, 0.14286844432353973, -0.043789468705654144, 0.17735448479652405, 0.0453936830163002, -0.03774047642946243, -0.012469629757106304, -0.0038548558950424194, 0.012174210511147976, 0.1492491066455841, 0.007460424676537514, -0.10928226262331009, 0.161851167678833, -0.08317059278488159, 0.09620984643697739], [-0.057422440499067307, 0.06932607293128967, -0.15345259010791779, -0.0028660460375249386, 0.07291150838136673, 0.1391703486442566, -0.028401074931025505, -0.14785358309745789, 0.004282025154680014, -0.10246005654335022, 0.16480639576911926, -0.013424467295408249, 0.17806866765022278, 0.14877662062644958, -0.03309266269207001, -0.04051773622632027, 0.10294124484062195, 0.016581937670707703, 0.04801169037818909, -0.028121069073677063, 0.06833691895008087, 0.12318999320268631, -0.03758230060338974, 0.14712125062942505, 0.06373210996389389, -0.19566315412521362, 0.12978066504001617, -0.034752313047647476, -0.02223508059978485, -0.017327135428786278, 0.1293841004371643, 0.027205558493733406, -0.06963849067687988, 0.02725851908326149, 0.08275959640741348, 0.14633677899837494, 0.007933597080409527, -0.0025334686506539583, 0.17088519036769867, 0.10172399133443832, -0.14952807128429413, 0.016731098294258118, 0.008558092638850212, 0.07256927341222763, 0.1367020606994629, 0.142131507396698, 0.09227243065834045, 0.09347209334373474], [-0.16155965626239777, -0.1341421902179718, 0.12527579069137573, -0.11229994148015976, 0.09855186939239502, -0.09098965674638748, -0.09630712121725082, -0.08771756291389465, -0.046720221638679504, -0.17992553114891052, -0.11441398411989212, -0.01873396895825863, 0.0030628852546215057, -0.053868770599365234, 0.004507202655076981, -0.1758722960948944, -0.1590632200241089, -0.10574605315923691, -0.08105726540088654, -0.07845368981361389, 0.01500669401139021, -0.009292454458773136, -0.0574556440114975, 0.058377087116241455, 0.07173781096935272, -0.056434515863657, -0.0758635476231575, -0.11459808051586151, -0.0418647900223732, 0.036339543759822845, -0.16114851832389832, -0.08772922307252884, -0.014574405737221241, -0.16000060737133026, -0.015251188538968563, 0.012277689762413502, 0.06297904253005981, 0.05288875848054886, 0.010589143261313438, -0.16183890402317047, 0.13770122826099396, 0.052388422191143036, 0.034607961773872375, -0.1649755984544754, 0.11403196305036545, -0.18248043954372406, -0.07492808997631073, -0.14478440582752228], [0.08582716435194016, 0.030458835884928703, 0.08818121999502182, 0.11076738685369492, 0.03138198330998421, 0.14939886331558228, -0.01419182401150465, -0.012563144788146019, 0.09762952476739883, -0.08425691723823547, 0.14758867025375366, -0.01680421456694603, -0.03304903581738472, -0.08390913158655167, -0.028070757165551186, 0.10852649062871933, -0.129251167178154, 0.08144312351942062, -0.07853983342647552, -0.06180724501609802, -0.07719948887825012, 0.11269979178905487, 0.016680752858519554, -0.09457546472549438, -0.2060733139514923, 0.03891177475452423, -0.05231046676635742, 0.11639384925365448, 0.17134271562099457, -0.04596298560500145, 0.11208510398864746, -0.05365642160177231, 0.0907914862036705, 0.08728983253240585, -0.08689197897911072, 0.007433477323502302, 0.1338779479265213, -0.05806770175695419, 0.03918588533997536, 0.07120903581380844, -0.13823330402374268, -0.13987043499946594, -0.0739554613828659, -0.10738164186477661, -0.11116178333759308, 0.11110584437847137, -0.045253053307533264, 0.1301124095916748], [0.03693798929452896, 0.07724452763795853, 0.12077646702528, 0.18017227947711945, -0.04402238130569458, 0.17153315246105194, 0.09404304623603821, 0.025983763858675957, 0.06204124912619591, -0.033975999802351, 0.0991055890917778, -0.16513732075691223, 0.0029095690697431564, 0.16885553300380707, 0.14124175906181335, 0.1068011224269867, -0.0858149603009224, -0.017168458551168442, 0.037637218832969666, 0.1682196706533432, -0.03816729038953781, -0.056125253438949585, -0.05624006688594818, -0.003068165387958288, 0.06084199249744415, 0.03501460701227188, -0.04425463080406189, 0.0663377121090889, -0.10951921343803406, -0.024847572669386864, -0.08529352396726608, -0.004252515267580748, 0.05322722718119621, 0.1286458671092987, -0.0030531613156199455, -0.12168235331773758, -0.10962143540382385, -0.09816645830869675, 0.12139267474412918, -0.08284368366003036, 0.03794127702713013, -0.12789574265480042, -0.027267910540103912, 0.13703899085521698, -0.1266176551580429, -0.02059806138277054, -0.017016177996993065, 0.061496227979660034], [0.14600253105163574, -0.06463354080915451, -0.04086105898022652, -0.015283229760825634, 0.02285143733024597, -0.032873574644327164, 0.1550699919462204, -0.09508315473794937, 0.025535356253385544, -0.07553957402706146, -0.05238720774650574, -0.004376112017780542, 0.1594659984111786, -0.08785739541053772, 0.10145258158445358, -0.05346345901489258, 0.11999370157718658, 0.10448572039604187, -0.09270557761192322, 0.10997967422008514, 0.04413051903247833, 0.05524911731481552, 0.03630995750427246, 0.011593262664973736, -0.18244066834449768, -0.15975679457187653, 0.16090892255306244, 0.07972990721464157, -0.07752378284931183, 0.14379441738128662, -0.12048106640577316, -0.02293020859360695, 0.12718848884105682, -0.06522326916456223, 0.09635958075523376, 0.011286710388958454, 0.015311314724385738, 0.09368881583213806, -0.10325287282466888, 0.04018362984061241, 0.023978862911462784, -0.1071169525384903, 0.10519283264875412, 0.020376937463879585, -0.14845918118953705, 0.11890220642089844, 0.14208483695983887, 0.18862402439117432], [-0.14982010424137115, -0.04792650416493416, 0.07857023179531097, -0.025226810947060585, 0.03905513510107994, -0.13047929108142853, -0.04424803704023361, 0.1703064739704132, -0.16435880959033966, 0.061151884496212006, -0.17390915751457214, 0.12407495826482773, -0.07691466063261032, 0.0796402171254158, -0.15400677919387817, 0.005664254538714886, -0.14482147991657257, 0.12243936955928802, -0.09709644317626953, -0.1728486269712448, 0.026949113234877586, -0.06253492832183838, -0.038612037897109985, -0.059251464903354645, -0.028297116979956627, 0.15296044945716858, 0.09926602244377136, -0.055543143302202225, 0.08504430204629898, -0.0019027935341000557, -0.17673353850841522, -0.10551415383815765, -0.048655346035957336, -0.04073445871472359, -0.1378534883260727, 0.006522961426526308, 0.03772405534982681, -0.04555024951696396, -0.020836587995290756, -0.04838848114013672, 0.0013729012571275234, -0.16141608357429504, -0.15248049795627594, -0.05470925197005272, -0.0038723195903003216, -0.138357013463974, -0.02246800623834133, -0.06932055205106735], [-0.11570347845554352, 0.03622617945075035, 0.09406479448080063, -0.0625755563378334, -0.058883603662252426, -0.1301034837961197, -0.1081027165055275, 0.1715565025806427, 0.054699528962373734, -0.15380963683128357, 0.03313855826854706, -0.11142108589410782, 0.056564316153526306, 0.0641031265258789, -0.05889655649662018, 0.09257383644580841, 0.08615244925022125, 0.08641935884952545, -0.09082034975290298, -0.09871836006641388, -0.05699567124247551, -0.028951887041330338, 0.11565283685922623, -0.12156833708286285, -0.02349330671131611, 0.05190064758062363, 0.06492791324853897, 0.06222839280962944, -0.06852400302886963, -0.16185131669044495, -0.06391196697950363, -0.09685911238193512, -0.038888588547706604, -0.11809112131595612, -0.15669581294059753, 0.10588814318180084, -0.17956407368183136, -0.12311126291751862, 0.0670480728149414, -0.05624832212924957, 0.1835087090730667, -0.053558267652988434, -0.08196605741977692, -0.015922540798783302, -0.011785038746893406, 0.04078129678964615, -0.059009939432144165, 0.01142040267586708], [-0.055429570376873016, 0.07905665040016174, -0.06983691453933716, 0.008619619533419609, -0.1620769202709198, -0.13530565798282623, -0.07056047767400742, -0.10084372758865356, -0.10966242104768753, 0.013257219456136227, -0.15994895994663239, 0.07574748247861862, -0.12052398920059204, -0.16003625094890594, -0.04830911383032799, 0.05040762573480606, -0.1957651525735855, 0.10551069676876068, -0.07206564396619797, -0.11473701149225235, -0.16025355458259583, -0.15827330946922302, -0.10728782415390015, 0.03162635117769241, 0.037740882486104965, -0.12182937562465668, 0.05011618882417679, -0.10696260631084442, -0.1318521499633789, 0.06807760894298553, 0.08298026025295258, -0.042831990867853165, -0.14189587533473969, -0.0938519835472107, 0.01697148010134697, 0.08715088665485382, -0.11654475331306458, -0.13329678773880005, -0.045587629079818726, -0.06028147414326668, 0.1424238234758377, -0.07022348791360855, 0.09204906970262527, -0.1756126582622528, 0.07253298908472061, 0.08911451697349548, 0.0121937096118927, 0.020824724808335304], [0.052863165736198425, -0.06303133070468903, 0.11771651357412338, 0.05089450255036354, -0.07041847705841064, -0.08057674020528793, -0.20747309923171997, 0.12869904935359955, 0.05234724283218384, -0.024561958387494087, -0.10604063421487808, 0.05108359083533287, 0.06031220406293869, -0.08045080304145813, 0.10754033923149109, -0.11743741482496262, -0.08046923577785492, 0.031052961945533752, -0.09721516817808151, -0.17391067743301392, -0.10341764986515045, -0.04847417771816254, 0.11784139275550842, -0.07675310969352722, 0.06691434234380722, 0.03838319703936577, -0.09684082120656967, -0.00709198834374547, -0.08181223273277283, -0.017262445762753487, 0.05221900716423988, -0.08901515603065491, -0.10586429387331009, 0.0068894848227500916, 0.07157965004444122, -0.1099398285150528, 0.09324076026678085, -0.04329061508178711, -0.1323329508304596, -0.032542288303375244, 0.1581551432609558, -0.09237503260374069, 0.053105395287275314, -0.009277094155550003, 0.03587774187326431, -0.15521320700645447, 0.08951746672391891, 0.02940155379474163], [0.2070590704679489, -0.10469362884759903, -0.0015244856476783752, -0.032615721225738525, 0.1573067158460617, 0.047003064304590225, 0.060021013021469116, -0.12009459733963013, 0.12166394293308258, 0.16606882214546204, 0.14845909178256989, 0.009603231213986874, 0.023438526317477226, -0.021819505840539932, 0.05891765281558037, 0.1994776576757431, 0.1296820491552353, 0.13305428624153137, 0.08433976769447327, 0.12114133685827255, -0.16016027331352234, 0.1533260941505432, 0.0735548809170723, 0.14824111759662628, 0.08862346410751343, -0.04580038785934448, -0.08174857497215271, -0.024271199479699135, 0.09598343819379807, 0.14193661510944366, 0.008646804839372635, 0.013013949617743492, 0.05697929859161377, -0.09820585697889328, 0.13810625672340393, 0.006965160369873047, 0.12235807627439499, 0.11590518802404404, -0.06179772689938545, 0.05090755596756935, -0.12494883686304092, 0.038467735052108765, -0.11802615970373154, -0.01269103866070509, -0.07436839491128922, 0.04253458231687546, 0.1254763901233673, 0.14300306141376495], [0.10040230304002762, 0.17378705739974976, 0.012046869844198227, 0.03732655569911003, 0.15937595069408417, 0.013471980579197407, -0.15093839168548584, -0.12127774953842163, 0.052803073078393936, 0.018478628247976303, -0.016124850139021873, 0.00275419931858778, 0.16694900393486023, 0.11225415766239166, -0.11778350919485092, -0.04700063169002533, 0.04967397078871727, -0.0106283538043499, 0.025098873302340508, 0.07720384001731873, -0.07681925594806671, 0.16167320311069489, 0.009271785616874695, 0.0784664899110794, -0.08993791788816452, 0.040131889283657074, 0.04805359989404678, 0.10862298309803009, 0.17419415712356567, 0.10643591731786728, -0.033164702355861664, -0.05312761291861534, -0.08602714538574219, 0.047776464372873306, -0.023636208847165108, 0.15655221045017242, 0.06980704516172409, 0.11293690651655197, 0.12438594549894333, -0.03602668270468712, 0.056918784976005554, 0.030329618602991104, -0.06854258477687836, 0.09560034424066544, -0.05289308354258537, 0.08884670585393906, 0.05880768969655037, 0.16967570781707764], [0.10028974711894989, 0.012739692814648151, -0.04078463092446327, -0.02880478836596012, -0.04758474975824356, -0.05590260028839111, -0.12458617240190506, 0.13562846183776855, -0.15796464681625366, 0.1005319356918335, 0.09167657047510147, -0.006893907207995653, -0.14367762207984924, -0.032270170748233795, 0.05781276896595955, -0.08769926428794861, -0.03555339202284813, -0.15579092502593994, -0.005163770169019699, -0.055222880095243454, 0.04440903663635254, 0.02983795665204525, -0.08617854118347168, 0.08418828994035721, 0.06604758650064468, 0.012357637286186218, 0.04860913008451462, 0.031444452702999115, -0.1846092939376831, -0.014257744885981083, -0.027463356032967567, 0.060046304017305374, -0.1577300727367401, 0.046414557844400406, -0.08388415724039078, -0.09667237102985382, 0.007089213002473116, 0.054036885499954224, -0.16007068753242493, -0.1878833919763565, -0.06159523129463196, -0.07677087187767029, -0.11874446272850037, -0.1091299057006836, -0.002111148089170456, -0.11208450794219971, -0.14178715646266937, -0.17678889632225037], [0.1486676186323166, -0.015934070572257042, 0.06973759084939957, 0.10301223397254944, 0.18464526534080505, 0.2076096385717392, 0.15161913633346558, 0.06684534251689911, 0.04846145212650299, -0.08193228393793106, -0.10354909300804138, -0.09239301085472107, -0.07809949666261673, 0.07913636416196823, -0.10770737379789352, 0.0005163475289009511, -0.006711491849273443, 0.172239288687706, -0.030420755967497826, 0.006366246845573187, 0.10940753668546677, -0.0680554062128067, -0.00794892106205225, 0.1687116175889969, -0.09931159019470215, 0.1323210895061493, -0.07413901388645172, 0.015660293400287628, 0.11759668588638306, -0.047148145735263824, 0.010964557528495789, -0.0959443747997284, 0.07230733335018158, 0.024667229503393173, 0.07659579068422318, -0.01156726572662592, -0.00537649542093277, -0.0447981096804142, 0.033924803137779236, -0.04324699193239212, -0.2013906091451645, -0.13516314327716827, 0.10783926397562027, 0.11514115333557129, -0.036469217389822006, 0.020578479394316673, -0.13675221800804138, 0.06775442510843277], [0.1467297077178955, 0.17780204117298126, 0.11508666723966599, 0.03200025483965874, -0.057874858379364014, 0.17230473458766937, 0.043572504073381424, -0.010740065947175026, 0.009603863582015038, -0.032319750636816025, 0.1687348634004593, -0.2054237574338913, -0.03653378039598465, 0.06173352897167206, -0.0009928944054991007, 0.014444000087678432, -0.07931714504957199, 0.10550986230373383, 0.13338550925254822, 0.027702178806066513, -0.12632444500923157, 0.02425127662718296, 0.17310574650764465, 0.005228681024163961, -0.05917473882436752, -0.0035972914192825556, -0.06583002209663391, -0.03093135915696621, 0.05499391257762909, 0.04079506918787956, 0.045555539429187775, -0.20756667852401733, -0.16092859208583832, -0.05651518702507019, 0.16623012721538544, 0.003973508719354868, 0.090079165995121, -0.0030628079548478127, 0.02646789886057377, -0.08193674683570862, -0.09381775557994843, 0.07286116480827332, 0.02920709364116192, 0.003495737910270691, 0.13126595318317413, 0.10037969797849655, -0.057968512177467346, 0.0596114844083786], [0.019724339246749878, 0.07730049639940262, 0.07798293977975845, -0.12672345340251923, -0.08505759388208389, -0.04867910221219063, -0.13048146665096283, -0.02867794595658779, 0.044214315712451935, -0.1359369158744812, -0.010086321271955967, 0.017152177169919014, -0.07058185338973999, 0.0678962916135788, -0.04139125347137451, -0.08378709107637405, 0.009206178598105907, -0.059249263256788254, -0.16385917365550995, -0.16443082690238953, -0.08675402402877808, -0.043584175407886505, -0.15857474505901337, -0.14543159306049347, -0.03898287191987038, -0.0846078172326088, 0.0017040548846125603, 0.03511897474527359, -0.12156982719898224, -0.1678510457277298, -0.0810103490948677, -0.08233685046434402, -0.06584449857473373, 0.06978179514408112, -0.07052036374807358, -0.03765391558408737, -0.06939803063869476, 0.05651433393359184, -0.15598078072071075, -0.176179900765419, 0.17098906636238098, 0.0668218731880188, -0.13786189258098602, 0.05077575892210007, -0.0024143755435943604, 0.09646398574113846, -0.06613700836896896, 0.016185572370886803], [-0.0897570252418518, 0.10150514543056488, 0.030461059883236885, -0.07091505825519562, -0.13742199540138245, -0.15588708221912384, 0.010018445551395416, 0.0330345556139946, -0.017810357734560966, -0.024348516017198563, 0.08742822706699371, -0.08170727640390396, 0.022314855828881264, 0.07564724236726761, -0.011583449319005013, -0.1116066724061966, -0.006076841149479151, 0.08312048017978668, 0.07388866692781448, -0.004533421713858843, 0.050047434866428375, 0.03859718516469002, 0.03059292957186699, -0.15290001034736633, -0.054794520139694214, -0.024299832060933113, -0.0924791544675827, -0.13040532171726227, -0.10732735693454742, 0.07493753731250763, -0.12941615283489227, -0.13512247800827026, -0.1608874499797821, 0.035407036542892456, -0.14754295349121094, -0.05282595008611679, -0.16655214130878448, -0.08069370687007904, -0.16240279376506805, -0.04426435008645058, 0.18407242000102997, 0.09607164561748505, -0.03977729380130768, 0.11001425236463547, -0.04340054467320442, -0.0008521450799889863, 0.10329319536685944, 0.10977351665496826], [-0.015457642264664173, 0.13662861287593842, 0.06962604075670242, 0.06443747878074646, 0.03464547172188759, 0.17335018515586853, 0.021324817091226578, -0.15172027051448822, 0.15302355587482452, -0.010731514543294907, 0.03362150117754936, -0.008012834936380386, 0.10021829605102539, -0.009799785912036896, -0.0617348738014698, 0.009658761322498322, 0.040929291397333145, 0.12525345385074615, -0.07923981547355652, 0.05463253706693649, 0.12848502397537231, 0.04483059048652649, 0.08071986585855484, -0.05079586058855057, -0.016616936773061752, -0.21199142932891846, 0.11675069481134415, 0.055126238614320755, 0.0748433992266655, 0.12917445600032806, 0.096568264067173, -0.11877325177192688, -0.07093989104032516, -0.08437265455722809, 0.10958752036094666, 0.14147450029850006, -0.036144793033599854, -0.05245566740632057, 0.07548531144857407, 0.12956397235393524, -0.09698545187711716, 0.019868042320013046, -0.0500018447637558, 0.009805765934288502, -0.06486257910728455, -0.06972265243530273, -0.10938181728124619, -0.05404309555888176], [-0.07824533432722092, -0.03105740062892437, -0.10351090133190155, 0.17705559730529785, -0.049069035798311234, 0.07188687473535538, -0.10469958186149597, 0.09839637577533722, 0.15562108159065247, -0.007461254950612783, 0.040906671434640884, -0.10505475103855133, 0.11255152523517609, 0.051906026899814606, -0.13036201894283295, 0.02282591536641121, 0.14668235182762146, -0.10169649124145508, 0.1486424207687378, -0.0984402447938919, 0.1409192979335785, -0.07330884039402008, 0.05946958810091019, 0.05980316177010536, -0.06275366991758347, -0.1768178641796112, -0.04707273840904236, -0.08143360912799835, -0.08449720591306686, -0.033703066408634186, 0.16219480335712433, -0.10887797921895981, 0.058849357068538666, 0.1255478411912918, -0.05248226225376129, 0.007442609407007694, 0.12452776730060577, 0.08551191538572311, -0.10235516726970673, -0.04528987035155296, 0.018410833552479744, 0.07209259271621704, -0.06176002323627472, 0.11908919364213943, -0.10501807928085327, 0.1186865046620369, -0.05862702056765556, -0.02475142478942871], [-0.08969835937023163, 0.03125583380460739, -0.0006385088199749589, -0.01317907590419054, 0.05695747956633568, -0.08831093460321426, -0.16979746520519257, 0.17274625599384308, -0.09168598800897598, -0.0037393674720078707, -0.03460324928164482, 0.09662181884050369, -0.13566464185714722, -0.09384725242853165, 0.01153601799160242, -0.1815277338027954, -0.12641246616840363, -0.11358233541250229, 0.03642641380429268, -0.11415425688028336, -0.06773043423891068, -0.030431680381298065, -0.1118013933300972, 0.05512211471796036, 0.04378923028707504, 0.03822021558880806, -0.05914672464132309, -0.13208475708961487, -0.05589526519179344, -0.10781826078891754, -0.04048763960599899, 0.0737685039639473, -0.19163091480731964, -0.14200975000858307, 0.013598348014056683, -0.08016965538263321, -0.05100719630718231, -0.1572892665863037, -0.14349432289600372, -0.056806530803442, -0.10519835352897644, -0.03934403136372566, -0.055258773267269135, -0.09048523008823395, 0.05221716687083244, 0.0019131562439724803, 0.0868706926703453, -0.061496369540691376], [-0.026516487821936607, -0.13181938230991364, 0.02136418968439102, -0.1188093051314354, 0.03598855063319206, 0.012662423774600029, -0.05467282235622406, 0.025673193857073784, -0.1603870838880539, 0.06551658362150192, 0.01659785956144333, 0.017851149663329124, 0.021648529917001724, 0.0336051806807518, -0.019988004118204117, -0.06802789866924286, 0.031264226883649826, -0.08547012507915497, -0.08926024287939072, -0.1470053642988205, -0.18472325801849365, 0.019935088232159615, 0.1052241325378418, 0.0002139880962204188, -0.06969238817691803, 0.010976682417094707, 0.035568658262491226, -0.13979990780353546, -0.027108579874038696, -0.1118774339556694, 0.08991250395774841, -0.04572762921452522, -0.17747840285301208, -0.06800927966833115, -0.10621483623981476, -0.10108291357755661, -0.15452994406223297, -0.07201242446899414, -0.11691233515739441, 0.0496799536049366, 0.01440513227134943, -0.026260804384946823, -0.1377597451210022, -0.04133545234799385, 0.05697421357035637, -0.021588008850812912, -0.14779004454612732, -0.08888120204210281], [-0.012150838971138, 0.05709617957472801, -0.03295013681054115, 0.10597968101501465, 0.12231273204088211, 0.21705375611782074, 0.01176377572119236, -0.03169363737106323, 0.15086451172828674, -0.0236794576048851, 0.03556165099143982, -0.18972842395305634, -0.02771950326859951, 0.08544420450925827, 0.05819391831755638, 0.06754027307033539, -0.06062605232000351, -0.04239987954497337, 0.04508132487535477, -0.07918988913297653, -0.12420526146888733, 0.1576867252588272, 0.056444402784109116, -0.0319896936416626, -0.051861800253391266, -0.13642923533916473, 0.1289786994457245, 0.1020362451672554, -0.06942392140626907, 0.1923311948776245, 0.07982665300369263, -0.14006443321704865, -0.18077541887760162, 0.12701712548732758, 0.07142926752567291, 0.08435160666704178, 0.15753741562366486, 0.18011769652366638, -0.07733047008514404, -0.08406118303537369, -0.1229960173368454, 0.0672091618180275, 0.09787172079086304, -0.020273659378290176, 0.04668581113219261, 0.10561985522508621, 0.1122259870171547, 0.0151065643876791], [-0.03295212611556053, -0.04649541154503822, 0.03171873092651367, 0.08346103876829147, -0.0022910607513040304, -0.16688571870326996, -0.153417706489563, 0.14211589097976685, -0.18478770554065704, -0.044444311410188675, -0.022412937134504318, -0.03540785238146782, 0.05815007910132408, -0.17442667484283447, 0.10342179238796234, -0.042375680059194565, -0.14844466745853424, 0.09142673015594482, -0.016666734591126442, -0.16449950635433197, 0.036232348531484604, -0.07194600254297256, -0.043202996253967285, -0.12679775059223175, -0.05733072757720947, -0.003776725148782134, -0.0554206483066082, 0.0541231706738472, 0.09121233224868774, -0.0520162396132946, -0.15802951157093048, -0.011234289035201073, 0.0016857178416103125, -0.18412967026233673, -0.0819099023938179, -0.11470400542020798, -0.03812059015035629, -0.09175855666399002, -0.036966513842344284, 0.06871884316205978, 0.07326942682266235, 0.07013700902462006, 0.056931812316179276, -0.1369481235742569, -0.05815191939473152, 0.07684226334095001, -0.13959158957004547, 0.07336388528347015], [-0.15877960622310638, 0.041146211326122284, -0.05656411498785019, 0.07231232523918152, -0.0906626284122467, -0.12809737026691437, -0.1628192961215973, 0.131994366645813, 0.05323414504528046, 0.10469280928373337, -0.037380531430244446, 0.10586339980363846, 0.009686778299510479, 0.08585423976182938, -0.11003497242927551, 0.0933929905295372, 0.019786622375249863, 0.08555692434310913, 0.07225748896598816, 0.0759386494755745, 0.029763238504529, -0.03505881875753403, -0.16801756620407104, -0.13742321729660034, 0.04608945921063423, 0.13743409514427185, 0.042763832956552505, -0.10813811421394348, -0.08438075333833694, -0.05773034691810608, -0.1269315779209137, 0.02361752651631832, 0.0915050283074379, 0.0880710631608963, 0.00863800197839737, 0.03006882220506668, -0.08179879933595657, -0.004438124131411314, 0.007153170183300972, -0.10443486273288727, -0.01885286718606949, 0.04590814933180809, -0.10418045520782471, -0.14586491882801056, 0.11176871508359909, -0.021245179697871208, 0.08816951513290405, -0.1858181357383728], [0.02423677407205105, -0.05764760449528694, 0.03098444640636444, -0.07132893055677414, -0.14126814901828766, -0.02160436101257801, -0.12833565473556519, 0.015656007453799248, 0.06070142984390259, 0.06893648207187653, -0.11633872240781784, -0.027031445875763893, -0.14352478086948395, -0.0044806175865232944, 0.016767898574471474, -0.16297349333763123, -0.05436675250530243, 0.10186326503753662, 0.025611771270632744, -0.11579757928848267, -0.024313297122716904, -0.12348484992980957, -0.1221269965171814, 0.09878122061491013, 0.08078411966562271, 0.11037012189626694, -0.0662042424082756, 0.07878348976373672, -0.17423225939273834, 0.016608592122793198, 0.0316830612719059, -0.05104945972561836, -0.010346061550080776, -0.155957892537117, 0.042667072266340256, 0.08008453249931335, -0.17122721672058105, -0.034560900181531906, -0.15670889616012573, -0.05262528732419014, 0.08817830681800842, 0.030576981604099274, -0.15662892162799835, 0.04272165521979332, 0.09354119002819061, 0.06781916320323944, 0.10823260992765427, 0.047072768211364746], [0.12664049863815308, 0.04482414573431015, 0.023772643879055977, 0.152560755610466, 0.11469748616218567, 0.050149090588092804, -0.0855674147605896, -0.018203511834144592, 0.0446527898311615, -0.01669101044535637, 0.09153898805379868, -0.1282532811164856, -0.0030891955830156803, -0.05974876508116722, 0.1151500716805458, -0.02363016828894615, 0.05543350428342819, 0.10774195194244385, 0.04399729520082474, 0.17672944068908691, -0.09869331121444702, 0.139436736702919, -0.06264647841453552, 0.1441188007593155, -0.14328917860984802, 0.055061597377061844, -0.015287167392671108, 0.11240953952074051, 0.05870379880070686, 0.11400934308767319, -0.007983156479895115, -0.18157507479190826, -0.1175885796546936, 0.12370810657739639, 0.17339321970939636, -0.00324991368688643, 0.18945865333080292, 0.07329336553812027, -0.012832611799240112, -0.14112073183059692, -0.2212526649236679, 0.052655745297670364, 0.14142140746116638, -0.034357331693172455, -0.07855047285556793, -0.042207155376672745, 0.12693896889686584, 0.10635845363140106], [-0.03327273949980736, -0.0898207277059555, 0.08498267084360123, -0.18704728782176971, 0.03204287216067314, 0.052161846309900284, -0.05594682693481445, -0.07878726720809937, -0.0817117989063263, 0.02367970161139965, -0.16217531263828278, -0.1174887865781784, 0.053011566400527954, 0.06078232452273369, 0.0038716173730790615, -0.022570500150322914, -0.07437063753604889, -0.00094188516959548, 0.039606817066669464, -0.12908165156841278, 0.060394130647182465, -0.12876752018928528, -0.08536703139543533, -0.10698588192462921, 0.004655253142118454, -0.11229335516691208, -0.0731414407491684, -0.04629459232091904, -0.16905991733074188, -0.06394670903682709, -0.0157436765730381, 0.09881670027971268, -0.06075200438499451, -0.004457521252334118, 0.017645006999373436, 0.06533123552799225, -0.1055939719080925, -0.0815449059009552, -0.036576829850673676, -0.027777446433901787, -0.019568076357245445, -0.05169133096933365, -0.0029551072511821985, 0.05816410109400749, -0.026728665456175804, 0.017537225037813187, -0.06835804134607315, 0.08477890491485596], [0.05543046444654465, 0.1448979377746582, -0.14637234807014465, 0.0947410985827446, 0.05563720688223839, -0.041972965002059937, 0.03802191838622093, -0.05638808012008667, 0.16596545279026031, -0.025236696004867554, -0.055151041597127914, 0.0003157692844979465, 0.10307825356721878, 0.15124854445457458, 0.11189749836921692, -0.06356354057788849, -0.07742650806903839, 0.07851456105709076, 0.004675210453569889, -0.02416715957224369, 0.027297794818878174, -0.01628110185265541, 0.04741697385907173, 0.12008920311927795, -0.12230224907398224, -0.08656498044729233, 0.17397557199001312, 0.008211200125515461, -0.04360928758978844, -0.01724352315068245, -0.020098799839615822, -0.17091098427772522, -0.13487669825553894, -0.026966413483023643, 0.05192140117287636, -0.07117287814617157, -0.07069040834903717, -0.04617539793252945, -0.029410766437649727, 0.1213281974196434, -0.19749107956886292, 0.11354292929172516, 0.14488285779953003, 0.1315540373325348, -0.05675514414906502, 0.11448869109153748, 0.14579100906848907, -0.05894164741039276], [0.050000276416540146, -0.015846217051148415, 0.08625549077987671, 0.01995254121720791, 0.009777297265827656, -0.06394042074680328, 0.0827232226729393, -0.16889438033103943, 0.11481913924217224, -0.016616376116871834, -0.05037608742713928, -0.16625189781188965, 0.1377059370279312, 0.017158670350909233, -0.10930289328098297, -0.06258794665336609, -0.06028708070516586, 0.1438153088092804, -0.11022941023111343, 0.15312723815441132, -0.07266873866319656, -0.09162700176239014, 0.13603730499744415, 0.0262867771089077, 0.04863923415541649, 0.1024596095085144, 0.15730847418308258, -0.008876829408109188, -0.10271278768777847, 0.09927882999181747, 0.11904419213533401, -0.09934689849615097, -0.09470702707767487, 0.04490232467651367, -0.05279640853404999, -0.08272621780633926, 0.17626819014549255, -0.06515128910541534, 0.0902981087565422, 0.01302184909582138, -0.1324583739042282, 0.060030851513147354, 0.008336588740348816, 0.08022092282772064, 0.03191002085804939, 0.07282058149576187, 0.0812113806605339, 0.1092715859413147], [0.08111430704593658, 0.0647190511226654, -0.09762512892484665, -0.02226187475025654, 0.1353052258491516, 0.07348604500293732, -0.05108550190925598, 0.008181164972484112, -0.07906576991081238, 0.05167844519019127, 0.10029349476099014, 0.03387909010052681, 0.15111230313777924, 0.04857172071933746, -0.09655250608921051, 0.17201951146125793, 0.14959333837032318, -0.027401411905884743, 0.03908411040902138, 0.04654692858457565, -0.1430918127298355, -0.07923264801502228, 0.11286046355962753, -0.011238797567784786, -0.07698778808116913, -0.09886004030704498, 0.1409851610660553, 0.10298356413841248, -0.09142570942640305, 0.07174735516309738, 0.059088289737701416, -0.09832628071308136, 0.02536260150372982, 0.1081533432006836, 0.04281558841466904, -0.056512344628572464, -0.08903619647026062, 0.16466356813907623, 0.1412269026041031, -0.026208961382508278, -0.18835482001304626, -0.07485613226890564, -0.05668891966342926, 0.14207303524017334, 0.14329254627227783, 0.03748315945267677, -0.05272043123841286, -0.05641503632068634], [-0.08299411833286285, 0.055864229798316956, -0.03315899893641472, -0.0018367038574069738, 0.004815301392227411, 0.15792761743068695, -0.10481435060501099, 0.030047908425331116, 0.036386068910360336, 0.04509231448173523, 0.14740625023841858, 0.02801072970032692, 0.1393895149230957, 0.06165836378931999, 0.11435660719871521, 0.05207018926739693, 0.12603521347045898, 0.1498129963874817, 0.14798106253147125, -0.10258545726537704, 0.007440267596393824, 0.01310906931757927, 0.05004975199699402, 0.1699722558259964, -0.026437940075993538, -0.14466014504432678, 0.06862566620111465, 0.16565345227718353, -0.09681063890457153, -0.03137959539890289, 0.0319477915763855, -0.19122396409511566, -0.011949094943702221, -0.10829584300518036, 0.07955971360206604, 0.05407213419675827, -0.038209713995456696, 0.012909009121358395, -0.07708349078893661, -0.023957936093211174, -0.11840669810771942, 0.0009884260362014174, 0.08900817483663559, -0.0931594967842102, 0.013595226220786572, 0.031493570655584335, -0.09777695685625076, -0.06322336941957474], [-0.0751490443944931, -0.14462634921073914, 0.08648300915956497, 0.019765233621001244, -0.07142612338066101, -0.15570813417434692, -0.08423653244972229, 0.1466931700706482, -0.16059337556362152, 0.10265805572271347, -0.11476694047451019, -0.11505100876092911, -0.017721526324748993, -0.12646250426769257, 0.094866544008255, -0.07696784287691116, 0.08543015271425247, 0.08399016410112381, -0.0371972918510437, 0.07484395802021027, -0.05514977499842644, -0.006253344472497702, 0.03164556622505188, 0.02918962389230728, -0.040931880474090576, -0.016896361485123634, -0.10098008811473846, -0.08644512295722961, 0.04592875763773918, -0.10124145448207855, 0.005069632548838854, -0.024097077548503876, 0.0712994858622551, -0.1365305781364441, 0.0262229535728693, -0.12919467687606812, -0.020322207361459732, 0.01722489856183529, 0.10315562039613724, 0.05205017700791359, -0.013395790942013264, 0.06358076632022858, -0.13166004419326782, -0.06566548347473145, -0.03819270804524422, -0.08465830981731415, 0.06090599671006203, -0.16907773911952972], [-0.11944811046123505, -0.12968644499778748, 0.054692208766937256, -0.16149353981018066, -0.15080973505973816, -0.02863285131752491, 0.00427077803760767, 0.15863081812858582, 0.08527002483606339, 0.04852069914340973, -0.16449858248233795, -0.012260316871106625, -0.15042206645011902, 0.022245097905397415, 0.10960517078638077, -0.040962956845760345, -0.1395879089832306, -0.004733204375952482, -0.07333113998174667, 0.07736188173294067, -0.14359594881534576, -0.12880989909172058, 0.04618416726589203, -0.1342160999774933, 0.05780233442783356, -0.008309791795909405, 0.014804375357925892, -0.16913306713104248, 0.040246449410915375, -0.05353919789195061, -0.002854821505025029, 0.025273822247982025, 0.06332060694694519, 0.053921569138765335, -0.08556722849607468, -0.04840210825204849, 0.02869429439306259, 0.10445327311754227, 0.05732430890202522, -0.04235828295350075, -0.0802607461810112, 0.020200029015541077, -0.16550926864147186, 0.027797279879450798, -0.08676890283823013, -0.06903733313083649, -0.022715531289577484, -0.12209320068359375], [0.04118574410676956, 0.1059485599398613, -0.06696943938732147, 0.022593354806303978, -0.0027362084947526455, 0.011351071298122406, -0.08074140548706055, 0.0720709040760994, -0.08875177055597305, 0.11780476570129395, 0.14869564771652222, 0.05806581303477287, 0.18555210530757904, 0.10615497827529907, 0.056732501834630966, 0.17791348695755005, 0.14858713746070862, -0.05152777582406998, 0.07225539535284042, -0.060466740280389786, 0.14511670172214508, -0.013102938421070576, -0.09729240834712982, 0.03184615820646286, 0.028637023642659187, -0.09905312955379486, 0.15479132533073425, -0.04402083903551102, -0.053384389728307724, 0.08020598441362381, -0.010194518603384495, -0.14417168498039246, 0.019136926159262657, 0.04110955819487572, -0.03633950278162956, 0.04651150852441788, -0.09188609570264816, 0.12620224058628082, 0.15859593451023102, 0.06420562416315079, -0.1455904245376587, 0.020626690238714218, -0.07453279197216034, 0.09576332569122314, 0.017807673662900925, 0.030124928802251816, 0.0179867222905159, 0.025132089853286743], [-0.02510262094438076, -0.09747295081615448, -0.03027130290865898, -0.20228292047977448, -0.17486432194709778, 0.004386086482554674, 0.03780268132686615, -0.07244094461202621, 0.06863202899694443, -0.00980734545737505, -0.04831744730472565, -0.13081534206867218, 0.07234787195920944, -0.033925652503967285, 0.00991077721118927, -0.16383501887321472, 0.0330161415040493, -0.10770271718502045, 0.08848793804645538, -0.11556754261255264, -0.009657823480665684, -0.15149752795696259, -0.10988064855337143, -0.1830194592475891, -0.05299435555934906, 0.06237877905368805, 0.06321942061185837, -0.04267676919698715, -0.06669501215219498, -0.06966444104909897, 0.10671563446521759, -0.042308151721954346, 0.06597781926393509, -0.0876675620675087, -0.12172633409500122, 0.046907227486371994, 0.09278549253940582, -0.16169358789920807, -0.09654134511947632, -0.15536057949066162, 0.00042748887790367007, -0.04780326411128044, 0.04769212752580643, -0.03338449448347092, 0.11792207509279251, 0.0760379284620285, -0.008043844252824783, 0.04905448108911514], [0.16387629508972168, 0.11571618914604187, -0.1577926129102707, 0.1509915292263031, 0.06016863137483597, -0.018025962635874748, -0.05658910796046257, -0.07914769649505615, 0.15970319509506226, 0.10810966044664383, -0.09592580050230026, -0.03906369209289551, -0.031363170593976974, 0.0933462381362915, 0.09024149924516678, 0.1474967747926712, -0.10822416096925735, -0.039172351360321045, -0.10169889777898788, -0.06316708028316498, -0.11986512690782547, -0.05239424854516983, 0.1411476880311966, 0.03241431713104248, 0.029231246560811996, -0.19831115007400513, 0.1517050415277481, 0.002061271807178855, 0.14088241755962372, 0.18561820685863495, -0.02183207869529724, -0.06190640479326248, -0.17054954171180725, 0.11153669655323029, -0.030192958191037178, 0.0572197400033474, 0.1611248105764389, 0.12461593747138977, -0.09301884472370148, 0.04507337510585785, 0.007984684780240059, -0.003061841242015362, -0.0887618288397789, 0.03095056675374508, -0.08176778256893158, 0.11119385063648224, -0.09083019942045212, -0.08284438401460648], [0.03644026815891266, 0.04334404319524765, -0.12798327207565308, -0.08437895774841309, -0.07034312933683395, -0.03651151433587074, 0.08431719988584518, 0.02076912298798561, 0.06313513219356537, -0.09196431934833527, -0.07506648451089859, -0.21983569860458374, 0.06332770735025406, 0.11212234199047089, -0.125266432762146, -0.09789726138114929, 0.07496913522481918, -0.036656979471445084, -0.0005842186510562897, 0.03962624445557594, 0.051134128123521805, -0.10690263658761978, -0.012414633296430111, -0.05970180779695511, 0.06435927003622055, 0.07377096265554428, -0.13195933401584625, -0.14657409489154816, -0.040504470467567444, -0.07293563336133957, 0.031056173145771027, 0.010483034886419773, -0.19030191004276276, -0.019932426512241364, -0.11722379177808762, -0.12054503709077835, -0.13711583614349365, -0.15346571803092957, -0.11140003800392151, 0.02642034739255905, 0.009004857391119003, -0.1170676052570343, -0.08159518986940384, 0.03273897245526314, 0.019156642258167267, -0.02377500757575035, -0.0883130133152008, -0.06496688723564148]], "b": [0.09293239563703537, 0.014771915972232819, -0.10415327548980713, -0.03840205818414688, -0.07884040474891663, 0.10436553508043289, -0.18417194485664368, -0.11151351779699326, -0.09720810502767563, 0.03026421368122101, 0.04777046665549278, 0.06255961209535599, -0.05476588383316994, 0.0060325427912175655, 0.06784063577651978, 0.16471917927265167, 0.11968791484832764, -0.054559141397476196, -0.13411515951156616, -0.17110733687877655, -0.11913274228572845, -0.05196551978588104, 0.10206726938486099, -0.11717534065246582, -0.03051718883216381, 0.146134614944458, -0.03064805455505848, 0.04068823158740997, 0.08642997592687607, -0.01096822414547205, -0.0008177594863809645, -0.1550282984972, -0.06659864634275436, -0.018137436360120773, 0.053470272570848465, -0.11929046362638474, 0.08662953227758408, -0.02833773009479046, -0.07024970650672913, 0.10381120443344116, 0.06445436924695969, 0.13851837813854218, -0.13859516382217407, -0.034479979425668716, 0.054648421704769135, 0.03941871598362923, 0.11572933942079544, 0.0210382379591465], "in": 48, "out": 48}, {"w": [[0.08049803972244263, -0.09642314910888672, -0.09676284343004227, -0.13497155904769897, -0.059438399970531464, -0.009612975642085075, -0.061205893754959106, -0.11218185722827911, -0.1424972116947174, 0.1850207895040512, 0.0276675783097744, 0.050647903233766556, 0.0930202454328537, -0.13191109895706177, 0.07748747617006302, 0.01550033688545227, 0.1198783591389656, -0.09687662124633789, -0.1271897405385971, -0.15753236413002014, -0.044157277792692184, 0.04531979188323021, 0.14717182517051697, -0.10963544994592667, 0.07312580198049545, 0.15577085316181183, -0.0933232456445694, -0.027421221137046814, 0.10783521085977554, 0.07378626614809036, -0.1411997377872467, -0.16348502039909363, 0.05941834673285484, -0.1706680953502655, -0.037531156092882156, -0.15984129905700684, 0.11809759587049484, -0.12878833711147308, 0.04286723956465721, 0.12553910911083221, 0.07806971669197083, 0.03579683601856232, -0.08621086180210114, -0.09801248461008072, 0.038684189319610596, -0.12049730122089386, 0.09798064827919006, -0.08034706115722656]], "b": [-0.03994538635015488], "in": 48, "out": 1}]}