{
  "version": 1,
  "id": "c3v3_H4",
  "K": 4,
  "featureDim": 35,
  "inputMean": [
    0.005562088452279568,
    0.010740191675722599,
    -12.107275009155273,
    31.060359954833984,
    -0.007391314022243023,
    -0.0014237378491088748,
    532.5204467773438,
    -2.6612308025360107,
    0.464982271194458,
    -0.7509861588478088,
    -0.10860028117895126,
    -1.9606475830078125,
    0.18706649541854858,
    -1.641610860824585,
    -1.6478159427642822,
    -0.00996802281588316,
    0.008924822323024273,
    -0.004896283615380526,
    0.00541970320045948,
    -0.008952147327363491,
    0.0056013003922998905,
    -0.006117881741374731,
    -0.0008334347512573004,
    173.2367401123047,
    208.20065307617188,
    239.71226501464844,
    263.1102294921875,
    0,
    0,
    -0.000368642300600186,
    -0.00003369644400663674,
    -0.0004370726237539202,
    -0.00048641112516634166,
    0.23144398629665375,
    0.23143750429153442
  ],
  "inputStd": [
    1.4483128786087036,
    1.4255748987197876,
    463.25140380859375,
    464.70733642578125,
    0.7176584601402283,
    0.6962109208106995,
    384.8221130371094,
    144.51588439941406,
    153.10362243652344,
    168.19386291503906,
    175.0343475341797,
    189.44021606445312,
    196.030029296875,
    204.62815856933594,
    212.96701049804688,
    0.7010394334793091,
    0.7129970192909241,
    0.7035136818885803,
    0.7106441855430603,
    0.7021756768226624,
    0.7119254469871521,
    0.6989261507987976,
    0.715167224407196,
    119.6740951538086,
    124.8169174194336,
    129.8355712890625,
    134.1865997314453,
    0.0010000000474974513,
    0.0010000000474974513,
    0.034632958471775055,
    0.03506102412939072,
    0.026795368641614914,
    0.026404710486531258,
    0.41482579708099365,
    0.42175132036209106
  ],
  "outputScale": 0.05,
  "clipMagnitude": 0.05,
  "layers": [
    {
      "inDim": 35,
      "outDim": 4,
      "activation": "relu",
      "W": [
        0.0000023540715119452216,
        0.000004949216418026481,
        -9.628332691136166e-7,
        -0.000003864407517539803,
        0.0000016890212464204524,
        -0.0000031453034807782387,
        -0.0000018350892787566409,
        0.000003559063998181955,
        -8.351386213689693e-7,
        0.0000030015100946911843,
        0.000002348660700590699,
        0.0000012826249076169915,
        5.351640766093624e-7,
        -5.576914077209949e-7,
        -5.848759769833123e-7,
        -5.64862546070799e-7,
        -0.0000011498595995362848,
        -0.000006941937499505002,
        -0.000002951755050162319,
        0.000002783105401249486,
        -0.0000017732983224050258,
        0.000001856340531958267,
        0.000003573442199922283,
        -0.000003975662821176229,
        -2.2072822503105272e-7,
        -1.724661871094213e-7,
        -0.0000011627154208326829,
        -0.0000013989687204229995,
        2.8111878691561287e-7,
        -0.0000046610070967290085,
        0.000008177593372238334,
        0.00000270162672677543,
        2.3653404923607013e-7,
        -0.000013021999620832503,
        -0.000009509400115348399,
        0.0000019859780877595767,
        0.0000020157283415755956,
        0.000004549908226181287,
        -0.000007252182058437029,
        8.745525974518387e-7,
        -0.0000012592977327585686,
        -0.00001234468163602287,
        0.000009753308404469863,
        -8.995884854812175e-7,
        -0.0000011369315870979335,
        0.000005387959845393198,
        -0.000008548023288312834,
        1.7625444570512627e-7,
        0.0000014201767726262915,
        0.0000017442683883928112,
        -0.000004192390861135209,
        -1.499437303209561e-7,
        -4.272094713542174e-7,
        -0.000008878654625732452,
        0.000002574495283624856,
        -0.0000026894624625128927,
        -0.0000012650293683691416,
        0.000009977075933420565,
        0.000008252886800619308,
        2.8158430609437346e-7,
        -9.403556759934872e-7,
        -0.000002730796268224367,
        -0.0000023527372832177207,
        -0.0000028528922939585755,
        -7.990643524635743e-8,
        0.000009742652764543891,
        -6.89739863446448e-7,
        -0.0000012093113355149399,
        -0.0000012375587630231166,
        -0.000001507561592006823,
        0.0000012526581940619508,
        -0.0000015681026752645266,
        6.854001526335196e-7,
        0.000005504045930138091,
        -0.000002967418595289928,
        0.000001222357809638197,
        5.519923433894292e-7,
        -0.000003444330104684923,
        0.000004413614078657702,
        9.881381402010447e-7,
        -0.0000018751088646240532,
        -0.0000015076158206284163,
        0.0000015199349263639306,
        -2.866814270419127e-7,
        -4.151409882524604e-7,
        0.0000042772212509589735,
        -0.0000012497590660132119,
        0.0000023669572328799404,
        9.68909830589837e-7,
        -0.000005319871434039669,
        -0.000004932717729388969,
        -4.479844903926278e-7,
        9.430070235794119e-7,
        0.000015489602446905337,
        -0.000014771379937883466,
        -0.0000026008585791714722,
        7.913612876109255e-7,
        -0.000004640431143343449,
        0.0000022350388917402597,
        9.465838957112283e-7,
        -0.0000023736738512525335,
        0.0000025467495561315445,
        0.000006221366220415803,
        -3.4720912367447454e-7,
        4.294738573662471e-7,
        -1.4712630047597486e-7,
        -0.000004833388629776891,
        2.8874083568553033e-7,
        0.13596275448799133,
        -0.10408013314008713,
        0.31852683424949646,
        -0.25169238448143005,
        -0.31663432717323303,
        -0.06163792312145233,
        -0.09587962925434113,
        0.28071844577789307,
        0.0000013305241282068891,
        0.42660197615623474,
        1.0836305618286133,
        6.959950837881479e-8,
        4.5117241143088904e-7,
        1.0417131185531616,
        -0.45482027530670166,
        -4.188287050510553e-7,
        0.3074137270450592,
        0.000004741374141303822,
        1.3476524429734127e-7,
        0.8167309165000916,
        0.7306972742080688,
        0.0000022470442218036624,
        -0.0000012264398492334294,
        -0.33366841077804565,
        -0.0000031538363600702723,
        -0.000001922520368680125,
        -0.000004075645392731531,
        1.747421407571892e-7,
        -1.270853042602539,
        1.307041883468628,
        1.3762346506118774,
        -1.3416043519973755
      ],
      "b": [
        0.7254083156585693,
        -0.8399264216423035,
        -0.8894385099411011,
        0.8440990447998047
      ]
    },
    {
      "inDim": 4,
      "outDim": 2,
      "activation": "linear",
      "W": [
        0.2556912302970886,
        0.6167303323745728,
        0.23814795911312103,
        0.5744187235832214,
        0.5454583168029785,
        -0.2261304259300232,
        0.5599321722984314,
        -0.2321338951587677
      ],
      "b": [
        -1.2574015855789185,
        -0.5203697085380554
      ]
    }
  ]
}