{
  "version": 1,
  "id": "K4_H8_relu_v3",
  "K": 4,
  "featureDim": 45,
  "inputMean": [
    0.005562088452279568,
    0.010740191675722599,
    -12.107275009155273,
    31.060359954833984,
    -0.007391314022243023,
    -0.0014237378491088748,
    532.5204467773438,
    -2.6612308025360107,
    0.464982271194458,
    -0.7509861588478088,
    -0.10860028117895126,
    -1.9606475830078125,
    0.18706649541854858,
    -1.641610860824585,
    -1.6478159427642822,
    -0.00996802281588316,
    0.008924822323024273,
    -0.004896283615380526,
    0.00541970320045948,
    -0.008952147327363491,
    0.0056013003922998905,
    -0.006117881741374731,
    -0.0008334347512573004,
    173.2367401123047,
    208.20065307617188,
    239.71226501464844,
    263.1102294921875,
    0,
    0,
    -0.000368642300600186,
    -0.00003369644400663674,
    -0.0004370726237539202,
    -0.00048641112516634166,
    0.23144398629665375,
    0.23143750429153442
  ],
  "inputStd": [
    1.4483128786087036,
    1.4255748987197876,
    463.25140380859375,
    464.70733642578125,
    0.7176584601402283,
    0.6962109208106995,
    384.8221130371094,
    144.51588439941406,
    153.10362243652344,
    168.19386291503906,
    175.0343475341797,
    189.44021606445312,
    196.030029296875,
    204.62815856933594,
    212.96701049804688,
    0.7010394334793091,
    0.7129970192909241,
    0.7035136818885803,
    0.7106441855430603,
    0.7021756768226624,
    0.7119254469871521,
    0.6989261507987976,
    0.715167224407196,
    119.6740951538086,
    124.8169174194336,
    129.8355712890625,
    134.1865997314453,
    0.0010000000474974513,
    0.0010000000474974513,
    0.034632958471775055,
    0.03506102412939072,
    0.026795368641614914,
    0.026404710486531258,
    0.41482579708099365,
    0.42175132036209106
  ],
  "outputScale": 0.05,
  "clipMagnitude": 0.05,
  "layers": [
    {
      "inDim": 35,
      "outDim": 8,
      "activation": "relu",
      "W": [
        0.0577227845788002,
        0.017355971038341522,
        -0.0017632171511650085,
        -0.00535033131018281,
        0.012609042227268219,
        0.00754381250590086,
        -0.0022182732354849577,
        -0.0027295751497149467,
        -0.06154773384332657,
        0.012975734658539295,
        -0.007377568166702986,
        -0.023220976814627647,
        0.009424823336303234,
        0.005635472480207682,
        -0.009514419361948967,
        -0.0117483614012599,
        -0.020388111472129822,
        0.0060334401205182076,
        -0.005051374435424805,
        0.0017111609922721982,
        0.004380136262625456,
        0.0026157451793551445,
        -0.002209023106843233,
        -0.0014987355098128319,
        -0.0064385272562503815,
        -0.002212692052125931,
        -0.004227344412356615,
        -0.013980159536004066,
        -0.001608734019100666,
        -0.0009599261684343219,
        -0.0056190951727330685,
        -0.006986886728554964,
        0.018348459154367447,
        -0.012388202361762524,
        -0.010253704153001308,
        0.033673517405986786,
        -0.008994929492473602,
        -0.005374997388571501,
        0.002895086770877242,
        0.008176766335964203,
        0.015094315633177757,
        -0.01797260344028473,
        0.017841437831521034,
        0.03582000359892845,
        -0.0130509864538908,
        -0.007808349095284939,
        0.018039828166365623,
        0.02085762657225132,
        0.016344208270311356,
        0.007562974002212286,
        0.0006695723277516663,
        -0.004477631766349077,
        0.005492463242262602,
        0.0032856909092515707,
        -0.0007460350752808154,
        -0.0013806336792185903,
        -0.012240583077073097,
        0.01914057694375515,
        -0.008645138703286648,
        -0.005685209762305021,
        0.013900794088840485,
        0.00830464344471693,
        -0.005882502067834139,
        -0.005758960265666246,
        0.029496565461158752,
        -0.012947672046720982,
        -0.0071419705636799335,
        -0.0008869724115356803,
        -0.00945907924324274,
        -0.005637106951326132,
        -0.003932137042284012,
        -0.0033507130574434996,
        0.04932545870542526,
        -0.04431881755590439,
        0.0024797653313726187,
        -0.00268914713524282,
        -0.032193344086408615,
        -0.01925065740942955,
        0.000630619702860713,
        0.00004700517820310779,
        -0.008635144680738449,
        -0.002897630212828517,
        0.004080932587385178,
        -0.0002491335617378354,
        -0.002099855337291956,
        -0.0012576894368976355,
        0.0020621458534151316,
        0.0016357538988813758,
        0.03031889721751213,
        -0.023463502526283264,
        0.014770535752177238,
        0.0010935799218714237,
        -0.01704263687133789,
        -0.010199787095189095,
        0.007951663807034492,
        0.006655893288552761,
        -0.0012211976572871208,
        0.02178717590868473,
        0.012178385630249977,
        -0.006717256270349026,
        0.015815667808055878,
        0.009472919628024101,
        0.004693247843533754,
        0.002655056305229664,
        -0.008873261511325836,
        0.011818263679742813,
        -0.011497460305690765,
        0.014560255222022533,
        0.008579016663134098,
        0.005132189951837063,
        -0.0024239448830485344,
        0.000545827962923795,
        -0.03255358338356018,
        0.0006516112480312586,
        -0.004718944430351257,
        0.008328786119818687,
        0.0004679430276155472,
        0.0002837723877746612,
        -0.0004160297103226185,
        0.001100897672586143,
        -0.1072177141904831,
        -0.034383777529001236,
        0.03858809545636177,
        -0.005330184008926153,
        -0.024978261440992355,
        -0.014945842325687408,
        0.01876153238117695,
        0.014326210133731365,
        0.1138429045677185,
        -0.0013222360284999013,
        0.018504634499549866,
        0.0031383438035845757,
        -0.0009467829368077219,
        -0.000571919372305274,
        0.010393510572612286,
        0.008993741124868393,
        -0.033631667494773865,
        0.02339128963649273,
        -0.0027686539106070995,
        0.0028063871432095766,
        0.01699041947722435,
        0.010161825455725193,
        -0.0007521050283685327,
        -0.0001250054920092225,
        -0.005935464054346085,
        -0.0037211431190371513,
        -0.003729125950485468,
        0.0028095876332372427,
        -0.0027049954514950514,
        -0.0016166948480531573,
        -0.001252711401320994,
        -0.000535143946763128,
        -0.016480334103107452,
        0.02178380638360977,
        -0.02108507975935936,
        0.0003857156552840024,
        0.015820667147636414,
        0.00946410559117794,
        -0.010874099098145962,
        -0.008774847723543644,
        -0.013645384460687637,
        -0.01595582626760006,
        -0.008076525293290615,
        0.003934105858206749,
        -0.011586399748921394,
        -0.006935683079063892,
        -0.003241920378059149,
        -0.001957491273060441,
        0.004117648117244244,
        -0.006621619686484337,
        0.016296979039907455,
        -0.015301118604838848,
        -0.004805903881788254,
        -0.0028759788256138563,
        0.004740182310342789,
        0.0012079671723768115,
        0.01584913209080696,
        0.0015897377161309123,
        0.004997837357223034,
        -0.010683134198188782,
        0.0011571540962904692,
        0.0006922144093550742,
        -0.000014130782801657915,
        -0.001856821938417852,
        0.16050156950950623,
        0.08750305324792862,
        -0.002161892596632242,
        -0.027865435928106308,
        0.06352001428604126,
        0.03799669072031975,
        -0.007938849739730358,
        -0.011276798322796822,
        0.0012399789411574602,
        -0.03046715445816517,
        -0.001471753348596394,
        0.03472531959414482,
        -0.022124456241726875,
        -0.0132337287068367,
        0.0077293612994253635,
        0.012289445847272873,
        -0.040655866265296936,
        0.0309152752161026,
        0.011138797737658024,
        -0.050854749977588654,
        0.022462232038378716,
        0.013436269015073776,
        -0.006640636827796698,
        -0.014195622876286507,
        0.012851128354668617,
        -0.017870986834168434,
        -0.013174189254641533,
        0.04420686513185501,
        -0.012987220659852028,
        -0.007764157373458147,
        0.0039555225521326065,
        0.0108650429174304,
        -0.18375766277313232,
        0.08830216526985168,
        0.43697303533554077,
        0.038288235664367676,
        -0.04327953979372978,
        -0.23096956312656403,
        0.030921708792448044,
        -0.11440155655145645,
        0.08572439849376678,
        0.051653120666742325,
        0.23952703177928925,
        -0.3646255135536194,
        0.08087977021932602,
        0.641896665096283,
        0.1509905904531479,
        0.23659731447696686,
        0.13116201758384705,
        -1.0547188520431519,
        -0.02913900464773178,
        0.01434212177991867,
        0.7312723398208618,
        0.4222929775714874,
        -0.011647039093077183,
        -0.006989994551986456,
        -0.11178417503833771,
        0.025951992720365524,
        -0.01341255009174347,
        0.001094308914616704,
        0.709882378578186,
        -0.9459378719329834,
        -0.006709022913128138,
        -0.005265426822006702,
        0.010393843054771423,
        0.008444737643003464,
        -0.37825918197631836,
        -0.5978671312332153,
        0.006129603832960129,
        0.0036661436315625906,
        0.02078852616250515,
        0.807629406452179,
        -0.020168796181678772,
        0.017441056668758392,
        0.4390139579772949,
        0.22587868571281433,
        0.012668514624238014,
        0.007575147319585085,
        -0.8691213726997375,
        0.1867271065711975,
        -0.012188009917736053,
        0.37783151865005493,
        -0.022779343649744987,
        -0.013767027296125889,
        0.2744249701499939,
        0.16417986154556274,
        -0.015211861580610275,
        -0.0147488908842206,
        0.32964450120925903,
        1.322680950164795,
        -1.1294125318527222,
        -1.0089216232299805,
        1.218550443649292,
        1.2070918083190918,
        -1.4338855743408203,
        -1.329256296157837
      ],
      "b": [
        -0.764411211013794,
        -1.0191059112548828,
        0.5299889445304871,
        0.6020522713661194,
        -0.9120946526527405,
        -0.8579113483428955,
        0.9265078902244568,
        0.8289501070976257
      ]
    },
    {
      "inDim": 8,
      "outDim": 2,
      "activation": "linear",
      "W": [
        0.0009357070084661245,
        0.001496048178523779,
        -0.33771994709968567,
        0.003793761832639575,
        -0.1775316745042801,
        0.18310731649398804,
        -0.16311679780483246,
        0.06130150333046913,
        0.324726939201355,
        0.3024274706840515,
        0.23442941904067993,
        -0.5142365097999573,
        -0.033131133764982224,
        -0.4684297740459442,
        0.46051153540611267,
        0.1431955248117447
      ],
      "b": [
        -0.27699923515319824,
        0.28833234310150146
      ]
    }
  ]
}