{
  "version": 1,
  "id": "K4_H4_relu_v6",
  "K": 4,
  "featureDim": 45,
  "inputMean": [
    -0.002359292469918728,
    0.0013248490868136287,
    -20.91522789001465,
    6.628485679626465,
    -0.05811525136232376,
    0.022677229717373848,
    232.7485809326172,
    2.5691704750061035,
    -1.285988450050354,
    5.205126762390137,
    -2.888610601425171,
    3.409198760986328,
    -2.492985963821411,
    8.32909870147705,
    -8.146833419799805,
    -0.00008845157572068274,
    -0.012278619222342968,
    0.015167209319770336,
    -0.01696762815117836,
    0.011012297123670578,
    -0.013989511877298355,
    0.028630457818508148,
    -0.031444650143384933,
    158.04168701171875,
    189.4480438232422,
    216.75074768066406,
    238.20758056640625,
    0,
    0,
    0.0005659632734023035,
    -0.0006174119771458209,
    -0.002793352585285902,
    0.0009538805461488664,
    0.2691827714443207,
    0.2693699896335602,
    0.8513574004173279,
    -0.22495481371879578,
    0.8714410066604614,
    -0.21217703819274902,
    0.9364208579063416,
    -0.17052733898162842,
    0.947677731513977,
    -0.19788359105587006,
    0.0014129808405414224,
    -0.0005207443027757108
  ],
  "inputStd": [
    1.3075897693634033,
    1.3141573667526245,
    197.81637573242188,
    193.31626892089844,
    0.712685763835907,
    0.6986969113349915,
    151.03634643554688,
    133.00686645507812,
    141.34544372558594,
    153.64804077148438,
    160.9116973876953,
    172.5692596435547,
    178.16477966308594,
    187.8599395751953,
    191.46783447265625,
    0.700803279876709,
    0.7132489085197449,
    0.7026785016059875,
    0.711143434047699,
    0.7042946815490723,
    0.709684431552887,
    0.7055560946464539,
    0.7073769569396973,
    112.69623565673828,
    116.81254577636719,
    120.66394805908203,
    123.87163543701172,
    0.0010000000474974513,
    0.0010000000474974513,
    0.03476150333881378,
    0.034940846264362335,
    0.03370694816112518,
    0.03249294310808182,
    0.43555113673210144,
    0.4436325132846832,
    3.3730363845825195,
    3.3752024173736572,
    3.5373470783233643,
    3.4972968101501465,
    3.468217372894287,
    3.4931559562683105,
    3.510148286819458,
    3.478471040725708,
    0.017801016569137573,
    0.018289892002940178
  ],
  "outputScale": 0.05,
  "clipMagnitude": 0.05,
  "layers": [
    {
      "inDim": 45,
      "outDim": 4,
      "activation": "relu",
      "W": [
        0.000005007969321013661,
        -0.000004391875336295925,
        6.188361680870003e-7,
        0.000003421458586672088,
        0.00000268264352598635,
        -0.0000026011471163656097,
        -0.0000022137917312647915,
        -0.000006429965196730336,
        -8.136947116099691e-8,
        1.7256124351661128e-7,
        0.0000048019619498518296,
        0.000003227064553357195,
        0.0000060164388742123265,
        -0.000004414905561134219,
        -0.000015008457012299914,
        -0.0000033204175906575983,
        0.000002716560857152217,
        -0.000002413211177554331,
        -3.6343811871120124e-7,
        0.0000030332980713865254,
        0.0000056089374993462116,
        -0.000004924094355374109,
        -1.212807543282679e-8,
        -0.000003714254262376926,
        8.772635737841483e-7,
        0.000003558829121175222,
        -6.053190872989944e-7,
        0.000009093662811210379,
        0.000002527854348954861,
        4.0767929476714926e-7,
        0.000002281487695654505,
        0.000006815390861447668,
        -0.0000016747792415117146,
        0.0000019437563878454966,
        0.000004148568677919684,
        -8.810112035462225e-7,
        0.0000023889906515250914,
        -7.355844786616217e-7,
        -0.000006087743713578675,
        -0.000002460206815158017,
        0.000004286787316232221,
        -0.0000023888167106633773,
        -0.000014220745470083784,
        0.000005330713520379504,
        -0.000001516764882580901,
        0.000001074106421583565,
        0.000004008975338365417,
        0.000004048525170219364,
        -0.0000010748980230346206,
        -1.0977485231933315e-7,
        0.000004691591129812878,
        0.0000017001196965793497,
        -0.000002589480800452293,
        3.3940449384317617e-7,
        -0.0000037733782392024295,
        -1.4604407461149549e-8,
        0.000003193893007846782,
        8.283481065518572e-7,
        6.410425612557447e-7,
        0.000009360396688862238,
        0.0000017492654933448648,
        1.043622575025438e-7,
        -0.0000017312470390606904,
        0.000004899460236629238,
        2.3840691198984132e-7,
        -3.063729252517078e-7,
        0.000013286078683449887,
        0.000001380289972985338,
        0.000004034860012325225,
        -0.000002067078867185046,
        0.0000028078070499759633,
        -0.00000530035777046578,
        -0.0000034763077110255836,
        0.000002054318201771821,
        0.0000013526640714189853,
        0.0000024046921680564992,
        6.824293450335972e-7,
        -5.158099156687967e-7,
        0.000005970063284621574,
        -0.000002453627303111716,
        0.0000039197384467115626,
        -0.000002555712171670166,
        2.0516485221833136e-7,
        0.000004044101842737291,
        7.813401907696971e-7,
        7.778634767419135e-7,
        -0.000004056000307173235,
        -3.987250636328099e-7,
        0.000001718344037726638,
        -0.0000010288695193594322,
        0.000005290377430355875,
        -0.000004607340088114142,
        -3.4807268889380794e-7,
        -7.967532269503863e-7,
        -0.000010435951480758376,
        -0.000002815829020619276,
        1.6634307087315392e-7,
        8.676466336510202e-7,
        -1.0468218647474714e-7,
        0.000002900725348808919,
        -6.048524028301472e-7,
        0.0000037091558624524623,
        0.0000037374659314082237,
        0.0000013163290759621304,
        -0.000001797737013475853,
        0.000001897377615023288,
        -5.593196874542627e-7,
        0.0000015924377976261894,
        -0.22806312143802643,
        -0.14338122308254242,
        0.1830517053604126,
        -0.049334388226270676,
        -0.03581392765045166,
        0.10498112440109253,
        0.0265826303511858,
        0.29593050479888916,
        -5.405185277140845e-8,
        9.43454153912171e-7,
        3.9046511801643646e-7,
        0.000004404396349855233,
        -0.0000022600054307986284,
        0.0000013549934010370634,
        0.000002014833398789051,
        -3.0772068271289754e-7,
        -0.9066538214683533,
        -0.533143162727356,
        -2.828214462624601e-7,
        -0.0000066045799940184224,
        0.3668978214263916,
        -0.8155478835105896,
        -8.058205480665492e-7,
        -2.805963390528632e-7,
        -0.000003967760221712524,
        -0.0000018955731775349705,
        0.000007116992492228746,
        0.000006148872671474237,
        -1.2620220184326172,
        -1.3412245512008667,
        0.861866295337677,
        1.1845604181289673,
        0.0000031453746487386525,
        -0.000004343782620708225,
        -5.530265667630374e-8,
        0.000004735775746667059,
        -4.5581998620036757e-7,
        0.000002237086391687626,
        0.000004041030933876755,
        -0.0000012057649882990518,
        0.000006343231689243112,
        -0.000004959991201758385,
        0.000005375604814616963,
        0.0000018687778720050119,
        -0.000004804435775440652,
        0.000005649772447213763,
        -0.00000330649845636799,
        4.038980705445283e-7,
        0.0000018166567770094844,
        -0.0000031201457204588223,
        0.0000030046819574636174,
        0.0000018079562096318114,
        -0.0000032090347303892486,
        0.0000052662107918877155,
        0.0000014659285625384655,
        6.967716217332054e-7,
        0.0000030914441140339477,
        -0.0000023315651560551487,
        -0.000002271868197567528,
        -6.696759555779863e-7,
        -0.000002523512875995948,
        0.0000015325271078836522,
        -0.0000033446819998061983,
        -0.000003833673872577492,
        -0.009687214158475399,
        -0.0043991561979055405,
        -0.35204699635505676,
        -0.8766627907752991,
        0.0019645874854177237,
        0.0027622790075838566,
        -0.5736568570137024,
        0.3782068192958832
      ],
      "b": [
        0.7249916195869446,
        0.7102155089378357,
        0.45006829500198364,
        0.5432474613189697
      ]
    },
    {
      "inDim": 4,
      "outDim": 2,
      "activation": "linear",
      "W": [
        -0.5879948735237122,
        0.37053754925727844,
        -0.26452383399009705,
        -0.6301458477973938,
        -0.21169009804725647,
        -0.5041736364364624,
        -0.3210999071598053,
        0.20246198773384094
      ],
      "b": [
        1.2248915433883667,
        0.42717963457107544
      ]
    }
  ]
}