{
  "version": 1,
  "id": "K4_H4_relu_v4",
  "K": 4,
  "featureDim": 43,
  "inputMean": [
    -0.002359292469918728,
    0.0013248490868136287,
    -20.91522789001465,
    6.628485679626465,
    -0.05811525136232376,
    0.022677229717373848,
    232.7485809326172,
    2.5691704750061035,
    -1.285988450050354,
    5.205126762390137,
    -2.888610601425171,
    3.409198760986328,
    -2.492985963821411,
    8.32909870147705,
    -8.146833419799805,
    -0.00008845157572068274,
    -0.012278619222342968,
    0.015167209319770336,
    -0.01696762815117836,
    0.011012297123670578,
    -0.013989511877298355,
    0.028630457818508148,
    -0.031444650143384933,
    158.04168701171875,
    189.4480438232422,
    216.75074768066406,
    238.20758056640625,
    0,
    0,
    0.0005659632734023035,
    -0.0006174119771458209,
    -0.002793352585285902,
    0.0009538805461488664,
    0.2691827714443207,
    0.2693699896335602,
    0.8513574004173279,
    -0.22495481371879578,
    0.8714410066604614,
    -0.21217703819274902,
    0.9364208579063416,
    -0.17052733898162842,
    0.947677731513977,
    -0.19788359105587006
  ],
  "inputStd": [
    1.3075897693634033,
    1.3141573667526245,
    197.81637573242188,
    193.31626892089844,
    0.712685763835907,
    0.6986969113349915,
    151.03634643554688,
    133.00686645507812,
    141.34544372558594,
    153.64804077148438,
    160.9116973876953,
    172.5692596435547,
    178.16477966308594,
    187.8599395751953,
    191.46783447265625,
    0.700803279876709,
    0.7132489085197449,
    0.7026785016059875,
    0.711143434047699,
    0.7042946815490723,
    0.709684431552887,
    0.7055560946464539,
    0.7073769569396973,
    112.69623565673828,
    116.81254577636719,
    120.66394805908203,
    123.87163543701172,
    0.0010000000474974513,
    0.0010000000474974513,
    0.03476150333881378,
    0.034940846264362335,
    0.03370694816112518,
    0.03249294310808182,
    0.43555113673210144,
    0.4436325132846832,
    3.3730363845825195,
    3.3752024173736572,
    3.5373470783233643,
    3.4972968101501465,
    3.468217372894287,
    3.4931559562683105,
    3.510148286819458,
    3.478471040725708
  ],
  "outputScale": 0.05,
  "clipMagnitude": 0.05,
  "layers": [
    {
      "inDim": 43,
      "outDim": 4,
      "activation": "relu",
      "W": [
        -0.4073721766471863,
        -0.29431217908859253,
        -0.029097210615873337,
        -0.04234607517719269,
        -0.038354985415935516,
        -0.0333259217441082,
        0.31019705533981323,
        -0.0007373904227279127,
        -0.011835237964987755,
        -0.008806717582046986,
        -0.01988939382135868,
        -0.005879524629563093,
        -0.00939481146633625,
        -0.006906290538609028,
        0.03174925222992897,
        0.0028122435323894024,
        0.06560561805963516,
        0.05084064230322838,
        0.0012293163454160094,
        0.00158114789519459,
        0.017191778868436813,
        0.013003063388168812,
        -0.017679203301668167,
        -0.0019309503259137273,
        0.012950331903994083,
        0.012138167396187782,
        -0.016173338517546654,
        0.001684721210040152,
        1.1021826267242432,
        0.7904648184776306,
        0.12556694447994232,
        0.0966918021440506,
        0.0918077751994133,
        0.062164053320884705,
        -0.9208678007125854,
        0.015874091535806656,
        -0.014819041825830936,
        -0.011887938715517521,
        -0.023786114528775215,
        -0.007664648815989494,
        -0.02307485230267048,
        -0.015949202701449394,
        0.00707106152549386,
        0.004575727041810751,
        0.014382686465978622,
        0.010392598807811737,
        0.0029563577845692635,
        0.0020185387693345547,
        -0.015143834985792637,
        -0.013098545372486115,
        -0.00911831296980381,
        0.003937934059649706,
        -0.004315253812819719,
        -0.00046276277862489223,
        -0.013072658330202103,
        -0.0020402108784765005,
        -0.046319711953401566,
        -0.034695688635110855,
        0.002210869686678052,
        -0.00012294016778469086,
        0.08017344772815704,
        0.05615903437137604,
        0.002296804916113615,
        0.01117789838463068,
        -0.013025949709117413,
        -0.007875829935073853,
        -0.05272745341062546,
        -0.007003397680819035,
        -0.006092446390539408,
        -0.007058823015540838,
        0.001063087023794651,
        -0.002099609235301614,
        0.0020807806868106127,
        0.0001470663701184094,
        0.021596303209662437,
        -0.0014422397362068295,
        -0.012511118315160275,
        -0.0060617378912866116,
        0.0088865477591753,
        -0.0013435425935313106,
        0.02968173660337925,
        0.025468721985816956,
        0.008972764946520329,
        -0.002992759458720684,
        0.0001926404656842351,
        0.0017308499664068222,
        0.009438353590667248,
        0.0010284369345754385,
        0.01703561283648014,
        0.00987666193395853,
        -0.01150029618293047,
        -0.005940551403909922,
        -0.14650002121925354,
        -0.1050911396741867,
        -0.26738107204437256,
        -0.01284191757440567,
        -0.00649685924872756,
        -0.0015393957728520036,
        0.007080004550516605,
        0.004149287007749081,
        0.03202487528324127,
        0.02209225669503212,
        0.006853441707789898,
        0.0073404088616371155,
        -0.04030044004321098,
        -0.030400091782212257,
        0.014208298176527023,
        0.004746581893414259,
        -0.2333066314458847,
        -0.14667777717113495,
        0.18726034462451935,
        -0.05046865716576576,
        -0.03663734346628189,
        0.10739479959011078,
        0.02719380520284176,
        0.3027344048023224,
        0.02669573947787285,
        0.01982882432639599,
        -0.019653279334306717,
        0.0007616551592946053,
        -0.012096093036234379,
        -0.00828159786760807,
        -0.09345047175884247,
        -0.0016907007666304708,
        -0.5911223292350769,
        -0.05309327691793442,
        0.0012764056446030736,
        0.019058775156736374,
        -0.10468021035194397,
        -0.005624997895210981,
        0.010340595617890358,
        -1.4054442644119263,
        -0.01385070662945509,
        -0.0011337052565068007,
        -0.025353368371725082,
        -0.007657674141228199,
        -2.721754789352417,
        -1.4821830987930298,
        1.7320199012756348,
        -2.0477287769317627,
        0.2850789427757263,
        0.20426025986671448,
        0.012936828657984734,
        0.026803523302078247,
        -0.0008994181989692152,
        0.0029821619391441345,
        -0.2593243718147278,
        0.0006331577897071838,
        0.017299341037869453,
        0.010691013187170029,
        -0.01766793616116047,
        0.002292386721819639,
        0.006515781860798597,
        0.005865325685590506,
        -0.011824470944702625,
        0.001688041491433978,
        0.019125519320368767,
        0.016716115176677704,
        0.010527664795517921,
        -0.0006537089357152581,
        0.00245898705907166,
        0.004005492199212313,
        -0.029565393924713135,
        0.0014936976367607713,
        0.009758706204593182,
        0.005425938405096531,
        0.008185114711523056,
        -0.0012904221657663584,
        0.00169155013281852,
        -0.001744357869029045,
        -0.02041507512331009,
        -0.00022898441238794476
      ],
      "b": [
        3.1293187141418457,
        2.8772833347320557,
        -2.378434896469116,
        0.9705437421798706
      ]
    },
    {
      "inDim": 4,
      "outDim": 2,
      "activation": "linear",
      "W": [
        -1.3069218397140503,
        -0.022873740643262863,
        1.8094056844711304,
        0.09046370536088943,
        0.054497748613357544,
        -1.2933316230773926,
        0.09582248330116272,
        -0.46188774704933167
      ],
      "b": [
        -0.8571892380714417,
        0.8095380663871765
      ]
    }
  ]
}