{
  "version": 1,
  "id": "K4_H4_relu_v5",
  "K": 4,
  "featureDim": 45,
  "inputMean": [
    -0.0027255795430392027,
    -0.0025756193790584803,
    -2.827216148376465,
    -5.797417163848877,
    0.0074152289889752865,
    -0.0086271483451128,
    259.138427734375,
    0.21753433346748352,
    -0.5441497564315796,
    1.0687687397003174,
    -2.758476495742798,
    3.9594452381134033,
    -2.7929863929748535,
    3.1469974517822266,
    -4.897075653076172,
    -0.004817278124392033,
    0.00800301507115364,
    0.0032848964910954237,
    -0.000693446141667664,
    0.01691838540136814,
    -0.0019347612978890538,
    0.00960931833833456,
    -0.00880790688097477,
    170.86753845214844,
    204.95269775390625,
    235.32664489746094,
    256.688720703125,
    0,
    0,
    0.00002519763438613154,
    0.00012962220353074372,
    0.0006533306441269815,
    -0.000024009515982470475,
    0.2392755150794983,
    0.23904000222682953,
    0.7824954390525818,
    -0.2591901421546936,
    0.8124540448188782,
    -0.2853129208087921,
    0.868057131767273,
    -0.3179197907447815,
    0.9294260144233704,
    -0.33452337980270386
  ],
  "inputStd": [
    1.3504277467727661,
    1.393426775932312,
    201.10763549804688,
    222.55502319335938,
    0.6795039176940918,
    0.7335768342018127,
    151.2081298828125,
    143.37266540527344,
    149.91458129882812,
    166.50306701660156,
    170.89541625976562,
    186.06057739257812,
    192.37548828125,
    199.1768035888672,
    208.00840759277344,
    0.7053343653678894,
    0.7088131904602051,
    0.7058466076850891,
    0.7083567380905151,
    0.7047713994979858,
    0.7092300653457642,
    0.70076984167099,
    0.7132683396339417,
    117.62114715576172,
    122.19515228271484,
    127.56063842773438,
    130.70455932617188,
    0.0010000000474974513,
    0.0010000000474974513,
    0.03464910387992859,
    0.035008493810892105,
    0.03185113146901131,
    0.033690180629491806,
    0.4193812310695648,
    0.426497220993042,
    3.208369255065918,
    3.57193660736084,
    3.353386163711548,
    3.714157819747925,
    3.2875328063964844,
    3.6897096633911133,
    3.27011775970459,
    3.721644878387451
  ],
  "outputScale": 0.05,
  "clipMagnitude": 0.05,
  "layers": [
    {
      "inDim": 43,
      "outDim": 4,
      "activation": "relu",
      "W": [
        -0.00001661378155404236,
        -0.00002865980422939174,
        -0.0000036335857203084743,
        0.000008447119398624636,
        -0.000008406109373026993,
        -0.000005981790764053585,
        -0.000010019576620834414,
        -0.0000013160909020371037,
        -0.00002385830885032192,
        -0.00003721847679116763,
        -0.000025138073397101834,
        0.000008767403414822184,
        0.000008662408617965411,
        -0.000007049874056974659,
        0.0000068996873778814916,
        -0.000004203526714263717,
        0.0000047340081437141635,
        -0.00002982730438816361,
        0.0000024359842427656986,
        -0.0000034824931844923412,
        0.000005520550530491164,
        -0.000027124571715830825,
        -0.000005651207629853161,
        -0.000007642386663064826,
        0.00003378699329914525,
        0.00002316566497029271,
        -0.000006084655524318805,
        -0.000002171644837289932,
        0.0004743114404845983,
        0.0006093952688388526,
        0.0002241433976450935,
        -0.000009657717782829423,
        -0.0005919690593145788,
        -0.0007749643991701305,
        -0.0003205449029337615,
        0.0000014602758255932713,
        -0.000017634734831517562,
        -0.00002050677539955359,
        -0.000021173815184738487,
        -0.0000073914698077715,
        -0.000016889596736291423,
        -0.00003936299617635086,
        0.0000036247658954380313,
        -0.000011670303138089366,
        -0.000005699464509234531,
        -0.000007333557277888758,
        0.000001911022081912961,
        -0.0000015487997870877734,
        -0.000008611210432718508,
        0.0000038215603126445785,
        -0.000017245285562239587,
        0.000009377972673974,
        -0.000025777058908715844,
        -0.000015319878002628684,
        -0.00001123265792557504,
        0.0000026322181838622782,
        0.0000019885696929122787,
        -0.000017660346202319488,
        0.00002708640749915503,
        -0.000005389808393374551,
        -0.00010555405606282875,
        -0.00015414926747325808,
        -0.00005534220690606162,
        -0.00000842528879729798,
        0.00015150305989664048,
        0.00019727915059775114,
        0.00007532061863457784,
        0.000002010377102124039,
        -0.00002542596666899044,
        -0.000029062684916425496,
        -0.00001173769669549074,
        -0.000009917675015458371,
        3.83706804996109e-7,
        -0.0000018275209185958374,
        -0.0000033528735912113916,
        -0.000005333862645784393,
        0.00000910704693524167,
        0.000005404144758358598,
        -0.000001692459136393154,
        -0.000012181668353150599,
        -0.000004138493750360794,
        8.272682521237584e-7,
        -0.000005951405455562053,
        0.000002887868276957306,
        -0.000003496897761579021,
        0.000016757270714151673,
        -0.0000052301188588899095,
        0.000014779664525121916,
        -0.00000819295019027777,
        -0.00001027443795464933,
        -0.000011844160326290876,
        0.0000039589244806848,
        -0.00004403896309668198,
        -0.00006704388943035156,
        -0.000054696571169188246,
        -0.000006775384918000782,
        -0.00001056347718986217,
        6.920082995520715e-8,
        -0.000008574478670198005,
        0.000008641443855594844,
        -0.000004878522304352373,
        -0.000007880216799094342,
        -0.00002221388422185555,
        -0.000004500426257436629,
        -0.000008816420631774236,
        -0.000013408189261099324,
        0.000009094568667933345,
        -0.000008468140549666714,
        -0.22378169000148773,
        -0.000275082333246246,
        0.0692388191819191,
        -0.22021938860416412,
        -0.007407445926219225,
        -0.0023585979361087084,
        0.09312697499990463,
        0.032533176243305206,
        -0.48776084184646606,
        -0.6501476168632507,
        -0.5339969992637634,
        0.003638317110016942,
        0.2133737951517105,
        0.28440093994140625,
        -0.5565407872200012,
        -0.0015974268317222595,
        0.19799047708511353,
        0.0000010883959475904703,
        -0.000029693181204493158,
        -0.47340312600135803,
        -0.4785310626029968,
        0.000009016267540573608,
        -0.0000024327266601176234,
        -0.5113036632537842,
        -0.00008721291669644415,
        -0.00007486538379453123,
        -0.000003753916189452866,
        -0.00004944380998495035,
        -1.274612545967102,
        -0.5091599822044373,
        0.9878551363945007,
        -0.9462519884109497,
        -0.000008888139745977242,
        0.000004533084847935243,
        0.000011331574569339864,
        -0.000018944554540212266,
        4.987063562111871e-7,
        0.000023557293388876133,
        0.000008327695468324237,
        -0.000003845349510811502,
        -0.000024313689209520817,
        -0.000026044526748592034,
        0.00000652494236419443,
        0.0000014835263755230699,
        -0.000002474027269272483,
        0.000007601101970067248,
        0.00001430441716365749,
        0.0000012894342944491655,
        -0.0000034886302273662295,
        -0.000011328675100230612,
        0.000008864730261848308,
        -0.000016621370377833955,
        -0.000008265255019068718,
        -0.000015550180251011625,
        -9.269671608080898e-8,
        -0.000007777375685691368,
        0.000011686862308124546,
        9.023038956001983e-7,
        -0.0000010155250720345066,
        -0.000016288327969959937,
        -0.000014352142898133025,
        0.0000013102608136250637,
        -0.000011583575542317703,
        -0.000008144561434164643
      ],
      "b": [
        0.7793291807174683,
        1.8986382484436035,
        -0.6021263599395752,
        0.5671005249023438
      ]
    },
    {
      "inDim": 4,
      "outDim": 2,
      "activation": "linear",
      "W": [
        0.9937154650688171,
        -0.9731543064117432,
        -0.7507319450378418,
        0.7278535962104797,
        -0.3836776912212372,
        -0.886141300201416,
        -0.9300426244735718,
        -0.40700584650039673
      ],
      "b": [
        1.1890333890914917,
        0.3102385699748993
      ]
    }
  ]
}