{
  "version": 1,
  "id": "c3v3_H4",
  "K": 4,
  "featureDim": 35,
  "inputMean": [
    0.005562088452279568,
    0.010740191675722599,
    -12.107275009155273,
    31.060359954833984,
    -0.007391314022243023,
    -0.0014237378491088748,
    532.5204467773438,
    -2.6612308025360107,
    0.464982271194458,
    -0.7509861588478088,
    -0.10860028117895126,
    -1.9606475830078125,
    0.18706649541854858,
    -1.641610860824585,
    -1.6478159427642822,
    -0.00996802281588316,
    0.008924822323024273,
    -0.004896283615380526,
    0.00541970320045948,
    -0.008952147327363491,
    0.0056013003922998905,
    -0.006117881741374731,
    -0.0008334347512573004,
    173.2367401123047,
    208.20065307617188,
    239.71226501464844,
    263.1102294921875,
    0,
    0,
    -0.000368642300600186,
    -0.00003369644400663674,
    -0.0004370726237539202,
    -0.00048641112516634166,
    0.23144398629665375,
    0.23143750429153442
  ],
  "inputStd": [
    1.4483128786087036,
    1.4255748987197876,
    463.25140380859375,
    464.70733642578125,
    0.7176584601402283,
    0.6962109208106995,
    384.8221130371094,
    144.51588439941406,
    153.10362243652344,
    168.19386291503906,
    175.0343475341797,
    189.44021606445312,
    196.030029296875,
    204.62815856933594,
    212.96701049804688,
    0.7010394334793091,
    0.7129970192909241,
    0.7035136818885803,
    0.7106441855430603,
    0.7021756768226624,
    0.7119254469871521,
    0.6989261507987976,
    0.715167224407196,
    119.6740951538086,
    124.8169174194336,
    129.8355712890625,
    134.1865997314453,
    0.0010000000474974513,
    0.0010000000474974513,
    0.034632958471775055,
    0.03506102412939072,
    0.026795368641614914,
    0.026404710486531258,
    0.41482579708099365,
    0.42175132036209106
  ],
  "outputScale": 0.05,
  "clipMagnitude": 0.05,
  "layers": [
    {
      "inDim": 35,
      "outDim": 4,
      "activation": "relu",
      "W": [
        -0.03298220340378445,
        0.022223495405506697,
        0.09334283118984428,
        0.03105427407173447,
        0.0471770875617296,
        -0.02313898434206373,
        -0.005175840373312763,
        -0.07032837570521998,
        0.04961357858525058,
        0.010003282061415283,
        0.05846029085689547,
        0.0016265342116108792,
        0.01573528729873814,
        -0.0435261194879811,
        0.024280990631623235,
        0.03347135304452672,
        -0.025314012929125065,
        0.04318665237546011,
        -0.057518233187845005,
        -0.08890080456581653,
        0.01998409879458536,
        0.0356823266443028,
        -0.035042347854502436,
        0.03170143164159195,
        0.020590137696163954,
        -0.055880902756927954,
        -0.010528900429705314,
        -0.014237067591369439,
        0.03615124657605868,
        0.04024456115467338,
        -0.03317330956705653,
        0.08768397925080136,
        -0.02090339477614811,
        0.06153529209483101,
        0.02325771645371183,
        0.011502967283933671,
        0.04906452740804176,
        -0.022041590646100388,
        -0.06581544176421075,
        -0.02704992284653549,
        -0.032499224997293755,
        -0.002161241530077951,
        -0.0005691694405208698,
        -0.005856801637534557,
        0.04580940290258783,
        -0.04755221147380134,
        0.006477647612397772,
        0.061934291157011545,
        0.06321906693549546,
        0.03667952787315901,
        0.024043687357046456,
        0.12268754605663677,
        -0.04430842104051265,
        0.017762528799625015,
        0.0007761098765914869,
        0.06915315407419563,
        0.02253842677015604,
        0.0037807772341639186,
        0.06006624419337121,
        0.065575788447536,
        -0.04421816680342383,
        -0.049082809379134965,
        0.03734822064259871,
        -0.021209190143441015,
        -0.04809186016604769,
        -0.00578458845647512,
        -0.07173888389147003,
        -0.008561780960691158,
        0.045749839490314324,
        0.0096027591666452,
        -0.028854346161355706,
        0.005091828838702569,
        -0.004063629239831428,
        -0.043847719659988627,
        -0.03720619276324665,
        -0.040212701266205575,
        0.01365546140223197,
        -0.024832809507806683,
        0.0013098660644617003,
        0.05530811421326688,
        0.0025837714112347376,
        0.08558223870272319,
        0.04067070621274022,
        0.08815818971390611,
        -0.04251829585474597,
        -0.03550317075540559,
        0.0015342447167896952,
        -0.03625618969803992,
        0.03322391183960311,
        0.021694462692922658,
        -0.019561705884049794,
        0.008420478085614863,
        0.059196336877323744,
        -0.017203614323297273,
        0.06600894632922129,
        -0.11319336799955688,
        0.003521278319330771,
        -0.043576205599912265,
        -0.07361272620264107,
        -0.05068662906245627,
        0.040232790119467975,
        -0.011694535285888395,
        -0.09994513634572214,
        -0.13803209233394126,
        0.027066905755076583,
        -0.07085465354113939,
        0.0702269033066733,
        0.015763563427056298,
        0.06747124436418786,
        -0.06247060595271184,
        0.3112538410547226,
        -0.3175517977904851,
        -0.2863033460296676,
        -0.1273912818889688,
        -0.15346810966715055,
        0.30785131880253297,
        -0.033005131096136835,
        0.4174976449547599,
        1.2003577535965235,
        0.007780361977288252,
        0.014985108704748,
        1.0609016329473655,
        -0.49031394127026556,
        -0.040054358495915945,
        0.30106720664200676,
        0.00574179774750937,
        0.020325988061619133,
        0.8850949494669068,
        0.7790454340377309,
        -0.010581870926533376,
        0.0051265775464626575,
        -0.4093553158819947,
        0.024113166667488858,
        0.043760669992638536,
        -0.001209409909183133,
        -0.014911783107563963,
        -1.3009806481917081,
        1.261285361546385,
        1.3069268961578793,
        -1.3384134807651045
      ],
      "b": [
        0.7276943896624691,
        -0.8784552604220214,
        -0.8855087080838359,
        0.8959632884032454
      ]
    },
    {
      "inDim": 4,
      "outDim": 2,
      "activation": "linear",
      "W": [
        0.23973568416657126,
        0.6030431178580152,
        0.25703195646161403,
        0.5325103163627259,
        0.5596185651923754,
        -0.26938639832974953,
        0.5454610026820874,
        -0.19185322885572692
      ],
      "b": [
        -1.3029722011858151,
        -0.6140941409173917
      ]
    }
  ]
}