{
  "version": 1,
  "id": "u27_H8",
  "K": 4,
  "featureDim": 29,
  "inputMean": [
    0.005562088452279568,
    0.010740191675722599,
    -12.107275009155273,
    31.060359954833984,
    -0.007391314022243023,
    -0.0014237378491088748,
    532.5204467773438,
    -2.6612308025360107,
    0.464982271194458,
    -0.7509861588478088,
    -0.10860028117895126,
    -1.9606475830078125,
    0.18706649541854858,
    -1.641610860824585,
    -1.6478159427642822,
    -0.00996802281588316,
    0.008924822323024273,
    -0.004896283615380526,
    0.00541970320045948,
    -0.008952147327363491,
    0.0056013003922998905,
    -0.006117881741374731,
    -0.0008334347512573004,
    173.2367401123047,
    208.20065307617188,
    239.71226501464844,
    263.1102294921875,
    0,
    0
  ],
  "inputStd": [
    1.4483128786087036,
    1.4255748987197876,
    463.25140380859375,
    464.70733642578125,
    0.7176584601402283,
    0.6962109208106995,
    384.8221130371094,
    144.51588439941406,
    153.10362243652344,
    168.19386291503906,
    175.0343475341797,
    189.44021606445312,
    196.030029296875,
    204.62815856933594,
    212.96701049804688,
    0.7010394334793091,
    0.7129970192909241,
    0.7035136818885803,
    0.7106441855430603,
    0.7021756768226624,
    0.7119254469871521,
    0.6989261507987976,
    0.715167224407196,
    119.6740951538086,
    124.8169174194336,
    129.8355712890625,
    134.1865997314453,
    0.0010000000474974513,
    0.0010000000474974513
  ],
  "outputScale": 0.05,
  "clipMagnitude": 0.05,
  "layers": [
    {
      "inDim": 29,
      "outDim": 8,
      "activation": "relu",
      "W": [
        -0.021349413320422173,
        0.20655077695846558,
        0.8782029747962952,
        0.044569481164216995,
        -0.25582313537597656,
        0.0709390938282013,
        -1.0312938690185547,
        -0.07022131234407425,
        0.037737783044576645,
        -0.14146196842193604,
        1.8018568754196167,
        -0.035651594400405884,
        0.12826712429523468,
        -0.036821361631155014,
        -1.9602890014648438,
        0.014025537297129631,
        0.004512362647801638,
        -0.012356646358966827,
        -0.008522404357790947,
        0.01063498854637146,
        -0.00542342197149992,
        -0.007606130558997393,
        0.006667489651590586,
        0.004270927980542183,
        0.0048703658394515514,
        -0.009874875657260418,
        -0.035258699208498,
        0.012170291505753994,
        -0.014657886698842049,
        0.010257379151880741,
        0.11550595611333847,
        0.0058748917654156685,
        -0.07504071295261383,
        -0.2963176965713501,
        -1.2874780893325806,
        0.03933074697852135,
        0.366680771112442,
        -0.03418704494833946,
        1.293405294418335,
        0.038288190960884094,
        -0.11769242584705353,
        0.21463704109191895,
        -2.4286341667175293,
        0.08014753460884094,
        -0.16565780341625214,
        -0.09153231233358383,
        2.3785011768341064,
        0.06947997212409973,
        -0.005277333315461874,
        0.0050092232413589954,
        -0.07964717596769333,
        -0.00907477829605341,
        0.00047527061542496085,
        -0.008990888483822346,
        -0.07935119420289993,
        0.0014960807748138905,
        0.09734898060560226,
        -0.08156794309616089,
        -0.07589059323072433,
        0.20215071737766266,
        -0.07272069901227951,
        -0.16009338200092316,
        0.025884076952934265,
        -0.1935316026210785,
        -0.03872270509600639,
        -0.09650696069002151,
        -0.05720307305455208,
        0.01863202080130577,
        -0.10770056396722794,
        -0.17856140434741974,
        0.045717526227235794,
        -0.13884000480175018,
        0.025090496987104416,
        0.057019997388124466,
        -0.016563760116696358,
        0.008073228411376476,
        0.051725272089242935,
        -0.017646774649620056,
        0.002088829642161727,
        -0.02183484472334385,
        0.022801166400313377,
        -0.015057992190122604,
        -0.005216872785240412,
        0.022794557735323906,
        -0.01728566363453865,
        0.0462576188147068,
        -0.03654361143708229,
        0.045741572976112366,
        -0.002947357716038823,
        -0.0034464423079043627,
        0.011722045950591564,
        -0.03197336196899414,
        -0.013788782060146332,
        -0.030936410650610924,
        0.02590775489807129,
        -0.025869864970445633,
        -0.000875731639098376,
        0.010850743390619755,
        0.03312075883150101,
        0.006743949837982655,
        0.012539382092654705,
        0.031050443649291992,
        0.016251659020781517,
        0.015093762427568436,
        -0.008705154992640018,
        -0.011780790984630585,
        0.03062678687274456,
        -0.003451338969171047,
        0.005407839082181454,
        -0.003056082408875227,
        -0.014589905738830566,
        0.001015787711367011,
        -0.01677326299250126,
        0.0035393049474805593,
        -0.01732529141008854,
        -0.019116174429655075,
        -0.014644138514995575,
        -0.02972939796745777,
        -0.018164929002523422,
        -0.013960196636617184,
        0.08053608238697052,
        0.0429832749068737,
        0.09282785654067993,
        -0.19260966777801514,
        0.020714564248919487,
        -0.016741566359996796,
        -0.033749088644981384,
        0.12276919186115265,
        0.06179569661617279,
        0.03583093360066414,
        0.075849249958992,
        -0.05647110566496849,
        0.04383448138833046,
        0.20505167543888092,
        -0.11136718094348907,
        -0.0751262903213501,
        -0.009160700254142284,
        -0.02085963264107704,
        0.006119173020124435,
        0.0013458030298352242,
        -0.021345417946577072,
        0.008256214670836926,
        -0.019181830808520317,
        0.004640002269297838,
        -0.004895014688372612,
        0.015072472393512726,
        -0.022546112537384033,
        0.003308776533231139,
        0.0070122708566486835,
        -0.027830500155687332,
        0.060289546847343445,
        -0.016599580645561218,
        -0.004964256193488836,
        -0.004054380115121603,
        -0.017607467249035835,
        -0.0028263903222978115,
        0.0026141153648495674,
        0.022121012210845947,
        -0.0011808276176452637,
        0.010077334009110928,
        -0.010654343292117119,
        -0.007612144574522972,
        -0.02416364476084709,
        -0.00505616283044219,
        -0.0000583510372962337,
        -0.03181083872914314,
        -0.0090707428753376,
        -0.019663048908114433,
        0.00539015606045723,
        0.004992007277905941,
        -0.003724965499714017,
        0.007411624304950237,
        -0.00491418968886137,
        -0.010601088404655457,
        0.02622353471815586,
        -0.001959624933078885,
        0.007675109431147575,
        -0.011288910172879696,
        0.002425371203571558,
        0.0051003554835915565,
        0.0030879522673785686,
        0.014520460739731789,
        0.001816937467083335,
        0.002861857647076249,
        -4.528099060058594,
        3.8933310508728027,
        -0.08775094896554947,
        -4.385745525360107,
        3.981908082962036,
        -4.1429338455200195,
        -0.0720045268535614,
        -4.008615970611572,
        0.00047661460121162236,
        0.019828109070658684,
        0.11882425099611282,
        -0.013994554989039898,
        0.004701122175902128,
        -0.009702661074697971,
        0.10819463431835175,
        -0.013300525024533272,
        -0.003049226710572839,
        -0.03417734429240227,
        -0.003144867019727826,
        0.012348501943051815,
        0.027204269543290138,
        0.011788902804255486,
        -0.0872671827673912,
        4.905173796032614e-7,
        -0.009090077131986618,
        0.02566974051296711,
        -0.13555419445037842,
        -0.01059043314307928,
        -0.007628182414919138,
        -0.014558034017682076,
        -0.06356099247932434,
        -0.002594964113086462,
        0.09156574308872223,
        0.2436073273420334,
        0.0022371166851371527,
        -0.059549637138843536,
        -0.5403178930282593,
        0.3649335205554962,
        -0.3007639944553375,
        -0.22077077627182007,
        -0.02149317041039467,
        -0.1449698656797409,
        -0.19163089990615845,
        -0.051481205970048904,
        0.5127163529396057,
        -0.26658084988594055,
        0.5678704977035522,
        0.2150665670633316
      ],
      "b": [
        -3.5409607887268066,
        3.045919895172119,
        1.601683497428894,
        -3.440821647644043,
        3.1070635318756104,
        -3.251413583755493,
        1.272039532661438,
        -3.1447112560272217
      ]
    },
    {
      "inDim": 8,
      "outDim": 2,
      "activation": "linear",
      "W": [
        2.177520275115967,
        1.3491449356079102,
        -0.7801316380500793,
        0.40739408135414124,
        -0.0919717475771904,
        -0.16128195822238922,
        -1.9957444667816162,
        -1.1320805549621582,
        0.7649956345558167,
        -0.39740702509880066,
        -0.8780397176742554,
        1.8210457563400269,
        0.07896173000335693,
        0.14435629546642303,
        0.6251934170722961,
        -2.153017282485962
      ],
      "b": [
        0.030964283272624016,
        0.053828682750463486
      ]
    }
  ]
}