{
  "version": 1,
  "id": "u27_H8x2",
  "K": 4,
  "featureDim": 29,
  "inputMean": [
    0.005562088452279568,
    0.010740191675722599,
    -12.107275009155273,
    31.060359954833984,
    -0.007391314022243023,
    -0.0014237378491088748,
    532.5204467773438,
    -2.6612308025360107,
    0.464982271194458,
    -0.7509861588478088,
    -0.10860028117895126,
    -1.9606475830078125,
    0.18706649541854858,
    -1.641610860824585,
    -1.6478159427642822,
    -0.00996802281588316,
    0.008924822323024273,
    -0.004896283615380526,
    0.00541970320045948,
    -0.008952147327363491,
    0.0056013003922998905,
    -0.006117881741374731,
    -0.0008334347512573004,
    173.2367401123047,
    208.20065307617188,
    239.71226501464844,
    263.1102294921875,
    0,
    0
  ],
  "inputStd": [
    1.4483128786087036,
    1.4255748987197876,
    463.25140380859375,
    464.70733642578125,
    0.7176584601402283,
    0.6962109208106995,
    384.8221130371094,
    144.51588439941406,
    153.10362243652344,
    168.19386291503906,
    175.0343475341797,
    189.44021606445312,
    196.030029296875,
    204.62815856933594,
    212.96701049804688,
    0.7010394334793091,
    0.7129970192909241,
    0.7035136818885803,
    0.7106441855430603,
    0.7021756768226624,
    0.7119254469871521,
    0.6989261507987976,
    0.715167224407196,
    119.6740951538086,
    124.8169174194336,
    129.8355712890625,
    134.1865997314453,
    0.0010000000474974513,
    0.0010000000474974513
  ],
  "outputScale": 0.05,
  "clipMagnitude": 0.05,
  "layers": [
    {
      "inDim": 29,
      "outDim": 8,
      "activation": "relu",
      "W": [
        -0.8171987533569336,
        0.4156910181045532,
        0.010723685845732689,
        -1.0829752683639526,
        -1.4556560516357422,
        0.7950307726860046,
        -2.249607801437378,
        1.2694005966186523,
        1.4458376169204712,
        -0.6033826470375061,
        -0.022364826872944832,
        -0.5526716709136963,
        2.17768931388855,
        0.446696400642395,
        -0.43501585721969604,
        1.8686883449554443,
        0.00833782646805048,
        0.01823224313557148,
        -0.0014111829223111272,
        -0.021193670108914375,
        -0.007746635936200619,
        -0.016621438786387444,
        0.03516222536563873,
        0.012839186936616898,
        0.013887785375118256,
        -0.09712355583906174,
        -0.004404282197356224,
        0.035658612847328186,
        -0.016040828078985214,
        0.025337526574730873,
        -0.009900794364511967,
        -0.01312724594026804,
        -0.001662153983488679,
        -0.7230640649795532,
        0.004485175479203463,
        -0.04744068533182144,
        1.7833151817321777,
        0.017661212012171745,
        2.7581276893615723,
        -1.5760167837142944,
        0.008916307240724564,
        0.9811357855796814,
        0.009071183390915394,
        0.05701453983783722,
        -2.6306166648864746,
        0.05614947900176048,
        0.5326632261276245,
        -2.2317440509796143,
        0.007672799285501242,
        0.05667080730199814,
        0.0037047257646918297,
        0.0013638695236295462,
        0.011505785398185253,
        -0.010434437543153763,
        0.0011598424753174186,
        -0.008414404466748238,
        -0.6490342617034912,
        -0.049289487302303314,
        -0.7239348888397217,
        -0.8534058332443237,
        -0.013346856459975243,
        1.5341919660568237,
        0.005781139712780714,
        -0.004254571627825499,
        1.0175225734710693,
        0.09028621762990952,
        0.20680728554725647,
        -1.2349070310592651,
        0.008027289994060993,
        0.44089722633361816,
        -0.0023875650949776173,
        0.0017873374745249748,
        -0.011981312185525894,
        0.02442154847085476,
        0.0010045489761978388,
        -0.06846094131469727,
        0.009169974364340305,
        -0.009133155457675457,
        -0.006787097081542015,
        -0.024349289014935493,
        0.012669357471168041,
        -0.031994760036468506,
        0.019447579979896545,
        -0.02797609195113182,
        0.015598196536302567,
        0.08149624615907669,
        -0.03334531933069229,
        -0.01809489168226719,
        -0.05625535175204277,
        0.0377766452729702,
        -0.0181752797216177,
        0.011588816531002522,
        0.015784986317157745,
        -0.04605979472398758,
        -0.02798120491206646,
        -0.01896366849541664,
        -0.0683082640171051,
        0.021119551733136177,
        -0.010346262715756893,
        -0.019740646705031395,
        -0.0055747912265360355,
        0.0240908395498991,
        -0.002570566488429904,
        -0.0037971194833517075,
        0.044352784752845764,
        -0.023982008919119835,
        -0.0017178294947370887,
        -0.0772290825843811,
        -0.004204972647130489,
        -0.00571182556450367,
        0.03783133253455162,
        0.02310981974005699,
        -0.04222451150417328,
        -0.01260432880371809,
        -0.004124621860682964,
        -0.00585099495947361,
        0.002309794072061777,
        -0.004590761847794056,
        -0.008975756354629993,
        -0.006541996728628874,
        1.2438522577285767,
        0.08067598193883896,
        0.287332147359848,
        1.7214890718460083,
        0.012644195929169655,
        -1.3873873949050903,
        -0.005172790959477425,
        0.004139219876378775,
        -2.1116368770599365,
        -0.16109131276607513,
        -0.07583315670490265,
        1.0721460580825806,
        0.0006056416314095259,
        -0.7142693400382996,
        0.017367025837302208,
        -0.016143273562192917,
        0.001002805307507515,
        -0.043041713535785675,
        -0.012039692141115665,
        0.042033612728118896,
        -0.018913043662905693,
        -0.03179968520998955,
        0.00748165138065815,
        0.004860802087932825,
        0.0028611833695322275,
        0.033956293016672134,
        -0.01671222224831581,
        0.016845153644680977,
        -0.017699668183922768,
        -0.04282213747501373,
        0.025037765502929688,
        0.0187423974275589,
        0.03893309459090233,
        -0.023738987743854523,
        0.0189477801322937,
        0.03307025134563446,
        -0.0030961744487285614,
        -0.007707821670919657,
        0.016250023618340492,
        0.006535788532346487,
        0.02802257426083088,
        -0.0138845918700099,
        0.007375036366283894,
        0.008126330561935902,
        0.006862487643957138,
        -0.013822440057992935,
        0.0016340434085577726,
        -0.012086812406778336,
        -0.03092311881482601,
        0.027965165674686432,
        -0.008096778765320778,
        0.002605407265946269,
        0.01545835193246603,
        -0.011982942000031471,
        -0.03730136156082153,
        -0.010455941781401634,
        0.03378717973828316,
        0.010254052467644215,
        -0.0037415684200823307,
        0.017290625721216202,
        0.003684493014588952,
        0.023887796327471733,
        -0.0019005232024937868,
        -0.009726742282509804,
        -0.8210374712944031,
        -0.019808849319815636,
        -6.4398393630981445,
        -3.1216580867767334,
        -0.007302232552319765,
        -1.545087456703186,
        0.05807105451822281,
        0.04901798069477081,
        -0.02928738296031952,
        0.028451239690184593,
        0.004286538809537888,
        0.036147959530353546,
        -0.02491190657019615,
        -0.019050881266593933,
        -0.007190665230154991,
        0.003563870908692479,
        -0.027377495542168617,
        -0.004834892228245735,
        0.004990501329302788,
        -0.08464248478412628,
        0.025404950603842735,
        0.023868447169661522,
        -0.018473904579877853,
        -0.0075765629298985004,
        0.029042212292551994,
        0.000828607240691781,
        -0.0012971392134204507,
        0.0532136969268322,
        -0.010656335391104221,
        0.01327868364751339,
        0.011953366920351982,
        0.001383739523589611,
        0.09156574308872223,
        0.2436073273420334,
        0.0022371166851371527,
        -0.059549637138843536,
        -0.5403178930282593,
        0.3649335205554962,
        -0.3007639944553375,
        -0.22077077627182007,
        -0.02149317041039467,
        -0.1449698656797409,
        -0.19163089990615845,
        -0.051481205970048904,
        0.5127163529396057,
        -0.26658084988594055,
        0.5678704977035522,
        0.2150665670633316
      ],
      "b": [
        0.08892373740673065,
        -0.12911812961101532,
        -4.91391134262085,
        -2.2705581188201904,
        0.6994898915290833,
        -1.0263311862945557,
        0.562470555305481,
        0.6581769585609436
      ]
    },
    {
      "inDim": 8,
      "outDim": 8,
      "activation": "relu",
      "W": [
        -1.040771722793579,
        0.03830476477742195,
        0.008271696977317333,
        0.019551768898963928,
        0.0731448158621788,
        -0.7607489824295044,
        -0.003511608811095357,
        -0.010537263937294483,
        0.040994394570589066,
        0.3065960705280304,
        -0.18318916857242584,
        -0.19226162135601044,
        0.16664308309555054,
        0.08832663297653198,
        0.13074198365211487,
        0.09800759702920914,
        0.2915959358215332,
        -7.441043376922607,
        0.07536862790584564,
        0.09948992729187012,
        2.8806252479553223,
        -8.684947967529297,
        3.37504506111145,
        2.858872652053833,
        -0.4649283289909363,
        -0.12000250816345215,
        -0.03429572656750679,
        0.014895038679242134,
        -0.12648506462574005,
        -0.2396836280822754,
        -0.09659469872713089,
        0.05026349425315857,
        0.04199329763650894,
        -0.7596591711044312,
        0.02204953134059906,
        0.023471204563975334,
        0.08078201115131378,
        0.10382533818483353,
        0.05463920906186104,
        0.049718424677848816,
        -0.6415243744850159,
        -0.18455182015895844,
        0.03427993133664131,
        -0.0685085877776146,
        -0.18626701831817627,
        -0.33631497621536255,
        0.07509688287973404,
        -0.11128480732440948,
        -0.07497388124465942,
        -0.22469189763069153,
        1.316990613937378,
        -0.1609070748090744,
        -0.08723913878202438,
        -0.1151777058839798,
        0.315700888633728,
        -0.031973157078027725,
        -0.07532506436109543,
        -0.24815191328525543,
        -0.15310540795326233,
        1.3812943696975708,
        -0.12907151877880096,
        -0.11458716541528702,
        -0.04185888171195984,
        0.28809234499931335
      ],
      "b": [
        2.3805854320526123,
        1.434238314628601,
        0.22579839825630188,
        0.239167258143425,
        0.7227238416671753,
        1.7812923192977905,
        -0.474452942609787,
        -0.43133068084716797
      ]
    },
    {
      "inDim": 8,
      "outDim": 2,
      "activation": "linear",
      "W": [
        -0.362552672624588,
        0.6092379093170166,
        -0.5429515242576599,
        0.7752192616462708,
        0.4642256200313568,
        0.09920590370893478,
        -0.2638547420501709,
        -0.3940940499305725,
        0.7190874814987183,
        -1.0079983472824097,
        0.5384215712547302,
        -0.9157059192657471,
        -1.7808303833007812,
        -0.46878737211227417,
        1.3722254037857056,
        1.5556646585464478
      ],
      "b": [
        -0.3829270899295807,
        0.6236745119094849
      ]
    }
  ]
}