{
  "version": 1,
  "id": "u27_H16x3",
  "K": 4,
  "featureDim": 29,
  "inputMean": [
    0.005562088452279568,
    0.010740191675722599,
    -12.107275009155273,
    31.060359954833984,
    -0.007391314022243023,
    -0.0014237378491088748,
    532.5204467773438,
    -2.6612308025360107,
    0.464982271194458,
    -0.7509861588478088,
    -0.10860028117895126,
    -1.9606475830078125,
    0.18706649541854858,
    -1.641610860824585,
    -1.6478159427642822,
    -0.00996802281588316,
    0.008924822323024273,
    -0.004896283615380526,
    0.00541970320045948,
    -0.008952147327363491,
    0.0056013003922998905,
    -0.006117881741374731,
    -0.0008334347512573004,
    173.2367401123047,
    208.20065307617188,
    239.71226501464844,
    263.1102294921875,
    0,
    0
  ],
  "inputStd": [
    1.4483128786087036,
    1.4255748987197876,
    463.25140380859375,
    464.70733642578125,
    0.7176584601402283,
    0.6962109208106995,
    384.8221130371094,
    144.51588439941406,
    153.10362243652344,
    168.19386291503906,
    175.0343475341797,
    189.44021606445312,
    196.030029296875,
    204.62815856933594,
    212.96701049804688,
    0.7010394334793091,
    0.7129970192909241,
    0.7035136818885803,
    0.7106441855430603,
    0.7021756768226624,
    0.7119254469871521,
    0.6989261507987976,
    0.715167224407196,
    119.6740951538086,
    124.8169174194336,
    129.8355712890625,
    134.1865997314453,
    0.0010000000474974513,
    0.0010000000474974513
  ],
  "outputScale": 0.05,
  "clipMagnitude": 0.05,
  "layers": [
    {
      "inDim": 29,
      "outDim": 16,
      "activation": "relu",
      "W": [
        0.07934057712554932,
        2.4940855503082275,
        0.827808141708374,
        1.8177490234375,
        -1.1221431493759155,
        -0.01985790953040123,
        0.0029858488123863935,
        0.5560957193374634,
        2.543612241744995,
        -1.1937037706375122,
        -0.14203688502311707,
        1.4917038679122925,
        1.9765671491622925,
        -0.08045300841331482,
        -1.4438008069992065,
        -1.3783881664276123,
        0.41069939732551575,
        1.7089651823043823,
        0.9467082023620605,
        -2.2624590396881104,
        2.370021343231201,
        0.03758133202791214,
        0.00013444924843497574,
        0.27778705954551697,
        -1.8706916570663452,
        0.17423824965953827,
        1.7556577920913696,
        -1.6683553457260132,
        -0.03160209208726883,
        0.5431045889854431,
        -1.9477136135101318,
        -1.4777264595031738,
        -0.013862752355635166,
        -0.004561389330774546,
        0.011049401015043259,
        0.006948665715754032,
        0.004151997622102499,
        0.020971542224287987,
        0.004204083234071732,
        -0.1203618198633194,
        -0.004190897103399038,
        -0.003271963447332382,
        -0.005394126288592815,
        0.015558825805783272,
        -0.011642327532172203,
        0.003076364053413272,
        0.0075998082756996155,
        -0.006234858650714159,
        0.07418258488178253,
        -0.00545161496847868,
        -0.001668694312684238,
        0.013674873858690262,
        -0.017608923837542534,
        -0.12583494186401367,
        -0.0015910436632111669,
        -0.03331273794174194,
        -0.0014675721758976579,
        0.010569418780505657,
        -0.021611670032143593,
        -0.023507479578256607,
        -0.006066798232495785,
        0.03663211315870285,
        0.02526029944419861,
        -0.022555774077773094,
        -1.0731730461120605,
        -2.8977434635162354,
        -1.5927530527114868,
        -2.0828802585601807,
        1.5112258195877075,
        -0.05081915110349655,
        -0.0026368536055088043,
        0.14224129915237427,
        -3.0080835819244385,
        0.017018558457493782,
        0.004649913404136896,
        0.006207783240824938,
        -0.0024252692237496376,
        0.7440677881240845,
        1.8749797344207764,
        0.018620990216732025,
        1.088323950767517,
        -1.9424690008163452,
        -1.7435799837112427,
        2.8805456161499023,
        -3.0102834701538086,
        0.14672905206680298,
        0.00015569785318803042,
        -0.17360590398311615,
        2.161097288131714,
        0.00313730095513165,
        0.02841838262975216,
        0.020950427278876305,
        0.03928659111261368,
        1.445340871810913,
        2.1766903400421143,
        0.02115669846534729,
        -0.047925256192684174,
        0.0030677849426865578,
        -0.010738801211118698,
        -0.0011763283982872963,
        -0.0009101135656237602,
        0.02099296636879444,
        -0.00405218405649066,
        -0.006179423071444035,
        -0.003932571969926357,
        -0.0066426717676222324,
        0.004138818476349115,
        -0.007975230924785137,
        -0.0033324852120131254,
        0.012674631550908089,
        -0.007512839511036873,
        0.002804107964038849,
        0.005248782690614462,
        -0.0012565398355945945,
        -0.004386513493955135,
        0.0007750370423309505,
        -0.0025844224728643894,
        -0.06216302886605263,
        0.23802435398101807,
        0.02486935257911682,
        -0.000196028413483873,
        0.02144753932952881,
        0.02641553059220314,
        0.119780994951725,
        0.2188275158405304,
        -0.05268359184265137,
        0.002211505314335227,
        0.13487949967384338,
        -0.039449337869882584,
        -0.001428716816008091,
        0.03210114687681198,
        -0.0017357952892780304,
        -0.006630646996200085,
        0.6813840270042419,
        -0.27565261721611023,
        -0.685941219329834,
        -0.0036949559580534697,
        -0.07562757283449173,
        0.08758674561977386,
        0.25410154461860657,
        0.26814594864845276,
        -0.05131140351295471,
        -0.005726547446101904,
        0.054187193512916565,
        -0.004356637131422758,
        0.0003497700672596693,
        0.009597215801477432,
        -0.002885780530050397,
        -0.005607916973531246,
        0.16191422939300537,
        -0.0015452596126124263,
        -0.00696899089962244,
        -0.007533813826739788,
        -0.008768575266003609,
        -0.022154714912176132,
        0.027699610218405724,
        -0.010163352824747562,
        -0.02118762396275997,
        0.007498750928789377,
        -0.024303840473294258,
        0.04005623608827591,
        -0.003408432472497225,
        -0.009020856581628323,
        -0.0034751638304442167,
        0.015571064315736294,
        0.049624186009168625,
        0.010059650987386703,
        0.6327564120292664,
        0.0009569647372700274,
        -0.040838293731212616,
        0.018628768622875214,
        0.01794551871716976,
        0.0280589796602726,
        -0.029445694759488106,
        -0.020790278911590576,
        -0.02935294806957245,
        -0.016602719202637672,
        0.0005698387394659221,
        0.0025191358290612698,
        -0.003983259201049805,
        -0.00005471681652124971,
        -0.11127425730228424,
        -0.0006852112710475922,
        -0.30323559045791626,
        -0.000265659240540117,
        0.007398173678666353,
        -0.006850990932434797,
        0.018792355433106422,
        0.011674022302031517,
        0.06897293031215668,
        -0.011838315986096859,
        -0.011597340926527977,
        -0.013553674332797527,
        0.004299321677535772,
        0.010552668012678623,
        0.006870299112051725,
        -0.017452511936426163,
        -0.1050497516989708,
        0.0004849205433856696,
        -0.6455351114273071,
        -0.0035982243716716766,
        0.022218534722924232,
        -0.014909476973116398,
        -0.0037398452404886484,
        -0.016773734241724014,
        0.08666051924228668,
        0.0029803954530507326,
        0.015725895762443542,
        0.005351323634386063,
        -0.0004121523234061897,
        -0.01802240125834942,
        0.0005046119331382215,
        0.004858469124883413,
        0.12171296030282974,
        -0.0017766498494893312,
        -0.06433455646038055,
        -0.004635070450603962,
        -0.011989672668278217,
        -0.02853597141802311,
        -0.0430450402200222,
        -0.016367703676223755,
        0.02032320201396942,
        -0.011707273311913013,
        -0.007232118397951126,
        0.052863653749227524,
        0.0010206070728600025,
        -0.009624391794204712,
        0.001436722232028842,
        -0.008271479979157448,
        -0.07746926695108414,
        -0.003563799662515521,
        -1.0340728759765625,
        0.0004764347104355693,
        -0.019122445955872536,
        -0.01890736073255539,
        0.02045220136642456,
        -0.01207740604877472,
        0.028938978910446167,
        -0.0159956943243742,
        -0.03098757192492485,
        -0.009709397330880165,
        -0.00338344625197351,
        -0.004437399096786976,
        0.0027722190134227276,
        -0.004482995253056288,
        0.07218121737241745,
        -0.08790303021669388,
        0.1249794214963913,
        0.005901814438402653,
        1.429841160774231,
        0.1397731751203537,
        -1.811235785484314,
        -2.382431745529175,
        0.09489434957504272,
        0.05079898238182068,
        1.6374551057815552,
        0.06506112962961197,
        0.0001702467998256907,
        -0.014997482299804688,
        -0.009884304367005825,
        0.016637083142995834,
        -0.24865610897541046,
        0.10514301061630249,
        -0.18808846175670624,
        0.0032176293898373842,
        -0.2050999253988266,
        -2.168604850769043,
        2.015359401702881,
        -0.08610221743583679,
        0.06071721762418747,
        -0.03183671459555626,
        1.7707798480987549,
        0.03446032479405403,
        0.0024860179983079433,
        -0.012353665195405483,
        -0.0010558561189100146,
        -0.0037768222391605377,
        -0.07370220124721527,
        -0.0019732252694666386,
        -0.25139570236206055,
        0.0016068610129877925,
        0.004283389542251825,
        0.014601072296500206,
        -0.0267046932131052,
        0.015585836954414845,
        -0.017054878175258636,
        -0.004669849760830402,
        -0.012547713704407215,
        -0.0319112166762352,
        0.004120972938835621,
        0.015642594546079636,
        0.004837450571358204,
        -0.012651368044316769,
        -0.008546005003154278,
        -0.00528339296579361,
        -0.34755396842956543,
        -0.001075745327398181,
        0.00019621802493929863,
        -0.01269356720149517,
        -0.022828146815299988,
        -0.02456279657781124,
        0.040466900914907455,
        0.009863571263849735,
        0.013777798041701317,
        0.007481269538402557,
        0.0017880521481856704,
        -0.0030523089226335287,
        -0.0028967056423425674,
        0.0026743949856609106,
        -0.005456692073494196,
        0.005786733701825142,
        0.01882758177816868,
        0.0011950087500736117,
        0.0101724062114954,
        0.005381727125495672,
        -0.010303092189133167,
        -0.008569912053644657,
        -0.07722984254360199,
        0.013199844397604465,
        0.0019304751185700297,
        -0.0027680417988449335,
        -0.0008179069263860583,
        -0.013232425786554813,
        -0.008076721802353859,
        0.010494173504412174,
        0.049025241285562515,
        -0.0046768272295594215,
        0.43753349781036377,
        -0.0009803036227822304,
        -0.00998225249350071,
        0.02664097771048546,
        -0.009500139392912388,
        0.023901179432868958,
        -0.16191229224205017,
        -0.00008572437218390405,
        -0.01982148550450802,
        -0.008448348380625248,
        -0.0031711894553154707,
        0.01947830431163311,
        0.0029777963645756245,
        0.001433771918527782,
        -0.032820265740156174,
        -0.0012234125752002,
        0.1796901673078537,
        0.004695431794971228,
        -0.0028690991457551718,
        0.01254375372081995,
        0.0036154964473098516,
        0.007858730852603912,
        0.0029965306166559458,
        -0.005749252159148455,
        -0.012194882147014141,
        -0.0539778470993042,
        0.0015477220294997096,
        0.005927623715251684,
        -0.0014575907262042165,
        -0.0006411770591512322,
        0.03163754940032959,
        -0.001540226279757917,
        0.7463226914405823,
        -0.0005824978579767048,
        0.016680147498846054,
        0.0142587935552001,
        -0.009538653306663036,
        -0.0014425577828660607,
        0.01841992884874344,
        0.010576116852462292,
        0.041190389543771744,
        -0.010483141988515854,
        -0.005735204089432955,
        0.014595327898859978,
        -0.017291773110628128,
        0.0055023604072630405,
        -4.48905086517334,
        -5.325885772705078,
        1.9909992218017578,
        0.003130104625597596,
        -0.1336846500635147,
        -0.04248160496354103,
        -0.10176018625497818,
        -0.005529257468879223,
        -0.09133198857307434,
        0.04803246259689331,
        -0.0784509927034378,
        0.05030307546257973,
        0.001499993959441781,
        -0.019555164501070976,
        0.00815336499363184,
        -0.00960736908018589,
        0.0005349262501113117,
        -0.00211110757663846,
        0.00971178151667118,
        -0.006278193090111017,
        -0.02179485373198986,
        -0.012521367520093918,
        0.0064269197173416615,
        0.002428473671898246,
        0.041945718228816986,
        -0.003895751666277647,
        0.003812068607658148,
        0.05677638575434685,
        -0.0007046512910164893,
        -0.020040489733219147,
        -0.016765166074037552,
        0.010850736871361732,
        0.031031280755996704,
        0.004147612955421209,
        -0.02966676652431488,
        -0.0017633474199101329,
        -0.0007841234910301864,
        -0.005057885777205229,
        0.04233664646744728,
        0.03682054951786995,
        -0.07212142646312714,
        -0.010600950568914413,
        -0.01943890191614628,
        -0.051760971546173096,
        -0.00014172545343171805,
        0.004452472552657127,
        0.015657834708690643,
        -0.009290537796914577,
        -0.03893852233886719,
        0.005728608928620815,
        -0.11154859513044357,
        0.0010207925224676728,
        0.010121197439730167,
        0.0049308971501886845,
        -0.020878132432699203,
        -0.018951280042529106,
        0.13423313200473785,
        -0.008680683560669422,
        0.02686825953423977,
        -0.042806226760149,
        0.3496851623058319,
        -0.31028950214385986,
        0.2589350938796997,
        0.15810947120189667,
        -0.2885311543941498,
        -0.029515868052840233,
        0.0019702883437275887,
        0.3128492534160614,
        -0.3199044167995453,
        -0.1206125020980835,
        -0.08572543412446976,
        -0.04977227374911308,
        -0.7520151138305664,
        0.16128481924533844,
        -0.02347755990922451,
        0.2038465291261673,
        0.042800694704055786,
        0.14634443819522858,
        0.00935114361345768,
        -0.0016577165806666017,
        -0.02412119321525097,
        0.028025193139910698,
        -0.2563754618167877,
        0.3386881351470947,
        0.19353410601615906,
        0.5114281177520752,
        -0.3241197466850281,
        -0.15212194621562958,
        0.4529150426387787,
        -0.03528912737965584,
        -0.39091750979423523
      ],
      "b": [
        -0.7570987939834595,
        0.19043894112110138,
        0.7435792684555054,
        -0.03210030496120453,
        0.34394174814224243,
        -3.200596332550049,
        -4.109820365905762,
        0.33077776432037354,
        0.12766925990581512,
        -0.04017337039113045,
        0.09855510294437408,
        0.15369994938373566,
        0.14083337783813477,
        -1.2970926761627197,
        0.2429823875427246,
        0.08327275514602661
      ]
    },
    {
      "inDim": 16,
      "outDim": 16,
      "activation": "relu",
      "W": [
        0.1513795554637909,
        -0.2036634087562561,
        -0.15148834884166718,
        0.0789857879281044,
        -0.1522645503282547,
        -0.005041247699409723,
        0.027162859216332436,
        0.06558281928300858,
        0.11587706953287125,
        -0.05280638113617897,
        0.0479053370654583,
        -0.015865718945860863,
        -0.06035684049129486,
        -0.10473961383104324,
        0.17460060119628906,
        0.4328717291355133,
        -0.004366567824035883,
        2.7680814266204834,
        0.03543125465512276,
        -1.3904865980148315,
        0.08392617851495743,
        -0.0123176584020257,
        -1.2403074502944946,
        -0.04698626324534416,
        -0.012679651379585266,
        1.9689823389053345,
        -0.01904071681201458,
        0.010383167304098606,
        -0.012137774378061295,
        -0.9598826169967651,
        -1.6267719268798828,
        1.3380805253982544,
        0.03730349242687225,
        -1.9995781183242798,
        -0.09129800647497177,
        -0.3691944181919098,
        -0.11226778477430344,
        0.029476899653673172,
        -0.3006768524646759,
        0.09142888337373734,
        0.14880387485027313,
        0.06059763580560684,
        0.03399411216378212,
        0.005694820545613766,
        0.00306025636382401,
        -0.17320752143859863,
        -0.005730717908591032,
        0.2863536477088928,
        -0.028454739600419998,
        -0.9575755000114441,
        0.028861256316304207,
        -0.18027497828006744,
        0.029803592711687088,
        0.002263790462166071,
        0.5369578003883362,
        -0.02858469821512699,
        0.07500337064266205,
        0.6171822547912598,
        -0.03233731910586357,
        0.027263635769486427,
        -0.011895060539245605,
        1.0321009159088135,
        -3.6200714111328125,
        -2.1709179878234863,
        0.016820745542645454,
        -0.22261793911457062,
        -0.03246050700545311,
        1.0032010078430176,
        0.010027945972979069,
        0.006524840835481882,
        1.0136505365371704,
        0.010414069518446922,
        -0.011998736299574375,
        0.4296065866947174,
        0.006003348156809807,
        -0.004020864609628916,
        0.004422472789883614,
        -1.6419095993041992,
        0.8351195454597473,
        0.019933661445975304,
        0.30447521805763245,
        -0.03292987123131752,
        0.02175453118979931,
        0.10450885444879532,
        0.6131957173347473,
        0.15229597687721252,
        0.3315034806728363,
        0.2984229326248169,
        -0.3115379810333252,
        0.27070993185043335,
        0.04458484798669815,
        0.07270252704620361,
        -0.10263468325138092,
        0.4103385806083679,
        0.4733610153198242,
        0.1606619507074356,
        -0.21424812078475952,
        -11.91048526763916,
        -0.0038823604118078947,
        -19.889404296875,
        7.005766868591309,
        -0.10713580250740051,
        -0.8722370862960815,
        -0.27816420793533325,
        -20.247350692749023,
        -18.329448699951172,
        -0.04091411083936691,
        0.026286086067557335,
        0.10911895334720612,
        -14.089150428771973,
        -18.10004997253418,
        -14.052190780639648,
        -0.08773662894964218,
        0.010952766053378582,
        -0.11590054631233215,
        -0.0051573533564805984,
        -0.7712034583091736,
        -0.21229973435401917,
        -0.006319347769021988,
        -0.44683754444122314,
        -0.002941459184512496,
        0.0029520539101213217,
        0.01075164694339037,
        -0.18663419783115387,
        0.010648922994732857,
        -0.0030009697657078505,
        -0.00023125766892917454,
        0.0013471739366650581,
        -0.012111378833651543,
        -1.4219269752502441,
        -0.008974822238087654,
        -0.10875976830720901,
        -0.05399426445364952,
        -0.004329628776758909,
        1.0588701963424683,
        0.02822025492787361,
        -0.046759672462940216,
        -2.7152578830718994,
        0.023674961179494858,
        -0.028855135664343834,
        0.032391272485256195,
        0.08280330896377563,
        -4.597919464111328,
        1.6491808891296387,
        -0.8246144652366638,
        0.02708853967487812,
        0.17109139263629913,
        0.006239857990294695,
        0.007121348287910223,
        0.2785394489765167,
        -0.005194731522351503,
        0.03248550742864609,
        0.07028008997440338,
        0.018606871366500854,
        0.5794464945793152,
        -0.80898118019104,
        -0.7206729054450989,
        0.00565418740734458,
        -0.028026336804032326,
        0.01210961677134037,
        -0.7668658494949341,
        0.005785777699202299,
        -0.7760323882102966,
        -0.019523026421666145,
        0.008809034712612629,
        -0.15109431743621826,
        0.011561512015759945,
        -0.8581339716911316,
        -0.07476941496133804,
        -0.00024361128453165293,
        -0.43995004892349243,
        -4.602183818817139,
        -0.10335691273212433,
        -0.0021218257024884224,
        0.0094069205224514,
        -0.008979953825473785,
        -0.6093207597732544,
        -0.014762751758098602,
        0.8802073001861572,
        -0.0042339167557656765,
        -0.049375295639038086,
        -4.308749198913574,
        -0.009804315865039825,
        -0.42382246255874634,
        0.01997283846139908,
        -0.006508068647235632,
        0.3329334855079651,
        -0.07072345167398453,
        0.41049230098724365,
        0.014809440821409225,
        -0.013336362317204475,
        -0.003133512334898114,
        0.4442996680736542,
        -0.01939338445663452,
        -2.7030630111694336,
        0.0035677964333444834,
        0.06217143312096596,
        -0.4968479871749878,
        0.013360245153307915,
        -7.934976577758789,
        0.0027408183086663485,
        -0.008489804342389107,
        0.09750360995531082,
        -0.37594711780548096,
        -0.031340084969997406,
        0.0035918732173740864,
        0.005345526151359081,
        -0.0188427921384573,
        0.09360510855913162,
        -0.04096422344446182,
        -0.13782340288162231,
        0.09775643050670624,
        -0.06351201981306076,
        0.07112141698598862,
        0.16897757351398468,
        0.13676117360591888,
        0.12812843918800354,
        -0.06640573590993881,
        0.023519255220890045,
        0.041150640696287155,
        -0.04566088691353798,
        -0.09259478002786636,
        0.7586002945899963,
        0.33740484714508057,
        0.007427726872265339,
        -0.8052667379379272,
        -0.01804525777697563,
        0.7220445275306702,
        0.04459494724869728,
        0.005426937714219093,
        0.0671694204211235,
        0.017745893448591232,
        -0.020592017099261284,
        -0.10192830115556717,
        0.0107528455555439,
        -0.014816775918006897,
        -0.0015339175006374717,
        -0.0898648202419281,
        0.5243905782699585,
        0.5473495125770569,
        -4.718449592590332,
        -0.007900621742010117,
        -1.2026548385620117,
        -0.00329298572614789,
        0.017802517861127853,
        -0.503933310508728,
        -0.0032454694155603647,
        -0.1341838389635086,
        0.0009893738897517323,
        0.001619603019207716,
        -0.036464039236307144,
        0.09985674172639847,
        -0.7566448450088501,
        0.0011226104106754065,
        0.003467943985015154,
        -0.006593046709895134
      ],
      "b": [
        2.039201259613037,
        0.16257783770561218,
        1.8665777444839478,
        0.8009855151176453,
        -0.34275317192077637,
        1.6647794246673584,
        -0.6084919571876526,
        1.5275380611419678,
        1.2675061225891113,
        0.05373455584049225,
        1.457175612449646,
        2.478142261505127,
        1.7169876098632812,
        1.7120987176895142,
        0.5240176320075989,
        -0.1491984724998474
      ]
    },
    {
      "inDim": 16,
      "outDim": 16,
      "activation": "relu",
      "W": [
        0.3767191171646118,
        -0.008802532218396664,
        0.47687217593193054,
        0.009598544798791409,
        0.0008593227248638868,
        0.5605753660202026,
        -0.005559500306844711,
        -0.6143478155136108,
        0.011834755539894104,
        -1.4978089332580566,
        -0.031407859176397324,
        1.9442981481552124,
        0.005185380112379789,
        -0.4628240764141083,
        -0.3177888095378876,
        -0.005315473768860102,
        0.04728616774082184,
        2.977254629135132,
        -0.08125168830156326,
        0.04147840663790703,
        -0.3681148588657379,
        -0.0474577434360981,
        0.04098996892571449,
        0.0006643906817771494,
        -0.6680207252502441,
        0.031446442008018494,
        -0.21567966043949127,
        -0.09234209358692169,
        1.266239881515503,
        -0.2601134479045868,
        -0.01745050773024559,
        2.0961482524871826,
        0.7178802490234375,
        0.0448811873793602,
        0.8839244246482849,
        0.041091661900281906,
        -0.0014022892573848367,
        -0.034490182995796204,
        -0.030435217544436455,
        0.24226784706115723,
        -0.04510476812720299,
        -0.4836064279079437,
        -0.017754552885890007,
        -0.9878094792366028,
        -0.028059758245944977,
        -0.06441057473421097,
        0.24409203231334686,
        0.0004362230538390577,
        -0.0461072213947773,
        0.8467984199523926,
        -0.065242238342762,
        -0.37637344002723694,
        -1.2248646020889282,
        -0.18087853491306305,
        -0.2651883661746979,
        -0.1663314551115036,
        -0.9078902006149292,
        0.035275932401418686,
        0.33185601234436035,
        -0.0474187396466732,
        1.0974088907241821,
        -0.7244752049446106,
        0.0601048544049263,
        1.189160704612732,
        0.5569382309913635,
        -3.172975778579712,
        -0.018555007874965668,
        0.8195323348045349,
        -3.5844457149505615,
        0.4780876636505127,
        0.894900918006897,
        0.3765740990638733,
        -4.819416522979736,
        -0.009382130578160286,
        -2.672426223754883,
        0.027089469134807587,
        -8.563186645507812,
        -0.3659230172634125,
        -0.0037051087711006403,
        -6.8605523109436035,
        -0.6933029890060425,
        0.006831340491771698,
        -0.9257526993751526,
        -0.0051992665976285934,
        0.012597248889505863,
        0.6001948714256287,
        -0.5634450912475586,
        0.40041258931159973,
        0.007324418518692255,
        -1.126029372215271,
        0.030222535133361816,
        0.8985283374786377,
        -0.019093040376901627,
        -0.09666397422552109,
        0.2289273738861084,
        0.004459640476852655,
        -0.4049343764781952,
        -0.47221922874450684,
        0.007442720700055361,
        0.4479295313358307,
        -0.41567444801330566,
        0.029567770659923553,
        0.13409627974033356,
        0.31248506903648376,
        -0.1011940985918045,
        -0.0060308934189379215,
        -1.559238314628601,
        0.006849050987511873,
        -1.0442851781845093,
        -0.09730949252843857,
        -0.00017919826495926827,
        -0.7344186902046204,
        -0.7795832753181458,
        -0.019153960049152374,
        -1.0638195276260376,
        -0.03197070583701134,
        0.026990611106157303,
        -0.1649865210056305,
        -0.3290211260318756,
        0.44665148854255676,
        0.029850108548998833,
        -0.030834948644042015,
        -0.03963964059948921,
        1.3145931959152222,
        -0.054870616644620895,
        -0.4985913336277008,
        0.3630750775337219,
        -0.04672849550843239,
        0.4765968918800354,
        0.5996904373168945,
        1.035717248916626,
        0.40804657340049744,
        1.0183124542236328,
        -3.4031248092651367,
        -1.904848337173462,
        -2.6424577236175537,
        0.6781737804412842,
        -3.157475709915161,
        0.8029680252075195,
        -2.733945369720459,
        -0.22812332212924957,
        -0.9640910029411316,
        -1.1450713872909546,
        -0.04048274829983711,
        0.07074299454689026,
        -2.4741854667663574,
        0.025427844375371933,
        -0.00016415788559243083,
        -0.42925888299942017,
        0.012415059842169285,
        0.018712693825364113,
        -0.016172580420970917,
        -0.26705464720726013,
        -0.032095763832330704,
        1.35760498046875,
        0.05791942775249481,
        -1.0845742225646973,
        -0.12795394659042358,
        0.014117575250566006,
        -2.4799675941467285,
        0.46804603934288025,
        -0.10288678109645844,
        0.5641760230064392,
        -0.019473770633339882,
        -0.17081806063652039,
        -0.034524835646152496,
        0.41102364659309387,
        0.6464326977729797,
        -0.14428476989269257,
        0.09942513704299927,
        -0.09164290875196457,
        -0.28483614325523376,
        0.031547725200653076,
        -0.7787816524505615,
        1.1920007467269897,
        -0.004010505508631468,
        0.27964797616004944,
        -0.008945302106440067,
        0.3505389988422394,
        -0.006626402959227562,
        -0.012518221512436867,
        -0.6152862906455994,
        0.5765465497970581,
        0.15319642424583435,
        0.004091103095561266,
        1.3377662897109985,
        0.01353466510772705,
        -1.9454237222671509,
        0.01570279151201248,
        -0.010365082882344723,
        0.5194457173347473,
        0.011012217029929161,
        0.5109364986419678,
        0.0008053004276007414,
        0.6743139624595642,
        -0.00010824416676769033,
        -0.013971671462059021,
        -0.32821622490882874,
        0.09019735455513,
        -0.8303936123847961,
        -0.010824636556208134,
        0.5410283207893372,
        0.05043116956949234,
        -0.32134321331977844,
        0.01764966920018196,
        -0.5404082536697388,
        -0.48612484335899353,
        -0.007101014722138643,
        0.4877903461456299,
        0.5425208806991577,
        0.11684395372867584,
        -0.8669925332069397,
        1.1791918277740479,
        0.11691786348819733,
        -0.2463447004556656,
        -0.417680948972702,
        0.9794821739196777,
        -0.01195086445659399,
        -1.2127293348312378,
        0.0030298130586743355,
        0.4161098301410675,
        0.11574799567461014,
        0.03695008531212807,
        0.4428516924381256,
        0.37053561210632324,
        -0.1522190421819687,
        0.18475203216075897,
        -0.32307514548301697,
        -5.836500644683838,
        0.16225281357765198,
        -0.06555307656526566,
        -0.22577029466629028,
        -2.950139045715332,
        -0.15027166903018951,
        1.2332565784454346,
        -0.05866462364792824,
        0.346058189868927,
        0.08950196951627731,
        -0.037190716713666916,
        0.17854943871498108,
        -0.14858974516391754,
        -0.7800751328468323,
        0.036355964839458466,
        -0.04159040376543999,
        0.38764703273773193,
        0.04482731968164444,
        -0.0466499999165535,
        0.04086308553814888,
        0.5405073165893555,
        0.02805037796497345,
        -1.9407962560653687,
        -0.0015333002666011453,
        -0.40163809061050415,
        0.01146029494702816,
        -0.019191276282072067,
        -0.9142495393753052
      ],
      "b": [
        1.427843689918518,
        0.44306397438049316,
        -0.5040186643600464,
        1.3946360349655151,
        -1.1530250310897827,
        1.6405738592147827,
        0.438437819480896,
        1.450156331062317,
        -2.2961816787719727,
        -2.278360366821289,
        -0.3058620095252991,
        -0.10892733186483383,
        0.32866954803466797,
        -0.1395893692970276,
        -3.4642856121063232,
        -1.9796955585479736
      ]
    },
    {
      "inDim": 16,
      "outDim": 2,
      "activation": "linear",
      "W": [
        0.18458342552185059,
        -0.08148165792226791,
        0.12760835886001587,
        0.25056275725364685,
        -0.14635588228702545,
        0.0663144439458847,
        -0.0806209072470665,
        -0.32779648900032043,
        -0.34153851866722107,
        0.2582787275314331,
        -0.04835497960448265,
        -0.37148138880729675,
        -0.20766939222812653,
        0.4620625972747803,
        0.4508470296859741,
        0.202760249376297,
        0.3101148009300232,
        -0.16405196487903595,
        -0.14336161315441132,
        -0.17851786315441132,
        0.24011965095996857,
        -0.14565105736255646,
        0.001135930884629488,
        0.1672440767288208,
        0.22185342013835907,
        0.10241009294986725,
        -0.4997173249721527,
        0.05864080414175987,
        -0.18270844221115112,
        -0.25828781723976135,
        -0.28608274459838867,
        -0.26001423597335815
      ],
      "b": [
        -0.6369349360466003,
        -0.04564838856458664
      ]
    }
  ]
}