{
  "version": 1,
  "id": "u27_H64",
  "K": 4,
  "featureDim": 29,
  "inputMean": [
    0.005562088452279568,
    0.010740191675722599,
    -12.107275009155273,
    31.060359954833984,
    -0.007391314022243023,
    -0.0014237378491088748,
    532.5204467773438,
    -2.6612308025360107,
    0.464982271194458,
    -0.7509861588478088,
    -0.10860028117895126,
    -1.9606475830078125,
    0.18706649541854858,
    -1.641610860824585,
    -1.6478159427642822,
    -0.00996802281588316,
    0.008924822323024273,
    -0.004896283615380526,
    0.00541970320045948,
    -0.008952147327363491,
    0.0056013003922998905,
    -0.006117881741374731,
    -0.0008334347512573004,
    173.2367401123047,
    208.20065307617188,
    239.71226501464844,
    263.1102294921875,
    0,
    0
  ],
  "inputStd": [
    1.4483128786087036,
    1.4255748987197876,
    463.25140380859375,
    464.70733642578125,
    0.7176584601402283,
    0.6962109208106995,
    384.8221130371094,
    144.51588439941406,
    153.10362243652344,
    168.19386291503906,
    175.0343475341797,
    189.44021606445312,
    196.030029296875,
    204.62815856933594,
    212.96701049804688,
    0.7010394334793091,
    0.7129970192909241,
    0.7035136818885803,
    0.7106441855430603,
    0.7021756768226624,
    0.7119254469871521,
    0.6989261507987976,
    0.715167224407196,
    119.6740951538086,
    124.8169174194336,
    129.8355712890625,
    134.1865997314453,
    0.0010000000474974513,
    0.0010000000474974513
  ],
  "outputScale": 0.05,
  "clipMagnitude": 0.05,
  "layers": [
    {
      "inDim": 29,
      "outDim": 64,
      "activation": "relu",
      "W": [
        -1.1735347509384155,
        1.8642374277114868,
        -1.6803196668624878,
        0.8913053274154663,
        -0.2663441598415375,
        0.0020456723868846893,
        -0.26058676838874817,
        0.07782573252916336,
        0.11742236465215683,
        -2.9315578937530518,
        0.2899824380874634,
        -1.5226852893829346,
        1.5929070711135864,
        -1.047175645828247,
        0.033152610063552856,
        0.9421601891517639,
        1.7269481420516968,
        1.0765223503112793,
        -1.0784997940063477,
        -1.5228992700576782,
        0.9469297528266907,
        0.3082951605319977,
        -0.373110294342041,
        1.8835147619247437,
        -0.1500895619392395,
        0.639685869216919,
        0.30953681468963623,
        1.2618006467819214,
        -0.5156518816947937,
        1.5867915153503418,
        0.10443142801523209,
        -1.8374416828155518,
        0.5777931809425354,
        -0.1918613761663437,
        0.947533905506134,
        0.8381906151771545,
        -0.4312633275985718,
        3.047968626022339,
        -0.0012041813461109996,
        -0.0015043176244944334,
        1.6446994543075562,
        0.9677546620368958,
        -0.045972369611263275,
        0.801982045173645,
        -0.9274765849113464,
        1.2514564990997314,
        -0.07292882353067398,
        0.9606411457061768,
        0.4783324897289276,
        -0.8974277377128601,
        -2.855480670928955,
        1.4369876384735107,
        1.1893258094787598,
        1.8064210414886475,
        -0.1479295790195465,
        0.5162498950958252,
        -2.0947396755218506,
        0.31236451864242554,
        0.355983704328537,
        3.165457248687744,
        -1.8093417882919312,
        0.6588956713676453,
        -0.002588692121207714,
        0.47568920254707336,
        -1.8459246158599854,
        0.5668084025382996,
        0.7666047215461731,
        1.7595021724700928,
        -0.48438209295272827,
        0.002883374923840165,
        -1.7263134717941284,
        3.1473588943481445,
        1.8137006759643555,
        -1.3252544403076172,
        -1.7901376485824585,
        -1.6583423614501953,
        -0.8466778993606567,
        -0.3339512050151825,
        3.3947179317474365,
        0.7277198433876038,
        -0.9898546934127808,
        0.39577460289001465,
        1.6062226295471191,
        1.4856590032577515,
        -0.7600149512290955,
        -1.0235257148742676,
        1.053573489189148,
        0.25781872868537903,
        0.16777655482292175,
        -0.15891620516777039,
        -0.3525394797325134,
        1.5604774951934814,
        1.8487908840179443,
        -0.060091063380241394,
        0.8678708672523499,
        0.6066863536834717,
        -0.13179515302181244,
        -1.7465561628341675,
        -1.091264247894287,
        -0.8062855005264282,
        -1.5247132778167725,
        -0.6071147322654724,
        0.0015610700938850641,
        0.004718649201095104,
        -2.0936577320098877,
        -1.2096208333969116,
        0.11781854927539825,
        0.709598183631897,
        -1.2612941265106201,
        -0.9413537979125977,
        0.9515748620033264,
        1.8311524391174316,
        0.1385623812675476,
        -0.28252920508384705,
        -1.3097331523895264,
        1.323593020439148,
        1.865267038345337,
        0.6487336158752441,
        -0.02973465994000435,
        0.46003258228302,
        0.5362980365753174,
        0.0029118130914866924,
        -0.14411000907421112,
        -0.6028246879577637,
        2.1270720958709717,
        -2.1375529766082764,
        0.0003966276126448065,
        0.4688519537448883,
        0.09670283645391464,
        0.003979702480137348,
        0.007685432676225901,
        -0.02870035544037819,
        -0.04883313924074173,
        0.0029257135465741158,
        0.02575698308646679,
        0.01139802299439907,
        -0.04415540397167206,
        -0.00992994662374258,
        -0.029145872220396996,
        0.051811736077070236,
        0.10039648413658142,
        0.08137591183185577,
        0.01567818969488144,
        -0.036557603627443314,
        -0.015005446970462799,
        -0.01017215009778738,
        -0.014258848503232002,
        -0.04865909740328789,
        -0.05225856229662895,
        0.129902184009552,
        0.017098190262913704,
        -0.057478856295347214,
        -0.06818856298923492,
        0.3482881486415863,
        0.0732390359044075,
        0.009399055503308773,
        -0.025493131950497627,
        0.015347175300121307,
        0.18877270817756653,
        -0.09813462942838669,
        0.0707126334309578,
        0.03391392156481743,
        0.0334848091006279,
        -0.0456695631146431,
        -0.006492731161415577,
        -0.021368494257330894,
        0.003802988212555647,
        0.0013567943824455142,
        -0.008670673705637455,
        -0.07601507008075714,
        0.04414914548397064,
        0.01931823417544365,
        0.05015130341053009,
        -0.0800442174077034,
        0.04967856407165527,
        0.010419514961540699,
        0.4914560616016388,
        -0.12665997445583344,
        0.012728597037494183,
        -0.003073791041970253,
        0.02020942233502865,
        -0.03440132364630699,
        -0.002652067458257079,
        0.07144148647785187,
        0.004430108703672886,
        0.028663670644164085,
        0.3473512828350067,
        -0.011331884190440178,
        0.09334886074066162,
        0.08405247330665588,
        0.004692011047154665,
        0.1229921355843544,
        0.10120067000389099,
        0.03991857171058655,
        -0.032092466950416565,
        -0.11564259976148605,
        0.016646001487970352,
        0.0034971663262695074,
        -0.09250131249427795,
        -0.00533184502273798,
        0.010866088792681694,
        0.002348490757867694,
        0.04251778498291969,
        0.007054498419165611,
        0.12824121117591858,
        -0.004709985572844744,
        -0.02084113284945488,
        -0.025601428002119064,
        -0.11400173604488373,
        -0.1036880686879158,
        0.027247071266174316,
        0.0389535166323185,
        -0.11540953069925308,
        -0.006425626575946808,
        0.022721441462635994,
        -0.021223900839686394,
        0.14016897976398468,
        -0.47013726830482483,
        -0.13741901516914368,
        -0.02487526461482048,
        -0.04796602204442024,
        0.043432287871837616,
        0.052462298423051834,
        0.028928088024258614,
        0.06902211159467697,
        0.02497817948460579,
        0.11347036808729172,
        -0.05830303207039833,
        -0.0660153180360794,
        -0.019517885521054268,
        0.0009555470896884799,
        0.004324861336499453,
        0.030198661610484123,
        -0.16812752187252045,
        -0.07665508985519409,
        -0.01820971630513668,
        0.006195938214659691,
        -0.02937505394220352,
        -0.10652312636375427,
        -0.023904800415039062,
        -0.1180468499660492,
        -0.03967079520225525,
        -0.005694693885743618,
        -0.048043761402368546,
        -0.0533243753015995,
        0.026412418112158775,
        -0.11910706758499146,
        0.011716238223016262,
        -0.036031510680913925,
        0.1329251229763031,
        -0.2841721475124359,
        -0.01748081110417843,
        -0.054449863731861115,
        -0.13374409079551697,
        0.0034888589289039373,
        -0.007057406473904848,
        2.072822332382202,
        -0.12433087080717087,
        1.2865657806396484,
        -1.7120822668075562,
        -0.06330261379480362,
        -0.01643974892795086,
        -0.0601913146674633,
        -0.10596418380737305,
        -0.007716805208474398,
        3.411005735397339,
        -0.3169475197792053,
        1.792017936706543,
        -2.7649142742156982,
        1.8493913412094116,
        -0.05859227851033211,
        -0.2003645896911621,
        -1.9917924404144287,
        -1.3520725965499878,
        0.04311646521091461,
        0.11858607828617096,
        -0.0009342447738163173,
        -0.08754383772611618,
        0.07409531623125076,
        -2.176513195037842,
        0.7827566266059875,
        -0.8775030970573425,
        -0.5892824530601501,
        -0.043392978608608246,
        0.11941997706890106,
        -0.1153402030467987,
        -1.844537377357483,
        0.08127342909574509,
        0.6184506416320801,
        -0.8291544318199158,
        0.3645286560058594,
        0.09250010550022125,
        -0.014159570448100567,
        -3.520625352859497,
        0.03765920177102089,
        0.013672525063157082,
        -1.913536787033081,
        -1.559269905090332,
        0.06950531899929047,
        -0.049885593354701996,
        0.9350791573524475,
        0.03290094807744026,
        -0.9869588613510132,
        -1.0977520942687988,
        0.7285856008529663,
        0.2877413332462311,
        3.290911912918091,
        -0.8486678600311279,
        -0.006603105925023556,
        -0.05940321460366249,
        -0.42127537727355957,
        -0.24958889186382294,
        0.0769665390253067,
        -0.503669798374176,
        -0.7547690272331238,
        -3.667902708053589,
        1.9796429872512817,
        -1.0833548307418823,
        -0.04225443676114082,
        0.7318256497383118,
        1.4756613969802856,
        -0.008131655864417553,
        -1.7076224088668823,
        -2.208601713180542,
        0.03829396143555641,
        -0.04802310839295387,
        0.1120700016617775,
        -3.5899717807769775,
        -0.027969952672719955,
        1.4999312162399292,
        1.9512842893600464,
        1.8553450107574463,
        1.4058271646499634,
        0.9726555943489075,
        -3.868853807449341,
        -0.06604669243097305,
        1.2487695217132568,
        -0.5303943753242493,
        -0.09977523982524872,
        -0.1062258630990982,
        0.3181364834308624,
        -0.09040618687868118,
        -0.21713143587112427,
        -0.2677154541015625,
        -0.716485857963562,
        0.582925021648407,
        -0.36794766783714294,
        -0.042993608862161636,
        -0.0634995624423027,
        -0.026608174666762352,
        1.2026288509368896,
        0.006779161747545004,
        0.757997453212738,
        1.5050621032714844,
        1.3197063207626343,
        -0.01072686817497015,
        0.1990959346294403,
        0.701802670955658,
        -0.013936813920736313,
        0.0373372957110405,
        2.3741331100463867,
        1.5463054180145264,
        1.052245855331421,
        0.009124545380473137,
        2.359410047531128,
        0.11569707095623016,
        0.8193831443786621,
        -2.0984485149383545,
        -0.0033405781723558903,
        -0.21298091113567352,
        1.4823894500732422,
        -2.0195014476776123,
        -0.06684906035661697,
        -0.012485774233937263,
        0.14823758602142334,
        -0.0732627585530281,
        0.012336915358901024,
        1.0069159269332886,
        0.5346211791038513,
        0.6947725415229797,
        -2.460908889770508,
        3.1882359981536865,
        0.010118857957422733,
        -0.33579114079475403,
        -0.03427944704890251,
        0.0084921820089221,
        0.015867460519075394,
        -0.017490601167082787,
        -0.03216387704014778,
        -0.0016920695779845119,
        0.01458075363188982,
        0.009314772672951221,
        0.013235056772828102,
        -0.0010878469329327345,
        -0.014581602066755295,
        0.002847792115062475,
        0.023491932079195976,
        -0.025522366166114807,
        -0.009419436566531658,
        -0.02608136087656021,
        0.023715034127235413,
        -0.058651845902204514,
        -0.04932856932282448,
        -0.0321560800075531,
        0.0020694409031420946,
        -0.007231555413454771,
        -0.031146058812737465,
        -0.01976311020553112,
        -0.03277713805437088,
        0.21497049927711487,
        -0.05377722531557083,
        -0.04450344294309616,
        0.044631294906139374,
        0.006654069758951664,
        0.12518759071826935,
        -0.026203591376543045,
        0.028748713433742523,
        -0.03703707456588745,
        0.009056657552719116,
        0.08599064499139786,
        -0.05590110272169113,
        0.0017294781282544136,
        -0.0018358106026425958,
        -0.001865736790932715,
        -0.013990066945552826,
        -0.040082599967718124,
        -0.05497613549232483,
        0.015423474833369255,
        0.014405899681150913,
        0.02374308370053768,
        0.06620275974273682,
        -0.03288736566901207,
        -0.2638888359069824,
        0.038236796855926514,
        0.0026125588919967413,
        -0.02490433305501938,
        -0.024000944569706917,
        -0.0015115949790924788,
        -0.008306977339088917,
        0.008767211809754372,
        0.016874652355909348,
        0.025352848693728447,
        0.2692670524120331,
        -0.00033864338183775544,
        0.06022630259394646,
        0.13551239669322968,
        -0.000036496414395514876,
        -0.01827232912182808,
        -0.0959855392575264,
        0.9986217021942139,
        -0.17022748291492462,
        -0.0701896995306015,
        -0.5716735124588013,
        -0.04426749050617218,
        0.26519396901130676,
        0.0009222060907632113,
        -0.09855276346206665,
        0.0031855886336416006,
        -0.612974226474762,
        -0.08815845102071762,
        -0.13270936906337738,
        0.04107249155640602,
        0.004953979514539242,
        -0.927862286567688,
        0.5175114870071411,
        -1.277730941772461,
        0.04418410733342171,
        -0.3468147814273834,
        -0.38824889063835144,
        -0.06479235738515854,
        0.6762370467185974,
        -0.3925580680370331,
        -0.27710652351379395,
        0.09423321485519409,
        -1.3020565509796143,
        -0.3129332959651947,
        -0.4691738486289978,
        -0.19473852217197418,
        -0.10098104178905487,
        0.3948117792606354,
        -0.052634503692388535,
        -1.4257745742797852,
        -0.769328236579895,
        0.7713238596916199,
        -0.5283272862434387,
        -0.020571798086166382,
        -0.050741054117679596,
        -0.05967441573739052,
        -0.06510104984045029,
        -0.27445581555366516,
        0.41686877608299255,
        0.9488921165466309,
        -0.10003466159105301,
        1.255256175994873,
        -0.02939373441040516,
        0.2880954146385193,
        -0.7461391687393188,
        -0.18761299550533295,
        0.004198480863124132,
        0.5381758809089661,
        -0.32849356532096863,
        0.9688824415206909,
        0.006791201885789633,
        -0.889986515045166,
        0.25544464588165283,
        0.44232112169265747,
        -0.04664783924818039,
        -0.022344345226883888,
        0.0454397052526474,
        -0.4769928753376007,
        -0.015947824344038963,
        -0.9753443598747253,
        -0.20659443736076355,
        -1.4184861183166504,
        -0.07879016548395157,
        0.041333701461553574,
        -0.7909203171730042,
        0.08297561854124069,
        -0.8262012004852295,
        -0.015708332881331444,
        1.0326164960861206,
        0.03296049311757088,
        0.3431378901004791,
        -0.47137096524238586,
        0.049313999712467194,
        0.38283026218414307,
        0.002403262536972761,
        -1.4842286109924316,
        -0.17952963709831238,
        -0.024801284074783325,
        -0.41543903946876526,
        -0.7850474119186401,
        1.4462686777114868,
        -0.04425348341464996,
        -0.967281699180603,
        -0.06841454654932022,
        -1.1455265283584595,
        0.32857799530029297,
        -0.5778595805168152,
        -0.799647867679596,
        1.0565834045410156,
        -0.8346402645111084,
        -0.19874370098114014,
        -0.35862937569618225,
        0.31576240062713623,
        0.6819366216659546,
        0.05016090348362923,
        1.751807689666748,
        -0.46602538228034973,
        0.028817960992455482,
        -0.14513452351093292,
        0.004885903559625149,
        -0.0025314537342637777,
        0.3808232843875885,
        -0.9510069489479065,
        1.0284801721572876,
        -0.1331697255373001,
        0.7699746489524841,
        -0.23222868144512177,
        0.6087237596511841,
        0.1713777482509613,
        2.1137404441833496,
        0.03964852914214134,
        0.5705800652503967,
        -0.4959172010421753,
        -1.1849770545959473,
        -1.320615291595459,
        -1.6764219999313354,
        0.4169997274875641,
        -0.4709164798259735,
        0.5749828219413757,
        0.0507044643163681,
        -0.06041819602251053,
        0.007532034069299698,
        -0.15894608199596405,
        -0.9804032444953918,
        -0.012661540880799294,
        0.059621475636959076,
        0.023518525063991547,
        -0.05738198757171631,
        0.10695751756429672,
        0.007927808910608292,
        0.07069500535726547,
        0.006394532974809408,
        -0.08246080577373505,
        0.026618126779794693,
        0.07858564704656601,
        -0.06576347351074219,
        -0.03717970848083496,
        -0.10953903198242188,
        0.0026375018060207367,
        0.047918614000082016,
        0.000020890398445772007,
        -0.09113386273384094,
        -0.03751867637038231,
        0.002171129221096635,
        -0.03329470381140709,
        0.20906904339790344,
        -0.03964001685380936,
        -0.021903404965996742,
        -0.029614729806780815,
        0.1195598617196083,
        -0.004941802471876144,
        -0.09325169771909714,
        -0.12119511514902115,
        -0.05951368063688278,
        0.05874447152018547,
        0.07752231508493423,
        -0.01905343495309353,
        0.01629020832479,
        0.02064553275704384,
        -0.030069103464484215,
        0.058525871485471725,
        -0.000396951858419925,
        0.005773718468844891,
        0.003434639424085617,
        -0.03587573766708374,
        0.06848215311765671,
        -0.009899834170937538,
        -0.0689435750246048,
        0.061062730848789215,
        -0.026510119438171387,
        -0.13476653397083282,
        -0.09575539827346802,
        0.1008944883942604,
        0.05894424393773079,
        0.01665487512946129,
        -0.20577867329120636,
        -0.07674598693847656,
        0.0708727166056633,
        0.036254581063985825,
        0.05106724798679352,
        0.05912147834897041,
        -0.04260190203785896,
        0.07466533035039902,
        -0.005996015854179859,
        -0.05470824986696243,
        -0.0020595642272382975,
        0.003866395680233836,
        -0.06837977468967438,
        -0.14780831336975098,
        -0.04799680784344673,
        0.0807691365480423,
        0.09192204475402832,
        0.07775591313838959,
        0.018280014395713806,
        0.1375151127576828,
        -0.016117820516228676,
        -0.07137147337198257,
        0.005330575630068779,
        0.03929930925369263,
        -0.040072616189718246,
        -0.038673169910907745,
        0.016493704169988632,
        -0.008104394190013409,
        -0.054441146552562714,
        -0.03917258232831955,
        0.051210302859544754,
        -0.07118931412696838,
        -0.08387169986963272,
        0.046980857849121094,
        -0.011784791946411133,
        0.01183850597590208,
        0.020888514816761017,
        0.13221891224384308,
        -0.3190089464187622,
        -0.059943635016679764,
        -0.11088036000728607,
        -0.037183962762355804,
        0.030444374307990074,
        0.08546024560928345,
        0.014713916927576065,
        -0.11370009183883667,
        0.1996435523033142,
        0.16949422657489777,
        0.009901310317218304,
        0.06729010492563248,
        -0.012494589202105999,
        0.007922621443867683,
        0.022858140990138054,
        -0.018155040219426155,
        -0.10527686029672623,
        -0.05137551575899124,
        -0.005111857317388058,
        -0.020810047164559364,
        -0.015120446681976318,
        0.05497318506240845,
        0.019857468083500862,
        0.11138037592172623,
        0.17191149294376373,
        0.005063966382294893,
        0.01922493614256382,
        -0.15888750553131104,
        -0.032396454364061356,
        -0.07909834384918213,
        -0.058432627469301224,
        -0.024895338341593742,
        -0.1425081491470337,
        -0.15848271548748016,
        -0.015217574313282967,
        -0.04126446321606636,
        -0.060487743467092514,
        0.008120357990264893,
        -0.09761035442352295,
        0.0052684335969388485,
        0.0012963920598849654,
        0.004500026348978281,
        -0.04285215958952904,
        -0.08132627606391907,
        -0.009235029108822346,
        -0.026378413662314415,
        0.007102066185325384,
        -0.03971289098262787,
        -0.007780933752655983,
        -0.08527906984090805,
        0.0057617309503257275,
        0.0679503083229065,
        0.11767672002315521,
        0.00789780355989933,
        -0.11864490061998367,
        -0.010474973358213902,
        -0.02851138450205326,
        -0.06508508324623108,
        -0.07630681246519089,
        0.008529264479875565,
        0.11133863031864166,
        -0.10094998776912689,
        0.02219385653734207,
        -0.03394649922847748,
        -0.30940383672714233,
        -0.00012850396160501987,
        -0.14563584327697754,
        0.015504404902458191,
        0.01065828651189804,
        0.0979246124625206,
        -0.04545304924249649,
        -0.05633079260587692,
        0.005444576498121023,
        -0.038278236985206604,
        0.00024929194478318095,
        -0.0007022804347798228,
        -0.002189457416534424,
        -0.0008158922428265214,
        -0.015608103014528751,
        0.03145650774240494,
        -0.08645277470350266,
        0.10021862387657166,
        -0.024142542853951454,
        -0.022145945578813553,
        0.04794904217123985,
        0.13529452681541443,
        0.007299438118934631,
        -0.14430156350135803,
        -0.01998756267130375,
        -0.0005218308069743216,
        0.026583297178149223,
        -0.14424675703048706,
        0.031005796045064926,
        -0.0207435954362154,
        -0.08381476253271103,
        -0.03927958011627197,
        0.01143223512917757,
        -0.05008740350604057,
        -0.00013745404430665076,
        -0.022213593125343323,
        -0.06221457198262215,
        -0.003979323897510767,
        -0.006094689946621656,
        0.08649291098117828,
        -0.08915051072835922,
        0.010103427805006504,
        -0.026556450873613358,
        0.09874578565359116,
        0.0007349983789026737,
        0.046924930065870285,
        -0.006221824325621128,
        0.028141764923930168,
        -0.002509307349100709,
        -0.00020356412278488278,
        0.008455609902739525,
        0.02865215577185154,
        0.02670440822839737,
        0.003397321794182062,
        -0.24670518934726715,
        0.00023855948529671878,
        -0.004770416300743818,
        -0.054856423288583755,
        -0.08911743015050888,
        -0.0299801267683506,
        0.0002880551037378609,
        0.010095289908349514,
        -0.04507211223244667,
        0.17246964573860168,
        -0.10360578447580338,
        -0.05916418880224228,
        -0.15174436569213867,
        0.00390881160274148,
        -0.0749250203371048,
        0.06403191387653351,
        -0.026037799194455147,
        -0.03439802676439285,
        -0.03232661634683609,
        -0.08999089896678925,
        0.041453514248132706,
        0.07995599508285522,
        -0.0009624639642424881,
        0.0010633660713210702,
        0.000328328664181754,
        0.003984906245023012,
        0.1976085752248764,
        0.025319864973425865,
        -0.08527286350727081,
        0.06463871151208878,
        0.07384234666824341,
        0.08648473769426346,
        -0.031609173864126205,
        -0.1309899091720581,
        0.04734478518366814,
        -0.003934467677026987,
        -0.10919982939958572,
        -0.04295198991894722,
        -0.06630159169435501,
        0.0899597704410553,
        -0.06793350726366043,
        0.03462618216872215,
        -0.11532696336507797,
        -0.25135326385498047,
        0.001911815837956965,
        -0.03908548876643181,
        -0.022341394796967506,
        -0.0001411972480127588,
        0.025844832882285118,
        -0.0032589586917310953,
        -0.08611048758029938,
        0.049513477832078934,
        0.017997220158576965,
        -0.01955672912299633,
        -0.0016115561593323946,
        -0.08303603529930115,
        -0.0028122318908572197,
        0.04132195562124252,
        0.011009289883077145,
        -0.017204655334353447,
        -0.02613338641822338,
        0.022603560239076614,
        0.055167753249406815,
        -0.0005616488633677363,
        0.023102033883333206,
        0.010236192494630814,
        0.01584159955382347,
        0.0763368159532547,
        0.07001794129610062,
        -0.13006490468978882,
        -0.11716222018003464,
        -0.05802678316831589,
        -0.06743960827589035,
        -0.05186866596341133,
        0.3264406621456146,
        -0.15705527365207672,
        0.051168207079172134,
        0.07181145995855331,
        -0.02475680410861969,
        -0.08093836158514023,
        0.01677566021680832,
        -0.11879246681928635,
        0.018568795174360275,
        -0.02861260063946247,
        -0.0037530993577092886,
        0.01768665388226509,
        0.006964637897908688,
        -0.000050361199100734666,
        -0.001712881145067513,
        -0.039531487971544266,
        0.07531096041202545,
        -0.07886030524969101,
        -0.03950891271233559,
        -0.04422851651906967,
        -0.04831445589661598,
        -0.06203274056315422,
        -0.0029363157227635384,
        0.03070376254618168,
        0.1458401083946228,
        0.01274357084184885,
        -0.03922247514128685,
        0.08546170592308044,
        -0.10692067444324493,
        -0.058898188173770905,
        0.1783905327320099,
        0.06116422265768051,
        -0.1910523772239685,
        0.350525438785553,
        0.0019326771143823862,
        0.050944894552230835,
        0.01747557334601879,
        -0.0031100090127438307,
        -0.036601871252059937,
        -0.018553921952843666,
        -0.11193152517080307,
        0.01789461448788643,
        0.04653572663664818,
        -0.09211142361164093,
        -0.002081838669255376,
        0.12921494245529175,
        0.0012768917949870229,
        0.018683020025491714,
        -0.008542673662304878,
        0.003168880008161068,
        -0.04887779429554939,
        -0.03648059815168381,
        0.09997760504484177,
        -0.010691605508327484,
        -0.002265538088977337,
        -0.08811795711517334,
        -0.016502849757671356,
        -0.06795995682477951,
        -0.03928461670875549,
        -0.2251189798116684,
        0.08233082294464111,
        0.027781421318650246,
        -0.013715655542910099,
        0.1264590173959732,
        -0.2638055980205536,
        0.055218182504177094,
        -0.030193842947483063,
        0.03891630470752716,
        -0.021526459604501724,
        0.046779777854681015,
        0.07327471673488617,
        -0.10466063022613525,
        -0.055323526263237,
        -0.15501080453395844,
        -0.12446499615907669,
        0.02934851124882698,
        -0.0037603704258799553,
        0.004917338490486145,
        -0.004760765936225653,
        0.010650768876075745,
        -0.012662582099437714,
        0.16732771694660187,
        0.043948281556367874,
        -0.034548595547676086,
        -0.06559590995311737,
        0.12174954265356064,
        -0.05924981087446213,
        -0.3111982047557831,
        0.16650138795375824,
        -0.016926586627960205,
        0.013044340535998344,
        0.029802171513438225,
        -0.1149001196026802,
        -0.00791076011955738,
        0.18875405192375183,
        0.06037640571594238,
        -0.07800927758216858,
        -0.11407265812158585,
        0.0035666287876665592,
        -0.039392661303281784,
        0.0016282307915389538,
        0.0061321561224758625,
        -0.020455891266465187,
        0.12447550892829895,
        -2.4636802673339844,
        -0.08539237827062607,
        0.03491506725549698,
        0.7577162384986877,
        0.03314363583922386,
        0.35987159609794617,
        -0.004013383761048317,
        -0.07176598161458969,
        0.005602231249213219,
        0.2258259803056717,
        0.07341187447309494,
        0.15486571192741394,
        0.18282487988471985,
        0.0016203316627070308,
        -0.22464174032211304,
        -0.29166215658187866,
        0.9481271505355835,
        1.2375422716140747,
        1.8401728868484497,
        -0.4205736219882965,
        -0.08723657578229904,
        -0.061031751334667206,
        0.11302242428064346,
        0.7086896896362305,
        -0.1708899438381195,
        0.6319186091423035,
        -1.4946720600128174,
        0.8342995643615723,
        -1.873571515083313,
        0.10319822281599045,
        2.1592111587524414,
        -0.024245230481028557,
        0.9882413744926453,
        0.27680543065071106,
        -1.580849051475525,
        0.670889139175415,
        0.02246561273932457,
        -0.015580391511321068,
        0.013955321162939072,
        0.034528713673353195,
        -0.18373894691467285,
        -0.9803021550178528,
        -1.3132950067520142,
        0.11546837538480759,
        -1.8986035585403442,
        0.2998400032520294,
        -0.15865589678287506,
        -0.3129671812057495,
        0.9149491786956787,
        -0.01536688581109047,
        -0.5970869064331055,
        -1.3367019891738892,
        -2.3433847427368164,
        -0.11856909096240997,
        0.3260141611099243,
        2.4026548862457275,
        -0.7966787219047546,
        0.12687598168849945,
        0.028975866734981537,
        -0.043613240122795105,
        0.39916306734085083,
        0.04624587297439575,
        -0.2276197075843811,
        0.15520411729812622,
        -0.3560028374195099,
        0.124338798224926,
        -0.1083015650510788,
        0.9525259733200073,
        0.010627797804772854,
        2.352504014968872,
        0.015677984803915024,
        -2.492933750152588,
        -0.04276978224515915,
        -0.07486505061388016,
        0.25619933009147644,
        0.1045968309044838,
        -0.026967212557792664,
        0.004536458291113377,
        -0.1985573023557663,
        0.07627209275960922,
        0.10497596859931946,
        -2.0138418674468994,
        -1.6667441129684448,
        -1.261584758758545,
        1.147519826889038,
        -0.8660768866539001,
        -0.0032915568444877863,
        0.4789179563522339,
        0.13578173518180847,
        -0.410579651594162,
        -1.7328892946243286,
        -2.5788016319274902,
        0.20095916092395782,
        0.16075128316879272,
        -0.6581923365592957,
        -0.3190433084964752,
        -0.5402365922927856,
        -0.16772973537445068,
        -0.7533441185951233,
        1.880449652671814,
        -0.030024055391550064,
        0.06749985367059708,
        -0.04637710377573967,
        0.02030254900455475,
        0.023633357137441635,
        0.21205483376979828,
        -1.2395418882369995,
        0.14826159179210663,
        0.999663233757019,
        -0.04411331191658974,
        -0.2914987802505493,
        -0.3924708366394043,
        -1.0459164381027222,
        -0.03620649129152298,
        -0.24902847409248352,
        -2.0027058124542236,
        -0.6066969037055969,
        0.05924462154507637,
        1.0562660694122314,
        -0.7112392783164978,
        -0.1403791308403015,
        -0.515723705291748,
        -0.05149984359741211,
        0.021493863314390182,
        -0.029557382687926292,
        0.048417553305625916,
        1.240322232246399,
        -0.0265677310526371,
        -0.013960271142423153,
        0.0016207312000915408,
        0.05156553164124489,
        -0.11007088422775269,
        -0.006125031970441341,
        -0.07584886997938156,
        -0.009163054637610912,
        0.07009182125329971,
        -0.0195879265666008,
        -0.03958519548177719,
        0.020053459331393242,
        0.07813292741775513,
        0.08920338749885559,
        -0.004044863395392895,
        -0.07341013103723526,
        -0.01592489704489708,
        0.09023161977529526,
        0.019495241343975067,
        0.007795014884322882,
        -0.007745801936835051,
        -0.16361628472805023,
        0.07157871872186661,
        -0.03229454904794693,
        0.11970578134059906,
        -0.10049097239971161,
        -0.013869589194655418,
        0.08643088489770889,
        0.10722783207893372,
        0.030185461044311523,
        0.06038283929228783,
        -0.025985145941376686,
        0.04893727973103523,
        -0.024910323321819305,
        0.04809954762458801,
        0.00760997598990798,
        -0.020240793004631996,
        -0.004260215442627668,
        -0.006860935594886541,
        -0.006579206790775061,
        0.05092062056064606,
        -0.10050495713949203,
        -0.10045412182807922,
        0.09205805510282516,
        -0.08978180587291718,
        -0.020021788775920868,
        0.13437247276306152,
        0.04231634363532066,
        -0.15861482918262482,
        -0.011402983218431473,
        -0.007878422737121582,
        0.10313653945922852,
        0.02688000723719597,
        -0.05369184911251068,
        -0.029094981029629707,
        -0.05857907980680466,
        -0.012487562373280525,
        -0.013825084082782269,
        0.02057648077607155,
        0.0007863401551730931,
        0.038620494306087494,
        -0.010129619389772415,
        -0.0018641585484147072,
        0.05813390016555786,
        0.1111663356423378,
        0.05976318567991257,
        -0.08964641392230988,
        -0.03837982937693596,
        -0.059517841786146164,
        -0.008479270152747631,
        -0.06838134676218033,
        0.014064790681004524,
        0.027226265519857407,
        0.0015022148145362735,
        0.002697212155908346,
        0.056614916771650314,
        0.05874643847346306,
        0.028716184198856354,
        0.011885259300470352,
        0.13056142628192902,
        0.010693502612411976,
        -0.04763597622513771,
        0.033341292291879654,
        0.04434102773666382,
        -0.034165896475315094,
        0.03995123878121376,
        0.0271260067820549,
        0.014122314751148224,
        -0.020813653245568275,
        0.007593043148517609,
        0.04276491701602936,
        0.07596152275800705,
        0.02154729887843132,
        -0.010388254188001156,
        -0.09359291940927505,
        -0.020337212830781937,
        0.09195033460855484,
        -0.04740159958600998,
        -0.07378456741571426,
        -0.014602266252040863,
        -0.04823391139507294,
        0.01277433056384325,
        -0.004487536381930113,
        -0.006394074764102697,
        -0.0037045376375317574,
        0.07426030188798904,
        0.11854996532201767,
        0.01817517727613449,
        0.06280122697353363,
        -0.001514393836259842,
        -0.06169671192765236,
        -0.020326310768723488,
        -0.1500338762998581,
        -0.09575243294239044,
        -0.0033663546200841665,
        -0.01779649406671524,
        0.06724431365728378,
        0.04282606020569801,
        0.04340806230902672,
        0.12032249569892883,
        -0.007774575147777796,
        -0.00925140269100666,
        -0.008924940600991249,
        0.001666699768975377,
        0.009955784305930138,
        0.049146972596645355,
        -0.00630501564592123,
        0.06125021353363991,
        -0.05651206150650978,
        -0.03109528124332428,
        0.015035875141620636,
        0.04220244288444519,
        0.09919346123933792,
        0.002810385078191757,
        0.019105760380625725,
        -0.007867081090807915,
        0.020037392154335976,
        0.0057936180382966995,
        0.03988004848361015,
        -0.03782792389392853,
        -0.020424440503120422,
        -0.10404288023710251,
        -0.011867989785969257,
        0.07057876139879227,
        0.015288622118532658,
        -0.003165156114846468,
        0.018669623881578445,
        0.053119152784347534,
        -0.05524890124797821,
        -0.13395032286643982,
        0.0592716746032238,
        -0.018050536513328552,
        -0.00020335943554528058,
        0.07327089458703995,
        -0.00039381353417411447,
        0.06175854802131653,
        -0.04001544788479805,
        -0.0008630171068944037,
        -0.0989362820982933,
        -0.003955804277211428,
        -0.0005336322356015444,
        -0.005193838384002447,
        -0.001970776589587331,
        -0.030496282503008842,
        -0.01791471056640148,
        0.002151200082153082,
        0.0023184388410300016,
        0.004557535517960787,
        -0.04020903259515762,
        0.08071417361497879,
        -0.05637317895889282,
        -0.017787490040063858,
        0.03969275951385498,
        -0.038939014077186584,
        -0.17808760702610016,
        -0.016417687758803368,
        0.10902459174394608,
        0.05236876755952835,
        -0.00007078075577737764,
        -0.114073745906353,
        0.08006291091442108,
        -0.02849433198571205,
        0.018943162634968758,
        0.0822402760386467,
        -0.009156147949397564,
        -0.008458849042654037,
        -0.4695352613925934,
        0.0007839951431378722,
        0.04827206954360008,
        0.13106441497802734,
        0.0036107057239860296,
        0.024423200637102127,
        -0.04971528425812721,
        0.05564838647842407,
        -0.003412901423871517,
        0.006406543310731649,
        -0.10283417999744415,
        -0.0008134844829328358,
        -0.058411210775375366,
        0.003614576533436775,
        -0.0011730926344171166,
        0.004759642761200666,
        -0.013488130643963814,
        -0.00971189234405756,
        -0.07310706377029419,
        0.008958491496741772,
        -0.006926223170012236,
        0.11572148650884628,
        0.001196446013636887,
        -0.023960327729582787,
        0.03652370348572731,
        0.07298541814088821,
        0.07168158143758774,
        0.04718536511063576,
        0.02568846195936203,
        0.04979593679308891,
        -0.17823486030101776,
        0.007713275495916605,
        0.05630424618721008,
        0.07397357374429703,
        0.00484247412532568,
        0.08841036260128021,
        -0.13915541768074036,
        0.03991742804646492,
        0.03882851451635361,
        0.04306770861148834,
        0.049395602196455,
        -0.040545254945755005,
        -0.06294891238212585,
        0.0011449172161519527,
        0.0019763093441724777,
        -0.0023128660395741463,
        0.006720643024891615,
        -0.18986603617668152,
        -0.07175179570913315,
        0.07229477912187576,
        -0.08987981826066971,
        -0.09417807310819626,
        -0.12943115830421448,
        0.00936528667807579,
        -0.014158772304654121,
        -0.05786392465233803,
        -0.002065777312964201,
        0.07905099540948868,
        0.012456717900931835,
        -0.024874789640307426,
        -0.036993227899074554,
        -0.017563102766871452,
        -0.01861235685646534,
        0.1306648999452591,
        -0.023454397916793823,
        0.0005673602572642267,
        0.023542258888483047,
        0.03919537737965584,
        -0.0035780814941972494,
        -0.03259893134236336,
        0.03569190576672554,
        0.07361000031232834,
        -0.013408878818154335,
        -0.005082730669528246,
        -0.019529525190591812,
        -0.00029861627263017,
        0.009338480420410633,
        0.0020726474467664957,
        0.0003043364849872887,
        -0.0015786121366545558,
        0.009440035559237003,
        0.05458780750632286,
        -0.015579301863908768,
        -0.08874474465847015,
        0.00948297418653965,
        -0.0006839276175014675,
        0.002871864940971136,
        0.03928675502538681,
        -0.03465991094708443,
        -0.02333982102572918,
        0.11705135554075241,
        0.07807600498199463,
        0.10621774941682816,
        0.05964725464582443,
        0.06571152061223984,
        -0.17229074239730835,
        0.10799750685691833,
        -0.008303104899823666,
        -0.0546528697013855,
        0.023432860150933266,
        0.10196561366319656,
        -0.01756664179265499,
        0.10780899226665497,
        -0.019027158617973328,
        0.0073926267214119434,
        -0.011623300611972809,
        -0.01184109877794981,
        -0.0057467068545520306,
        0.001380469067953527,
        0.003118736669421196,
        0.03011961653828621,
        -0.09120629727840424,
        0.08626198768615723,
        0.02214156650006771,
        0.0633450448513031,
        0.02018745243549347,
        0.04677993059158325,
        -0.008256562985479832,
        0.010450917296111584,
        -0.10859321802854538,
        -0.015314032323658466,
        0.005556158255785704,
        -0.033921826630830765,
        0.10365922749042511,
        0.07992255687713623,
        -0.028008360415697098,
        -0.043520063161849976,
        0.21027395129203796,
        -0.2892315089702606,
        -0.007722186855971813,
        -0.027485990896821022,
        -0.004299680702388287,
        0.002127365441992879,
        0.06355021893978119,
        -0.009913713671267033,
        0.07337819784879684,
        0.03880617395043373,
        -0.01769767515361309,
        0.03922472521662712,
        0.003953932318836451,
        -0.08237560838460922,
        0.0010727065382525325,
        -0.04425056651234627,
        0.009749779477715492,
        -0.0022304458543658257,
        0.02871789038181305,
        0.02002757415175438,
        -0.10380642116069794,
        0.00787960272282362,
        -0.06496016681194305,
        0.06424303352832794,
        0.06384774297475815,
        0.04885175824165344,
        0.030645444989204407,
        0.22077740728855133,
        -0.048750050365924835,
        -0.040078241378068924,
        0.032103218138217926,
        -0.08755452185869217,
        0.06499045342206955,
        -0.09318584948778152,
        -0.0101077351719141,
        -0.04581692814826965,
        -0.01835245080292225,
        -0.008363259956240654,
        -0.03368544578552246,
        0.0779719352722168,
        0.031384535133838654,
        0.17559349536895752,
        0.14609426259994507,
        0.01570148766040802,
        0.002655595541000366,
        0.002007303759455681,
        0.006334778852760792,
        -0.009561417624354362,
        -0.019296536222100258,
        -0.19219861924648285,
        -0.0027469731867313385,
        0.03333196043968201,
        0.037576206028461456,
        -0.08064787089824677,
        0.039930153638124466,
        0.22426535189151764,
        -0.14694155752658844,
        0.019629107788205147,
        -0.01945638097822666,
        -0.07290679216384888,
        0.061749767512083054,
        -0.0019780131988227367,
        -0.16162654757499695,
        -0.012785583734512329,
        0.11838310956954956,
        -0.17512643337249756,
        0.000014479982382908929,
        0.04502200335264206,
        0.016256332397460938,
        0.0020063412375748158,
        -0.0022891233675181866,
        -0.6461199522018433,
        -0.4640918970108032,
        0.8372572660446167,
        -0.06583507359027863,
        -2.534367561340332,
        -3.9025330543518066,
        -1.454098105430603,
        0.030488982796669006,
        0.44193413853645325,
        -0.029037943109869957,
        -1.9089512825012207,
        -1.0230778455734253,
        0.6525213718414307,
        1.642330288887024,
        -0.06125156953930855,
        -2.0842714309692383,
        -1.425692081451416,
        1.5400558710098267,
        -0.4839431643486023,
        0.5307753682136536,
        -0.9123457074165344,
        -2.0588793754577637,
        -1.3810075521469116,
        1.4129693508148193,
        -0.9372356534004211,
        0.12055664509534836,
        -1.6919901371002197,
        -1.1915068626403809,
        1.2634788751602173,
        0.6730890870094299,
        -0.2123684138059616,
        -0.7988581657409668,
        1.8015612363815308,
        -1.268174648284912,
        -1.7349982261657715,
        0.9395947456359863,
        1.114567756652832,
        0.02766832523047924,
        -4.085761070251465,
        -4.489961624145508,
        0.38215571641921997,
        -0.6418358683586121,
        0.9464694261550903,
        2.0531747341156006,
        -0.08784738183021545,
        0.651970624923706,
        0.7114335298538208,
        -1.544764757156372,
        -0.331684947013855,
        0.53162682056427,
        0.03782675787806511,
        -1.0249921083450317,
        -0.44284573197364807,
        0.22853843867778778,
        1.6106261014938354,
        -1.9556341171264648,
        0.3332275152206421,
        -1.139099359512329,
        0.08897960931062698,
        -0.07640795409679413,
        0.4158528447151184,
        0.6379531621932983,
        -4.215097427368164,
        1.3985066413879395,
        0.03740905970335007,
        -0.1394226849079132,
        0.12784609198570251,
        -0.07081808894872665,
        0.14740900695323944,
        0.000882523600012064,
        0.11045396327972412,
        0.007469878066331148,
        -0.12283898144960403,
        -0.0286372322589159,
        -0.09416917711496353,
        0.08179013431072235,
        -0.01415318064391613,
        -0.13806134462356567,
        0.0076434738002717495,
        0.1420181691646576,
        0.02143336646258831,
        -0.0452108308672905,
        -0.04445522278547287,
        -0.06662111729383469,
        -0.1664762794971466,
        -0.007071135099977255,
        -0.21586234867572784,
        -0.0022068023681640625,
        0.32277268171310425,
        -0.7899615168571472,
        0.012226460501551628,
        0.15417584776878357,
        0.029887445271015167,
        -0.1419869065284729,
        0.11477688699960709,
        -0.07740969210863113,
        -0.08078254759311676,
        -0.22147834300994873,
        0.009933019056916237,
        0.018590359017252922,
        0.050459619611501694,
        -0.00060356903122738,
        -0.000031765670428285375,
        -0.0006036004633642733,
        0.03317767381668091,
        0.14865891635417938,
        0.06356815993785858,
        -0.09543881565332413,
        0.0038930047303438187,
        0.0644192323088646,
        0.12172487378120422,
        0.017080923542380333,
        0.09169416129589081,
        0.08191835135221481,
        0.0019439946627244353,
        -0.01723274402320385,
        0.014043563045561314,
        -0.03408586606383324,
        0.1127130389213562,
        -0.1471571922302246,
        0.07717931270599365,
        -0.04156181961297989,
        -0.08741755038499832,
        0.0023994771763682365,
        0.03373490646481514,
        -0.011293351650238037,
        0.005338536109775305,
        0.13283157348632812,
        0.15234102308750153,
        0.12630803883075714,
        -0.16953887045383453,
        -0.06694211810827255,
        -0.019034648314118385,
        0.001109069213271141,
        -0.11019641906023026,
        0.0028630427550524473,
        0.16722553968429565,
        0.007747848052531481,
        0.012134150601923466,
        0.08723317086696625,
        0.23492862284183502,
        -0.09796600788831711,
        0.00500738387927413,
        0.13488885760307312,
        0.03370518609881401,
        -0.2634326219558716,
        0.02267063409090042,
        -0.005724678281694651,
        0.44667381048202515,
        0.04731575399637222,
        0.13911232352256775,
        -0.07976984232664108,
        0.034216344356536865,
        0.7841190099716187,
        0.20320941507816315,
        -0.005427561700344086,
        0.07885479927062988,
        0.16993844509124756,
        -0.1843569427728653,
        0.040267959237098694,
        0.13837265968322754,
        0.02484399452805519,
        0.3169768750667572,
        -0.12152941524982452,
        -0.057636287063360214,
        0.027641521766781807,
        0.002080823527649045,
        -0.003024667501449585,
        -0.0233395267277956,
        0.06620298326015472,
        -0.19652818143367767,
        0.08678675442934036,
        -0.14392073452472687,
        0.05727514997124672,
        -0.2827717363834381,
        0.049824852496385574,
        -0.16120602190494537,
        -0.09055934846401215,
        -0.02850578911602497,
        0.22294625639915466,
        -0.055392973124980927,
        0.007247357629239559,
        0.005661798175424337,
        0.1784631758928299,
        -0.18426191806793213,
        -0.04929381608963013,
        0.14465266466140747,
        -0.0031417652498930693,
        -0.09787780791521072,
        -0.0747995600104332,
        -0.0008589866338297725,
        0.0018521150341257453,
        -0.22371529042720795,
        -0.03508954495191574,
        0.14777277410030365,
        0.08354368805885315,
        -0.09694588929414749,
        -0.0025610418524593115,
        0.028269778937101364,
        -0.0033775793854147196,
        -0.07939256727695465,
        0.014806295745074749,
        0.021523794159293175,
        -0.12431202083826065,
        -0.2854907512664795,
        0.16323180496692657,
        0.007948354817926884,
        -0.1473589986562729,
        -0.0670635849237442,
        0.27104902267456055,
        -0.034403979778289795,
        0.05353061109781265,
        -0.3880580961704254,
        -0.03487387299537659,
        -0.0376359261572361,
        0.044306881725788116,
        -0.2831118404865265,
        0.05788259208202362,
        -0.14484792947769165,
        -0.063074991106987,
        -0.13089458644390106,
        -0.033664774149656296,
        -0.002118246629834175,
        0.04194595292210579,
        -0.046048346906900406,
        0.009926990605890751,
        -0.2468794882297516,
        0.12212688475847244,
        0.008523042313754559,
        -0.021596228703856468,
        -0.0028947952669113874,
        -0.002909839851781726,
        0.013460136018693447,
        -0.16714994609355927,
        0.08324600011110306,
        -0.01693631522357464,
        0.0853603184223175,
        -0.06171037256717682,
        0.07238243520259857,
        -0.10027748346328735,
        0.13504010438919067,
        0.07614757865667343,
        0.026338493451476097,
        -0.263896107673645,
        0.04189707711338997,
        0.00912302266806364,
        -0.040194205939769745,
        0.005934737157076597,
        0.12897105515003204,
        -0.05763119086623192,
        0.21477839350700378,
        0.008285128511488438,
        0.09576010704040527,
        0.0611487440764904,
        -0.0025455004069954157,
        0.019862068817019463,
        -0.18918149173259735,
        0.389384388923645,
        -0.1708177626132965,
        -0.05081849917769432,
        -0.22136352956295013,
        0.15418100357055664,
        -0.005796174984425306,
        -0.00937691330909729,
        -0.38413020968437195,
        -0.07829905301332474,
        0.17750051617622375,
        0.27578675746917725,
        -0.18982195854187012,
        0.6482945084571838,
        -0.08209268003702164,
        0.13427041471004486,
        0.10138196498155594,
        -0.284799724817276,
        0.18678076565265656,
        -0.4654717445373535,
        -0.3349733054637909,
        0.2841964364051819,
        0.03406373783946037,
        0.3610824644565582,
        0.05879854038357735,
        -0.24559466540813446,
        0.11875712871551514,
        -0.33026665449142456,
        -0.41198524832725525,
        -0.0769587829709053,
        0.0218663290143013,
        0.2797054648399353,
        -0.24059182405471802,
        0.17953437566757202,
        -0.10173080861568451,
        0.11622565239667892,
        -0.06486430019140244,
        0.0012472834205254912,
        -0.13636250793933868,
        -0.18185210227966309,
        -0.09812621027231216,
        0.18022698163986206,
        -0.18271897733211517,
        -0.12302085757255554,
        0.269090473651886,
        0.27933791279792786,
        -0.3705372214317322,
        -0.1731637418270111,
        -0.5314216017723083,
        -0.1895757019519806,
        0.34282639622688293,
        -0.3450963795185089,
        0.6818984746932983,
        0.28707653284072876,
        0.04364491626620293,
        0.4270014464855194,
        0.2558484971523285,
        0.1850913017988205,
        0.010932572185993195,
        -0.19139564037322998,
        -0.21705074608325958,
        0.18852289021015167,
        -0.4620022773742676,
        -0.17104172706604004,
        0.2500070631504059,
        -0.31709012389183044,
        0.02899955026805401,
        -0.1529851108789444,
        -0.19216111302375793,
        -0.006215081084519625,
        0.0731455534696579,
        0.05836198478937149,
        0.2887779772281647,
        0.43991246819496155,
        0.3184962570667267,
        -0.1886158436536789,
        0.2769831418991089,
        0.10090459138154984,
        -0.03295769914984703,
        -0.44916102290153503,
        -0.11888695508241653,
        0.10822793841362,
        0.12039335817098618,
        0.31907862424850464,
        -0.5872689485549927,
        -0.1994324028491974,
        -0.2237464040517807,
        0.15822558104991913,
        0.07107029855251312,
        -0.27618759870529175,
        -0.34775206446647644,
        -0.024795545265078545,
        -0.21539360284805298,
        -0.013669155538082123,
        0.07091173529624939,
        0.101821668446064,
        -0.4251081347465515,
        -0.6230074763298035,
        -0.2960785925388336,
        0.3459843397140503,
        -0.3068878948688507,
        -0.023962752893567085,
        0.17215341329574585,
        -0.247048020362854,
        0.0019907616078853607,
        -0.02480968087911606,
        0.1464228481054306,
        0.2276989072561264,
        0.42222079634666443,
        -0.456330806016922,
        0.20578449964523315,
        -0.17463529109954834,
        -0.4557432532310486,
        0.22530144453048706,
        0.19169127941131592,
        -0.18156076967716217,
        -0.14803802967071533,
        0.03792057931423187,
        -0.5891391038894653,
        0.0623898059129715,
        -0.20547541975975037,
        -0.02203640341758728,
        -0.09176162630319595,
        -0.06112723425030708,
        -0.0030868714675307274,
        0.019355276599526405,
        0.157348170876503,
        -0.17569021880626678
      ],
      "b": [
        -0.9420788884162903,
        0.1251402199268341,
        0.754923403263092,
        1.2018673419952393,
        -0.9488253593444824,
        -3.0473058223724365,
        -0.9017456769943237,
        0.15194012224674225,
        1.1347250938415527,
        -0.18391597270965576,
        -1.5267112255096436,
        -0.7691026329994202,
        -1.5491653680801392,
        -1.61941397190094,
        -0.09702236950397491,
        0.027730898931622505,
        -1.083152174949646,
        -0.5574143528938293,
        0.07771244645118713,
        -0.17380988597869873,
        -0.23095862567424774,
        0.014563946053385735,
        0.27949047088623047,
        1.0952922105789185,
        0.10210826247930527,
        -0.048062507063150406,
        -0.6812360882759094,
        -0.5786649584770203,
        0.4088476896286011,
        0.048471201211214066,
        -0.7062433958053589,
        -0.14288243651390076,
        1.3116793632507324,
        -1.4210292100906372,
        -1.3087400197982788,
        0.0507139191031456,
        0.6503785252571106,
        0.1599726527929306,
        -3.1879918575286865,
        -3.5096802711486816,
        0.42759546637535095,
        0.10601978749036789,
        0.21796442568302155,
        1.3983726501464844,
        0.694459080696106,
        0.22189883887767792,
        0.2557443678379059,
        -1.1359044313430786,
        -1.2448813915252686,
        -0.4916337728500366,
        0.0866972953081131,
        -1.4631119966506958,
        -1.004015326499939,
        -0.3840413987636566,
        1.526963710784912,
        -1.5112800598144531,
        -0.34327614307403564,
        -0.2592184543609619,
        -0.10574222356081009,
        -0.0877433568239212,
        0.47903329133987427,
        -1.048783779144287,
        -3.285799980163574,
        0.35647720098495483
      ]
    },
    {
      "inDim": 64,
      "outDim": 2,
      "activation": "linear",
      "W": [
        0.050985418260097504,
        0.19118501245975494,
        -0.30626827478408813,
        -0.10648650676012039,
        -0.14479993283748627,
        0.08630167692899704,
        -0.12782025337219238,
        -0.2583470642566681,
        -0.13107436895370483,
        -0.14078360795974731,
        2.1732869148254395,
        7.122477054595947,
        0.05714049190282822,
        0.24635609984397888,
        -0.08302197605371475,
        -1.153583288192749,
        -0.024431226775050163,
        -0.30331674218177795,
        -0.7428696155548096,
        -0.4484693706035614,
        0.0359313040971756,
        -0.27864640951156616,
        -0.1174444779753685,
        -0.2278139591217041,
        0.14366360008716583,
        -0.0932675302028656,
        -0.10038355737924576,
        -0.0807642787694931,
        0.065530925989151,
        1.1632543802261353,
        0.10500786453485489,
        0.14412514865398407,
        0.20629222691059113,
        -0.09761033207178116,
        0.1353391408920288,
        0.05159095302224159,
        0.13105995953083038,
        -0.21715667843818665,
        -0.18448330461978912,
        0.19227005541324615,
        0.1094195544719696,
        -0.02257564663887024,
        0.031488992273807526,
        -0.16438785195350647,
        0.0050796098075807095,
        0.1457214653491974,
        -0.1799352467060089,
        -0.016378287225961685,
        0.016386086121201515,
        -0.08871304988861084,
        -0.021067053079605103,
        0.051446348428726196,
        -0.10998006165027618,
        0.008723017759621143,
        -0.17173844575881958,
        -0.2712131142616272,
        -0.07625289261341095,
        0.24022693932056427,
        0.18512073159217834,
        -0.031340889632701874,
        -0.1418343484401703,
        0.0006261909729801118,
        0.2282315045595169,
        -0.08308933675289154,
        -0.0445399135351181,
        -0.1822318583726883,
        -0.0017952464986592531,
        0.14628396928310394,
        -0.05231541767716408,
        0.1495230495929718,
        -0.14093175530433655,
        0.07229781150817871,
        -0.04505602642893791,
        -0.1698579490184784,
        -1.0917690992355347,
        0.2683921456336975,
        -7.487407684326172,
        2.9519572257995605,
        -2.3058998584747314,
        -7.211169242858887,
        -0.22856135666370392,
        0.2818954586982727,
        -0.07843255996704102,
        0.11245895177125931,
        -0.0959407165646553,
        -0.06792521476745605,
        0.1710200160741806,
        0.2120061069726944,
        0.0919119194149971,
        0.18904918432235718,
        0.14722798764705658,
        -0.11365895718336105,
        0.12642094492912292,
        -0.01645244099199772,
        0.1815342903137207,
        0.2390226423740387,
        -0.06489269435405731,
        -0.05773050710558891,
        0.130278080701828,
        -0.022975163534283638,
        0.8423686623573303,
        0.5164353847503662,
        -0.14333203434944153,
        -0.10952666401863098,
        0.11682935804128647,
        0.2308887541294098,
        0.23868462443351746,
        0.10277866572141647,
        0.1749323308467865,
        -0.11079376190900803,
        0.016851576045155525,
        -0.1229257732629776,
        -0.23389944434165955,
        0.04647061973810196,
        -0.02838258631527424,
        0.10615237057209015,
        0.012587272562086582,
        -0.047906920313835144,
        1.0037864446640015,
        -0.24178704619407654,
        0.17877475917339325,
        -0.22401662170886993,
        0.0507698692381382,
        -0.22120516002178192,
        7.654613971710205,
        -1.6823513507843018,
        -0.13636063039302826,
        0.09816111624240875
      ],
      "b": [
        0.22175070643424988,
        0.5543608069419861
      ]
    }
  ]
}