{
  "version": 1,
  "id": "u27_H32x2",
  "K": 4,
  "featureDim": 29,
  "inputMean": [
    0.005562088452279568,
    0.010740191675722599,
    -12.107275009155273,
    31.060359954833984,
    -0.007391314022243023,
    -0.0014237378491088748,
    532.5204467773438,
    -2.6612308025360107,
    0.464982271194458,
    -0.7509861588478088,
    -0.10860028117895126,
    -1.9606475830078125,
    0.18706649541854858,
    -1.641610860824585,
    -1.6478159427642822,
    -0.00996802281588316,
    0.008924822323024273,
    -0.004896283615380526,
    0.00541970320045948,
    -0.008952147327363491,
    0.0056013003922998905,
    -0.006117881741374731,
    -0.0008334347512573004,
    173.2367401123047,
    208.20065307617188,
    239.71226501464844,
    263.1102294921875,
    0,
    0
  ],
  "inputStd": [
    1.4483128786087036,
    1.4255748987197876,
    463.25140380859375,
    464.70733642578125,
    0.7176584601402283,
    0.6962109208106995,
    384.8221130371094,
    144.51588439941406,
    153.10362243652344,
    168.19386291503906,
    175.0343475341797,
    189.44021606445312,
    196.030029296875,
    204.62815856933594,
    212.96701049804688,
    0.7010394334793091,
    0.7129970192909241,
    0.7035136818885803,
    0.7106441855430603,
    0.7021756768226624,
    0.7119254469871521,
    0.6989261507987976,
    0.715167224407196,
    119.6740951538086,
    124.8169174194336,
    129.8355712890625,
    134.1865997314453,
    0.0010000000474974513,
    0.0010000000474974513
  ],
  "outputScale": 0.05,
  "clipMagnitude": 0.05,
  "layers": [
    {
      "inDim": 29,
      "outDim": 32,
      "activation": "relu",
      "W": [
        0.270225465297699,
        1.28786301612854,
        0.009014949202537537,
        -1.73684823513031,
        -2.481577157974243,
        -0.20084090530872345,
        -0.33891674876213074,
        0.9004101753234863,
        -0.8248278498649597,
        1.1988410949707031,
        0.48367807269096375,
        -0.38946014642715454,
        -0.9714441299438477,
        1.882705807685852,
        -2.541815757751465,
        -2.556262969970703,
        0.6914790272712708,
        1.5769749879837036,
        1.1315799951553345,
        -0.004509103484451771,
        -1.7297624349594116,
        0.0010419900063425303,
        0.02164650522172451,
        -0.04188736528158188,
        -0.29933905601501465,
        -2.394662857055664,
        -0.05022810399532318,
        -0.11385276913642883,
        -0.029552757740020752,
        0.2816305458545685,
        -1.0279597043991089,
        -1.805803656578064,
        -0.1403151899576187,
        1.9616873264312744,
        -0.19667549431324005,
        -0.6489304900169373,
        -1.941524624824524,
        -0.10514611750841141,
        -1.4546705484390259,
        0.603665828704834,
        -1.309237003326416,
        1.6044243574142456,
        -1.4729851484298706,
        -1.349595069885254,
        -0.22096842527389526,
        -0.6154378652572632,
        0.12668867409229279,
        0.373637318611145,
        2.526057004928589,
        -0.6381425261497498,
        0.13020509481430054,
        0.0006369517650455236,
        1.7438526153564453,
        -0.002438379218801856,
        -0.009344452992081642,
        1.9048703908920288,
        0.09732456505298615,
        -0.4534524381160736,
        0.11781986802816391,
        2.8113744258880615,
        2.2069969177246094,
        -0.37172839045524597,
        -1.0757120847702026,
        2.3969202041625977,
        -0.022721068933606148,
        -0.018521051853895187,
        0.13727521896362305,
        -0.239397794008255,
        0.0009763538255356252,
        0.08208830654621124,
        0.02983860671520233,
        0.0090441033244133,
        -0.0018619333859533072,
        0.18161723017692566,
        0.0953608974814415,
        0.0192680973559618,
        -0.18666855990886688,
        0.02056189253926277,
        0.017511015757918358,
        -0.006351285148411989,
        -0.010922650806605816,
        0.006645516958087683,
        -0.01994631253182888,
        0.009611583314836025,
        -0.007481898181140423,
        -0.0016843868652358651,
        -0.016205258667469025,
        0.018126852810382843,
        0.5843474268913269,
        0.0031441436149179935,
        0.015693362802267075,
        -0.0015841326676309109,
        0.0016495975432917476,
        -0.1979641169309616,
        -0.0332670658826828,
        0.004243982490152121,
        0.10306192934513092,
        0.007617509458214045,
        0.04186699911952019,
        -0.11567186564207077,
        0.002946656197309494,
        -0.132442444562912,
        -0.08709576725959778,
        -0.009128688834607601,
        -0.010047647170722485,
        0.25502121448516846,
        -0.0741906389594078,
        -0.005327071528881788,
        0.434421569108963,
        -0.01605972833931446,
        -0.010868295095860958,
        0.011417756788432598,
        -0.01072899904102087,
        -0.013901873491704464,
        -0.011872531846165657,
        0.0006320651154965162,
        0.004056060221046209,
        -0.0015692809829488397,
        -0.06771192699670792,
        0.3370315134525299,
        0.44895878434181213,
        0.00482855224981904,
        0.01942567154765129,
        -0.033294111490249634,
        -0.015813568606972694,
        0.14187943935394287,
        -0.01495046354830265,
        -0.005361533258110285,
        0.02429690957069397,
        -1.7336299419403076,
        -0.08580181002616882,
        -1.032458782196045,
        2.9414875507354736,
        0.020023522898554802,
        0.77654629945755,
        -0.056463923305273056,
        -0.01105954684317112,
        -0.04609064385294914,
        -0.35268035531044006,
        -0.008688902482390404,
        -0.10364231467247009,
        1.3802354335784912,
        0.017819102853536606,
        3.063080310821533,
        -0.9098378419876099,
        -1.714255452156067,
        0.01613461785018444,
        -0.011591101996600628,
        -0.0023076594807207584,
        0.014499195851385593,
        -0.7328342199325562,
        0.07390464842319489,
        -0.2945951223373413,
        3.125631809234619,
        0.04556945711374283,
        0.194234699010849,
        -0.002531546400859952,
        -0.3582178056240082,
        0.0053506409749388695,
        2.1348297595977783,
        0.21875320374965668,
        -2.4616875648498535,
        0.1764897108078003,
        0.25210049748420715,
        2.2714810371398926,
        0.20120833814144135,
        -0.1369912177324295,
        -0.016476722434163094,
        -0.001927089411765337,
        -0.002674309303984046,
        1.32420015335083,
        -0.026876669377088547,
        -0.44726043939590454,
        -0.4906030297279358,
        -0.03875936567783356,
        -0.49491241574287415,
        -3.0996060371398926,
        0.7385499477386475,
        0.004049301613122225,
        -0.0009493280667811632,
        0.012106415815651417,
        0.0025379788130521774,
        0.747207522392273,
        0.2744389772415161,
        -0.21351778507232666,
        0.6739707589149475,
        -0.12302962690591812,
        -3.447213649749756,
        -0.006449135486036539,
        0.38074925541877747,
        -0.028954453766345978,
        -2.7801554203033447,
        0.011328027583658695,
        -0.005010809283703566,
        0.02182728797197342,
        -0.14294229447841644,
        0.0038544300477951765,
        -0.0838727205991745,
        -0.03556181490421295,
        0.011807989329099655,
        -0.010473242029547691,
        -0.25691166520118713,
        -0.017261406406760216,
        -0.0118875028565526,
        -0.12607961893081665,
        0.0024176796432584524,
        -0.0006930173840373755,
        0.005873850546777248,
        0.0009232190204784274,
        0.01918778195977211,
        -0.014116467908024788,
        -0.0026613594964146614,
        -0.007480342872440815,
        0.0030721276998519897,
        0.026589618995785713,
        -0.23086385428905487,
        -0.16871117055416107,
        -0.005109886173158884,
        -0.0053110867738723755,
        0.00423010066151619,
        0.0017343477811664343,
        -0.036090217530727386,
        -0.012466819025576115,
        -0.0031383323948830366,
        -0.11529232561588287,
        0.0007965723052620888,
        1.2139462232589722,
        -0.03473811224102974,
        -0.0015642691869288683,
        1.9847570657730103,
        0.024976540356874466,
        0.37610942125320435,
        -0.11548572033643723,
        0.015693794935941696,
        0.3228341042995453,
        -0.08786499500274658,
        -0.6525538563728333,
        -0.005023745354264975,
        -0.09503734856843948,
        -0.002775638597086072,
        0.003790823044255376,
        -0.012068110518157482,
        0.07840322703123093,
        -0.6357568502426147,
        -0.1628991663455963,
        -0.46184253692626953,
        0.011494646780192852,
        0.007420761045068502,
        0.29687735438346863,
        0.022425638511776924,
        -0.2923792600631714,
        0.0031799981370568275,
        0.006289427634328604,
        -1.964684247970581,
        -0.15763233602046967,
        -0.0009068712242878973,
        -0.6090343594551086,
        -0.0035547693260014057,
        1.846231460571289,
        0.017247945070266724,
        -0.0009689931175671518,
        1.0541279315948486,
        0.040860749781131744,
        0.23758533596992493,
        -0.14903615415096283,
        0.0006326763541437685,
        -1.287753701210022,
        -0.034577999264001846,
        -0.6249073147773743,
        -0.013180366717278957,
        -0.2550283968448639,
        -0.0005625585909001529,
        -0.0005672950064763427,
        0.0016489948611706495,
        0.04527426138520241,
        -0.23199068009853363,
        -0.06234271824359894,
        0.05314627289772034,
        -0.03035552240908146,
        -0.02736532874405384,
        -0.04771214723587036,
        0.000211647420655936,
        0.33431950211524963,
        -0.0043839882127940655,
        0.05743686109781265,
        -0.23607032001018524,
        0.07662027329206467,
        0.000902640400454402,
        -0.3143247961997986,
        0.010774979367852211,
        0.5421684980392456,
        0.05252267047762871,
        -0.0010265035089105368,
        0.4181981682777405,
        -0.003442633431404829,
        0.03757312148809433,
        0.026554659008979797,
        0.027483517304062843,
        -0.23920838534832,
        0.028710398823022842,
        1.0233761072158813,
        -0.0014973161742091179,
        0.005642672069370747,
        0.010080883279442787,
        0.006518326234072447,
        -0.00011190406803507358,
        0.05235068500041962,
        -0.01499607041478157,
        -0.008406441658735275,
        -0.010089432820677757,
        -0.0035458628553897142,
        -0.02188793569803238,
        -0.645829439163208,
        0.007633765693753958,
        -0.09738919138908386,
        -0.013700124807655811,
        0.000430518965004012,
        -0.7412968873977661,
        -0.09232254326343536,
        0.003427894087508321,
        -0.1742861270904541,
        0.003959217108786106,
        0.02540205977857113,
        0.00915592722594738,
        0.0010380243184044957,
        0.16231931746006012,
        -0.0012115336721763015,
        -0.04069340601563454,
        -0.040267590433359146,
        -0.0028842680621892214,
        0.16570371389389038,
        -0.02801385149359703,
        -1.282827615737915,
        -0.0067818076349794865,
        -0.0826180949807167,
        0.003177979029715061,
        0.0017436171183362603,
        0.00986421387642622,
        -0.0412982702255249,
        0.002267004456371069,
        0.0020064522977918386,
        -0.015305852517485619,
        0.011245711706578732,
        0.010538839735090733,
        -0.7622765898704529,
        -0.00437078345566988,
        -0.1294332593679428,
        -0.00579103222116828,
        0.02906562201678753,
        -0.4469301700592041,
        -0.015997394919395447,
        -0.00016179111844394356,
        0.23672698438167572,
        -0.0018507912755012512,
        -0.3347596526145935,
        -0.010696777142584324,
        0.0029261496383696795,
        -0.2840898334980011,
        -0.0023808996193110943,
        0.007163307163864374,
        -0.011877518147230148,
        -0.03441544994711876,
        0.13954563438892365,
        -0.004333552438765764,
        -0.3845355808734894,
        0.005595951806753874,
        -0.006380065809935331,
        0.008995046839118004,
        -0.015589723363518715,
        0.011365552432835102,
        0.01924748532474041,
        0.005379977636039257,
        -0.008343345485627651,
        0.0009936537826433778,
        0.02462417259812355,
        0.005484500899910927,
        0.1235504075884819,
        -0.013742187060415745,
        0.03691106662154198,
        -0.0017144891899079084,
        -0.027187852188944817,
        0.14562676846981049,
        0.06758646667003632,
        -0.0014130623312667012,
        0.25050783157348633,
        -0.0019073180155828595,
        -0.4285229742527008,
        -0.005358274094760418,
        -0.0008663278422318399,
        0.11268400400876999,
        0.008175620809197426,
        0.017958758398890495,
        0.018315017223358154,
        0.01093982718884945,
        -0.058390434831380844,
        -0.010863278992474079,
        0.19808295369148254,
        0.004915940575301647,
        0.052509620785713196,
        -0.0041313981637358665,
        -0.004591756034642458,
        0.005252487491816282,
        -0.0020717449951916933,
        -0.001984972506761551,
        -0.011549893766641617,
        -0.004911045078188181,
        0.007421365473419428,
        0.026869891211390495,
        0.730993926525116,
        -0.011287974193692207,
        -0.008389404974877834,
        -0.00013949225831311196,
        -0.05277334153652191,
        0.27943798899650574,
        0.12289441376924515,
        0.0021360027603805065,
        -0.23308975994586945,
        -0.001822808408178389,
        0.6060949563980103,
        -0.013346569612622261,
        -0.004028622061014175,
        -0.05062010511755943,
        0.029920075088739395,
        -0.025964630767703056,
        -0.032499708235263824,
        0.008914615958929062,
        -0.1960185021162033,
        -0.03062235750257969,
        -0.7356741428375244,
        -0.0012182078789919615,
        0.030669325962662697,
        -0.004438392352312803,
        -0.011732719838619232,
        0.013043968938291073,
        -0.02912062406539917,
        -0.005334316752851009,
        0.009280877187848091,
        0.013569786213338375,
        -0.03789791092276573,
        -0.018677543848752975,
        1.6747020483016968,
        0.00014335676678456366,
        -0.05446561053395271,
        0.002693478250876069,
        -0.006962253246456385,
        0.19055481255054474,
        -0.04784667491912842,
        0.0009709717123769224,
        0.13167034089565277,
        -0.0021772331092506647,
        -0.17677578330039978,
        0.017716122791171074,
        -0.0018251147121191025,
        0.2795521914958954,
        -0.013270246796309948,
        0.004641982726752758,
        0.07361005991697311,
        -0.0022504294756799936,
        1.0076876878738403,
        0.10173366963863373,
        -0.28998467326164246,
        0.012143678963184357,
        0.008315644226968288,
        -0.003035878296941519,
        0.004291514400392771,
        0.004210821818560362,
        0.023136639967560768,
        -0.003620499512180686,
        -0.001165996422059834,
        -0.00910072773694992,
        -0.0004254333325661719,
        0.008435798808932304,
        1.588529109954834,
        0.008048002608120441,
        0.06930085271596909,
        0.006869907956570387,
        0.020616106688976288,
        -0.21426793932914734,
        -0.04926994815468788,
        -0.0006887881900183856,
        -0.169271320104599,
        0.016966218128800392,
        -0.5583765506744385,
        0.04642479121685028,
        0.0011948855826631188,
        -0.9131761193275452,
        -0.039561763405799866,
        -1.2150743007659912,
        1.0256600379943848,
        -0.03302688151597977,
        -0.48430415987968445,
        0.5115041136741638,
        0.7781370878219604,
        0.013768952339887619,
        3.0315208435058594,
        0.0060153319500386715,
        0.0027117589488625526,
        0.011226389557123184,
        -1.4248685836791992,
        0.24881038069725037,
        2.081000804901123,
        0.16792728006839752,
        -0.004650781396776438,
        -0.017160585150122643,
        -0.8437747955322266,
        -0.02289183810353279,
        0.14752253890037537,
        0.0005444493726827204,
        0.0034324806183576584,
        0.8805209398269653,
        1.362075686454773,
        0.00242247455753386,
        0.5314360857009888,
        0.002591543598100543,
        -0.944329559803009,
        -0.026260608807206154,
        -0.000894907396286726,
        -0.3795124292373657,
        -0.027496295049786568,
        -0.7108970284461975,
        1.7652627229690552,
        0.03837428241968155,
        1.119888424873352,
        1.745510220527649,
        1.122739553451538,
        -0.003633899847045541,
        -0.07967416197061539,
        0.0062851677648723125,
        0.006291985511779785,
        0.00767937209457159,
        -0.11890003085136414,
        0.09320221096277237,
        -2.141946792602539,
        -0.02954426221549511,
        0.04658829793334007,
        0.04257786646485329,
        0.28828924894332886,
        -0.003705605398863554,
        -0.2105676382780075,
        -0.0016642218688502908,
        -2.7165510654449463,
        -0.0023446986451745033,
        1.3445380926132202,
        -0.0011977821122854948,
        0.26974111795425415,
        -0.007669269107282162,
        -0.2347579151391983,
        -0.04970896989107132,
        0.004574872553348541,
        -0.2568237781524658,
        0.005992402322590351,
        0.0068952906876802444,
        -0.018597377464175224,
        -0.01926140859723091,
        0.5200644135475159,
        -0.003675743704661727,
        0.10589702427387238,
        0.006689865607768297,
        0.002747338730841875,
        -0.005565793719142675,
        0.0027541520539671183,
        0.005632157437503338,
        -0.02494184672832489,
        0.005310894455760717,
        0.03171509876847267,
        0.007137805689126253,
        0.015560660511255264,
        0.021219126880168915,
        0.18368837237358093,
        -0.005406961310654879,
        0.07141462713479996,
        0.010437577962875366,
        0.011133563704788685,
        0.5007667541503906,
        0.047413989901542664,
        -0.0037611292209476233,
        0.12676221132278442,
        -0.007527356036007404,
        0.11992254108190536,
        0.007793556433171034,
        -0.004120113328099251,
        -0.18884405493736267,
        0.0015303968684747815,
        -0.005484692752361298,
        -0.02293163724243641,
        0.0009132240666076541,
        0.022145245224237442,
        -0.00632196431979537,
        0.642181932926178,
        0.011747587472200394,
        0.0399402379989624,
        -0.008024458773434162,
        0.006051638163626194,
        -0.018549416214227676,
        0.008457583375275135,
        -0.008269933983683586,
        0.012936598621308804,
        0.013823585584759712,
        -0.019369008019566536,
        -0.0190185084939003,
        0.10089900344610214,
        0.006499624345451593,
        0.07860538363456726,
        0.0055275559425354,
        -0.004214745946228504,
        0.10196395963430405,
        0.006226259749382734,
        0.0010240989504382014,
        -0.16238951683044434,
        0.0008144208695739508,
        0.1958494484424591,
        0.013036180287599564,
        0.0028402942698448896,
        0.14955545961856842,
        0.005619126372039318,
        0.007985995151102543,
        0.010535961017012596,
        0.03376932069659233,
        -0.22513455152511597,
        0.012822049669921398,
        0.18979676067829132,
        -0.01140057947486639,
        0.007102550007402897,
        -0.004372830037027597,
        0.009500833228230476,
        -0.014475861564278603,
        -0.01364875491708517,
        0.0006528673111461103,
        0.008899523876607418,
        -0.00023286342911887914,
        0.0016526144463568926,
        0.009866765700280666,
        0.010774722322821617,
        0.025886468589305878,
        -0.031604424118995667,
        -0.005770088639110327,
        0.01664411462843418,
        -0.0025471539702266455,
        -0.03770527243614197,
        -0.0004525197728071362,
        -0.13651472330093384,
        0.00029327618540264666,
        0.21465621888637543,
        0.015557192265987396,
        0.00039251541602425277,
        -0.08675973117351532,
        -0.009660792537033558,
        -0.027653785422444344,
        -0.027784911915659904,
        -0.0221585500985384,
        0.09881604462862015,
        -0.022209875285625458,
        0.09784553945064545,
        -0.00524561945348978,
        -0.024038344621658325,
        0.004071694798767567,
        0.007442497182637453,
        0.013017735444009304,
        -0.0006403642473742366,
        0.0007149885641410947,
        0.02044237218797207,
        0.008478372357785702,
        -0.002738680224865675,
        -0.015176091343164444,
        -0.5203515887260437,
        0.002973147202283144,
        -0.002913014031946659,
        -0.0030386855360120535,
        0.009069371037185192,
        -0.009104061871767044,
        -0.043458741158246994,
        0.0014540181728079915,
        0.2796115577220917,
        0.011044644750654697,
        -0.33400920033454895,
        0.012393411248922348,
        0.0033415809739381075,
        0.09590455144643784,
        -0.012783285230398178,
        -0.003992130979895592,
        0.027440020814538002,
        -0.0015041644219309092,
        0.12423131614923477,
        0.01493606623262167,
        0.825734555721283,
        -0.02017071656882763,
        -0.01374725066125393,
        0.0067949979566037655,
        0.01971658691763878,
        -0.010192123241722584,
        0.011553183197975159,
        -0.000006068491529731546,
        0.013326938264071941,
        -0.0009716622880659997,
        0.02592695690691471,
        0.020735815167427063,
        -0.44088175892829895,
        -0.00885346345603466,
        0.029643235728144646,
        -0.001722567598335445,
        0.003925357013940811,
        -0.09282274544239044,
        0.05435826629400253,
        -0.0030094583053141832,
        -0.18521352112293243,
        0.012293574400246143,
        0.27265623211860657,
        -0.023613739758729935,
        0.0015944978222250938,
        -0.22309459745883942,
        -0.00045348392450250685,
        -0.013443316332995892,
        -0.039754994213581085,
        -0.012263190001249313,
        -0.9028933644294739,
        -0.035874009132385254,
        -0.04632556065917015,
        0.013358775526285172,
        0.02093757875263691,
        0.0017785275122150779,
        -0.0036731231957674026,
        0.0003287989238742739,
        -0.016548989340662956,
        -0.0026594847440719604,
        0.021376581862568855,
        0.012114129960536957,
        -0.017308522015810013,
        -0.015951700508594513,
        -0.7277177572250366,
        -0.004477348178625107,
        -0.045275505632162094,
        -0.013300757855176926,
        -0.005183531902730465,
        0.218293234705925,
        -0.027911148965358734,
        0.001435767044313252,
        -4.430302143096924,
        0.010924085043370724,
        -4.2029266357421875,
        -0.01969061605632305,
        -0.0005805939435958862,
        -4.371377944946289,
        0.006819709669798613,
        -0.09865622222423553,
        -0.210397869348526,
        -0.004753954242914915,
        -0.47049838304519653,
        -0.16126009821891785,
        -0.4775407910346985,
        0.017659662291407585,
        -0.1339380145072937,
        0.007546215318143368,
        -0.010755388997495174,
        0.0047974796034395695,
        -0.2960769236087799,
        -5.494781494140625,
        -0.02163807675242424,
        5.174338340759277,
        -0.018087973818182945,
        -0.019409822300076485,
        -0.26514965295791626,
        0.003930565435439348,
        -4.454022407531738,
        -0.003430265700444579,
        -0.0009537684381939471,
        -4.041085243225098,
        -2.7098684310913086,
        -0.0034701169934123755,
        -0.13434025645256042,
        -0.009310552850365639,
        0.20351728796958923,
        0.011370967142283916,
        0.0007548570865765214,
        0.020727409049868584,
        -0.012225192040205002,
        -0.0433194674551487,
        0.010428676381707191,
        -0.020377345383167267,
        0.08682744204998016,
        0.0030340973753482103,
        -0.36790719628334045,
        -0.02745342254638672,
        -0.009095575660467148,
        -0.005806961562484503,
        -0.004476379137486219,
        0.007870296016335487,
        -0.005342109128832817,
        -0.014986809343099594,
        0.001541050965897739,
        0.003533206880092621,
        0.0393843837082386,
        -0.001338882721029222,
        -0.3545391261577606,
        -0.004622780717909336,
        -0.05704647675156593,
        0.004650810267776251,
        0.015617490746080875,
        -0.07522077858448029,
        0.006840174552053213,
        0.0026580479461699724,
        0.2801131010055542,
        0.0150039903819561,
        -0.3542701005935669,
        0.06440167874097824,
        -0.0023612065706402063,
        -0.06712338328361511,
        -0.02070138044655323,
        0.004971059039235115,
        -0.004226226359605789,
        0.0048766471445560455,
        -0.7279016971588135,
        -0.0015941356541588902,
        0.051455382257699966,
        0.03364849090576172,
        -0.033212099224328995,
        0.008595068007707596,
        0.012040606699883938,
        -0.008634491823613644,
        -0.010077500715851784,
        -0.00037770209019072354,
        -0.02645871788263321,
        0.010905151255428791,
        -0.004964652005583048,
        0.0023117568343877792,
        0.5422027707099915,
        0.008784678764641285,
        0.010655604302883148,
        -0.023131532594561577,
        -0.006940063089132309,
        0.3162590265274048,
        0.049079958349466324,
        0.002336549572646618,
        -0.19502779841423035,
        -0.019177207723259926,
        0.006242380011826754,
        -0.09041813760995865,
        0.0005184008041396737,
        0.023996250703930855,
        0.011729398742318153,
        -0.013249139301478863,
        -0.014885112643241882,
        0.005953910760581493,
        0.26359111070632935,
        -0.04947635903954506,
        -0.2920679450035095,
        -0.012582710012793541,
        0.050835538655519485,
        -0.002062495332211256,
        -0.006912351585924625,
        -0.0011781847570091486,
        -0.0039314161986112595,
        0.0023179512936621904,
        0.010720951482653618,
        -0.007051822729408741,
        -0.020568834617733955,
        -0.008226938545703888,
        -1.2430745363235474,
        -0.003091678488999605,
        0.01425582729279995,
        0.017686834558844566,
        0.007653483189642429,
        -0.3502906560897827,
        -0.03237287700176239,
        -0.006812629755586386,
        0.1688012033700943,
        0.08751334249973297,
        -0.28317272663116455,
        0.3169633150100708,
        -0.1576223224401474,
        0.054310452193021774,
        -0.17265267670154572,
        0.23211665451526642,
        -0.022352153435349464,
        -0.2554998993873596,
        -0.0038035286124795675,
        -0.5268911123275757,
        0.014153403230011463,
        0.06332907825708389,
        -0.2660921812057495,
        -0.25745436549186707,
        0.47002050280570984,
        -0.1767915040254593,
        0.11067606508731842,
        -0.3720281422138214,
        0.04617481678724289,
        -0.45368680357933044,
        0.1742250770330429,
        -0.00814854633063078,
        0.2532353401184082,
        0.35428789258003235,
        0.27313658595085144,
        0.16385418176651,
        -0.1489707976579666,
        -0.6239803433418274,
        0.18332046270370483,
        -0.2920789122581482,
        -0.028707552701234818,
        -0.15353801846504211,
        0.21047908067703247,
        -0.2360326498746872,
        -0.41440826654434204,
        0.2685130834579468,
        0.020192252472043037,
        0.3238716423511505,
        -0.2299652099609375,
        0.09755801409482956,
        -0.060025256127119064,
        -0.1877765953540802,
        0.1773051917552948,
        -0.02488403394818306,
        0.3146267533302307,
        -0.23501898348331451,
        0.5011009573936462,
        -0.4927445352077484,
        0.63503098487854,
        -0.18651680648326874,
        -0.2990840971469879,
        -0.024554699659347534,
        -0.3768916428089142,
        0.01484629325568676,
        0.10627175122499466,
        -0.16315707564353943,
        0.039313700050115585,
        -0.06493263691663742,
        0.33027926087379456,
        -0.3841411769390106,
        -0.02830260992050171,
        -0.5027813911437988
      ],
      "b": [
        -3.333163022994995,
        0.6313452124595642,
        -3.4904654026031494,
        -3.137158155441284,
        -0.030055005103349686,
        -3.4967799186706543,
        -0.9223266243934631,
        -0.8720294833183289,
        -0.7361604571342468,
        -3.2088167667388916,
        -1.2391833066940308,
        0.12417060881853104,
        -3.2167255878448486,
        -4.314998149871826,
        -0.05805988237261772,
        0.16597425937652588,
        -0.26431038975715637,
        0.24289393424987793,
        -0.07150470465421677,
        -4.239261627197266,
        0.07107804715633392,
        4.082935333251953,
        0.29457512497901917,
        -3.0278148651123047,
        -1.5881377458572388,
        0.08743457496166229,
        -3.239691734313965,
        0.44130751490592957,
        0.12131082266569138,
        -3.2359206676483154,
        -1.9460316896438599,
        0.042453326284885406
      ]
    },
    {
      "inDim": 32,
      "outDim": 32,
      "activation": "relu",
      "W": [
        -0.5626497268676758,
        0.042664945125579834,
        -0.28752401471138,
        -0.0048347716219723225,
        -0.0516497865319252,
        0.008110839873552322,
        0.036732058972120285,
        0.14811688661575317,
        0.7505525350570679,
        0.40763184428215027,
        -0.18074141442775726,
        0.10669441521167755,
        -0.007488591130822897,
        -0.2748919427394867,
        -0.1681850552558899,
        1.08006751537323,
        -0.08093373477458954,
        -0.10473717004060745,
        -0.0013897812459617853,
        0.10582657158374786,
        0.7782935500144958,
        0.10675090551376343,
        0.7738942503929138,
        0.5954070687294006,
        0.007157276850193739,
        0.08786078542470932,
        -0.15166392922401428,
        -0.8070484399795532,
        0.795283317565918,
        -0.008079909719526768,
        -0.38966313004493713,
        -0.09129880368709564,
        0.42490261793136597,
        0.0466664582490921,
        -0.05107341334223747,
        0.7264663577079773,
        -0.05061616748571396,
        -0.07577797025442123,
        -0.9207675457000732,
        -0.0150381438434124,
        0.1404791921377182,
        0.11575688421726227,
        -0.21560367941856384,
        0.662327766418457,
        -0.032690178602933884,
        -0.5214256048202515,
        -0.15416401624679565,
        0.017541877925395966,
        0.018842771649360657,
        -0.17439325153827667,
        -0.01225405652076006,
        0.7154181599617004,
        0.21877098083496094,
        -0.42238086462020874,
        0.07254020124673843,
        -0.23547512292861938,
        0.880125880241394,
        0.04798894375562668,
        0.08958735316991806,
        -0.6405456066131592,
        0.06468291580677032,
        0.48672038316726685,
        0.200822651386261,
        -0.22230905294418335,
        -1.055696964263916,
        0.03999333828687668,
        -0.19899921119213104,
        -0.09580619633197784,
        -0.024106644093990326,
        -0.2718602120876312,
        0.8221738338470459,
        0.06265898793935776,
        1.0478172302246094,
        -0.13828332722187042,
        -0.5850492119789124,
        -0.0610581673681736,
        -0.02193179912865162,
        -0.14444537460803986,
        -0.18554915487766266,
        0.4722602963447571,
        -0.04567939043045044,
        -0.03321678936481476,
        0.010032578371465206,
        0.5815197825431824,
        1.1264127492904663,
        -0.08749409019947052,
        -0.33434978127479553,
        0.3605235517024994,
        0.3640247881412506,
        0.10567537695169449,
        -0.06196994334459305,
        -0.8847576379776001,
        1.0782679319381714,
        -0.4687740206718445,
        -0.8422796130180359,
        -0.316305935382843,
        -0.28361085057258606,
        -0.3720211386680603,
        0.5648064613342285,
        -0.1120062991976738,
        0.2623208463191986,
        -0.1321350336074829,
        -2.319092273712158,
        -0.24174442887306213,
        0.2019999772310257,
        0.013625641353428364,
        -0.5955193042755127,
        0.40137380361557007,
        0.037478722631931305,
        -0.945157527923584,
        -1.0394207239151,
        -1.555280089378357,
        0.26058778166770935,
        0.4007365107536316,
        0.1412215381860733,
        -0.5879258513450623,
        0.23812995851039886,
        -0.089175283908844,
        0.4258204698562622,
        -0.7340137362480164,
        -0.30273622274398804,
        0.07225137203931808,
        -0.2677440643310547,
        0.15302585065364838,
        0.042536746710538864,
        -0.03253661096096039,
        -0.2854466140270233,
        -2.9786477088928223,
        -0.038484182208776474,
        -0.11954138427972794,
        0.08093766123056412,
        -1.8744503259658813,
        -0.05690481886267662,
        -0.16498059034347534,
        -1.4501018524169922,
        -0.0499534010887146,
        0.089655302464962,
        -0.03847010061144829,
        -0.4672558605670929,
        -27.866796493530273,
        0.023993611335754395,
        -0.5402265787124634,
        -15.15817928314209,
        0.10407212376594543,
        -0.0014700193423777819,
        -0.061669398099184036,
        -0.04674328491091728,
        0.1485523134469986,
        0.15851296484470367,
        -1.1544321775436401,
        -0.11969825625419617,
        -0.3319365382194519,
        0.06701166182756424,
        -0.026118477806448936,
        0.04474736750125885,
        0.14315883815288544,
        0.10391221195459366,
        -0.8729852437973022,
        -0.19047735631465912,
        -0.7079787850379944,
        -2.3555006980895996,
        0.21671555936336517,
        -0.22705161571502686,
        0.35367727279663086,
        0.03991927206516266,
        -0.4398166239261627,
        0.4691961109638214,
        -0.020630616694688797,
        0.6604325771331787,
        0.18581949174404144,
        0.523580014705658,
        -0.42983299493789673,
        0.044628746807575226,
        -1.3946536779403687,
        0.7870205044746399,
        -0.05650165304541588,
        -0.027671391144394875,
        -0.05044062063097954,
        0.020975641906261444,
        0.7494407892227173,
        0.7264818549156189,
        -0.44461163878440857,
        0.22948043048381805,
        0.49299558997154236,
        0.1382199227809906,
        -0.04631849378347397,
        0.04701676964759827,
        -1.7496265172958374,
        0.9154667258262634,
        -0.035365428775548935,
        -1.385784387588501,
        -0.08406411111354828,
        0.45592400431632996,
        -0.1634194552898407,
        0.0851091742515564,
        -4.3086771965026855,
        -0.16280433535575867,
        0.35759273171424866,
        -0.2368326336145401,
        0.42664021253585815,
        -0.08783908188343048,
        0.08706121891736984,
        0.00019007048103958368,
        0.22315505146980286,
        -0.20601122081279755,
        -0.12806473672389984,
        -0.6177420020103455,
        1.1097849607467651,
        -0.020137077197432518,
        0.033941905945539474,
        -0.04294108971953392,
        0.052342161536216736,
        -0.22681382298469543,
        0.39499756693840027,
        0.3126085102558136,
        0.5604068040847778,
        0.2371123731136322,
        0.24334995448589325,
        -0.23123104870319366,
        0.176573246717453,
        -0.04225669428706169,
        -0.28289830684661865,
        0.36920222640037537,
        -0.002445432124659419,
        0.11032155156135559,
        -0.009173305705189705,
        0.914068877696991,
        0.10441193729639053,
        0.9931790232658386,
        0.2284470647573471,
        -0.06776025146245956,
        0.5003873109817505,
        -0.3691669702529907,
        -0.3526473641395569,
        -0.0726354718208313,
        -0.040199633687734604,
        0.014510701410472393,
        -0.09271908551454544,
        0.008922156877815723,
        -0.49621036648750305,
        -0.6753717064857483,
        0.3664415776729584,
        1.8985021114349365,
        0.01913369819521904,
        0.5147940516471863,
        -0.039763182401657104,
        -1.4910969734191895,
        0.0721159353852272,
        0.018741609528660774,
        -1.6521040201187134,
        -0.4857684075832367,
        -0.08509819209575653,
        -0.3469119071960449,
        0.046319082379341125,
        -0.17225033044815063,
        0.05991072952747345,
        -0.38282591104507446,
        0.0030652955174446106,
        -1.1450484991073608,
        0.011838164180517197,
        -0.14042247831821442,
        -1.7312500476837158,
        0.03419971466064453,
        -1.4149160385131836,
        -0.20572440326213837,
        2.227094888687134,
        -0.03261828050017357,
        0.025420526042580605,
        0.055626362562179565,
        0.01198624912649393,
        -0.05492715537548065,
        0.07169132679700851,
        -0.16961558163166046,
        -0.860579252243042,
        -1.7049293518066406,
        0.013070152141153812,
        -0.3344580829143524,
        0.03128133341670036,
        -7.081369876861572,
        -0.07970849424600601,
        0.041865039616823196,
        0.7309089303016663,
        0.21362222731113434,
        0.20424096286296844,
        0.21374063193798065,
        0.011233383789658546,
        0.1629677414894104,
        -0.03125833719968796,
        -0.18952283263206482,
        -0.8863714933395386,
        -0.0582888163626194,
        -1.159542202949524,
        1.3695062398910522,
        -0.32936257123947144,
        -0.5636129379272461,
        -0.22335582971572876,
        0.16975070536136627,
        -0.126815527677536,
        -0.1531277596950531,
        -6.277066707611084,
        -0.89512699842453,
        0.9414905905723572,
        0.719832181930542,
        -1.5795941352844238,
        0.17152592539787292,
        -4.515171051025391,
        1.09050714969635,
        -0.054399117827415466,
        0.24492044746875763,
        -2.088967800140381,
        0.12337517738342285,
        1.0613808631896973,
        0.6904895305633545,
        0.06885702908039093,
        -0.9847007989883423,
        0.38328421115875244,
        -0.08338549733161926,
        0.6733285188674927,
        -0.24301490187644958,
        0.42980918288230896,
        0.5167371034622192,
        0.044703420251607895,
        -0.11345726996660233,
        0.1333991438150406,
        0.057514432817697525,
        0.11926896125078201,
        -0.0562790185213089,
        0.04079703614115715,
        -0.4143546223640442,
        -0.07584073394536972,
        -0.008212638087570667,
        0.004968034103512764,
        -0.013880450278520584,
        0.22071723639965057,
        0.004622954875230789,
        -0.10317942500114441,
        0.032646965235471725,
        0.016906142234802246,
        -0.002337825484573841,
        -0.04867297038435936,
        -0.4307934641838074,
        -0.05227206274867058,
        -0.07209689915180206,
        -0.1598249226808548,
        -0.014396389946341515,
        -0.01026130560785532,
        -0.053588803857564926,
        0.4716436564922333,
        -0.3904387354850769,
        0.09544820338487625,
        0.6629979610443115,
        0.03757883235812187,
        0.23033949732780457,
        -0.002497394336387515,
        0.46150174736976624,
        -0.011794410645961761,
        -0.372348427772522,
        0.13188916444778442,
        -0.04270268231630325,
        0.097948357462883,
        0.1414879858493805,
        -1.8409976959228516,
        0.0013498240150511265,
        -0.002729270840063691,
        -0.7645277380943298,
        0.021607717499136925,
        0.025558488443493843,
        0.04433351382613182,
        -0.26987162232398987,
        0.6469637751579285,
        1.1951309442520142,
        -0.016211997717618942,
        0.16667069494724274,
        -0.034700945019721985,
        -2.313044786453247,
        0.022494398057460785,
        -0.023341607302427292,
        -0.5104759335517883,
        -0.18392314016819,
        -0.14772635698318481,
        -0.3540492057800293,
        -0.010885905474424362,
        0.0014379344647750258,
        -0.011413903906941414,
        0.9366970658302307,
        -0.006713584065437317,
        0.22211997210979462,
        0.03479385748505592,
        0.06657952815294266,
        -0.6879901885986328,
        0.02186928689479828,
        -0.07043371349573135,
        -0.6137269735336304,
        -0.8465405702590942,
        0.22591404616832733,
        0.14313505589962006,
        -0.03645600005984306,
        0.32568711042404175,
        -0.03655116632580757,
        -0.061264801770448685,
        0.051506299525499344,
        -0.08647360652685165,
        -0.09625590592622757,
        0.06386175006628036,
        -0.7033117413520813,
        0.12078425288200378,
        -1.3888434171676636,
        -0.058615777641534805,
        -0.022653819993138313,
        -0.22244764864444733,
        -0.032826006412506104,
        0.7202314734458923,
        -0.5246832370758057,
        0.12169331312179565,
        0.6507288217544556,
        -0.056374724954366684,
        0.3673951327800751,
        0.09171133488416672,
        0.41485437750816345,
        0.46767014265060425,
        -0.2700515687465668,
        -0.29477596282958984,
        -0.04359116777777672,
        -0.35139691829681396,
        0.061057548969984055,
        0.10164923220872879,
        0.9949957132339478,
        -0.22352519631385803,
        -0.18389727175235748,
        0.8113905191421509,
        0.9593572020530701,
        0.787889301776886,
        0.6836219429969788,
        -0.04270447418093681,
        -0.48261523246765137,
        -0.7636885643005371,
        -0.22524061799049377,
        -1.344336748123169,
        0.516087532043457,
        -0.3287312686443329,
        -0.1424957811832428,
        0.26749494671821594,
        -0.49882620573043823,
        -0.057378508150577545,
        -0.21037736535072327,
        -1.809515357017517,
        0.2653346359729767,
        2.53265118598938,
        0.1082867681980133,
        0.010044587776064873,
        0.5030565857887268,
        -0.033657174557447433,
        -0.7982746958732605,
        -9.515488624572754,
        0.022080613300204277,
        -9.447565078735352,
        -0.08722268790006638,
        -0.7893342971801758,
        0.02043434977531433,
        0.014739702455699444,
        -0.8028445839881897,
        0.01434902660548687,
        0.0046466682106256485,
        0.0017775162123143673,
        0.09161445498466492,
        0.009386093355715275,
        0.22692853212356567,
        -0.0028155334293842316,
        0.05693129077553749,
        -0.00416197907179594,
        -1.2532204389572144,
        0.03313841298222542,
        -0.0024535288102924824,
        -0.16145627200603485,
        -0.6215465068817139,
        -0.020838454365730286,
        -0.08638399094343185,
        -0.014859126880764961,
        -0.15421554446220398,
        0.019857022911310196,
        0.35624098777770996,
        -0.6300634145736694,
        -0.4027262032032013,
        1.8630764484405518,
        0.022738274186849594,
        -0.0689253956079483,
        0.08856090158224106,
        -0.0052459766156971455,
        0.16861474514007568,
        0.06862098723649979,
        0.9020797610282898,
        -0.760620653629303,
        0.08713558316230774,
        0.6100430488586426,
        -0.16986916959285736,
        0.054439205676317215,
        0.00869356095790863,
        -0.19101163744926453,
        0.02448187582194805,
        0.2991541028022766,
        0.111280158162117,
        -0.7306867241859436,
        -0.07596544176340103,
        0.5989300012588501,
        0.6906830668449402,
        0.043978214263916016,
        0.017524754628539085,
        -0.3301014006137848,
        0.0020900368690490723,
        -2.28159236907959,
        -0.43236804008483887,
        0.35917341709136963,
        -0.5140973925590515,
        -1.6327553987503052,
        -0.07816877216100693,
        -3.2879343032836914,
        0.15944233536720276,
        0.09954208880662918,
        -1.0691311359405518,
        -0.07510985434055328,
        -0.2363891303539276,
        -0.021997027099132538,
        -0.32937750220298767,
        -1.9977998733520508,
        -0.022587092593312263,
        -0.11748190224170685,
        0.4837341606616974,
        -0.22578823566436768,
        -0.11128287017345428,
        0.35573306679725647,
        0.033434249460697174,
        0.4260888695716858,
        -0.273783415555954,
        0.6660455465316772,
        0.07262512296438217,
        0.06688502430915833,
        0.08876871317625046,
        -0.07512930035591125,
        -0.1125902533531189,
        0.8537230491638184,
        -0.012448925524950027,
        -0.7824617028236389,
        -0.342070072889328,
        -0.9804711937904358,
        0.3909686207771301,
        -0.12852142751216888,
        0.1176668033003807,
        0.19211214780807495,
        -0.004920594859868288,
        -0.011072490364313126,
        -0.07423046231269836,
        0.07184813171625137,
        -0.173348069190979,
        -0.040601152926683426,
        -1.2696402072906494,
        -0.5664862394332886,
        0.008042634464800358,
        -0.5134705901145935,
        -0.27384281158447266,
        0.1767602115869522,
        0.011430670507252216,
        -0.004310559015721083,
        -0.06731592118740082,
        0.1190774068236351,
        -0.26262524724006653,
        0.05126200616359711,
        0.14657218754291534,
        0.23673070967197418,
        -0.07177779823541641,
        -0.07134142518043518,
        -0.05263321101665497,
        0.2854583263397217,
        -0.029870817437767982,
        -0.061255693435668945,
        0.11628864705562592,
        -1.9839379787445068,
        -0.059136174619197845,
        -0.0047503807581961155,
        -0.8403500318527222,
        -0.03401846066117287,
        -0.4645459055900574,
        -0.2170446366071701,
        -0.023147569969296455,
        -0.3813333213329315,
        0.4678250849246979,
        0.07369491457939148,
        -0.014544891193509102,
        -0.048440657556056976,
        -0.34473276138305664,
        0.03149471804499626,
        0.007435135077685118,
        0.4132312536239624,
        -0.8095767498016357,
        -0.166347473859787,
        -0.09138496965169907,
        0.019821252673864365,
        -0.294307678937912,
        0.02343127876520157,
        1.0612066984176636,
        -0.0920853242278099,
        0.006043480709195137,
        1.5620712041854858,
        -0.0691363587975502,
        0.10459873825311661,
        0.20854976773262024,
        -0.011259806342422962,
        0.37467601895332336,
        -0.07153930515050888,
        -28.95452308654785,
        -21.068510055541992,
        0.8211618065834045,
        -18.957984924316406,
        0.10049036890268326,
        -23.1856689453125,
        -22.955793380737305,
        -0.09783898293972015,
        1.790479302406311,
        0.526688814163208,
        -28.3653564453125,
        -12.41968059539795,
        -0.3756292164325714,
        -24.77269172668457,
        -20.2335205078125,
        0.6689743995666504,
        0.11688318103551865,
        -0.25181490182876587,
        -0.09596772491931915,
        1.8941510915756226,
        1.6962209939956665,
        -27.156494140625,
        1.0705101490020752,
        1.766980528831482,
        0.8024712800979614,
        0.15466174483299255,
        -0.25756967067718506,
        -28.42658042907715,
        2.353245735168457,
        -26.620874404907227,
        -29.019685745239258,
        -28.591537475585938,
        0.030267920345067978,
        -0.016205959022045135,
        -0.17689983546733856,
        0.0412227027118206,
        -8.2160005569458,
        -0.26132524013519287,
        -0.02033577300608158,
        -0.4740954339504242,
        -0.03777685761451721,
        -0.1232491284608841,
        -0.0337800458073616,
        -0.01737518422305584,
        0.884311854839325,
        -0.02124052494764328,
        0.005113561172038317,
        0.026444246992468834,
        -0.670509934425354,
        0.0874105840921402,
        0.03212589770555496,
        0.003645910881459713,
        -0.08972848951816559,
        -0.007455720566213131,
        0.3566257357597351,
        -0.04621005803346634,
        0.008485560305416584,
        0.421056866645813,
        -2.6664955615997314,
        0.057793691754341125,
        -0.003415437415242195,
        0.02128954790532589,
        0.16825170814990997,
        -0.027352849021553993,
        -0.010952905751764774,
        -0.0006984882056713104,
        0.024098260328173637,
        -0.0023158646654337645,
        -19.08936882019043,
        -6.6514787673950195,
        -0.005671224556863308,
        -7.903740882873535,
        -12.742476463317871,
        -17.539409637451172,
        -0.0010536741465330124,
        -0.010732926428318024,
        -12.01041030883789,
        -0.0035873916931450367,
        0.0007093453896231949,
        0.008422777988016605,
        -21.867238998413086,
        0.0323256216943264,
        -16.97417449951172,
        0.0044935764744877815,
        -19.502470016479492,
        0.002362525090575218,
        -10.193280220031738,
        -0.005272706039249897,
        0.0018241485813632607,
        -23.07889175415039,
        -18.822839736938477,
        -0.019244808703660965,
        -14.007402420043945,
        0.0011817076010629535,
        -0.013366530649363995,
        -0.006456952076405287,
        0.49239686131477356,
        -0.08077429234981537,
        -0.10984055697917938,
        -0.16961129009723663,
        -0.2575879693031311,
        0.1360880434513092,
        -0.9486856460571289,
        0.05838342010974884,
        0.05926462635397911,
        0.05142577737569809,
        -0.11159875988960266,
        0.3299914002418518,
        -0.05053350701928139,
        0.3084256649017334,
        -0.4589007794857025,
        -0.38529109954833984,
        0.0751010850071907,
        0.06366297602653503,
        0.14803704619407654,
        -0.0815972164273262,
        0.12606294453144073,
        0.310663104057312,
        -0.09771418571472168,
        -0.1426910161972046,
        -0.027189547196030617,
        0.04912616312503815,
        0.3007332980632782,
        0.4933417737483978,
        -0.0012845807941630483,
        0.11411077529191971,
        0.32727792859077454,
        1.5877810716629028,
        0.4457913339138031,
        0.11077387630939484,
        0.26029011607170105,
        0.4424907863140106,
        -0.2963786721229553,
        0.45007604360580444,
        0.6802741289138794,
        0.5032457113265991,
        -0.1742715686559677,
        -0.48416459560394287,
        -0.49155938625335693,
        0.4159312844276428,
        0.06306886672973633,
        0.8064350485801697,
        1.2512675523757935,
        0.5908673405647278,
        -0.48571881651878357,
        1.484144926071167,
        -0.2946329116821289,
        0.7528697848320007,
        0.026077326387166977,
        -1.1962673664093018,
        -0.5813372135162354,
        -1.5739299058914185,
        0.23900695145130157,
        0.07408353686332703,
        0.1941615790128708,
        -0.15959081053733826,
        0.16997025907039642,
        0.47085073590278625,
        1.1284496784210205,
        -2.7319390773773193,
        0.7684205770492554,
        -0.001206436543725431,
        -0.14431101083755493,
        -0.008503016084432602,
        -0.10718678683042526,
        0.19770631194114685,
        0.01235207635909319,
        0.06837742775678635,
        -0.49373573064804077,
        -0.039794400334358215,
        0.01266989391297102,
        0.0060750264674425125,
        -0.07971414923667908,
        0.017870133742690086,
        0.005917586851865053,
        0.03240446746349335,
        -0.038248077034950256,
        0.06304533034563065,
        -0.0017414853209629655,
        -0.006792875472456217,
        -0.5663578510284424,
        -0.006683154031634331,
        -0.06289059668779373,
        -0.031120413914322853,
        -0.005169915035367012,
        0.036056436598300934,
        0.06053348258137703,
        0.8036309480667114,
        -0.4369654357433319,
        0.030964219942688942,
        1.0448458194732666,
        0.011136594228446484,
        -0.18321962654590607,
        -0.07233690470457077,
        0.2999586760997772,
        0.7998219132423401,
        0.017699705436825752,
        0.19140775501728058,
        0.9269712567329407,
        0.007142601069062948,
        -0.16372236609458923,
        -0.04889649525284767,
        -0.4027222990989685,
        -4.453548431396484,
        -0.05649207904934883,
        0.34416577219963074,
        -0.0373593270778656,
        -0.1933509111404419,
        0.027468496933579445,
        0.19296222925186157,
        0.05385629087686539,
        -0.296741247177124,
        -0.2839411497116089,
        -0.9064774513244629,
        0.1360493004322052,
        0.25068438053131104,
        -0.3315422832965851,
        -0.020927919074892998,
        -0.045068591833114624,
        0.24636001884937286,
        -0.11482390761375427,
        -0.2523675560951233,
        0.44334572553634644,
        0.16272671520709991,
        -0.2778168022632599,
        0.17702952027320862,
        -0.7356405854225159,
        0.13133375346660614,
        -0.12622135877609253,
        -0.03579402714967728,
        -0.05832025781273842,
        0.010664744302630424,
        0.5823141932487488,
        0.34671512246131897,
        -0.18472270667552948,
        0.2765328288078308,
        0.4864407181739807,
        -0.10290677100419998,
        -0.2330552190542221,
        -2.4144022464752197,
        0.14493133127689362,
        -0.4919878840446472,
        -0.0791429728269577,
        0.4859657287597656,
        0.6178807616233826,
        -0.011858702637255192,
        0.5269151926040649,
        0.5066075325012207,
        0.24517802894115448,
        -0.1933787316083908,
        0.5430812835693359,
        -0.14351192116737366,
        0.5773009657859802,
        -0.34256842732429504,
        -0.683384120464325,
        -0.30929189920425415,
        0.17859239876270294,
        0.2713930904865265,
        0.1028217002749443,
        1.4461958408355713,
        -0.1129688024520874,
        -0.036036521196365356,
        2.089721918106079,
        0.10859199613332748,
        0.15289826691150665,
        -0.10704081505537033,
        0.3232007622718811,
        1.4301512241363525,
        0.03332756459712982,
        0.3348329961299896,
        0.11409089714288712,
        0.4531053304672241,
        0.0969056636095047,
        -0.21177302300930023,
        0.016039498150348663,
        1.2276701927185059,
        0.16711175441741943,
        -0.49753403663635254,
        -0.21135447919368744,
        -0.17589561641216278,
        1.9033732414245605,
        0.05201554670929909,
        0.022486720234155655,
        -0.08603611588478088,
        -0.10265560448169708,
        -0.26986363530158997,
        0.18451794981956482,
        0.6931670308113098,
        -0.04371607303619385,
        0.007740930188447237,
        -0.09276600927114487,
        -0.03320801630616188,
        -0.6888354420661926,
        -0.23805037140846252,
        -0.007092118728905916,
        -0.271427184343338,
        0.10747557133436203,
        0.08639059215784073,
        0.029706675559282303,
        0.005721947643905878,
        -0.8930163979530334,
        0.020272020250558853,
        0.000059015881561208516,
        -0.008634475991129875,
        -9.689802169799805,
        -0.13647712767124176,
        -0.7807380557060242,
        0.0001346792560070753,
        -0.09035030752420425,
        -0.00011478153464850038,
        0.14962652325630188,
        0.009377957321703434,
        -0.006120266858488321,
        0.0732216164469719,
        -1.008904218673706,
        -0.00386118539609015,
        0.1911940574645996,
        -0.01726958155632019,
        -0.0663827583193779,
        0.00813169963657856,
        -1.0632965564727783,
        0.023726141080260277,
        0.04419542849063873,
        -0.07218221575021744,
        0.02458852343261242,
        -0.23965178430080414,
        -0.0421130396425724,
        -0.056220006197690964,
        0.5883257389068604,
        0.0719715803861618,
        -0.02494635432958603,
        -0.24863624572753906,
        -0.008347810246050358,
        -0.05990808829665184,
        0.22902119159698486,
        0.02480097860097885,
        -0.05785921588540077,
        0.0014521625125780702,
        -0.0004908405826427042,
        0.19486814737319946,
        0.6850287914276123,
        -0.12833550572395325,
        0.0078349057585001,
        -0.07894688844680786,
        0.18545843660831451,
        0.07743345946073532,
        -0.007568500004708767,
        -1.0672513246536255,
        0.5142596364021301,
        -0.02867176942527294,
        -1.2060657739639282,
        0.08490684628486633,
        0.13321444392204285,
        -0.018805837258696556,
        0.02890087477862835,
        0.0019974804017692804,
        0.09846656024456024,
        0.2938743829727173,
        0.0028090160340070724,
        -0.20697937905788422,
        0.33946651220321655,
        -2.310994863510132,
        0.014699919149279594,
        -0.04329177364706993,
        0.17379646003246307,
        -0.07619781792163849,
        0.020727351307868958,
        -0.040981244295835495,
        -0.04329349100589752,
        1.4620600938796997,
        0.29475492238998413,
        -0.005977327935397625,
        0.27279791235923767,
        0.028856104239821434,
        -4.0135722160339355,
        0.016275756061077118,
        -0.021885275840759277,
        -0.4393647611141205,
        0.08727700263261795,
        -0.34048470854759216,
        0.2689320743083954,
        -0.0003404122544452548,
        0.1129700317978859,
        0.007321373093873262,
        -0.1522318720817566,
        -13.879644393920898,
        0.15231040120124817,
        -3.643258571624756,
        -0.008968066424131393,
        -0.013600220903754234,
        -0.827313244342804,
        -0.050908904522657394,
        -0.010597988963127136,
        0.04973294585943222,
        -0.07673308253288269,
        -0.8009650111198425,
        -0.0255395770072937,
        -0.9299023151397705,
        -0.7948821187019348,
        -0.07887500524520874,
        -0.07306680083274841,
        0.1762167066335678,
        -0.042750705033540726,
        0.3874031901359558,
        -0.06063448637723923,
        0.7800101637840271,
        0.14366057515144348,
        0.15412919223308563,
        0.2853614091873169,
        -0.008785279467701912,
        0.03439590334892273,
        -0.10374254733324051,
        0.07685905694961548,
        -0.7249921560287476,
        0.21011261641979218,
        0.5397475957870483
      ],
      "b": [
        0.4977726638317108,
        1.6364827156066895,
        1.0419085025787354,
        0.09685711562633514,
        2.1002626419067383,
        1.8482677936553955,
        -0.1173388883471489,
        2.2865827083587646,
        -0.7382730841636658,
        1.4558944702148438,
        1.632516622543335,
        -0.3962918519973755,
        2.044553279876709,
        1.9080623388290405,
        1.8287458419799805,
        0.14098620414733887,
        2.148998260498047,
        0.31317177414894104,
        -0.9482594728469849,
        -0.9776477217674255,
        0.12530888617038727,
        1.7734264135360718,
        -0.4612051546573639,
        0.48678427934646606,
        -0.4022141993045807,
        -1.0271345376968384,
        1.8522651195526123,
        1.672429084777832,
        -0.17898277938365936,
        1.7627159357070923,
        0.6685833930969238,
        -0.8876863718032837
      ]
    },
    {
      "inDim": 32,
      "outDim": 2,
      "activation": "linear",
      "W": [
        -0.18278871476650238,
        -0.12936215102672577,
        -0.21535512804985046,
        0.2879601716995239,
        0.060416631400585175,
        -0.01013683620840311,
        0.13025471568107605,
        -0.03791476786136627,
        -0.22410795092582703,
        0.17700733244419098,
        0.2829072177410126,
        -0.03762362524867058,
        -0.05425635352730751,
        -0.17628654837608337,
        -0.2145739495754242,
        0.0012898464919999242,
        -0.697275698184967,
        0.4421578645706177,
        -0.2881881594657898,
        -0.22910895943641663,
        0.19047556817531586,
        -0.10930312424898148,
        -0.31923067569732666,
        -0.29377734661102295,
        0.11613097041845322,
        -0.0728987455368042,
        0.19520603120326996,
        0.06989097595214844,
        -0.22452422976493835,
        -0.16086596250534058,
        -0.00860622338950634,
        0.0753825232386589,
        0.020735228434205055,
        0.23706375062465668,
        0.025167400017380714,
        0.09957632422447205,
        0.014909455552697182,
        -0.1586933135986328,
        -0.015255793929100037,
        0.361591100692749,
        0.6009433269500732,
        0.16451826691627502,
        -0.13541734218597412,
        -0.18989337980747223,
        0.14025937020778656,
        0.12467949092388153,
        0.1192646473646164,
        0.07664602249860764,
        0.018510689958930016,
        -0.32108524441719055,
        0.16584235429763794,
        0.06558128446340561,
        -0.13604605197906494,
        0.14930510520935059,
        0.05285293981432915,
        0.2964557111263275,
        0.008374037221074104,
        -0.7195532917976379,
        -0.1785624772310257,
        0.1680295169353485,
        0.09963108599185944,
        -0.13511168956756592,
        -0.1320360004901886,
        0.17341254651546478
      ],
      "b": [
        -0.053300730884075165,
        -0.007134174462407827
      ]
    }
  ]
}