{
  "version": 1,
  "id": "u27_H16",
  "K": 4,
  "featureDim": 29,
  "inputMean": [
    0.005562088452279568,
    0.010740191675722599,
    -12.107275009155273,
    31.060359954833984,
    -0.007391314022243023,
    -0.0014237378491088748,
    532.5204467773438,
    -2.6612308025360107,
    0.464982271194458,
    -0.7509861588478088,
    -0.10860028117895126,
    -1.9606475830078125,
    0.18706649541854858,
    -1.641610860824585,
    -1.6478159427642822,
    -0.00996802281588316,
    0.008924822323024273,
    -0.004896283615380526,
    0.00541970320045948,
    -0.008952147327363491,
    0.0056013003922998905,
    -0.006117881741374731,
    -0.0008334347512573004,
    173.2367401123047,
    208.20065307617188,
    239.71226501464844,
    263.1102294921875,
    0,
    0
  ],
  "inputStd": [
    1.4483128786087036,
    1.4255748987197876,
    463.25140380859375,
    464.70733642578125,
    0.7176584601402283,
    0.6962109208106995,
    384.8221130371094,
    144.51588439941406,
    153.10362243652344,
    168.19386291503906,
    175.0343475341797,
    189.44021606445312,
    196.030029296875,
    204.62815856933594,
    212.96701049804688,
    0.7010394334793091,
    0.7129970192909241,
    0.7035136818885803,
    0.7106441855430603,
    0.7021756768226624,
    0.7119254469871521,
    0.6989261507987976,
    0.715167224407196,
    119.6740951538086,
    124.8169174194336,
    129.8355712890625,
    134.1865997314453,
    0.0010000000474974513,
    0.0010000000474974513
  ],
  "outputScale": 0.05,
  "clipMagnitude": 0.05,
  "layers": [
    {
      "inDim": 29,
      "outDim": 16,
      "activation": "relu",
      "W": [
        -0.013675940223038197,
        -0.005531781353056431,
        -0.27060335874557495,
        0.3580057919025421,
        -1.0116229057312012,
        0.01045472826808691,
        -1.3989919424057007,
        1.8147954940795898,
        3.5635251998901367,
        -2.3294315338134766,
        1.3872995376586914,
        0.006755696143954992,
        0.32426944375038147,
        3.4939815998077393,
        -2.4390337467193604,
        -1.2421633005142212,
        -0.010758242569863796,
        0.008206010796129704,
        0.23016870021820068,
        -2.2017481327056885,
        0.9205610752105713,
        0.013033484108746052,
        -3.467078685760498,
        -0.6174143552780151,
        0.7566275596618652,
        2.763153553009033,
        -1.0717421770095825,
        -0.002590446500107646,
        -0.39087799191474915,
        0.8787676095962524,
        2.839752197265625,
        -3.560694456100464,
        0.001451333868317306,
        0.012258020229637623,
        0.040228623896837234,
        0.0160861536860466,
        -0.04971374571323395,
        0.004386707209050655,
        0.01616094261407852,
        0.04961855337023735,
        -0.018455874174833298,
        0.03493218496441841,
        0.0632016509771347,
        -0.0006881100125610828,
        -0.14010189473628998,
        -0.031201675534248352,
        0.032623883336782455,
        0.01943439245223999,
        0.006776828318834305,
        0.010616758838295937,
        -0.11514756083488464,
        0.05893358588218689,
        -0.024329865351319313,
        0.010859635658562183,
        0.0451262928545475,
        -0.05852138251066208,
        -0.005935706198215485,
        -0.01090223528444767,
        -0.14935007691383362,
        0.003199199913069606,
        0.06471709907054901,
        -0.0006590731791220605,
        -0.02254709228873253,
        0.021145079284906387,
        -0.07616836577653885,
        -0.07694463431835175,
        0.21046632528305054,
        -0.39982202649116516,
        0.1195918470621109,
        0.08155258744955063,
        1.5581562519073486,
        -2.503391981124878,
        -4.042963027954102,
        2.641648292541504,
        -0.05909687280654907,
        0.055484920740127563,
        0.7366611957550049,
        -3.949739933013916,
        2.729004144668579,
        1.405215859413147,
        -0.06405331939458847,
        0.08148907870054245,
        0.9041702151298523,
        2.759340286254883,
        -0.14821802079677582,
        0.053927455097436905,
        3.834199905395508,
        0.7418935894966125,
        -0.8844470977783203,
        -3.1246871948242188,
        0.20585960149765015,
        -0.08253451436758041,
        0.37652352452278137,
        -0.9810792803764343,
        -3.185789108276367,
        3.9659478664398193,
        0.002114115748554468,
        -0.00018548303341958672,
        -0.006136189680546522,
        0.027651675045490265,
        0.06218070909380913,
        -0.011248838156461716,
        0.009007586166262627,
        0.05184345319867134,
        -0.015070036053657532,
        0.004276616964489222,
        0.018779320642352104,
        -0.00222065974958241,
        0.0644473060965538,
        0.0057290466502308846,
        0.013412467204034328,
        0.010297255590558052,
        0.04806208610534668,
        -0.12438340485095978,
        0.2840339243412018,
        -0.017856189981102943,
        -0.38717734813690186,
        0.06771375238895416,
        -0.002658397424966097,
        -0.004756018985062838,
        -0.017710180953145027,
        0.020263468846678734,
        0.9257701635360718,
        -0.1031608060002327,
        -0.11863505095243454,
        0.013428077101707458,
        0.01605658233165741,
        0.021869899705052376,
        0.08892638981342316,
        -0.07887393236160278,
        -0.8524220585823059,
        0.10080301016569138,
        0.9646966457366943,
        0.11164252460002899,
        0.030622856691479683,
        -0.002097916090860963,
        0.015994325280189514,
        0.02432982064783573,
        -1.1190226078033447,
        -0.06444698572158813,
        1.100426435470581,
        0.022966155782341957,
        0.04022093489766121,
        0.07883832603693008,
        0.006014653015881777,
        -0.004246824886649847,
        -0.10731232911348343,
        -0.021848900243639946,
        0.07160338014364243,
        -0.001173459691926837,
        0.04309602454304695,
        0.10042796283960342,
        -0.02082643285393715,
        0.024987373501062393,
        0.13270440697669983,
        -0.0031934925355017185,
        0.03591344133019447,
        -0.03368641808629036,
        0.024245185777544975,
        0.007723007816821337,
        0.02604508399963379,
        0.0191144160926342,
        0.11088348180055618,
        -0.14811144769191742,
        -0.0680808573961258,
        0.024016404524445534,
        0.023151256144046783,
        0.034870509058237076,
        0.027260011062026024,
        -0.00616652425378561,
        -0.0015245770337060094,
        0.02846069447696209,
        -0.0738634467124939,
        0.016831979155540466,
        -0.004476972855627537,
        0.014148070476949215,
        -0.002556041581556201,
        -0.009485471993684769,
        0.034298788756132126,
        -0.035009339451789856,
        0.09527070820331573,
        -0.0052382261492311954,
        -0.04269619658589363,
        0.0449436716735363,
        -0.0006444614846259356,
        -0.021022740751504898,
        -0.0723988339304924,
        -0.001839783857576549,
        0.04938619211316109,
        -0.004046820569783449,
        0.0077432855032384396,
        -0.016367778182029724,
        -0.005890023894608021,
        0.0111191151663661,
        0.01090751402080059,
        -0.1085350438952446,
        -0.08144950121641159,
        -0.007671866100281477,
        0.04423598200082779,
        0.18120433390140533,
        0.0006663043168373406,
        0.01602078787982464,
        -0.07749412208795547,
        0.010274584405124187,
        -0.07772446423768997,
        -0.035607367753982544,
        0.009703029878437519,
        0.016978904604911804,
        -0.0009868718916550279,
        0.0015472358791157603,
        0.10222971439361572,
        -0.10701151192188263,
        -0.00545509671792388,
        -0.0009245213004760444,
        -0.0014491109177470207,
        0.00522037735208869,
        -0.034593142569065094,
        -0.017649047076702118,
        -0.028341805562376976,
        0.001734086312353611,
        -0.08675101399421692,
        -0.024922404438257217,
        -0.016445333138108253,
        -0.01839444600045681,
        -0.0013908041873946786,
        -0.009347555227577686,
        0.03140176087617874,
        -0.12777508795261383,
        0.0613311268389225,
        -0.006742016412317753,
        0.025725925341248512,
        0.10112883895635605,
        -0.00513697974383831,
        0.009209793992340565,
        -0.13994278013706207,
        -0.011463862843811512,
        0.07874768227338791,
        0.01873389445245266,
        0.017283959314227104,
        0.02030278369784355,
        0.06531410664319992,
        0.10706246644258499,
        -0.8395306468009949,
        -0.021711314097046852,
        1.194775104522705,
        -0.10262470692396164,
        -0.001047261175699532,
        -0.13913120329380035,
        0.018093574792146683,
        -0.041098594665527344,
        -2.0265023708343506,
        -0.02837584912776947,
        0.7112151384353638,
        -0.027035869657993317,
        -0.025589359924197197,
        -0.03059869073331356,
        0.031494900584220886,
        -0.052920158952474594,
        1.0147126913070679,
        -0.11552675068378448,
        -1.1735944747924805,
        -0.11251320689916611,
        -0.03166548162698746,
        0.031866684556007385,
        -0.011012389324605465,
        -0.0177324116230011,
        1.4773955345153809,
        0.1051376536488533,
        -1.2941629886627197,
        -0.00969721283763647,
        -0.02400507777929306,
        -0.05126374959945679,
        -0.007834767922759056,
        0.0003418249834794551,
        0.048535943031311035,
        0.04684082791209221,
        -0.03284241631627083,
        -0.004664264619350433,
        -0.036126524209976196,
        -0.11333035677671432,
        0.025985168293118477,
        -0.03182999789714813,
        -0.1000198945403099,
        -0.0074421316385269165,
        0.021204223856329918,
        0.04285483807325363,
        -0.020030731335282326,
        -0.012637540698051453,
        -0.011011162772774696,
        -0.012676292099058628,
        -0.08474045246839523,
        0.1429518610239029,
        0.036493659019470215,
        -0.008982183411717415,
        0.002886537229642272,
        -0.060657091438770294,
        -0.01456808764487505,
        0.021205008029937744,
        0.0866422951221466,
        -0.016610031947493553,
        0.04444144666194916,
        -0.0013314461102709174,
        0.004525763913989067,
        0.010124444961547852,
        0.010296431370079517,
        0.014581244438886642,
        -0.0012413443764671683,
        0.004199004266411066,
        -0.0080430181697011,
        0.008469056338071823,
        0.03623621538281441,
        0.0019101497018709779,
        -0.00015432381769642234,
        0.009452099911868572,
        -0.0036867328453809023,
        0.012455372139811516,
        -0.061101920902729034,
        -0.010211707092821598,
        -0.002761050360277295,
        0.026273543015122414,
        0.0010170073946937919,
        -0.01144952978938818,
        0.037013862282037735,
        0.07047674804925919,
        0.05759383738040924,
        0.00731947086751461,
        -0.054413363337516785,
        -0.13172540068626404,
        -0.007993820123374462,
        -0.013958947733044624,
        0.0719996839761734,
        -0.0017512752674520016,
        0.03772924840450287,
        0.03106006048619747,
        -0.008670809678733349,
        -0.03180209919810295,
        -0.0012079454027116299,
        0.0021457229740917683,
        -0.09220439940690994,
        0.12007628381252289,
        -0.02342827245593071,
        0.0015673735179007053,
        -0.016595007851719856,
        -0.03704803064465523,
        0.03596951812505722,
        0.032240480184555054,
        0.06071998178958893,
        -0.00031323416624218225,
        0.06238981708884239,
        0.022576436400413513,
        0.006557248532772064,
        0.013733312487602234,
        -0.005593216046690941,
        0.010299998335540295,
        -0.01729648932814598,
        0.17232352495193481,
        -0.050075192004442215,
        -0.0011949416948482394,
        -0.02815769426524639,
        -0.127749502658844,
        -0.003888956969603896,
        -0.016956349834799767,
        0.10321738570928574,
        0.01333562284708023,
        -0.08825398236513138,
        -0.013938027434051037,
        -0.01966724917292595,
        -0.018041415140032768,
        -3.98726224899292,
        -4.074901103973389,
        0.0017429476138204336,
        -0.3237948715686798,
        0.9187451601028442,
        -4.180805683135986,
        0.10675152391195297,
        -0.303000807762146,
        -0.009543403051793575,
        -0.11088089644908905,
        -0.14442957937717438,
        -3.894895553588867,
        0.12042035907506943,
        0.06786160171031952,
        0.042939383536577225,
        0.00979586225003004,
        -0.001022982643917203,
        0.0009648465784266591,
        0.134442538022995,
        -0.03156013414263725,
        -0.034359320998191833,
        -0.0057189492508769035,
        -0.019439982250332832,
        -0.06518565863370895,
        -0.025609878823161125,
        0.004332666285336018,
        -0.1298086792230606,
        -0.002537686610594392,
        -0.030417094007134438,
        0.028654223307967186,
        0.004633716773241758,
        -0.008280170150101185,
        -0.0008805430843494833,
        -0.006298751570284367,
        -0.11939273029565811,
        -0.042187221348285675,
        0.07220345735549927,
        -0.001727440976537764,
        0.026110446080565453,
        0.09621931612491608,
        0.056503091007471085,
        -0.043279748409986496,
        0.24154801666736603,
        0.00814264826476574,
        0.06725500524044037,
        -0.01953570544719696,
        -0.020667891949415207,
        0.036819491535425186,
        -0.004536554217338562,
        -0.009299580939114094,
        0.052532825618982315,
        0.09900917112827301,
        -0.06200891733169556,
        0.0014621395384892821,
        -0.019225232303142548,
        -0.14662745594978333,
        -0.04591675102710724,
        0.040080927312374115,
        -0.15224219858646393,
        -0.014836217276751995,
        -0.07993955910205841,
        0.0044784583151340485,
        0.0010054931044578552,
        -0.050130367279052734,
        0.16043993830680847,
        0.043521080166101456,
        0.08171486109495163,
        0.28463098406791687,
        -0.5459160208702087,
        0.22960114479064941,
        -0.02222970500588417,
        -0.07806640863418579,
        -0.062402453273534775,
        -0.12869633734226227,
        0.3452437222003937,
        -0.26265591382980347,
        -0.3404843807220459,
        0.21474546194076538,
        -0.359992653131485,
        -0.21638961136341095,
        -0.5438955426216125,
        0.24607381224632263,
        0.3003716468811035,
        -0.33889272809028625,
        -0.013150460086762905,
        -0.043002042919397354,
        -0.22567348182201385,
        0.0357075035572052,
        -0.022846734151244164,
        -0.27270182967185974,
        -0.2297648936510086,
        -0.028251871466636658,
        -0.02208993025124073,
        -0.07461720705032349,
        -0.06536491215229034,
        0.16836202144622803
      ],
      "b": [
        -3.1204259395599365,
        -3.187342643737793,
        2.3827292919158936,
        1.1913740634918213,
        0.21653605997562408,
        -3.277930974960327,
        0.23801466822624207,
        1.3161613941192627,
        -0.23749445378780365,
        -0.2227887064218521,
        -1.9010823965072632,
        -3.0599818229675293,
        2.1222803592681885,
        0.330933541059494,
        0.2925530970096588,
        -0.4188609719276428
      ]
    },
    {
      "inDim": 16,
      "outDim": 2,
      "activation": "linear",
      "W": [
        2.71077823638916,
        2.083728551864624,
        1.8851815462112427,
        -2.3659329414367676,
        0.09153131395578384,
        0.16222988069057465,
        -0.0296114943921566,
        0.1566791832447052,
        -0.08784390985965729,
        0.07712525874376297,
        -2.4729316234588623,
        -1.9623403549194336,
        0.24229475855827332,
        0.5343905091285706,
        -0.16362081468105316,
        0.03320024535059929,
        0.6774448752403259,
        0.16916164755821228,
        -0.43367496132850647,
        0.5244069695472717,
        0.10544445365667343,
        -0.06836436688899994,
        -2.1043944358825684,
        2.4574365615844727,
        0.14995655417442322,
        0.09508690983057022,
        -0.6657674312591553,
        -0.18097694218158722,
        0.4655906558036804,
        -0.547250509262085,
        -0.23080244660377502,
        -0.5710926651954651
      ],
      "b": [
        -0.2887568771839142,
        -0.8132556676864624
      ]
    }
  ]
}