{
  "version": 1,
  "id": "teacher_H64_gen2",
  "K": 4,
  "featureDim": 35,
  "inputMean": [
    0.0,
    0.0,
    0.0,
    0.0,
    0.0,
    0.0,
    0.0,
    0.0,
    0.0,
    0.0,
    0.0,
    0.0,
    0.0,
    0.0,
    0.0,
    0.0,
    0.0,
    0.0,
    0.0,
    0.0,
    0.0,
    0.0,
    0.0,
    0.0,
    0.0,
    0.0,
    0.0,
    0.0,
    0.0,
    0.0,
    0.0,
    0.0,
    0.0,
    0.0,
    0.0
  ],
  "inputStd": [
    1.0,
    1.0,
    1.0,
    1.0,
    1.0,
    1.0,
    1.0,
    1.0,
    1.0,
    1.0,
    1.0,
    1.0,
    1.0,
    1.0,
    1.0,
    1.0,
    1.0,
    1.0,
    1.0,
    1.0,
    1.0,
    1.0,
    1.0,
    1.0,
    1.0,
    1.0,
    1.0,
    1.0,
    1.0,
    1.0,
    1.0,
    1.0,
    1.0,
    1.0,
    1.0
  ],
  "outputScale": 0.05,
  "clipMagnitude": 0.05,
  "layers": [
    {
      "inDim": 35,
      "outDim": 64,
      "activation": "relu",
      "W": [
        -0.5448390245437622,
        -1.0763050317764282,
        -1.024229645729065,
        0.9442186951637268,
        -0.1339024305343628,
        0.21678689122200012,
        0.05507565289735794,
        -0.02201186493039131,
        -1.7534984350204468,
        0.07607854902744293,
        -0.3620341420173645,
        -3.2226922512054443,
        0.4558837115764618,
        -0.47189974784851074,
        0.946587324142456,
        0.10261428356170654,
        -0.05284033343195915,
        -0.19058389961719513,
        -0.14736394584178925,
        -0.05025631561875343,
        0.5238379240036011,
        0.6320360898971558,
        1.568424105644226,
        -0.5326161980628967,
        -0.33276551961898804,
        0.44207876920700073,
        1.0251953601837158,
        1.7656389474868774,
        -0.4580036997795105,
        0.1998165100812912,
        0.0015585478395223618,
        2.026719093322754,
        -0.3205983340740204,
        0.3527504801750183,
        -0.5164459347724915,
        0.2933797538280487,
        -0.09201032668352127,
        4.7796173095703125,
        -1.4914747476577759,
        1.6266831159591675,
        -0.10595637559890747,
        -0.5550366044044495,
        -2.8651282787323,
        -0.024692682549357414,
        -0.3702116310596466,
        -0.17276014387607574,
        0.22433365881443024,
        -1.4098639488220215,
        0.3352203667163849,
        0.4290311634540558,
        -3.3419487476348877,
        0.07817736268043518,
        0.4515455365180969,
        -0.16586452722549438,
        0.5112624764442444,
        0.14707772433757782,
        3.69221568107605,
        -1.1317955255508423,
        -0.31752699613571167,
        -0.07183955609798431,
        0.14165979623794556,
        -0.3929516077041626,
        -0.598590075969696,
        0.9220388531684875,
        0.767193078994751,
        -1.5480380058288574,
        1.0762183666229248,
        0.9557489156723022,
        0.1041233167052269,
        -0.41523677110671997,
        -0.060607053339481354,
        -0.41583943367004395,
        0.3993198275566101,
        0.7684581875801086,
        -0.03177925571799278,
        -0.04310058802366257,
        -0.4922846555709839,
        0.5497381687164307,
        2.2137515544891357,
        -0.04819789528846741,
        2.813697338104248,
        -0.2854340672492981,
        0.48847496509552,
        0.27636948227882385,
        0.01701360195875168,
        0.9051734805107117,
        0.22590169310569763,
        -0.32501110434532166,
        0.4650280773639679,
        1.7980149984359741,
        -2.38076114654541,
        1.8341871500015259,
        0.8596709370613098,
        -1.3004460334777832,
        -0.11094965040683746,
        0.2333751916885376,
        0.141152024269104,
        0.5686393976211548,
        -3.1209988594055176,
        0.21564322710037231,
        -0.10447537899017334,
        -0.6847421526908875,
        -2.0348823070526123,
        -1.1588432788848877,
        -0.04103018343448639,
        0.4303620159626007,
        -1.2688109874725342,
        0.23312242329120636,
        -0.05019933357834816,
        0.8074537515640259,
        0.3358246684074402,
        -2.6546783447265625,
        -0.6146101355552673,
        0.3682823181152344,
        -0.24732287228107452,
        0.10003920644521713,
        0.4796212911605835,
        1.3338935375213623,
        -0.5975469350814819,
        -0.3573693037033081,
        0.33838096261024475,
        2.1881461143493652,
        0.35762614011764526,
        -0.4191740155220032,
        -0.6051592230796814,
        -0.31855061650276184,
        0.06634824723005295,
        -1.6226838827133179,
        0.0672735944390297,
        0.04307575896382332,
        -0.16804465651512146,
        -0.5691270232200623,
        -0.02426142431795597,
        -7.609112071804702e-05,
        0.005156089551746845,
        0.00011640010052360594,
        0.1471995711326599,
        0.011676497757434845,
        -0.1425878405570984,
        0.22552846372127533,
        -0.0007228560862131417,
        -0.07738012820482254,
        0.00031240988755598664,
        0.11201096326112747,
        0.08614885061979294,
        0.016610829159617424,
        -0.04457944631576538,
        0.01620122231543064,
        -0.1996401697397232,
        0.08507394790649414,
        0.03103904239833355,
        0.2430911362171173,
        0.20670989155769348,
        0.003713516518473625,
        -0.04425228387117386,
        0.003353674430400133,
        -0.08998236060142517,
        0.005156184080988169,
        -0.19236591458320618,
        -0.1075700968503952,
        0.2628456652164459,
        0.0013511072611436248,
        -0.08087065815925598,
        -0.010497694835066795,
        0.04108668863773346,
        -0.04517928510904312,
        0.1574665755033493,
        -0.0059031047858297825,
        0.04751581698656082,
        0.10674060881137848,
        0.18858309090137482,
        0.04726467281579971,
        0.16629181802272797,
        -0.04108574986457825,
        -0.02011250890791416,
        -0.038840413093566895,
        -0.0004320016014389694,
        -0.43150702118873596,
        0.24076293408870697,
        -0.13197636604309082,
        -0.18071725964546204,
        0.03704126924276352,
        0.0761113092303276,
        -0.05293251574039459,
        -0.008367719128727913,
        0.2095748484134674,
        0.06600405275821686,
        0.04495682194828987,
        -0.20981673896312714,
        0.0004564879054669291,
        0.19916030764579773,
        -0.22984828054904938,
        -0.35579347610473633,
        0.4671390950679779,
        0.042993009090423584,
        -0.07855068892240524,
        -0.017254946753382683,
        0.0009053655085153878,
        0.036889638751745224,
        0.0010724273743107915,
        -0.022355319932103157,
        -0.08250432461500168,
        0.0675864964723587,
        -0.014571676962077618,
        0.00018493906827643514,
        -0.016821928322315216,
        -0.012364757247269154,
        -0.011745593510568142,
        -0.6848660707473755,
        0.05524437874555588,
        0.04379783943295479,
        0.07693153619766235,
        0.04699012264609337,
        -0.04121185839176178,
        0.09612221270799637,
        0.17836512625217438,
        -0.07280705869197845,
        -0.01240649726241827,
        0.07303885370492935,
        -0.00631493516266346,
        0.06061755120754242,
        -0.01168153341859579,
        -0.01750791072845459,
        0.030920295044779778,
        -0.0014174871612340212,
        -0.1812894493341446,
        0.291839599609375,
        -0.16407278180122375,
        0.013148805126547813,
        0.022946825250983238,
        0.3065282106399536,
        0.009054919704794884,
        -0.05602048709988594,
        -0.003272452624514699,
        0.036878738552331924,
        -0.03569288179278374,
        0.005716619081795216,
        -0.31736165285110474,
        -0.18754957616329193,
        0.21565692126750946,
        -0.00018180281040258706,
        0.13151492178440094,
        -0.024635715410113335,
        0.1390966773033142,
        -0.2561522424221039,
        -0.06843773275613785,
        -0.10711407661437988,
        0.06048933044075966,
        -0.005048307124525309,
        -0.31490203738212585,
        -0.209232896566391,
        0.0023123996797949076,
        -0.23160389065742493,
        0.0003615761233959347,
        -0.021405739709734917,
        0.19245600700378418,
        0.7352476119995117,
        2.795823812484741,
        -0.8294162154197693,
        -7.03945255279541,
        0.09031318128108978,
        -0.7057397365570068,
        -0.3154143989086151,
        -0.48971790075302124,
        2.400768995285034,
        0.07261339575052261,
        -0.9723264575004578,
        3.6062910556793213,
        -1.1889241933822632,
        -0.5862642526626587,
        -0.31563377380371094,
        0.11616603285074234,
        -0.12912115454673767,
        0.17529535293579102,
        -0.13187074661254883,
        -0.15132565796375275,
        -3.602898359298706,
        0.15143445134162903,
        0.5942836999893188,
        1.325575590133667,
        1.3066985607147217,
        0.32320067286491394,
        0.024471411481499672,
        -0.2674003541469574,
        -0.5259939432144165,
        0.2874268591403961,
        -1.092285394668579,
        -3.1353447437286377,
        1.605760931968689,
        -0.6871633529663086,
        1.085402011871338,
        -1.023856282234192,
        0.13865233957767487,
        2.355273962020874,
        1.6906384229660034,
        -0.08825667947530746,
        0.05613093450665474,
        0.46450158953666687,
        2.571983575820923,
        0.09240502864122391,
        0.5955793857574463,
        -0.4105725884437561,
        -0.4297783374786377,
        2.671863317489624,
        -1.3931523561477661,
        -5.299398899078369,
        4.153489112854004,
        -0.9613538980484009,
        -1.2287979125976562,
        0.3073524534702301,
        0.31674715876579285,
        0.0904771015048027,
        0.19802406430244446,
        1.6793901920318604,
        0.4249242842197418,
        -0.013777356594800949,
        -0.2311220020055771,
        0.9884065985679626,
        1.4961282014846802,
        -1.6295770406723022,
        -1.9317598342895508,
        4.109401226043701,
        0.2625720798969269,
        -2.0456109046936035,
        -0.14112786948680878,
        -0.10905490070581436,
        -0.2817773222923279,
        -0.17155185341835022,
        0.6145455241203308,
        0.45863428711891174,
        -0.05495557561516762,
        0.6879932284355164,
        1.2438127994537354,
        0.11977434903383255,
        0.2819376587867737,
        0.2315884679555893,
        -4.623149871826172,
        0.9927283525466919,
        0.3153765797615051,
        0.06355023384094238,
        0.042372286319732666,
        0.26129403710365295,
        0.5771334767341614,
        0.9312698841094971,
        -0.7377627491950989,
        1.145867943763733,
        0.5729087591171265,
        0.07377944141626358,
        0.4458670914173126,
        -0.1774643510580063,
        0.1708374172449112,
        -1.1106926202774048,
        -0.26524266600608826,
        -1.241832971572876,
        3.181035280227661,
        -0.6422228813171387,
        0.04243387281894684,
        -1.293753981590271,
        3.1865570545196533,
        -1.2129122018814087,
        -0.09193871170282364,
        -0.5615969300270081,
        1.4688749313354492,
        0.041650041937828064,
        0.24678325653076172,
        -1.787874698638916,
        -0.7479822039604187,
        4.240748405456543,
        0.9408618211746216,
        -0.8517940044403076,
        1.5841492414474487,
        0.09115605056285858,
        -1.2164318561553955,
        0.356834352016449,
        -0.7399911284446716,
        0.32984593510627747,
        -0.8226800560951233,
        -2.4870009422302246,
        -1.3140126466751099,
        0.4524533152580261,
        -0.8709537386894226,
        0.8008696436882019,
        0.2005567103624344,
        1.498708963394165,
        -0.39831972122192383,
        -0.45914003252983093,
        -0.1446295976638794,
        -0.5845604538917542,
        -0.05951926112174988,
        -0.0006017379928380251,
        -0.17142105102539062,
        0.0003185882233083248,
        -0.15847104787826538,
        -0.06526566296815872,
        -0.3085632622241974,
        -0.20856963098049164,
        -0.0003517991572152823,
        -0.08332513272762299,
        0.016421182081103325,
        -0.1393805891275406,
        -0.694453239440918,
        -0.13160842657089233,
        -0.12980452179908752,
        -0.08478415012359619,
        -0.18903374671936035,
        -0.08313239365816116,
        -0.12011706084012985,
        -0.3033505976200104,
        -0.23685583472251892,
        0.027027327567338943,
        -0.09750919044017792,
        -0.004743562545627356,
        -0.07726936787366867,
        -0.14638520777225494,
        -0.2524828314781189,
        -0.1308153122663498,
        -0.3873108923435211,
        -0.1943320780992508,
        -0.2708267569541931,
        -0.25012025237083435,
        -0.1755397468805313,
        -0.10773053765296936,
        -0.3559328019618988,
        -0.041905514895915985,
        -0.11262337863445282,
        -0.1910715252161026,
        -0.1854056566953659,
        -0.06806252896785736,
        -0.2086125910282135,
        -0.30957746505737305,
        -0.23578692972660065,
        -0.18944549560546875,
        0.000546589377336204,
        -0.4339008033275604,
        -0.2160405069589615,
        -0.3775688707828522,
        -0.31483379006385803,
        -0.08948385715484619,
        -0.11323282867670059,
        -0.2473299205303192,
        -0.005683897063136101,
        -0.3411038815975189,
        -0.25296923518180847,
        -0.04266919195652008,
        -0.4438660740852356,
        -0.00026532041374593973,
        -0.19852006435394287,
        -0.3142518997192383,
        0.10869293659925461,
        0.04324865713715553,
        0.010329504497349262,
        -0.034218549728393555,
        0.14179252088069916,
        0.04144927114248276,
        -0.009255555458366871,
        0.03139543533325195,
        0.24513784050941467,
        0.7759786248207092,
        -0.10480184108018875,
        0.12891142070293427,
        -0.00030767914722673595,
        -0.09731558710336685,
        -0.17761386930942535,
        -0.050997424870729446,
        0.05208450183272362,
        0.0677805244922638,
        0.17754481732845306,
        -0.01999013125896454,
        0.23675976693630219,
        0.1738303303718567,
        -0.5113731026649475,
        0.15951699018478394,
        0.06004014611244202,
        -0.3695915639400482,
        -0.04010757431387901,
        -0.38685569167137146,
        -0.30179136991500854,
        0.22826220095157623,
        0.03186505660414696,
        -0.28059110045433044,
        0.20099613070487976,
        -0.1800263226032257,
        0.05188177898526192,
        0.09220495820045471,
        -0.02829611487686634,
        -0.7141509056091309,
        0.01150533091276884,
        -0.26138442754745483,
        0.04270653426647186,
        0.11141592264175415,
        0.11544562876224518,
        0.16499105095863342,
        0.06608706712722778,
        -0.030938589945435524,
        0.013418148271739483,
        0.07943252474069595,
        0.025298241525888443,
        0.25184860825538635,
        0.022905055433511734,
        0.03295164927840233,
        -0.15510663390159607,
        0.6316211819648743,
        0.0684223398566246,
        0.21019412577152252,
        -0.5165754556655884,
        -0.02359524555504322,
        0.05734780430793762,
        -0.005721482913941145,
        0.10776203125715256,
        -0.0002869686868507415,
        -0.020501311868429184,
        -0.06812668591737747,
        0.08350945264101028,
        0.044753775000572205,
        -0.45470622181892395,
        -0.13941147923469543,
        0.04700907692313194,
        0.018132802098989487,
        -0.016562683507800102,
        0.015792829915881157,
        0.23165002465248108,
        -0.21079586446285248,
        0.07894311100244522,
        0.10892268270254135,
        0.000672105816192925,
        -0.2009659707546234,
        -0.4080401062965393,
        -0.11670791357755661,
        0.014387591741979122,
        0.0418931245803833,
        -0.17641662061214447,
        -0.025434043258428574,
        0.08194798976182938,
        -0.3657299876213074,
        -0.21959860622882843,
        -0.05492111295461655,
        -0.04410874843597412,
        -0.6322416663169861,
        0.49870988726615906,
        -0.403003454208374,
        -0.49174126982688904,
        0.3652840852737427,
        0.20784322917461395,
        0.022235926240682602,
        0.2505896985530853,
        -0.17488154768943787,
        0.09819435328245163,
        0.009208282455801964,
        -0.04463401809334755,
        0.18916939198970795,
        -0.22613362967967987,
        0.5606196522712708,
        0.07620163261890411,
        0.11059865355491638,
        0.15480400621891022,
        -0.07790502160787582,
        0.016190065070986748,
        0.0014234744012355804,
        -0.06533918529748917,
        0.05699949339032173,
        0.01190089900046587,
        0.0863616019487381,
        0.14760714769363403,
        -0.044354815036058426,
        0.02057325653731823,
        -0.08466213196516037,
        0.4537481963634491,
        0.0933447852730751,
        -0.04227267950773239,
        0.16371853649616241,
        0.3267247676849365,
        0.06390519440174103,
        0.07242903858423233,
        -0.00014149541675578803,
        -0.04336884617805481,
        -0.036834727972745895,
        -0.18171146512031555,
        0.13670089840888977,
        0.007004456594586372,
        0.10115688294172287,
        -0.07629860192537308,
        -0.0018648742698132992,
        0.030698418617248535,
        -0.0008687674999237061,
        -0.10367531329393387,
        -0.11656688153743744,
        0.03341342881321907,
        -0.004432844929397106,
        0.00015427290054503828,
        0.0019401970785111189,
        0.2806706130504608,
        0.16966663300991058,
        0.05653024837374687,
        -0.030991418287158012,
        0.13409733772277832,
        0.03198382258415222,
        0.053297318518161774,
        -0.23740944266319275,
        0.1796087920665741,
        0.1599297821521759,
        -0.05801832675933838,
        -0.0026550842449069023,
        -0.09116923063993454,
        -0.014011435210704803,
        -0.05450091511011124,
        -0.07195795327425003,
        -0.04538837820291519,
        0.006698462646454573,
        0.1886974275112152,
        -0.00039444610592909157,
        0.07574091106653214,
        -0.019242435693740845,
        -0.0679791122674942,
        -0.046492498368024826,
        0.14378029108047485,
        0.11792371422052383,
        0.02364398166537285,
        -0.10941990464925766,
        0.09169439971446991,
        -0.08634128421545029,
        -0.11183567345142365,
        0.007568268105387688,
        0.09062264859676361,
        0.11303076893091202,
        -0.0014465958811342716,
        0.13280661404132843,
        0.0752139613032341,
        -0.026685744524002075,
        -0.045436739921569824,
        -0.1814253032207489,
        -0.10634500533342361,
        -0.0207921601831913,
        0.11362595856189728,
        0.1443088799715042,
        0.10337982326745987,
        0.08061257004737854,
        0.054378677159547806,
        0.00043001887388527393,
        0.06256382912397385,
        0.16548755764961243,
        -0.05912886932492256,
        0.02993704192340374,
        -0.06685326248407364,
        0.18391647934913635,
        -0.05060023441910744,
        0.0015753768384456635,
        0.012272164225578308,
        0.0017196128610521555,
        0.08707897365093231,
        0.3253723978996277,
        0.08486612141132355,
        0.018790900707244873,
        8.522472489858046e-05,
        -0.05317790433764458,
        -0.018254753202199936,
        -0.040276408195495605,
        0.009311572648584843,
        -0.1229286938905716,
        0.08933240920305252,
        0.19301065802574158,
        -0.03808131441473961,
        -0.0953507199883461,
        -0.024226216599345207,
        -0.14557993412017822,
        -0.1372959315776825,
        0.1374979466199875,
        -0.0030619287863373756,
        0.15153321623802185,
        -0.06284401565790176,
        -0.06730640679597855,
        0.2778097093105316,
        0.007438134402036667,
        -0.10021502524614334,
        0.09990575164556503,
        -0.04541962966322899,
        -0.0027230768464505672,
        -0.0013991559389978647,
        0.11369862407445908,
        0.046718258410692215,
        -0.008352302014827728,
        -0.010106096044182777,
        0.13973556458950043,
        -0.08174022287130356,
        -0.1482948660850525,
        -0.07273660600185394,
        -0.038754794746637344,
        0.013641482219099998,
        -0.06682861596345901,
        0.0004974049516022205,
        0.0394853800535202,
        -0.03496062383055687,
        0.05789770931005478,
        0.00776606285944581,
        0.24161265790462494,
        -0.2491026073694229,
        -0.10285985469818115,
        0.002543319948017597,
        -0.03136999532580376,
        -0.1442224085330963,
        -0.03839907422661781,
        0.009151488542556763,
        1.3798744475934654e-06,
        0.1282191276550293,
        0.17745840549468994,
        0.07091876864433289,
        -0.026991892606019974,
        -0.011462732218205929,
        0.017234815284609795,
        0.1131061539053917,
        0.0009130439721047878,
        -0.09075169265270233,
        0.0004739110008813441,
        0.03950346261262894,
        0.15274746716022491,
        0.06605304777622223,
        -0.036109521985054016,
        -0.00023621278523933142,
        -0.03605494648218155,
        0.21501192450523376,
        0.023935439065098763,
        -0.020421866327524185,
        -0.23528999090194702,
        -0.1963101625442505,
        -0.06655051559209824,
        -0.008747863583266735,
        0.06213593855500221,
        0.13296012580394745,
        -0.022181633859872818,
        -0.022558964788913727,
        -0.20167066156864166,
        -0.0035253921523690224,
        -0.012280330993235111,
        0.06236821413040161,
        -0.029792726039886475,
        -0.12067361921072006,
        -0.05330321565270424,
        -0.04077637195587158,
        -0.062332089990377426,
        -0.07832320034503937,
        0.065849669277668,
        0.09998968243598938,
        0.017435340210795403,
        0.01206932868808508,
        -0.0061922213062644005,
        0.09897088259458542,
        -0.05000443384051323,
        -0.1267676055431366,
        0.15664808452129364,
        0.02101902849972248,
        0.10520767420530319,
        0.09541606903076172,
        0.005964264739304781,
        8.32038713269867e-05,
        -0.032233305275440216,
        -0.07036656886339188,
        -0.1355918049812317,
        -0.15361858904361725,
        0.0993252694606781,
        -0.030945850536227226,
        -0.07796414941549301,
        -0.05290374532341957,
        -0.003707468044012785,
        0.1247912347316742,
        -0.06622672080993652,
        -0.2038731575012207,
        -0.000434091838542372,
        0.15395116806030273,
        0.03492099791765213,
        0.0944904237985611,
        0.014395995996892452,
        -0.046157192438840866,
        0.08592275530099869,
        0.04199329763650894,
        0.0010737782577052712,
        0.016695834696292877,
        0.0023204577155411243,
        0.03380642458796501,
        -0.14327655732631683,
        0.14023317396640778,
        0.0634530708193779,
        -4.781794996233657e-05,
        -0.009905037470161915,
        -0.019066397100687027,
        0.021115742623806,
        0.11159259080886841,
        0.008987114764750004,
        -0.14345458149909973,
        -0.08382335305213928,
        0.06942364573478699,
        0.027219103649258614,
        0.10728929191827774,
        0.05414620786905289,
        0.17835389077663422,
        -0.1392405480146408,
        0.09670648723840714,
        0.04825363680720329,
        -0.02838018909096718,
        0.1075686439871788,
        -0.024372607469558716,
        -0.05213024094700813,
        0.0180039219558239,
        0.001190205104649067,
        0.04786849021911621,
        -0.1434035748243332,
        -0.08401082456111908,
        -0.0076608736999332905,
        0.04274805262684822,
        0.03579245135188103,
        -0.1052001565694809,
        -0.08700694143772125,
        0.06546830385923386,
        0.07501169294118881,
        0.08104058355093002,
        0.09414125978946686,
        0.11868102103471756,
        0.05257662385702133,
        -0.00043678065412677824,
        0.056220557540655136,
        0.1078721135854721,
        -0.09766160696744919,
        0.03355885297060013,
        -0.22371642291545868,
        0.12319067120552063,
        0.0981510579586029,
        0.10520847886800766,
        0.05726860091090202,
        -0.03988249972462654,
        -0.03521785885095596,
        -0.16842110455036163,
        0.00044521523523144424,
        -0.20504659414291382,
        0.06002999469637871,
        0.029517918825149536,
        -0.01924276351928711,
        0.05138397961854935,
        0.02076006308197975,
        0.0945110023021698,
        0.0015622322680428624,
        0.04778369143605232,
        0.0005044018034823239,
        0.06744340062141418,
        0.049852825701236725,
        0.15073922276496887,
        0.0008658522856421769,
        0.00022912670101504773,
        0.008556460961699486,
        0.117636539041996,
        -0.12048646807670593,
        -0.01728673465549946,
        0.057498667389154434,
        -0.012394675984978676,
        0.029108630493283272,
        0.005037765484303236,
        -0.11732730269432068,
        -0.17709487676620483,
        0.05354059115052223,
        0.008014930412173271,
        0.024853646755218506,
        0.04421716555953026,
        -0.06448988616466522,
        0.21744196116924286,
        -0.12757118046283722,
        0.08265822380781174,
        -0.07423412799835205,
        -0.012900497764348984,
        -0.12407464534044266,
        0.0645589530467987,
        -0.0793132483959198,
        -0.016883887350559235,
        -0.006865023635327816,
        0.005953941028565168,
        -0.011734443716704845,
        -0.03522835299372673,
        -0.024539519101381302,
        0.01638856716454029,
        -0.043198175728321075,
        0.010837087407708168,
        -0.08135766535997391,
        0.06394428014755249,
        0.010820749215781689,
        -0.001068432000465691,
        -0.05651785805821419,
        0.01905280165374279,
        -0.043961334973573685,
        -0.09214852005243301,
        -0.02333996258676052,
        0.028332544490695,
        0.13626281917095184,
        -0.07429071515798569,
        -0.01233285665512085,
        -0.06444665789604187,
        -0.06723031401634216,
        -0.09504390507936478,
        0.00013087234401609749,
        0.02774835005402565,
        -0.011534360237419605,
        -0.019258078187704086,
        0.06715831905603409,
        -0.2312840074300766,
        0.10319987684488297,
        -0.08373242616653442,
        -0.001066805562004447,
        -0.009539109654724598,
        0.000780584872700274,
        0.05048298463225365,
        0.16206592321395874,
        -0.10733138769865036,
        0.06144765391945839,
        6.665947148576379e-05,
        -0.09875974804162979,
        -0.09264621138572693,
        0.08915160596370697,
        0.1382168084383011,
        -0.07762466371059418,
        -0.12414220720529556,
        -0.08066201210021973,
        0.11825967580080032,
        0.19765162467956543,
        -0.15823404490947723,
        0.027099203318357468,
        0.04212251305580139,
        -0.3316805362701416,
        0.08454424142837524,
        -0.10733380913734436,
        -0.32228320837020874,
        0.0608733631670475,
        0.045675765722990036,
        0.049298614263534546,
        -0.07925448566675186,
        0.023633601143956184,
        0.17439712584018707,
        0.05395975708961487,
        -0.05201570689678192,
        -0.03185677528381348,
        0.010611016303300858,
        0.005051532294601202,
        0.08483881503343582,
        -0.1145063266158104,
        0.10293632000684738,
        -0.20068767666816711,
        -0.07421968132257462,
        0.030654802918434143,
        0.1119842529296875,
        0.18358638882637024,
        0.0005932978820055723,
        0.1377738118171692,
        0.033557698130607605,
        0.2555866241455078,
        -0.1187802106142044,
        -0.06300459802150726,
        0.008155436255037785,
        -0.007268939632922411,
        -0.006911284755915403,
        0.20453238487243652,
        -0.08615348488092422,
        0.04099396988749504,
        -0.0639476403594017,
        0.00019095125026069582,
        0.01002696342766285,
        0.05993517488241196,
        1.3655039072036743,
        2.3797969818115234,
        -0.18750716745853424,
        -3.940534830093384,
        0.036649804562330246,
        -2.432122230529785,
        -0.00625245738774538,
        -1.465187668800354,
        4.123101711273193,
        4.459132671356201,
        -1.5803123712539673,
        5.687695026397705,
        0.027658753097057343,
        -0.6499443650245667,
        -1.0681464672088623,
        0.08101875334978104,
        -0.5795140862464905,
        0.27887392044067383,
        0.000658134464174509,
        -0.5963302254676819,
        -3.5864880084991455,
        -0.5083253979682922,
        -2.927497625350952,
        0.5465043187141418,
        1.875992774963379,
        -0.7478348612785339,
        -0.38888946175575256,
        -2.9735827445983887,
        -0.3503837287425995,
        0.4843771159648895,
        -0.1172778531908989,
        -4.515322208404541,
        1.888673186302185,
        -1.0051349401474,
        1.2983391284942627,
        -0.5325868129730225,
        0.1241568773984909,
        -8.036949157714844,
        1.3627183437347412,
        -3.2932252883911133,
        0.048264116048812866,
        1.4517382383346558,
        4.511664390563965,
        0.8349631428718567,
        0.9452908039093018,
        -0.03179029002785683,
        -0.7749342918395996,
        3.0611515045166016,
        -1.1786963939666748,
        -3.5881004333496094,
        5.719426155090332,
        -0.3595457673072815,
        -1.8108283281326294,
        2.003945827484131,
        0.3893769681453705,
        0.38990649580955505,
        -6.215367794036865,
        2.6994218826293945,
        0.8795782327651978,
        -0.02118472196161747,
        1.2324262857437134,
        -0.015969689935445786,
        1.7546395063400269,
        -2.6561124324798584,
        -1.4993066787719727,
        3.374535083770752,
        -3.1555516719818115,
        -1.9980863332748413,
        0.026110349223017693,
        -0.40787941217422485,
        -0.13842956721782684,
        0.02528310753405094,
        -0.17634229362010956,
        -1.0181005001068115,
        0.47412922978401184,
        -0.022664856165647507,
        -0.0313335657119751,
        -1.5639166831970215,
        -5.12614107131958,
        0.37992531061172485,
        -4.925953388214111,
        1.2228672504425049,
        -0.9498971700668335,
        0.5028377771377563,
        0.9520444869995117,
        -3.190054416656494,
        0.6552467942237854,
        0.43370628356933594,
        -0.9912410378456116,
        -4.443912506103516,
        6.508999824523926,
        -4.374460697174072,
        -2.7978405952453613,
        3.518089532852173,
        1.237040638923645,
        -1.58765709400177,
        -0.17126180231571198,
        -1.3872443437576294,
        5.442453384399414,
        -0.7817946672439575,
        0.14521387219429016,
        1.7758407592773438,
        1.7776588201522827,
        5.520784378051758,
        -0.011892969720065594,
        -1.3207789659500122,
        2.142662525177002,
        -0.30561336874961853,
        0.31049075722694397,
        -2.753061294555664,
        -1.2670875787734985,
        4.00359582901001,
        -0.3528102934360504,
        -0.4778226315975189,
        1.049835443496704,
        0.2231867015361786,
        -1.6363216638565063,
        -2.434366464614868,
        2.8018083572387695,
        0.3697146475315094,
        -0.13962963223457336,
        -4.063096523284912,
        -0.871613085269928,
        0.9677746891975403,
        0.7049606442451477,
        -0.01272441353648901,
        -0.019291238859295845,
        3.986737012863159,
        0.20606063306331635,
        0.35111892223358154,
        -0.3539350628852844,
        -0.004775945097208023,
        0.02186579443514347,
        0.07020298391580582,
        0.134484201669693,
        0.04126492515206337,
        0.5934300422668457,
        -0.12080824375152588,
        -0.19127662479877472,
        0.6925805807113647,
        0.013772605918347836,
        -0.22596503794193268,
        0.3375242054462433,
        -0.014983772300183773,
        0.4942665100097656,
        -0.28686943650245667,
        0.0755113884806633,
        -0.1174311414361,
        -0.5751882195472717,
        -0.4771438241004944,
        -0.31547388434410095,
        0.0032403746154159307,
        0.3373706340789795,
        -0.4796719551086426,
        -0.10806383192539215,
        -0.4088713526725769,
        -0.36502593755722046,
        0.05110645294189453,
        -0.1960039883852005,
        -0.05684031918644905,
        0.19182232022285461,
        0.07694303244352341,
        0.3403153717517853,
        0.2901557981967926,
        0.1565016210079193,
        -1.0957834720611572,
        -0.18873552978038788,
        -0.4085182249546051,
        0.12566913664340973,
        0.24433089792728424,
        0.5755035281181335,
        0.007343511562794447,
        -0.1391848623752594,
        0.14387884736061096,
        -0.1694774329662323,
        0.5259314775466919,
        0.07154636830091476,
        -0.561352014541626,
        0.6737940907478333,
        0.04316433519124985,
        -0.09988726675510406,
        -0.23455624282360077,
        -0.12271128594875336,
        0.1782502681016922,
        -1.0000425577163696,
        0.6809083223342896,
        0.04078201577067375,
        0.03367608040571213,
        0.31015583872795105,
        -0.012809443287551403,
        0.33340391516685486,
        -0.4122907221317291,
        -0.4250394403934479,
        0.7890676856040955,
        -0.7656530737876892,
        -0.8444048166275024,
        0.14928443729877472,
        -0.32355496287345886,
        -0.17864306271076202,
        -0.23092219233512878,
        0.6115341782569885,
        0.5363082885742188,
        -0.0890357568860054,
        0.16882631182670593,
        0.0006665923283435404,
        -0.26717957854270935,
        -0.727631688117981,
        -0.09142374247312546,
        -1.1623096466064453,
        0.31128546595573425,
        -0.09240687638521194,
        0.07941177487373352,
        0.2925248444080353,
        -0.9276044368743896,
        0.15347443521022797,
        0.29617300629615784,
        0.0926470160484314,
        -0.7797299027442932,
        0.8778252601623535,
        -0.5537922978401184,
        -0.5210039019584656,
        0.6412554979324341,
        0.44413140416145325,
        -0.32376623153686523,
        -0.06761419028043747,
        0.007206398993730545,
        1.0251692533493042,
        -0.39457541704177856,
        0.1799881011247635,
        0.7822062969207764,
        0.679794430732727,
        0.7181382775306702,
        0.062363527715206146,
        -0.10545676946640015,
        0.3939284384250641,
        0.15342147648334503,
        0.1277875304222107,
        -0.7982932329177856,
        -0.45808038115501404,
        0.8836286067962646,
        -0.22433659434318542,
        -0.4103225767612457,
        0.434315025806427,
        -0.2633851170539856,
        -0.36186057329177856,
        -0.17735856771469116,
        -0.36068183183670044,
        0.3427045941352844,
        0.16826264560222626,
        -0.7126377820968628,
        0.3205603063106537,
        0.3797681927680969,
        0.23388275504112244,
        -0.01246319804340601,
        0.07742761075496674,
        0.44956114888191223,
        0.23074676096439362,
        0.649919331073761,
        -0.1690376102924347,
        -0.6037474274635315,
        0.08253949135541916,
        -0.12850163877010345,
        -0.16441160440444946,
        -0.11291167140007019,
        1.2798019647598267,
        1.0642058849334717,
        -0.1332641839981079,
        1.2695428133010864,
        -0.011257108300924301,
        -0.16917146742343903,
        0.038129810243844986,
        -0.08832120150327682,
        -0.30126702785491943,
        -0.20017892122268677,
        -0.09341196715831757,
        0.007072458975017071,
        -0.9378758072853088,
        -0.19321559369564056,
        -0.4926290810108185,
        0.17151188850402832,
        0.32213249802589417,
        -0.5508230328559875,
        0.1639048457145691,
        -0.7839046120643616,
        -0.22457747161388397,
        -0.0954059585928917,
        0.0869048684835434,
        -0.9506075978279114,
        -0.08595793694257736,
        -0.3170120418071747,
        0.44139543175697327,
        -0.06562741100788116,
        -0.06393156945705414,
        -1.2790544033050537,
        0.344508558511734,
        -0.76614910364151,
        -0.037074457854032516,
        0.37348440289497375,
        1.2052695751190186,
        0.3804168999195099,
        0.2765401601791382,
        0.1073974072933197,
        -0.27342119812965393,
        0.5834340453147888,
        -0.06443945318460464,
        -1.0368770360946655,
        1.4343730211257935,
        -0.027353547513484955,
        -0.452439546585083,
        0.285627543926239,
        -0.014540989883244038,
        0.013381773605942726,
        -1.6287147998809814,
        0.6063968539237976,
        -0.09510137885808945,
        -0.09923505038022995,
        -0.28226175904273987,
        -0.013217928819358349,
        0.5630279779434204,
        -0.19620037078857422,
        -0.2744862139225006,
        1.318757176399231,
        -0.9082483649253845,
        -0.22218409180641174,
        0.10797318071126938,
        -0.08176039904356003,
        0.027128683403134346,
        -0.0615696907043457,
        -0.05490351840853691,
        -0.7434250116348267,
        0.33975309133529663,
        0.39711862802505493,
        0.00646027410402894,
        -0.41825366020202637,
        -1.2583906650543213,
        -0.11265712976455688,
        -0.9105545282363892,
        0.4065483808517456,
        -0.3903006613254547,
        0.23922103643417358,
        0.41073861718177795,
        -0.726639986038208,
        0.24477717280387878,
        0.31706300377845764,
        -0.3231755495071411,
        -1.9071258306503296,
        1.3194447755813599,
        -1.2343450784683228,
        -1.1507433652877808,
        1.0293223857879639,
        0.37698954343795776,
        -0.27651554346084595,
        -0.0861603319644928,
        -0.07378621399402618,
        1.5714017152786255,
        -0.2886725962162018,
        -0.102971650660038,
        0.11365131288766861,
        0.5418657064437866,
        0.6830261945724487,
        0.13916559517383575,
        -0.4182620644569397,
        0.7789209485054016,
        -0.037444934248924255,
        0.33421844244003296,
        -0.9306020140647888,
        -0.5722289085388184,
        1.445203185081482,
        -0.056214962154626846,
        -0.23769207298755646,
        0.24780915677547455,
        0.12246812134981155,
        -0.3587453365325928,
        -0.6771682500839233,
        0.6032558679580688,
        0.18988074362277985,
        0.268363356590271,
        -0.9969398975372314,
        -0.3061158359050751,
        0.4969923496246338,
        -0.35913488268852234,
        -0.00398494815453887,
        -0.07770589739084244,
        0.9775815606117249,
        0.06939287483692169,
        0.04767105355858803,
        -0.3157767355442047,
        -0.9961731433868408,
        0.062407705932855606,
        -0.0281559769064188,
        -0.2159721553325653,
        -0.012464625760912895,
        0.8975450992584229,
        1.072171926498413,
        0.11055538803339005,
        1.2192723751068115,
        0.011313842609524727,
        -0.11523040384054184,
        -0.10551376640796661,
        0.23943792283535004,
        -0.14088048040866852,
        -0.12204253673553467,
        -0.012281274423003197,
        -0.22375322878360748,
        -0.9883711338043213,
        -0.5357580184936523,
        -0.9194191694259644,
        -0.09845400601625443,
        0.4002322256565094,
        -0.4451809525489807,
        0.7817230224609375,
        -0.7981492280960083,
        0.20998680591583252,
        0.13139836490154266,
        0.05364770069718361,
        -1.0044214725494385,
        0.4413658678531647,
        -0.39431002736091614,
        0.26343482732772827,
        -0.09513965994119644,
        0.1347728818655014,
        -1.1895277500152588,
        -0.15562918782234192,
        0.007575080264359713,
        0.04735671728849411,
        0.19630207121372223,
        1.246789813041687,
        -0.026827000081539154,
        0.11593706160783768,
        -0.2767893075942993,
        -0.4937629997730255,
        1.1313058137893677,
        -0.022554757073521614,
        -1.4388560056686401,
        1.2373028993606567,
        -0.17196199297904968,
        -0.28862330317497253,
        0.17601053416728973,
        0.34156334400177,
        0.16773158311843872,
        -1.357919454574585,
        0.21461772918701172,
        0.007501012645661831,
        0.023050706833600998,
        -0.22124263644218445,
        -0.016121020540595055,
        0.5427332520484924,
        -0.03275754302740097,
        -0.2587290108203888,
        1.0504868030548096,
        -1.4639774560928345,
        -0.4866027534008026,
        0.075827457010746,
        0.1389630138874054,
        -0.09480584412813187,
        0.13938206434249878,
        0.18409810960292816,
        0.07500763982534409,
        0.2739691734313965,
        0.04510221257805824,
        -0.007986069656908512,
        -0.8140988945960999,
        -1.3230388164520264,
        0.19141535460948944,
        -1.130231499671936,
        0.44224029779434204,
        -0.5041619539260864,
        0.3186841905117035,
        0.3392268121242523,
        -0.7199699282646179,
        0.04283757880330086,
        0.29184773564338684,
        -0.37294262647628784,
        -1.6895508766174316,
        1.7224005460739136,
        -1.327595829963684,
        -1.330265760421753,
        0.9728360772132874,
        0.460605263710022,
        -0.4393886923789978,
        -0.12804199755191803,
        -0.5133325457572937,
        2.0314276218414307,
        -0.3209034502506256,
        0.08815529197454453,
        0.35157081484794617,
        0.9896610379219055,
        1.1479592323303223,
        -0.15939512848854065,
        -0.3889211416244507,
        0.5961157083511353,
        0.06598217785358429,
        -0.013929102569818497,
        -0.8985841870307922,
        -0.37842458486557007,
        1.391476035118103,
        0.10933801531791687,
        0.025541605427861214,
        0.40026095509529114,
        0.2759188413619995,
        -0.19903694093227386,
        -0.9605050683021545,
        0.4614919424057007,
        0.2223047912120819,
        0.019379492849111557,
        -0.7055991888046265,
        -0.23411506414413452,
        0.5788669586181641,
        -0.22318196296691895,
        -0.002883607754483819,
        0.10321377962827682,
        1.2570847272872925,
        -0.09102806448936462,
        -0.0539427287876606,
        -0.6569676399230957,
        0.024658508598804474,
        -0.050435565412044525,
        -0.18458428978919983,
        -0.011197534389793873,
        -0.13969427347183228,
        0.006094771437346935,
        -0.8435079455375671,
        -0.34222471714019775,
        0.017065877094864845,
        0.0008166159968823195,
        -0.34952470660209656,
        -0.7379982471466064,
        -0.009234419092535973,
        -0.12572787702083588,
        -0.032809704542160034,
        -0.482940137386322,
        -0.08174964040517807,
        -0.038685303181409836,
        -0.6585009098052979,
        -0.6359962821006775,
        0.08556395024061203,
        -0.09577587246894836,
        -1.1261223554611206,
        -0.5961520671844482,
        -0.7731446623802185,
        -0.49434325098991394,
        -0.5726813077926636,
        -0.14479060471057892,
        -0.493431031703949,
        -0.19144153594970703,
        -0.17130573093891144,
        -0.040488071739673615,
        -0.11379419267177582,
        0.006638691760599613,
        -1.0406428575515747,
        -0.047739919275045395,
        -0.9556081891059875,
        -0.06152816489338875,
        0.053139351308345795,
        -0.02320203185081482,
        -0.1119195744395256,
        -0.16252468526363373,
        -0.1792561113834381,
        -0.055162474513053894,
        0.13534240424633026,
        -0.11869951337575912,
        0.07431922852993011,
        0.026346109807491302,
        -0.35033851861953735,
        -0.050078727304935455,
        -0.4382811188697815,
        -0.7227487564086914,
        -0.08802305161952972,
        -0.9844328761100769,
        -0.08511465042829514,
        -0.09360011667013168,
        -0.06504721939563751,
        -0.4504331350326538,
        0.000390863511711359,
        -0.17169195413589478,
        -0.05915403738617897,
        -0.004831154365092516,
        -0.12105913460254669,
        -0.4305301010608673,
        -0.24734987318515778,
        -0.17054611444473267,
        0.0017593075754120946,
        -0.005201490130275488,
        0.00042634663986973464,
        -0.17879928648471832,
        -0.4100031554698944,
        -0.3861302435398102,
        -0.23976539075374603,
        -0.00017797878535930067,
        -0.3500243127346039,
        -0.8014650940895081,
        -0.13394306600093842,
        -0.08599107712507248,
        -0.10828832536935806,
        -0.45790350437164307,
        -0.06157470494508743,
        -0.04339021444320679,
        -0.40354958176612854,
        -0.6102975606918335,
        -0.17118702828884125,
        -0.018883293494582176,
        -0.7090370655059814,
        -0.3291953206062317,
        -0.5243113040924072,
        -0.7819937467575073,
        -0.34733301401138306,
        -0.19563719630241394,
        -0.21272067725658417,
        -0.09065864980220795,
        -0.2025987058877945,
        -0.15112793445587158,
        -0.09616315364837646,
        -0.11620388925075531,
        -0.2546157240867615,
        0.00791834108531475,
        -0.36601415276527405,
        -0.2216285914182663,
        -0.06962405145168304,
        -0.27678564190864563,
        -0.17506425082683563,
        -0.09202498942613602,
        -0.2863524854183197,
        -0.14899040758609772,
        -0.11751557141542435,
        0.0002563120797276497,
        -0.10399913787841797,
        -0.16572758555412292,
        -0.23293696343898773,
        -0.025545889511704445,
        -0.30182716250419617,
        -0.304964154958725,
        -0.16225120425224304,
        -0.44423291087150574,
        -0.2526979148387909,
        -0.07395576685667038,
        -0.03738722950220108,
        -0.35945022106170654,
        -7.763363100821152e-05,
        -0.09376922249794006,
        -0.27277475595474243,
        -0.09709034115076065,
        -0.20074214041233063,
        -0.4966175854206085,
        -0.1278999000787735,
        -0.16448846459388733,
        -0.00168732984457165,
        -0.24173997342586517,
        -0.0011360942153260112,
        -0.16024300456047058,
        -0.30693575739860535,
        -0.12694677710533142,
        -0.2607138752937317,
        0.0002716795715969056,
        -0.26280441880226135,
        -0.34527748823165894,
        -0.012054568156599998,
        -0.1575174629688263,
        -0.11685531586408615,
        -0.2638029158115387,
        -0.24910463392734528,
        -0.2822722792625427,
        -0.16478750109672546,
        -0.17409633100032806,
        -0.19263200461864471,
        -0.0509512796998024,
        -0.6235047578811646,
        -0.2940250635147095,
        -0.2704343795776367,
        -0.6723961234092712,
        -0.2836810052394867,
        -0.19875533878803253,
        -0.2320193648338318,
        -0.24984130263328552,
        -0.07586182653903961,
        -0.37537840008735657,
        -0.2712975740432739,
        -0.1562257707118988,
        -0.2093440294265747,
        -0.19609834253787994,
        -0.2245916873216629,
        -0.19599954783916473,
        -0.3214488625526428,
        -0.14803671836853027,
        -0.1309812366962433,
        -0.2076525092124939,
        -0.08779007941484451,
        -0.27797195315361023,
        -0.347787469625473,
        -0.0013928619446232915,
        -0.37910422682762146,
        -0.19979901611804962,
        -0.1372470259666443,
        -0.3067927956581116,
        -0.30155250430107117,
        -0.409927636384964,
        -0.05808313935995102,
        -0.4107281565666199,
        -0.32715505361557007,
        -0.20374983549118042,
        -0.008822767063975334,
        -0.23388564586639404,
        0.0007645967416465282,
        -0.19831997156143188,
        -0.2321055680513382,
        -0.229413703083992,
        -0.1737140268087387,
        -0.3589960038661957,
        -0.2233435958623886,
        -0.12746880948543549,
        0.0001233613584190607,
        0.012418437749147415,
        0.0006465153419412673,
        -0.26415786147117615,
        -0.36875686049461365,
        -0.17502747476100922,
        -0.15877243876457214,
        4.2653147829696536e-05,
        -0.35046422481536865,
        -0.29016345739364624,
        -0.20792828500270844,
        -0.1912270486354828,
        -0.3093067705631256,
        -0.3401601314544678,
        -0.07966066151857376,
        -0.26173070073127747,
        -0.22246380150318146,
        -0.08093757182359695,
        -0.1972077488899231,
        -0.2905116379261017,
        -0.591426432132721,
        -0.02088465541601181,
        -0.24503622949123383,
        -0.3810216784477234,
        -0.04748556390404701,
        -0.11122037470340729,
        -0.08336666226387024,
        -0.06003114581108093,
        -0.2676846981048584,
        -0.38063058257102966,
        -0.006979166064411402,
        -0.07746461778879166,
        -0.20400887727737427,
        -0.3887157738208771,
        -0.03224942833185196,
        -0.03304155543446541,
        -0.18807165324687958,
        -0.27543723583221436,
        -0.3025835156440735,
        -0.058309413492679596,
        -0.08629025518894196,
        -0.26562926173210144,
        -0.4964224398136139,
        0.0005829521105624735,
        -0.3784930408000946,
        -0.3073442578315735,
        -0.19277538359165192,
        -0.2771957218647003,
        -0.19483917951583862,
        -0.25918418169021606,
        -0.2066895216703415,
        -0.22376106679439545,
        -0.2220638394355774,
        -0.331089586019516,
        -0.28811389207839966,
        -0.07137428969144821,
        -0.00010633740748744458,
        -0.3176001012325287,
        -0.20867615938186646,
        -0.008106357418000698,
        0.054450951516628265,
        0.07371706515550613,
        0.04182939603924751,
        -0.10963526368141174,
        -0.07502969354391098,
        -0.033024054020643234,
        0.04459046199917793,
        -0.044713906943798065,
        0.07306395471096039,
        0.0746334046125412,
        0.005783580243587494,
        -0.14759545028209686,
        0.08300631493330002,
        0.04640961438417435,
        0.026941444724798203,
        0.09726223349571228,
        -0.15910281240940094,
        0.020371126011013985,
        -0.10392053425312042,
        -0.13247181475162506,
        -0.07222520560026169,
        -0.07090960443019867,
        -0.07000186294317245,
        0.11334404349327087,
        -0.0017286166548728943,
        -0.1085815504193306,
        0.013963757082819939,
        0.05981778725981712,
        -0.010186777450144291,
        -0.014396682381629944,
        -0.048214301466941833,
        0.06319501250982285,
        -0.1637049913406372,
        -0.011998794041574001,
        -0.1164596900343895,
        0.1397414207458496,
        -0.05238800495862961,
        0.09660524874925613,
        -0.09865161031484604,
        0.037243615835905075,
        0.025186464190483093,
        -0.06390096247196198,
        0.0973372682929039,
        0.04035741090774536,
        -0.12179496884346008,
        0.13282625377178192,
        0.10192792117595673,
        -0.1614653468132019,
        -0.1420062631368637,
        -0.08433898538351059,
        -0.01204736903309822,
        -0.14388862252235413,
        -0.03314010426402092,
        -0.16181714832782745,
        -0.1456311196088791,
        0.011884412728250027,
        -0.01680026575922966,
        0.061538517475128174,
        -0.1668379008769989,
        -0.0895330160856247,
        -0.018889378756284714,
        0.15011444687843323,
        -0.05367553234100342,
        0.09552639722824097,
        -0.12559741735458374,
        0.08768104761838913,
        -0.11250879615545273,
        0.07954458892345428,
        0.13889388740062714,
        0.1254868507385254,
        0.15148325264453888,
        0.06774567067623138,
        0.12560153007507324,
        -0.11152732372283936,
        -0.04582160338759422,
        -0.1537836790084839,
        0.09896370768547058,
        -0.0849672481417656,
        -0.02241077646613121,
        -0.14470671117305756,
        -0.10267258435487747,
        -0.13388051092624664,
        0.09495086967945099,
        -0.08620817214250565,
        -0.16532234847545624,
        0.12240365147590637,
        0.012120416387915611,
        -0.10122191160917282,
        -0.06001361459493637,
        -0.08963683992624283,
        0.07025475800037384,
        -0.09816914051771164,
        -0.12324625253677368,
        0.0163099467754364,
        -0.1119794175028801,
        0.13368289172649384,
        -0.09239520132541656,
        0.024958081543445587,
        -0.12779060006141663,
        -0.08448942005634308,
        0.0822165384888649,
        0.09723350405693054,
        0.1351948231458664,
        0.16525782644748688,
        -0.12322527170181274,
        -0.08093925565481186,
        0.10964943468570709,
        0.10701312124729156,
        -0.008791835978627205,
        0.11784530431032181,
        -0.08016723394393921,
        0.0033267566468566656,
        -0.056297529488801956,
        0.025708794593811035,
        -0.13488441705703735,
        0.01887068897485733,
        0.07175008952617645,
        -0.15555046498775482,
        -0.0463058166205883,
        0.16330847144126892,
        0.10164393484592438,
        0.04958932846784592,
        0.12962833046913147,
        0.08444667607545853,
        -0.11340723931789398,
        -0.11250560730695724,
        0.08597538620233536,
        0.853329598903656,
        1.9993230104446411,
        0.04118751734495163,
        -3.7598330974578857,
        0.051207032054662704,
        -74.41928100585938,
        -0.1925039142370224,
        45.93305206298828,
        3.3574230670928955,
        2.6321370601654053,
        -0.6287360191345215,
        5.482064723968506,
        -0.6441716551780701,
        -0.3286467492580414,
        -1.1627646684646606,
        0.15824967622756958,
        -0.05227584019303322,
        0.10064365714788437,
        -0.10495737940073013,
        -0.3982723653316498,
        -2.6983211040496826,
        -0.4133981466293335,
        -1.868025302886963,
        0.6242796182632446,
        0.962764322757721,
        -1.142130732536316,
        -0.8907231688499451,
        -2.8442416191101074,
        -0.16138336062431335,
        0.08301538228988647,
        -0.2628830373287201,
        -4.499417304992676,
        1.235268473625183,
        -1.0048240423202515,
        1.1539697647094727,
        -0.3935353457927704,
        -0.10269249230623245,
        -9.577938079833984,
        1.228468418121338,
        -3.3377609252929688,
        -0.09325015544891357,
        1.0315800905227661,
        4.447947025299072,
        0.5374523401260376,
        0.7368379831314087,
        -0.05563366040587425,
        -0.5453270077705383,
        3.0362987518310547,
        45.45820236206055,
        -3.2829668521881104,
        5.660655498504639,
        -0.46198326349258423,
        -1.6443191766738892,
        1.1321934461593628,
        0.3079450726509094,
        0.22960041463375092,
        -6.092968463897705,
        3.151803493499756,
        0.77065509557724,
        -0.03274637088179588,
        0.13499465584754944,
        -0.034046996384859085,
        0.9726075530052185,
        -2.6518359184265137,
        -1.0299161672592163,
        2.8911523818969727,
        -2.1221678256988525,
        -2.012465238571167,
        -0.04800378531217575,
        -26.485897064208984,
        -0.25967440009117126,
        78.61566925048828,
        -0.3150259554386139,
        -0.49226489663124084,
        0.2998899519443512,
        -0.10039076209068298,
        0.4443400800228119,
        -1.0405609607696533,
        -4.3844218254089355,
        0.24683977663516998,
        -5.357760906219482,
        0.9246585965156555,
        -0.45121830701828003,
        0.3614635765552521,
        0.7700180411338806,
        -2.3670196533203125,
        0.2842508852481842,
        0.21123631298542023,
        -0.5160338878631592,
        -3.2678141593933105,
        5.995387554168701,
        -3.591895341873169,
        -1.8294275999069214,
        2.3060178756713867,
        0.660197913646698,
        -1.3447076082229614,
        -0.24113979935646057,
        -1.2156765460968018,
        5.383942127227783,
        -0.6285935640335083,
        0.06709630787372589,
        1.499441385269165,
        1.4414565563201904,
        4.790737628936768,
        0.1349119246006012,
        -0.8169161677360535,
        2.0338730812072754,
        -0.22089016437530518,
        0.24549219012260437,
        -2.099567413330078,
        -0.9683645367622375,
        4.255356788635254,
        -53.43479919433594,
        -0.36753180623054504,
        1.1500558853149414,
        0.13137094676494598,
        -1.6543505191802979,
        -1.7097854614257812,
        1.4349870681762695,
        0.24485386908054352,
        -0.348781943321228,
        -4.377891540527344,
        -0.8594850897789001,
        0.6550488471984863,
        0.502818763256073,
        -0.051029156893491745,
        0.029324257746338844,
        3.9040112495422363,
        0.689335823059082,
        2.5473763942718506,
        -0.3838439881801605,
        -6.097891330718994,
        -0.12873932719230652,
        18.216344833374023,
        -0.2186204493045807,
        17.247005462646484,
        2.186673641204834,
        -0.1993142068386078,
        -0.4757814407348633,
        3.6604256629943848,
        -77.81348419189453,
        -0.4954201877117157,
        -0.5884633660316467,
        0.026955626904964447,
        -0.2604897618293762,
        0.2359193116426468,
        0.05134482681751251,
        -0.09588930755853653,
        -2.5493052005767822,
        0.2615658640861511,
        0.04633462429046631,
        0.9458552598953247,
        0.7561041116714478,
        0.12872877717018127,
        -0.09651079028844833,
        -0.3748696446418762,
        -0.35265401005744934,
        0.084087073802948,
        -0.3004649877548218,
        -3.2694640159606934,
        1.0665723085403442,
        -0.8105600476264954,
        1.272162914276123,
        -0.3764011859893799,
        0.1440766602754593,
        0.27496615052223206,
        1.458174705505371,
        -0.5731813907623291,
        0.13746197521686554,
        0.7704710960388184,
        2.7014505863189697,
        0.2560473382472992,
        0.5973124504089355,
        -0.1491888165473938,
        -0.2341979593038559,
        3.515031337738037,
        -36.24071502685547,
        -5.014163494110107,
        4.026031494140625,
        -0.46054357290267944,
        -1.4403613805770874,
        0.1772313117980957,
        0.22053109109401703,
        0.12769249081611633,
        -0.7867563962936401,
        2.2074484825134277,
        0.5749910473823547,
        0.11933861672878265,
        -0.0018594496650621295,
        90.3602066040039,
        1.0166033506393433,
        -1.9493403434753418,
        -1.204771876335144,
        3.134481906890869,
        0.10420630127191544,
        -2.2832953929901123,
        0.16602881252765656,
        -20.989301681518555,
        -0.12780393660068512,
        -19.305744171142578,
        0.3344809114933014,
        0.036599427461624146,
        -0.04089351370930672,
        0.39331716299057007,
        87.10700988769531,
        -0.1316906362771988,
        0.026529643684625626,
        0.1788327842950821,
        -5.097589492797852,
        0.7124844193458557,
        -0.06614207476377487,
        -0.0752740204334259,
        0.13980649411678314,
        -0.30943921208381653,
        0.3814818263053894,
        0.6703935265541077,
        -0.4518876373767853,
        0.7870839834213257,
        1.202073335647583,
        0.2781406044960022,
        0.3693791329860687,
        0.2973708510398865,
        0.2132478803396225,
        -1.2014796733856201,
        0.00040971231646835804,
        -1.004501461982727,
        3.402191162109375,
        -0.6233930587768555,
        0.018947776407003403,
        -0.7204635143280029,
        2.0354719161987305,
        -0.4916079342365265,
        0.0001671909703873098,
        -0.2696608901023865,
        1.6724400520324707,
        -0.10683806240558624,
        0.030035408213734627,
        -1.4664781093597412,
        -0.7748383283615112,
        4.3852152824401855,
        40.31191635131836,
        -0.7705830931663513,
        1.4764593839645386,
        0.14477434754371643,
        -1.3354339599609375,
        0.0993470773100853,
        -0.1778404265642166,
        0.1844511181116104,
        -0.7385088205337524,
        -3.2388534545898438,
        -0.8538308143615723,
        0.32216861844062805,
        -0.07701420038938522,
        78.97099304199219,
        -0.09207648038864136,
        2.189765214920044,
        -1.1138523817062378,
        -3.686091661453247,
        2.3035566806793213,
        0.17789866030216217,
        0.12515835464000702,
        8.890494346618652,
        -0.1265246421098709,
        7.442950248718262,
        -1.1468943357467651,
        2.180666446685791,
        0.14763091504573822,
        -2.640753984451294,
        0.6831721663475037,
        0.8278073668479919,
        2.3245720863342285,
        0.08488524705171585,
        -3.0051047801971436,
        -0.642445981502533,
        0.8259469270706177,
        -0.2977142035961151,
        -2.159794330596924,
        0.9539168477058411,
        1.9713630676269531,
        -0.7185568809509277,
        -0.6617817282676697,
        3.8042261600494385,
        1.9724584817886353,
        4.423017978668213,
        1.6664892435073853,
        1.980455994606018,
        0.4557887017726898,
        2.571719169616699,
        0.23478876054286957,
        1.0454580783843994,
        -2.965925455093384,
        -0.1956680417060852,
        0.03803218528628349,
        6.427737236022949,
        -4.099289417266846,
        5.626592636108398,
        0.12751424312591553,
        -0.6754586696624756,
        -3.5800182819366455,
        0.41747310757637024,
        0.33851298689842224,
        -0.7877236604690552,
        -1.2395387887954712,
        -4.096334934234619,
        6.750709533691406,
        -4.717508792877197,
        -4.055744647979736,
        0.10184296220541,
        -0.5986738801002502,
        0.7541449069976807,
        2.1083645820617676,
        -0.4021305739879608,
        4.049045562744141,
        -3.4584619998931885,
        -0.8652021884918213,
        -0.12922652065753937,
        1.1197924613952637,
        -0.13836553692817688,
        -0.566896915435791,
        -1.517081618309021,
        -1.0080478191375732,
        -3.747312545776367,
        2.520918130874634,
        0.32949021458625793,
        0.07827110588550568,
        7.288846492767334,
        0.036361224949359894,
        12.085121154785156,
        -1.3484643697738647,
        2.3147857189178467,
        0.3628474771976471,
        -2.818173408508301,
        4.789431571960449,
        1.0553717613220215,
        2.3226757049560547,
        -0.20430469512939453,
        -3.142073631286621,
        -0.6577934622764587,
        0.9315943121910095,
        -0.4430701732635498,
        -2.407741069793701,
        1.206316590309143,
        2.1390538215637207,
        -0.7800081372261047,
        -0.8975387811660767,
        3.9811747074127197,
        1.840869426727295,
        4.544012069702148,
        1.7180355787277222,
        1.9994512796401978,
        0.3182452917098999,
        2.3424389362335205,
        0.19215157628059387,
        0.9667895436286926,
        -2.8778011798858643,
        -0.2537848651409149,
        0.1099109873175621,
        6.733758926391602,
        -4.119718074798584,
        5.806088447570801,
        -0.020563242956995964,
        -0.6120677590370178,
        -3.5024423599243164,
        0.2141437977552414,
        0.0987129881978035,
        -0.7438066601753235,
        -1.1929994821548462,
        -4.325312614440918,
        11.099324226379395,
        -4.648527145385742,
        -4.305607795715332,
        -0.07744789868593216,
        -0.44691574573516846,
        0.8883327841758728,
        1.975058913230896,
        -0.42804789543151855,
        4.12349271774292,
        -3.639953136444092,
        -0.5574591755867004,
        -0.28174567222595215,
        1.1856160163879395,
        -16.887500762939453,
        -0.6867215633392334,
        -1.6345173120498657
      ],
      "b": [
        -0.6155456304550171,
        -1.0918349027633667,
        0.7844021320343018,
        -0.41312694549560547,
        0.13122601807117462,
        4.436923027038574,
        -0.19551821053028107,
        2.820423126220703,
        -0.5566763877868652,
        0.9049574732780457,
        -0.05011741816997528,
        -0.9643192291259766,
        6.105747222900391,
        0.30971968173980713,
        0.7004470229148865,
        -0.14397715032100677,
        -1.5586074590682983,
        -0.27773144841194153,
        0.15076573193073273,
        -0.21046704053878784,
        -1.3336125612258911,
        0.013124140910804272,
        0.4000074565410614,
        -0.44582128524780273,
        -0.3721367418766022,
        1.402850866317749,
        0.32313141226768494,
        1.8679040670394897,
        0.4962550103664398,
        0.5502565503120422,
        -0.10857051610946655,
        0.38687852025032043,
        0.012861678376793861,
        0.19385573267936707,
        -1.4968860149383545,
        -0.5142953395843506,
        0.05495140701532364,
        1.763777256011963,
        -1.4846118688583374,
        2.0995981693267822,
        -0.23102088272571564,
        -0.48605865240097046,
        -0.9532766342163086,
        -0.21412311494350433,
        0.10949882864952087,
        -0.282070130109787,
        -0.6787824630737305,
        -1.4588024616241455,
        1.2857627868652344,
        -2.068229913711548,
        -1.4271643161773682,
        -0.20035135746002197,
        -0.5314087867736816,
        0.260534405708313,
        0.8618051409721375,
        -0.2747175097465515,
        1.1548373699188232,
        -1.4882265329360962,
        -0.557828962802887,
        -0.22575172781944275,
        0.17519044876098633,
        6.010347843170166,
        -0.28162723779678345,
        -1.3060678243637085
      ]
    },
    {
      "inDim": 64,
      "outDim": 2,
      "activation": "tanh",
      "W": [
        -0.037257879972457886,
        -0.02598745934665203,
        0.11393885314464569,
        0.19188499450683594,
        0.05601939558982849,
        -0.20330992341041565,
        -0.31431952118873596,
        -0.06723351031541824,
        0.07222146540880203,
        0.0020742006599903107,
        -0.17664027214050293,
        -0.00887993536889553,
        -0.03081579878926277,
        -0.010413046926259995,
        0.06718515604734421,
        0.18273243308067322,
        0.008475072681903839,
        -0.011880784295499325,
        0.409360408782959,
        0.019169341772794724,
        -0.07944642007350922,
        0.07948841154575348,
        0.11550424247980118,
        -0.0032548760063946247,
        -0.12485332787036896,
        0.1425103098154068,
        -0.04631442204117775,
        -0.07998433709144592,
        -0.0036230937112122774,
        -0.3924170434474945,
        0.023993195965886116,
        0.07066044956445694,
        0.00017468931037001312,
        -0.27509430050849915,
        -0.028289221227169037,
        0.05907052755355835,
        0.022282879799604416,
        -0.07932896912097931,
        0.023177344352006912,
        0.02452409453690052,
        -0.1554897129535675,
        -0.004303237423300743,
        -0.0008746515959501266,
        -0.24690738320350647,
        -0.156670942902565,
        -0.09930530935525894,
        0.043021973222494125,
        0.06413531303405762,
        0.011982005089521408,
        0.001514372299425304,
        -0.0711245909333229,
        -0.44732555747032166,
        0.004822004586458206,
        0.23902654647827148,
        -0.17455171048641205,
        -0.320121169090271,
        0.12479421496391296,
        -0.4218369126319885,
        0.017264023423194885,
        0.10486262291669846,
        -0.02556747943162918,
        -0.024249214679002762,
        -0.047119442373514175,
        0.03243277594447136,
        0.13056007027626038,
        -0.01826649345457554,
        -0.010550705716013908,
        -0.09154617041349411,
        -0.003117793472483754,
        0.26082178950309753,
        0.017783211544156075,
        0.09512723982334137,
        0.11286649852991104,
        0.01767711341381073,
        -0.3093756437301636,
        0.06578321754932404,
        0.013359054923057556,
        0.09924817085266113,
        -0.18405939638614655,
        0.5820127129554749,
        -0.06474518775939941,
        0.02040410228073597,
        -0.0007845716318115592,
        -0.03504212573170662,
        0.12250983715057373,
        0.01964453049004078,
        0.012890984304249287,
        -0.029156208038330078,
        0.021595224738121033,
        0.00048215576680377126,
        0.023896988481283188,
        0.06895577162504196,
        -0.006474022753536701,
        -0.1155468225479126,
        0.13621170818805695,
        0.24133199453353882,
        0.1928723305463791,
        -0.2016008198261261,
        -0.5398140549659729,
        0.0031511529814451933,
        0.18626926839351654,
        0.002631873358041048,
        0.14555370807647705,
        0.02075187675654888,
        0.013967301696538925,
        -0.17647825181484222,
        0.14437440037727356,
        -0.07244206219911575,
        0.0372554287314415,
        0.25706011056900024,
        -0.02673846110701561,
        0.019401097670197487,
        -0.4133455753326416,
        -0.014737199991941452,
        0.17590512335300446,
        -0.17674514651298523,
        0.022180981934070587,
        -0.08121787756681442,
        0.060854051262140274,
        0.056539926677942276,
        -0.011164689436554909,
        0.04891851544380188,
        0.1452096849679947,
        0.13107070326805115,
        -0.018909962847828865,
        -0.03687594085931778,
        -0.00964492280036211,
        0.14662885665893555
      ],
      "b": [
        -0.10995594412088394,
        -1.6586402654647827
      ]
    }
  ],
  "_meta": {
    "source_ckpt": "dev/watch/vm1_20260521T234825Z_best.pt",
    "baseline_catches_at_save": 9.40625,
    "gen": 2
  }
}