{
  "version": 1,
  "id": "teacher_H64_gen0",
  "K": 4,
  "featureDim": 35,
  "inputMean": [
    0.0,
    0.0,
    0.0,
    0.0,
    0.0,
    0.0,
    0.0,
    0.0,
    0.0,
    0.0,
    0.0,
    0.0,
    0.0,
    0.0,
    0.0,
    0.0,
    0.0,
    0.0,
    0.0,
    0.0,
    0.0,
    0.0,
    0.0,
    0.0,
    0.0,
    0.0,
    0.0,
    0.0,
    0.0,
    0.0,
    0.0,
    0.0,
    0.0,
    0.0,
    0.0
  ],
  "inputStd": [
    1.0,
    1.0,
    1.0,
    1.0,
    1.0,
    1.0,
    1.0,
    1.0,
    1.0,
    1.0,
    1.0,
    1.0,
    1.0,
    1.0,
    1.0,
    1.0,
    1.0,
    1.0,
    1.0,
    1.0,
    1.0,
    1.0,
    1.0,
    1.0,
    1.0,
    1.0,
    1.0,
    1.0,
    1.0,
    1.0,
    1.0,
    1.0,
    1.0,
    1.0,
    1.0
  ],
  "outputScale": 0.05,
  "clipMagnitude": 0.05,
  "layers": [
    {
      "inDim": 35,
      "outDim": 64,
      "activation": "relu",
      "W": [
        -0.5441478490829468,
        -1.076106071472168,
        -1.0238934755325317,
        0.9444308876991272,
        -0.13425084948539734,
        0.2173430323600769,
        0.05522051826119423,
        -0.02234526351094246,
        -1.7527371644973755,
        0.07621031254529953,
        -0.36229413747787476,
        -3.2227275371551514,
        0.456298828125,
        -0.4720786213874817,
        0.9470449686050415,
        0.10186190158128738,
        -0.05248405411839485,
        -0.19093678891658783,
        -0.14771468937397003,
        -0.050075359642505646,
        0.5242782235145569,
        0.6317976117134094,
        1.5682271718978882,
        -0.5331728458404541,
        -0.3334381580352783,
        0.4422062337398529,
        1.0251351594924927,
        1.7654136419296265,
        -0.45821648836135864,
        0.2002035528421402,
        0.0009638589690439403,
        2.026747465133667,
        -0.3207865059375763,
        0.3523612916469574,
        -0.5160794258117676,
        0.2935192883014679,
        -0.09180806577205658,
        4.779544830322266,
        -1.491057276725769,
        1.6272602081298828,
        -0.10584864765405655,
        -0.5543497204780579,
        -2.8655924797058105,
        -0.024500779807567596,
        -0.3703196942806244,
        -0.1731812059879303,
        0.22503703832626343,
        -1.409146785736084,
        0.3350411057472229,
        0.4286205768585205,
        -3.3425681591033936,
        0.07840577512979507,
        0.4510807991027832,
        -0.1655612289905548,
        0.5111501812934875,
        0.14697766304016113,
        3.6923182010650635,
        -1.131015658378601,
        -0.31692710518836975,
        -0.07192865759134293,
        0.14148804545402527,
        -0.39310532808303833,
        -0.5978725552558899,
        0.9230337142944336,
        0.7677620649337769,
        -1.5479867458343506,
        1.0759687423706055,
        0.955751895904541,
        0.10417947173118591,
        -0.4149906039237976,
        -0.060772888362407684,
        -0.4152514636516571,
        0.39926567673683167,
        0.7680258750915527,
        -0.031786322593688965,
        -0.0437399186193943,
        -0.4913276731967926,
        0.5494600534439087,
        2.213657855987549,
        -0.04809275642037392,
        2.8144755363464355,
        -0.2856074273586273,
        0.4884550869464874,
        0.27642732858657837,
        0.016957662999629974,
        0.9049091339111328,
        0.22662121057510376,
        -0.3258058428764343,
        0.46493640542030334,
        1.7975326776504517,
        -2.3806915283203125,
        1.834510087966919,
        0.8599143028259277,
        -1.3003627061843872,
        -0.11142270267009735,
        0.23339813947677612,
        0.1414407640695572,
        0.5682721138000488,
        -3.1216611862182617,
        0.21602694690227509,
        -0.10490941256284714,
        -0.6845942735671997,
        -2.0344014167785645,
        -1.1588146686553955,
        -0.04074537381529808,
        0.4300236999988556,
        -1.2685964107513428,
        0.23322659730911255,
        -0.050193894654512405,
        0.8069260120391846,
        0.33597755432128906,
        -2.654722213745117,
        -0.6143532395362854,
        0.36821040511131287,
        -0.24727340042591095,
        0.10050609707832336,
        0.4793371260166168,
        1.3338992595672607,
        -0.5967363119125366,
        -0.3573729991912842,
        0.3381885290145874,
        2.18805193901062,
        0.35771727561950684,
        -0.4197462797164917,
        -0.6061922311782837,
        -0.31826290488243103,
        0.06699677556753159,
        -1.62247633934021,
        0.06813028454780579,
        0.04287586361169815,
        -0.16778749227523804,
        -0.5690996646881104,
        -0.02447015419602394,
        0.0004046451358590275,
        0.004621448460966349,
        4.741776137962006e-05,
        0.14727890491485596,
        0.011221100576221943,
        -0.1431504338979721,
        0.22583021223545074,
        3.481072417343967e-05,
        -0.07761192321777344,
        0.000408210966270417,
        0.11150652170181274,
        0.0860297828912735,
        0.015984952449798584,
        -0.04498627409338951,
        0.016280686482787132,
        -0.19960829615592957,
        0.08481945842504501,
        0.03117956966161728,
        0.24305620789527893,
        0.20725686848163605,
        0.004290653858333826,
        -0.044292282313108444,
        0.003428222145885229,
        -0.08990617096424103,
        0.005708037875592709,
        -0.1924334466457367,
        -0.10756562650203705,
        0.2621587812900543,
        0.0018111555837094784,
        -0.08019042015075684,
        -0.010599177330732346,
        0.04175582528114319,
        -0.04538043960928917,
        0.1576431542634964,
        -0.006093944888561964,
        0.04801720380783081,
        0.10710407048463821,
        0.18870528042316437,
        0.04801486060023308,
        0.16671349108219147,
        -0.04114988446235657,
        -0.01971263624727726,
        -0.03856157884001732,
        -0.00011092968634329736,
        -0.4311814308166504,
        0.24085617065429688,
        -0.13246457278728485,
        -0.18097539246082306,
        0.03726385533809662,
        0.07548721134662628,
        -0.05297314375638962,
        -0.008627163246273994,
        0.20978613197803497,
        0.0658903568983078,
        0.04442153871059418,
        -0.20949164032936096,
        3.0050083296373487e-05,
        0.19920136034488678,
        -0.23040379583835602,
        -0.3553261458873749,
        0.467540442943573,
        0.04271451383829117,
        -0.07892526686191559,
        -0.017400357872247696,
        0.0008286988595500588,
        0.03663666173815727,
        0.0009295012569054961,
        -0.022579295560717583,
        -0.08261173963546753,
        0.06712085008621216,
        -0.014357943087816238,
        -3.3973235986195505e-05,
        -0.016296278685331345,
        -0.012414063327014446,
        -0.011626782827079296,
        -0.6842343211174011,
        0.05535178631544113,
        0.044151388108730316,
        0.07708705961704254,
        0.04717516154050827,
        -0.04173627123236656,
        0.09585387259721756,
        0.17840076982975006,
        -0.07339971512556076,
        -0.01244368962943554,
        0.07284217327833176,
        -0.006127640139311552,
        0.06031041592359543,
        -0.011910151690244675,
        -0.01661624014377594,
        0.031217757612466812,
        -0.0011355422902852297,
        -0.18121232092380524,
        0.29114362597465515,
        -0.16430653631687164,
        0.012895346619188786,
        0.022833948954939842,
        0.3063850998878479,
        0.009131701663136482,
        -0.055705416947603226,
        -0.0027140132151544094,
        0.0363292321562767,
        -0.03631534054875374,
        0.00560423918068409,
        -0.3175904154777527,
        -0.1882636547088623,
        0.21595294773578644,
        0.0003475370758678764,
        0.1317104548215866,
        -0.02512364648282528,
        0.13979732990264893,
        -0.2567703127861023,
        -0.06778087466955185,
        -0.10679941624403,
        0.060020431876182556,
        -0.005245351232588291,
        -0.31502485275268555,
        -0.20883503556251526,
        0.002447749488055706,
        -0.23238642513751984,
        -0.00023988846805877984,
        -0.021467944607138634,
        0.19306667149066925,
        0.7350289225578308,
        2.7958014011383057,
        -0.8295555114746094,
        -7.0390119552612305,
        0.09038052707910538,
        -0.7058863043785095,
        -0.31564897298812866,
        -0.48960378766059875,
        2.4000422954559326,
        0.07327312231063843,
        -0.9722175598144531,
        3.606441020965576,
        -1.1889774799346924,
        -0.5863460302352905,
        -0.31583017110824585,
        0.11684200167655945,
        -0.12909464538097382,
        0.1753620058298111,
        -0.13111956417560577,
        -0.15123948454856873,
        -3.6029365062713623,
        0.15149664878845215,
        0.5941882729530334,
        1.3255701065063477,
        1.3066247701644897,
        0.32322636246681213,
        0.024542829021811485,
        -0.26787450909614563,
        -0.5251724123954773,
        0.28717049956321716,
        -1.0921440124511719,
        -3.135071277618408,
        1.605790615081787,
        -0.686737060546875,
        1.0855578184127808,
        -1.023105502128601,
        0.13803505897521973,
        2.354931116104126,
        1.6895010471343994,
        -0.08812683820724487,
        0.056307122111320496,
        0.4645887017250061,
        2.572237491607666,
        0.09232624620199203,
        0.5960791110992432,
        -0.40970900654792786,
        -0.4294511377811432,
        2.6722500324249268,
        -1.3939862251281738,
        -5.299294471740723,
        4.153468132019043,
        -0.9607858061790466,
        -1.2290247678756714,
        0.30719518661499023,
        0.31684252619743347,
        0.09023533761501312,
        0.19744336605072021,
        1.6793293952941895,
        0.4255165755748749,
        -0.014226486906409264,
        -0.23120374977588654,
        0.9883913993835449,
        1.4958198070526123,
        -1.6290799379348755,
        -1.9315643310546875,
        4.109821796417236,
        0.2626112401485443,
        -2.0450615882873535,
        -0.14112041890621185,
        -0.10837288200855255,
        -0.2818833887577057,
        -0.17205336689949036,
        0.6141451001167297,
        0.45890122652053833,
        -0.05517526715993881,
        0.6878207325935364,
        1.243696689605713,
        0.1199609786272049,
        0.2814081311225891,
        0.23131343722343445,
        -4.622866153717041,
        0.9923426508903503,
        0.31507524847984314,
        0.06369228661060333,
        0.04281669110059738,
        0.26128101348876953,
        0.578064501285553,
        0.9315586686134338,
        -0.7380594611167908,
        1.1457053422927856,
        0.5733923316001892,
        0.07338488101959229,
        0.4454708993434906,
        -0.1779165416955948,
        0.17075544595718384,
        -1.110644817352295,
        -0.2656095027923584,
        -1.2419617176055908,
        3.1815261840820312,
        -0.642341136932373,
        0.04271229729056358,
        -1.2928191423416138,
        3.1869547367095947,
        -1.213010311126709,
        -0.09211761504411697,
        -0.561665415763855,
        1.4687254428863525,
        0.041140273213386536,
        0.24680450558662415,
        -1.7878687381744385,
        -0.7480273842811584,
        4.241408348083496,
        0.9407990574836731,
        -0.8516902923583984,
        1.5837942361831665,
        0.09227152168750763,
        -1.2156659364700317,
        0.35649552941322327,
        -0.7399758100509644,
        0.3295280933380127,
        -0.8224848508834839,
        -2.486966848373413,
        -1.313873052597046,
        0.45234405994415283,
        -0.8709068894386292,
        0.8007835745811462,
        0.20059175789356232,
        1.499094009399414,
        -0.3985588252544403,
        -0.4589647054672241,
        -0.14510604739189148,
        -0.5847829580307007,
        -0.05917740613222122,
        -0.000606774352490902,
        -0.1713210940361023,
        -0.00011695968714775518,
        -0.15839603543281555,
        -0.06512269377708435,
        -0.30902811884880066,
        -0.20910589396953583,
        1.5640205674571916e-05,
        -0.08345197886228561,
        0.01654677465558052,
        -0.1395832896232605,
        -0.6949045658111572,
        -0.13049669563770294,
        -0.1298527717590332,
        -0.08509642630815506,
        -0.1888427436351776,
        -0.08280569314956665,
        -0.11986345052719116,
        -0.3031471371650696,
        -0.23634175956249237,
        0.02699967660009861,
        -0.09740280359983444,
        -0.004544448107481003,
        -0.07776827365159988,
        -0.14618681371212006,
        -0.2523805499076843,
        -0.1305803805589676,
        -0.3873463273048401,
        -0.19457826018333435,
        -0.27094438672065735,
        -0.24996156990528107,
        -0.17573365569114685,
        -0.10736332088708878,
        -0.35637974739074707,
        -0.0411006323993206,
        -0.11294194310903549,
        -0.1911655217409134,
        -0.18553967773914337,
        -0.06786023825407028,
        -0.20780399441719055,
        -0.3094852864742279,
        -0.23552590608596802,
        -0.18963034451007843,
        9.936720016412437e-05,
        -0.43309471011161804,
        -0.21595528721809387,
        -0.3776664137840271,
        -0.3144848644733429,
        -0.08979213982820511,
        -0.11298737674951553,
        -0.2464064061641693,
        -0.005691443104296923,
        -0.34067848324775696,
        -0.25291675329208374,
        -0.04226566106081009,
        -0.44450709223747253,
        4.8324607632821426e-05,
        -0.19901010394096375,
        -0.31320077180862427,
        0.10906758159399033,
        0.04341927543282509,
        0.010186807252466679,
        -0.03368641063570976,
        0.14124073088169098,
        0.04137495905160904,
        -0.00930180773139,
        0.030743898823857307,
        0.2454334944486618,
        0.7757046818733215,
        -0.10487716645002365,
        0.12954534590244293,
        -0.0002812115417327732,
        -0.0970812439918518,
        -0.17732971906661987,
        -0.05191251263022423,
        0.05277835205197334,
        0.06820403784513474,
        0.17690512537956238,
        -0.02046302706003189,
        0.2365114539861679,
        0.17347626388072968,
        -0.5109607577323914,
        0.16009420156478882,
        0.05995854735374451,
        -0.36948269605636597,
        -0.040283478796482086,
        -0.387217253446579,
        -0.30205225944519043,
        0.2278171181678772,
        0.03117438405752182,
        -0.2799571752548218,
        0.201007679104805,
        -0.18052908778190613,
        0.051638104021549225,
        0.09157329797744751,
        -0.028098177164793015,
        -0.7140250205993652,
        0.011638607829809189,
        -0.26139238476753235,
        0.04250512644648552,
        0.11079832911491394,
        0.11559852957725525,
        0.1646863967180252,
        0.06662345677614212,
        -0.031123895198106766,
        0.013426663354039192,
        0.07952754944562912,
        0.0248809102922678,
        0.2518905699253082,
        0.02324715442955494,
        0.03271874412894249,
        -0.155269593000412,
        0.6323296427726746,
        0.06789234280586243,
        0.21071261167526245,
        -0.5165016651153564,
        -0.02372407726943493,
        0.05806310474872589,
        -0.005993903614580631,
        0.10751082748174667,
        -0.0005018708179704845,
        -0.020040348172187805,
        -0.06772755831480026,
        0.08373978734016418,
        0.04491989314556122,
        -0.4549817144870758,
        -0.1393723040819168,
        0.04681878909468651,
        0.01762913167476654,
        -0.015893230214715004,
        0.01576147973537445,
        0.23147359490394592,
        -0.21056102216243744,
        0.07862012088298798,
        0.10946954041719437,
        0.0003443522145971656,
        -0.19975897669792175,
        -0.4071579873561859,
        -0.11582592874765396,
        0.014677518047392368,
        0.04167651757597923,
        -0.17618092894554138,
        -0.024941185489296913,
        0.08179627358913422,
        -0.3655788004398346,
        -0.21952736377716064,
        -0.055356480181217194,
        -0.04416719824075699,
        -0.6324813961982727,
        0.499347448348999,
        -0.4032573699951172,
        -0.4910513162612915,
        0.36535969376564026,
        0.20766997337341309,
        0.021998055279254913,
        0.2503599226474762,
        -0.17425225675106049,
        0.09833022952079773,
        0.009610126726329327,
        -0.04448434337973595,
        0.1890242099761963,
        -0.2257361263036728,
        0.5610679984092712,
        0.07634922862052917,
        0.11043715476989746,
        0.15467536449432373,
        -0.07776607573032379,
        0.016605639830231667,
        0.0012167858658358455,
        -0.06491930782794952,
        0.05719225853681564,
        0.011706572026014328,
        0.08607172966003418,
        0.1474578082561493,
        -0.044374097138643265,
        0.020614681765437126,
        -0.08507762849330902,
        0.4536356031894684,
        0.09405327588319778,
        -0.042406708002090454,
        0.16401004791259766,
        0.32763391733169556,
        0.06388606131076813,
        0.07198719680309296,
        0.00019714927475433797,
        -0.04314751178026199,
        -0.037065695971250534,
        -0.18160304427146912,
        0.1368178427219391,
        0.006854638922959566,
        0.10113003104925156,
        -0.07649832218885422,
        -0.0019157188944518566,
        0.030624091625213623,
        -0.0002828644646797329,
        -0.10452261567115784,
        -0.11598873138427734,
        0.033571645617485046,
        -0.004774345550686121,
        -0.00022443105990532786,
        0.0025196641217917204,
        0.2803787589073181,
        0.16984625160694122,
        0.05633460730314255,
        -0.03103015571832657,
        0.1346079409122467,
        0.03177903592586517,
        0.05253266543149948,
        -0.23754334449768066,
        0.17968112230300903,
        0.1595841497182846,
        -0.05821281298995018,
        -0.003101480659097433,
        -0.0908820703625679,
        -0.014281056821346283,
        -0.05457175895571709,
        -0.07207755744457245,
        -0.04526946693658829,
        0.006315918173640966,
        0.18860574066638947,
        -0.0006244747783057392,
        0.07582986354827881,
        -0.019293202087283134,
        -0.06762897968292236,
        -0.045872293412685394,
        0.14317230880260468,
        0.11773320287466049,
        0.022787420079112053,
        -0.10925805568695068,
        0.09108804166316986,
        -0.08591456711292267,
        -0.11082524061203003,
        0.007465856149792671,
        0.09081455320119858,
        0.1126115694642067,
        -0.001763915061019361,
        0.13282330334186554,
        0.07475408166646957,
        -0.02619031071662903,
        -0.045341186225414276,
        -0.18063122034072876,
        -0.10709956288337708,
        -0.020412517711520195,
        0.11398566514253616,
        0.1444391906261444,
        0.10321478545665741,
        0.08097854256629944,
        0.05420425906777382,
        -2.1756612113676965e-05,
        0.06244167312979698,
        0.16593173146247864,
        -0.05872226879000664,
        0.029626067727804184,
        -0.06700529158115387,
        0.18418024480342865,
        -0.05037553608417511,
        0.00046650052536278963,
        0.011866938322782516,
        0.0015160078182816505,
        0.08659527450799942,
        0.3253132998943329,
        0.08511049300432205,
        0.018353255465626717,
        -8.78311475389637e-05,
        -0.053303223103284836,
        -0.01860162243247032,
        -0.0400729775428772,
        0.009395371191203594,
        -0.12323030829429626,
        0.08948683738708496,
        0.19295082986354828,
        -0.03762746974825859,
        -0.09528099745512009,
        -0.024355705827474594,
        -0.145620658993721,
        -0.13734103739261627,
        0.13756603002548218,
        -0.0025612933095544577,
        0.15148136019706726,
        -0.06336317211389542,
        -0.0673232227563858,
        0.2784236669540405,
        0.007281270809471607,
        -0.10011503100395203,
        0.10007112473249435,
        -0.04548376426100731,
        -0.003230755915865302,
        -0.0010968296555802226,
        0.11331108212471008,
        0.046914782375097275,
        -0.008586075156927109,
        -0.010117795318365097,
        0.139648899435997,
        -0.0826696902513504,
        -0.14860311150550842,
        -0.07351399958133698,
        -0.03924718499183655,
        0.013961879536509514,
        -0.06699275225400925,
        0.00039425239083357155,
        0.03940018266439438,
        -0.03388093039393425,
        0.05717417225241661,
        0.008739542216062546,
        0.2420608252286911,
        -0.24981729686260223,
        -0.10342149436473846,
        0.0021084153559058905,
        -0.031194811686873436,
        -0.14375059306621552,
        -0.03803433105349541,
        0.009828153066337109,
        3.8005488022463396e-05,
        0.1275683343410492,
        0.1779443919658661,
        0.07120255380868912,
        -0.027456937357783318,
        -0.012161311693489552,
        0.016868822276592255,
        0.11273980140686035,
        0.0013328833738341928,
        -0.09087421000003815,
        0.0007835606229491532,
        0.039102375507354736,
        0.15240976214408875,
        0.06489410251379013,
        -0.03575078397989273,
        -0.00021744149853475392,
        -0.03688892722129822,
        0.21563328802585602,
        0.0240167323499918,
        -0.021421590819954872,
        -0.23559628427028656,
        -0.19630631804466248,
        -0.06669963151216507,
        -0.008149036206305027,
        0.06295237690210342,
        0.13318733870983124,
        -0.022277459502220154,
        -0.022830374538898468,
        -0.20157736539840698,
        -0.004318670369684696,
        -0.011233420111238956,
        0.06247759237885475,
        -0.02887646295130253,
        -0.12002459913492203,
        -0.0535273551940918,
        -0.041230082511901855,
        -0.06179759278893471,
        -0.0787118524312973,
        0.06563130021095276,
        0.09997992217540741,
        0.017160573974251747,
        0.011645409278571606,
        -0.005793669261038303,
        0.09913550317287445,
        -0.05008351430296898,
        -0.1273040920495987,
        0.15762539207935333,
        0.021602528169751167,
        0.10509475320577621,
        0.09598090499639511,
        0.005971448961645365,
        -8.977545803645626e-05,
        -0.032393086701631546,
        -0.07057879120111465,
        -0.13542188704013824,
        -0.15347930788993835,
        0.09863629192113876,
        -0.030779222026467323,
        -0.07812833040952682,
        -0.05339124798774719,
        -0.0036678521428257227,
        0.12504854798316956,
        -0.06613174080848694,
        -0.20447088778018951,
        -8.521609561285004e-05,
        0.15452806651592255,
        0.03507157787680626,
        0.09393611550331116,
        0.014674773439764977,
        -0.046400442719459534,
        0.08606570959091187,
        0.042255084961652756,
        0.0010666997404769063,
        0.01765250973403454,
        0.002019355306401849,
        0.03369833528995514,
        -0.1439015418291092,
        0.14094962179660797,
        0.06338594853878021,
        -5.599123687716201e-05,
        -0.010299359448254108,
        -0.018376993015408516,
        0.02039492316544056,
        0.11184637993574142,
        0.008454378694295883,
        -0.14430268108844757,
        -0.08414540439844131,
        0.06938216090202332,
        0.027378926053643227,
        0.10730620473623276,
        0.05394517630338669,
        0.17817136645317078,
        -0.13896165788173676,
        0.0975952297449112,
        0.04828769341111183,
        -0.028225267305970192,
        0.10751862078905106,
        -0.02447982132434845,
        -0.05265949293971062,
        0.017402978613972664,
        0.0012844761367887259,
        0.04828406497836113,
        -0.1433638334274292,
        -0.08330976963043213,
        -0.007673028390854597,
        0.042370736598968506,
        0.03607207164168358,
        -0.1043083518743515,
        -0.08659566938877106,
        0.06534887105226517,
        0.07462587207555771,
        0.08068394660949707,
        0.09425565600395203,
        0.11915992945432663,
        0.0528934970498085,
        0.0003558617609087378,
        0.05612952262163162,
        0.10807245224714279,
        -0.09747353941202164,
        0.03384651616215706,
        -0.22370219230651855,
        0.12231962382793427,
        0.09817907214164734,
        0.10451287776231766,
        0.057232026010751724,
        -0.03948710113763809,
        -0.035735081881284714,
        -0.16855700314044952,
        -0.0001230429916176945,
        -0.20432130992412567,
        0.05968847498297691,
        0.028880666941404343,
        -0.019109804183244705,
        0.05129421502351761,
        0.02119218185544014,
        0.09369757026433945,
        0.0007709719939157367,
        0.04744541272521019,
        0.00031689030583947897,
        0.06778699159622192,
        0.04967265576124191,
        0.15105599164962769,
        0.0014354675076901913,
        -0.00012838574184570462,
        0.008667861111462116,
        0.11775863170623779,
        -0.12042613327503204,
        -0.017218567430973053,
        0.0579976961016655,
        -0.012754244729876518,
        0.029621554538607597,
        0.004675636533647776,
        -0.11714278906583786,
        -0.17745715379714966,
        0.053682368248701096,
        0.007585826329886913,
        0.025141870602965355,
        0.04377753660082817,
        -0.06448974460363388,
        0.21718649566173553,
        -0.12732310593128204,
        0.08220332860946655,
        -0.07371332496404648,
        -0.012143025174736977,
        -0.12368011474609375,
        0.06431981176137924,
        -0.07925885170698166,
        -0.016788236796855927,
        -0.006864430848509073,
        0.006120919715613127,
        -0.012347646057605743,
        -0.0349954254925251,
        -0.024474406614899635,
        0.016277609393000603,
        -0.043191779404878616,
        0.01160408928990364,
        -0.08092404156923294,
        0.06320764869451523,
        0.010475498624145985,
        -0.0009207034599967301,
        -0.057032663375139236,
        0.019031362608075142,
        -0.0437295064330101,
        -0.09287600964307785,
        -0.023648597300052643,
        0.02810538187623024,
        0.13647806644439697,
        -0.07491277903318405,
        -0.01202654279768467,
        -0.06451673060655594,
        -0.06752870231866837,
        -0.09519723057746887,
        -0.00013969028077553958,
        0.027653604745864868,
        -0.011300516314804554,
        -0.019366025924682617,
        0.0676841214299202,
        -0.2314586341381073,
        0.10299288481473923,
        -0.08412545174360275,
        -0.0007289803470484912,
        -0.009772282093763351,
        0.00043719628592953086,
        0.050705455243587494,
        0.16253474354743958,
        -0.1069512739777565,
        0.06187886744737625,
        -0.00016984813555609435,
        -0.09865915030241013,
        -0.09298020601272583,
        0.0893779918551445,
        0.13882532715797424,
        -0.07731558382511139,
        -0.1242559477686882,
        -0.08062511682510376,
        0.11874496936798096,
        0.19728535413742065,
        -0.1584521234035492,
        0.026755286380648613,
        0.04130929335951805,
        -0.3305904269218445,
        0.0846983790397644,
        -0.10671086609363556,
        -0.3218902349472046,
        0.06027180701494217,
        0.04639403522014618,
        0.04934840276837349,
        -0.07891622930765152,
        0.023966198787093163,
        0.17491112649440765,
        0.05401238054037094,
        -0.05140756070613861,
        -0.032013438642024994,
        0.010420788079500198,
        0.004951727110892534,
        0.08476431667804718,
        -0.11408394575119019,
        0.10329985618591309,
        -0.20092350244522095,
        -0.07465289533138275,
        0.03052610531449318,
        0.11187361925840378,
        0.18324995040893555,
        0.001034982968121767,
        0.1378852128982544,
        0.03333098068833351,
        0.25562188029289246,
        -0.11919928342103958,
        -0.06313193589448929,
        0.008744854480028152,
        -0.007088635116815567,
        -0.0074624596163630486,
        0.20440657436847687,
        -0.08723413944244385,
        0.041043154895305634,
        -0.06436775624752045,
        -0.0003498878504615277,
        0.009845970198512077,
        0.06119520589709282,
        1.366196870803833,
        2.380296230316162,
        -0.18734043836593628,
        -3.9406118392944336,
        0.03713088482618332,
        -2.431791067123413,
        -0.006416521035134792,
        -1.4652613401412964,
        4.123137950897217,
        4.459225177764893,
        -1.5801597833633423,
        5.687185764312744,
        0.027469011023640633,
        -0.650291383266449,
        -1.0684889554977417,
        0.08133812993764877,
        -0.5789970755577087,
        0.27892619371414185,
        0.0008613055688329041,
        -0.5965887904167175,
        -3.586608409881592,
        -0.5080276727676392,
        -2.928297281265259,
        0.546947181224823,
        1.875825047492981,
        -0.7477979063987732,
        -0.38912761211395264,
        -2.9734184741973877,
        -0.350009948015213,
        0.4846825897693634,
        -0.1172153577208519,
        -4.514621734619141,
        1.88804030418396,
        -1.00563383102417,
        1.298085331916809,
        -0.533089816570282,
        0.12386447936296463,
        -8.036441802978516,
        1.3626935482025146,
        -3.292954206466675,
        0.04815732687711716,
        1.4514607191085815,
        4.511479377746582,
        0.8355404138565063,
        0.9447333812713623,
        -0.03183205425739288,
        -0.774334728717804,
        3.0615785121917725,
        -1.1791094541549683,
        -3.5881330966949463,
        5.719198703765869,
        -0.36006951332092285,
        -1.8106417655944824,
        2.0041565895080566,
        0.38926324248313904,
        0.39033645391464233,
        -6.215355396270752,
        2.6993234157562256,
        0.8803421854972839,
        -0.021396324038505554,
        1.2326043844223022,
        -0.015598664991557598,
        1.7545382976531982,
        -2.655805826187134,
        -1.4996438026428223,
        3.3748040199279785,
        -3.1556239128112793,
        -1.9979912042617798,
        0.02629685588181019,
        -0.40794873237609863,
        -0.13844382762908936,
        0.02472740225493908,
        -0.17593464255332947,
        -1.0176125764846802,
        0.47458043694496155,
        -0.023149076849222183,
        -0.031542859971523285,
        -1.563301920890808,
        -5.126689910888672,
        0.3803141415119171,
        -4.926072597503662,
        1.2231056690216064,
        -0.9500215649604797,
        0.502346932888031,
        0.952775239944458,
        -3.190048933029175,
        0.6559691429138184,
        0.43403613567352295,
        -0.9916908144950867,
        -4.4439191818237305,
        6.508387088775635,
        -4.374179840087891,
        -2.7977371215820312,
        3.518308162689209,
        1.2366862297058105,
        -1.5882551670074463,
        -0.1714341938495636,
        -1.3876159191131592,
        5.442471981048584,
        -0.7820798754692078,
        0.14480331540107727,
        1.775445580482483,
        1.7781239748001099,
        5.520744323730469,
        -0.011762555688619614,
        -1.3210843801498413,
        2.143146276473999,
        -0.30591243505477905,
        0.3104623854160309,
        -2.7532413005828857,
        -1.2669334411621094,
        4.002890110015869,
        -0.35304349660873413,
        -0.4782244861125946,
        1.0496116876602173,
        0.22323840856552124,
        -1.6369025707244873,
        -2.4337899684906006,
        2.80234432220459,
        0.36923307180404663,
        -0.13968952000141144,
        -4.062526702880859,
        -0.8723528385162354,
        0.9684315919876099,
        0.7046864628791809,
        -0.012147044762969017,
        -0.019319718703627586,
        3.986851215362549,
        0.2060282677412033,
        0.3514934182167053,
        -0.3537202775478363,
        -0.00444355234503746,
        0.021232636645436287,
        0.07021403312683105,
        0.13490986824035645,
        0.0418497659265995,
        0.5937779545783997,
        -0.12052294611930847,
        -0.19114819169044495,
        0.6924210786819458,
        0.013579954393208027,
        -0.2261584848165512,
        0.33743658661842346,
        -0.01498714741319418,
        0.4943312704563141,
        -0.2863328754901886,
        0.07517258822917938,
        -0.11742272228002548,
        -0.5756360292434692,
        -0.4772971272468567,
        -0.3152133524417877,
        0.003462356049567461,
        0.3367012143135071,
        -0.4794096052646637,
        -0.10721340030431747,
        -0.40886014699935913,
        -0.3647020757198334,
        0.05125589668750763,
        -0.195952907204628,
        -0.056443069130182266,
        0.19168129563331604,
        0.0765981525182724,
        0.3410678803920746,
        0.290298730134964,
        0.15616482496261597,
        -1.0960814952850342,
        -0.18921174108982086,
        -0.40877193212509155,
        0.12554609775543213,
        0.24475641548633575,
        0.5756374001502991,
        0.007538209203630686,
        -0.1397189497947693,
        0.14360173046588898,
        -0.16922920942306519,
        0.5259385704994202,
        0.07139629870653152,
        -0.5609289407730103,
        0.6743240356445312,
        0.042612556368112564,
        -0.09996190667152405,
        -0.23513013124465942,
        -0.12250268459320068,
        0.17845037579536438,
        -0.9994443655014038,
        0.6804839372634888,
        0.04035009443759918,
        0.03399515151977539,
        0.3093922436237335,
        -0.013241324573755264,
        0.33317703008651733,
        -0.41244417428970337,
        -0.42492836713790894,
        0.7892614603042603,
        -0.7645652890205383,
        -0.8443407416343689,
        0.14860416948795319,
        -0.32424116134643555,
        -0.17909285426139832,
        -0.23096898198127747,
        0.6114147901535034,
        0.5365176796913147,
        -0.08955357223749161,
        0.16921615600585938,
        0.00048039108514785767,
        -0.2674093246459961,
        -0.7266200184822083,
        -0.09140729904174805,
        -1.1615982055664062,
        0.3114793598651886,
        -0.0926550030708313,
        0.07949991524219513,
        0.29294365644454956,
        -0.9273343086242676,
        0.15279681980609894,
        0.2960816025733948,
        0.09243335574865341,
        -0.7800642251968384,
        0.878439724445343,
        -0.5539978742599487,
        -0.5209574103355408,
        0.6412879228591919,
        0.44432780146598816,
        -0.3237161934375763,
        -0.06760675460100174,
        0.006850965786725283,
        1.0245352983474731,
        -0.39504531025886536,
        0.1802290380001068,
        0.7827010154724121,
        0.68004310131073,
        0.7175138592720032,
        0.06246482580900192,
        -0.1053522378206253,
        0.3936155438423157,
        0.15426358580589294,
        0.12720327079296112,
        -0.7983512878417969,
        -0.45781564712524414,
        0.8840758800506592,
        -0.2237500697374344,
        -0.4101409316062927,
        0.4343418478965759,
        -0.263362318277359,
        -0.3612520098686218,
        -0.1774415522813797,
        -0.36160367727279663,
        0.34292393922805786,
        0.1680721789598465,
        -0.7132501006126404,
        0.31967735290527344,
        0.3796023726463318,
        0.23364931344985962,
        -0.012019390240311623,
        0.0771593526005745,
        0.44907963275909424,
        0.23068740963935852,
        0.6502204537391663,
        -0.16869300603866577,
        -0.6033100485801697,
        0.08252888172864914,
        -0.12877032160758972,
        -0.1642100065946579,
        -0.1127614751458168,
        1.2799452543258667,
        1.06400728225708,
        -0.13337822258472443,
        1.2700122594833374,
        -0.011308741755783558,
        -0.16907717287540436,
        0.03826143592596054,
        -0.08790023624897003,
        -0.30184271931648254,
        -0.20107074081897736,
        -0.09300940483808517,
        0.007788870949298143,
        -0.9374703764915466,
        -0.1929885298013687,
        -0.49264201521873474,
        0.17172980308532715,
        0.3223244845867157,
        -0.5505654215812683,
        0.16401882469654083,
        -0.7837814092636108,
        -0.22475288808345795,
        -0.09528755396604538,
        0.08754760771989822,
        -0.9506908059120178,
        -0.08562704920768738,
        -0.3168579339981079,
        0.44178760051727295,
        -0.06559134274721146,
        -0.063890241086483,
        -1.2795826196670532,
        0.34533625841140747,
        -0.7655114531517029,
        -0.03771267086267471,
        0.37309977412223816,
        1.2064718008041382,
        0.3800715506076813,
        0.27713239192962646,
        0.10768739134073257,
        -0.27365803718566895,
        0.583380401134491,
        -0.06450559943914413,
        -1.0363270044326782,
        1.434765338897705,
        -0.02747068926692009,
        -0.45255520939826965,
        0.28587019443511963,
        -0.014904871582984924,
        0.012605194933712482,
        -1.6281940937042236,
        0.6060680747032166,
        -0.0948818102478981,
        -0.09933138638734818,
        -0.2824503779411316,
        -0.012493249960243702,
        0.5629591941833496,
        -0.19687487185001373,
        -0.2743370831012726,
        1.3177067041397095,
        -0.9077724814414978,
        -0.22255811095237732,
        0.10795547813177109,
        -0.08142808079719543,
        0.027073541656136513,
        -0.06175193563103676,
        -0.05473899468779564,
        -0.7436099052429199,
        0.33939841389656067,
        0.39724916219711304,
        0.006554096005856991,
        -0.41778838634490967,
        -1.258670687675476,
        -0.11260425299406052,
        -0.9104139804840088,
        0.4068704843521118,
        -0.39015811681747437,
        0.23878969252109528,
        0.41129347681999207,
        -0.7264365553855896,
        0.24453386664390564,
        0.3177591860294342,
        -0.3241364359855652,
        -1.9076582193374634,
        1.318770408630371,
        -1.2346599102020264,
        -1.1506919860839844,
        1.0298632383346558,
        0.37740713357925415,
        -0.2767338752746582,
        -0.08613085746765137,
        -0.07385024428367615,
        1.572029948234558,
        -0.28857743740081787,
        -0.10295192152261734,
        0.11335553228855133,
        0.5421450138092041,
        0.6835535168647766,
        0.13928422331809998,
        -0.41883328557014465,
        0.7791305780410767,
        -0.037347499281167984,
        0.33423927426338196,
        -0.9312609434127808,
        -0.5716849565505981,
        1.4453612565994263,
        -0.056245043873786926,
        -0.23706987500190735,
        0.24860624969005585,
        0.12256897240877151,
        -0.3587109446525574,
        -0.6776825785636902,
        0.6029881238937378,
        0.1904904842376709,
        0.2682628929615021,
        -0.9970029592514038,
        -0.30612629652023315,
        0.4969937801361084,
        -0.3583637475967407,
        -0.003850337350741029,
        -0.07783066481351852,
        0.9773421883583069,
        0.06937636435031891,
        0.047227293252944946,
        -0.31542205810546875,
        -0.995694637298584,
        0.06306673586368561,
        -0.027438411489129066,
        -0.2155459076166153,
        -0.012082592584192753,
        0.8968663811683655,
        1.0716482400894165,
        0.11063932627439499,
        1.2192797660827637,
        0.011442809365689754,
        -0.11493214219808578,
        -0.1054290235042572,
        0.23894093930721283,
        -0.1420671045780182,
        -0.12182866036891937,
        -0.012314430437982082,
        -0.22362394630908966,
        -0.9885545372962952,
        -0.5362085700035095,
        -0.9203646183013916,
        -0.0987686887383461,
        0.4000118374824524,
        -0.445042222738266,
        0.7823076844215393,
        -0.7985258102416992,
        0.21024756133556366,
        0.1311277449131012,
        0.05333421379327774,
        -1.0035207271575928,
        0.4406092166900635,
        -0.393964946269989,
        0.2631988525390625,
        -0.09504285454750061,
        0.13444219529628754,
        -1.1899871826171875,
        -0.15588916838169098,
        0.00831565447151661,
        0.04702066257596016,
        0.19663561880588531,
        1.2465932369232178,
        -0.02686377801001072,
        0.1152418851852417,
        -0.2769825756549835,
        -0.4939799904823303,
        1.1316370964050293,
        -0.022537676617503166,
        -1.4396028518676758,
        1.237165927886963,
        -0.17213349044322968,
        -0.28817102313041687,
        0.17581555247306824,
        0.34147822856903076,
        0.1676488071680069,
        -1.3579806089401245,
        0.21435511112213135,
        0.0073241894133389,
        0.023552600294351578,
        -0.2213195562362671,
        -0.015734124928712845,
        0.5431898236274719,
        -0.03345165401697159,
        -0.25896742939949036,
        1.0503592491149902,
        -1.4634307622909546,
        -0.4865628182888031,
        0.0761626735329628,
        0.13826267421245575,
        -0.09448947757482529,
        0.13988731801509857,
        0.18410813808441162,
        0.07456191629171371,
        0.27373841404914856,
        0.04486113414168358,
        -0.00783557165414095,
        -0.8143291473388672,
        -1.3233532905578613,
        0.19176629185676575,
        -1.1301302909851074,
        0.44290807843208313,
        -0.5037778615951538,
        0.3183881640434265,
        0.3389180302619934,
        -0.7202656865119934,
        0.043723106384277344,
        0.29177433252334595,
        -0.372634619474411,
        -1.6892812252044678,
        1.7224255800247192,
        -1.3279625177383423,
        -1.3299556970596313,
        0.9727344512939453,
        0.4609110951423645,
        -0.4385760426521301,
        -0.12808534502983093,
        -0.5133605003356934,
        2.031191349029541,
        -0.32076698541641235,
        0.0887913852930069,
        0.3529265522956848,
        0.9900920391082764,
        1.1483403444290161,
        -0.15959836542606354,
        -0.3887077569961548,
        0.5959331393241882,
        0.06564778834581375,
        -0.013512768782675266,
        -0.8979662656784058,
        -0.37820330262184143,
        1.3917847871780396,
        0.11020683497190475,
        0.025263121351599693,
        0.40083807706832886,
        0.27512460947036743,
        -0.19822639226913452,
        -0.9602522253990173,
        0.46164238452911377,
        0.22239704430103302,
        0.01993326097726822,
        -0.7052754759788513,
        -0.2348634898662567,
        0.5791553854942322,
        -0.2238244116306305,
        -0.0021499558351933956,
        0.102751724421978,
        1.2572661638259888,
        -0.09079524874687195,
        -0.05457460135221481,
        -0.6575034856796265,
        0.024554776027798653,
        -0.05017807334661484,
        -0.18484915792942047,
        -0.01110784336924553,
        -0.13952170312404633,
        0.006147247739136219,
        -0.8422294855117798,
        -0.3432578444480896,
        0.01758449710905552,
        -9.007065091282129e-05,
        -0.35027194023132324,
        -0.7378947138786316,
        -0.00874752551317215,
        -0.12570421397686005,
        -0.033098962157964706,
        -0.48278751969337463,
        -0.08195021003484726,
        -0.03845832869410515,
        -0.6586228013038635,
        -0.6357062458992004,
        0.08559810370206833,
        -0.09558948874473572,
        -1.126225233078003,
        -0.5961264967918396,
        -0.7731320858001709,
        -0.4941258430480957,
        -0.5730211138725281,
        -0.14429618418216705,
        -0.4934050738811493,
        -0.191564679145813,
        -0.17106212675571442,
        -0.04075000807642937,
        -0.11376733332872391,
        0.006107363849878311,
        -1.0407062768936157,
        -0.04769604280591011,
        -0.9558924436569214,
        -0.060813937336206436,
        0.0533723309636116,
        -0.02352568320930004,
        -0.11175824701786041,
        -0.16301222145557404,
        -0.1797293871641159,
        -0.055186908692121506,
        0.1358293890953064,
        -0.11965501308441162,
        0.07462714612483978,
        0.026727933436632156,
        -0.3502974510192871,
        -0.05009682849049568,
        -0.4385647773742676,
        -0.7224079370498657,
        -0.08760371059179306,
        -0.9840884804725647,
        -0.08527915179729462,
        -0.09353060275316238,
        -0.06503485143184662,
        -0.4502089023590088,
        0.00014847640704829246,
        -0.17147348821163177,
        -0.05993684008717537,
        -0.005089744459837675,
        -0.12109187990427017,
        -0.4309188425540924,
        -0.24681203067302704,
        -0.17045573890209198,
        0.001366636366583407,
        -0.0047060055658221245,
        9.705608681542799e-05,
        -0.17887111008167267,
        -0.4098387360572815,
        -0.38574400544166565,
        -0.23988935351371765,
        0.0001757970458129421,
        -0.3501768112182617,
        -0.8015651106834412,
        -0.134195938706398,
        -0.08586932718753815,
        -0.10801742970943451,
        -0.45823904871940613,
        -0.061257846653461456,
        -0.04338844493031502,
        -0.40348225831985474,
        -0.6104397177696228,
        -0.17094379663467407,
        -0.019350174814462662,
        -0.7096365690231323,
        -0.32935652136802673,
        -0.524423360824585,
        -0.7824740409851074,
        -0.34777212142944336,
        -0.19576838612556458,
        -0.21349182724952698,
        -0.09031521528959274,
        -0.20283542573451996,
        -0.15128713846206665,
        -0.0955708920955658,
        -0.11648693680763245,
        -0.25438061356544495,
        0.007031266111880541,
        -0.36590054631233215,
        -0.22221079468727112,
        -0.06978777050971985,
        -0.2766931653022766,
        -0.1745700240135193,
        -0.09145855158567429,
        -0.28610947728157043,
        -0.14911088347434998,
        -0.11793147027492523,
        0.0008162645390257239,
        -0.10415201634168625,
        -0.16566258668899536,
        -0.23256359994411469,
        -0.025283364579081535,
        -0.30242499709129333,
        -0.30467551946640015,
        -0.16263581812381744,
        -0.44461965560913086,
        -0.25257423520088196,
        -0.0737857073545456,
        -0.03744563087821007,
        -0.3594908118247986,
        9.913613757817075e-05,
        -0.0932488888502121,
        -0.2719532251358032,
        -0.09730006754398346,
        -0.2004067748785019,
        -0.4958743155002594,
        -0.12834680080413818,
        -0.1641632616519928,
        -0.002021032851189375,
        -0.24197173118591309,
        -0.001156707527115941,
        -0.15979503095149994,
        -0.3073160946369171,
        -0.12673592567443848,
        -0.2615772783756256,
        -7.737398846074939e-05,
        -0.2629433274269104,
        -0.3450126647949219,
        -0.012283548712730408,
        -0.15751713514328003,
        -0.1167590543627739,
        -0.2638793885707855,
        -0.24901710450649261,
        -0.2823094427585602,
        -0.16453130543231964,
        -0.17413896322250366,
        -0.19358879327774048,
        -0.05110481008887291,
        -0.623549222946167,
        -0.2937227189540863,
        -0.26994457840919495,
        -0.672351062297821,
        -0.2843181788921356,
        -0.19842728972434998,
        -0.23251745104789734,
        -0.2496160864830017,
        -0.07556028664112091,
        -0.37606140971183777,
        -0.27130013704299927,
        -0.15654583275318146,
        -0.20998407900333405,
        -0.19601376354694366,
        -0.22481606900691986,
        -0.19568099081516266,
        -0.3219273090362549,
        -0.1476856768131256,
        -0.13088567554950714,
        -0.20719923079013824,
        -0.08828013390302658,
        -0.27824437618255615,
        -0.34806516766548157,
        -0.0014193692477419972,
        -0.3793172240257263,
        -0.1999942809343338,
        -0.1368829905986786,
        -0.3069654107093811,
        -0.30204305052757263,
        -0.40936514735221863,
        -0.05827326327562332,
        -0.410504549741745,
        -0.32691115140914917,
        -0.20322835445404053,
        -0.009981976822018623,
        -0.2346242368221283,
        -2.679702993191313e-05,
        -0.19816575944423676,
        -0.23207032680511475,
        -0.22887055575847626,
        -0.17374461889266968,
        -0.35938918590545654,
        -0.22331348061561584,
        -0.12732093036174774,
        0.00011382914817659184,
        0.01224044244736433,
        0.0005747191025875509,
        -0.2641333043575287,
        -0.36837565898895264,
        -0.17489376664161682,
        -0.15795817971229553,
        9.935240086633712e-05,
        -0.35062187910079956,
        -0.29049140214920044,
        -0.2087395042181015,
        -0.1912044882774353,
        -0.3089144825935364,
        -0.3396710157394409,
        -0.0793544128537178,
        -0.26188451051712036,
        -0.22168387472629547,
        -0.08117683231830597,
        -0.19675153493881226,
        -0.2901137173175812,
        -0.5913006663322449,
        -0.02123636193573475,
        -0.24449743330478668,
        -0.38069191575050354,
        -0.04773970693349838,
        -0.11137572675943375,
        -0.08309964090585709,
        -0.05956628918647766,
        -0.26693710684776306,
        -0.38019153475761414,
        -0.006982493679970503,
        -0.07725948840379715,
        -0.2036040872335434,
        -0.38898107409477234,
        -0.0323883518576622,
        -0.03386807069182396,
        -0.18783846497535706,
        -0.2751278579235077,
        -0.30243825912475586,
        -0.05907941609621048,
        -0.08635353296995163,
        -0.2651991546154022,
        -0.4970877766609192,
        0.000511896563693881,
        -0.379030704498291,
        -0.3080355226993561,
        -0.19297483563423157,
        -0.2769801914691925,
        -0.19526521861553192,
        -0.2581751346588135,
        -0.20736472308635712,
        -0.22434650361537933,
        -0.22108404338359833,
        -0.3313955068588257,
        -0.28824734687805176,
        -0.07103102654218674,
        4.20997675973922e-05,
        -0.3173205554485321,
        -0.20904380083084106,
        -0.008204474113881588,
        0.054223574697971344,
        0.0743321105837822,
        0.0412413626909256,
        -0.10943784564733505,
        -0.07520729303359985,
        -0.0328674279153347,
        0.04441475495696068,
        -0.045395899564027786,
        0.07270723581314087,
        0.07446745783090591,
        0.00544667849317193,
        -0.14801962673664093,
        0.08218376338481903,
        0.046577680855989456,
        0.02743346244096756,
        0.0970306396484375,
        -0.1583840250968933,
        0.020039644092321396,
        -0.10327798128128052,
        -0.13251736760139465,
        -0.07247383147478104,
        -0.07088883221149445,
        -0.07015857100486755,
        0.11274398863315582,
        -0.0012462803861126304,
        -0.10832346975803375,
        0.014198730699717999,
        0.05988088250160217,
        -0.01038340013474226,
        -0.014652247540652752,
        -0.04798995703458786,
        0.06352242082357407,
        -0.16310134530067444,
        -0.012214978225529194,
        -0.11717298626899719,
        0.13957683742046356,
        -0.05226005241274834,
        0.09689194709062576,
        -0.09884820878505707,
        0.03667330741882324,
        0.02624197117984295,
        -0.06438455730676651,
        0.09694326668977737,
        0.03971646726131439,
        -0.12219544500112534,
        0.13268795609474182,
        0.10207810252904892,
        -0.16149884462356567,
        -0.14219962060451508,
        -0.08418538421392441,
        -0.012487730011343956,
        -0.14396579563617706,
        -0.033213160932064056,
        -0.16120867431163788,
        -0.1455908864736557,
        0.011522804386913776,
        -0.01685672253370285,
        0.06170184165239334,
        -0.16720795631408691,
        -0.0883849561214447,
        -0.018926676362752914,
        0.14979594945907593,
        -0.053335562348365784,
        0.09607522189617157,
        -0.12498002499341965,
        0.08772985637187958,
        -0.1126527488231659,
        0.07957221567630768,
        0.13930970430374146,
        0.12549176812171936,
        0.15127137303352356,
        0.06837847828865051,
        0.1258922517299652,
        -0.11130829155445099,
        -0.04562986269593239,
        -0.1530788242816925,
        0.0984448492527008,
        -0.08543995022773743,
        -0.023098401725292206,
        -0.14412236213684082,
        -0.10215072333812714,
        -0.13434134423732758,
        0.09511178731918335,
        -0.08584415912628174,
        -0.16572079062461853,
        0.1228371262550354,
        0.012059581466019154,
        -0.10070354491472244,
        -0.06014341861009598,
        -0.0895954892039299,
        0.06943970173597336,
        -0.09796479344367981,
        -0.12403778731822968,
        0.01649136282503605,
        -0.1121855080127716,
        0.13350659608840942,
        -0.09267371147871017,
        0.024644656106829643,
        -0.1279367357492447,
        -0.085309699177742,
        0.08209270238876343,
        0.096878282725811,
        0.13532352447509766,
        0.1651785522699356,
        -0.123220294713974,
        -0.08081472665071487,
        0.10936512798070908,
        0.10765571892261505,
        -0.00875983014702797,
        0.11789069324731827,
        -0.08034548908472061,
        0.003033891785889864,
        -0.056744545698165894,
        0.02658923715353012,
        -0.13459070026874542,
        0.01882113143801689,
        0.07102859020233154,
        -0.1549636572599411,
        -0.04679793864488602,
        0.16429032385349274,
        0.1017485111951828,
        0.050074439495801926,
        0.12915794551372528,
        0.08403238654136658,
        -0.1135949194431305,
        -0.11205802112817764,
        0.08654104918241501,
        0.8534277677536011,
        1.999358057975769,
        0.041996728628873825,
        -3.760425567626953,
        0.05074804648756981,
        -74.41903686523438,
        -0.1931474506855011,
        45.93227767944336,
        3.3574447631835938,
        2.631563425064087,
        -0.6285459995269775,
        5.482008934020996,
        -0.6440623998641968,
        -0.32851842045783997,
        -1.1628836393356323,
        0.15768685936927795,
        -0.052070342004299164,
        0.10093961656093597,
        -0.1043207198381424,
        -0.3979366421699524,
        -2.6984574794769287,
        -0.4129118025302887,
        -1.8680015802383423,
        0.6243640184402466,
        0.9620311856269836,
        -1.1415762901306152,
        -0.8905966281890869,
        -2.8448219299316406,
        -0.16161958873271942,
        0.08253946155309677,
        -0.2636300325393677,
        -4.499007225036621,
        1.2349611520767212,
        -1.0048446655273438,
        1.1541681289672852,
        -0.3934803009033203,
        -0.10338221490383148,
        -9.578516960144043,
        1.2283401489257812,
        -3.3385708332061768,
        -0.09313314408063889,
        1.0317543745040894,
        4.447281837463379,
        0.5381308794021606,
        0.7367562651634216,
        -0.05601056292653084,
        -0.5455570816993713,
        3.0362138748168945,
        45.458683013916016,
        -3.283000946044922,
        5.660934925079346,
        -0.4615201950073242,
        -1.644321084022522,
        1.1322100162506104,
        0.30790820717811584,
        0.22955653071403503,
        -6.093415260314941,
        3.151784896850586,
        0.7702906131744385,
        -0.03234519064426422,
        0.1351662427186966,
        -0.03402182459831238,
        0.9728870987892151,
        -2.651563882827759,
        -1.030078649520874,
        2.890798330307007,
        -2.1221373081207275,
        -2.012542486190796,
        -0.048266176134347916,
        -26.485593795776367,
        -0.2593787610530853,
        78.61563110351562,
        -0.3153243362903595,
        -0.4923255145549774,
        0.3001885414123535,
        -0.09956737607717514,
        0.4446849226951599,
        -1.0417547225952148,
        -4.384443283081055,
        0.2470720112323761,
        -5.357663154602051,
        0.9244847893714905,
        -0.4515949785709381,
        0.3610597252845764,
        0.7704048752784729,
        -2.3669540882110596,
        0.2843989133834839,
        0.21148088574409485,
        -0.5163083076477051,
        -3.2678158283233643,
        5.995670795440674,
        -3.5918948650360107,
        -1.8287670612335205,
        2.305203676223755,
        0.659747302532196,
        -1.3449009656906128,
        -0.24060451984405518,
        -1.2159687280654907,
        5.384498596191406,
        -0.628508448600769,
        0.06687135994434357,
        1.4991761445999146,
        1.4408782720565796,
        4.790741920471191,
        0.13452810049057007,
        -0.8167890906333923,
        2.033804178237915,
        -0.22096432745456696,
        0.24599505960941315,
        -2.0985867977142334,
        -0.9682369828224182,
        4.255452632904053,
        -53.43507385253906,
        -0.3681018352508545,
        1.1497727632522583,
        0.13187217712402344,
        -1.6543710231781006,
        -1.7103720903396606,
        1.4352068901062012,
        0.24505269527435303,
        -0.3493002951145172,
        -4.378414154052734,
        -0.8591893911361694,
        0.6551957130432129,
        0.5023136734962463,
        -0.05035245791077614,
        0.02868741564452648,
        3.9035346508026123,
        0.6900013089179993,
        2.5467710494995117,
        -0.3833125829696655,
        -6.09740686416626,
        -0.12883120775222778,
        18.21646499633789,
        -0.21905294060707092,
        17.246692657470703,
        2.1860570907592773,
        -0.19887256622314453,
        -0.47537532448768616,
        3.660223960876465,
        -77.81365203857422,
        -0.49521303176879883,
        -0.5889126658439636,
        0.027218308299779892,
        -0.2605886459350586,
        0.23617976903915405,
        0.05157266929745674,
        -0.09593707323074341,
        -2.5485684871673584,
        0.2612003982067108,
        0.04634103178977966,
        0.94610995054245,
        0.7564337253570557,
        0.128891721367836,
        -0.09626663476228714,
        -0.3745793402194977,
        -0.35223931074142456,
        0.08447394520044327,
        -0.30105650424957275,
        -3.2697863578796387,
        1.0658996105194092,
        -0.8103244304656982,
        1.2721707820892334,
        -0.3764018416404724,
        0.14382997155189514,
        0.27504879236221313,
        1.4581055641174316,
        -0.5728981494903564,
        0.13757450878620148,
        0.7701910138130188,
        2.7016780376434326,
        0.256326824426651,
        0.5977464318275452,
        -0.14840498566627502,
        -0.23392923176288605,
        3.514955520629883,
        -36.24101257324219,
        -5.0143818855285645,
        4.026363849639893,
        -0.4612274169921875,
        -1.439893126487732,
        0.17782017588615417,
        0.22033898532390594,
        0.12760823965072632,
        -0.7867922782897949,
        2.206923723220825,
        0.574684202671051,
        0.11917752772569656,
        -0.0015265888068825006,
        90.36064147949219,
        1.0168321132659912,
        -1.949105978012085,
        -1.204093337059021,
        3.1346495151519775,
        0.10423240065574646,
        -2.283473491668701,
        0.166490375995636,
        -20.989477157592773,
        -0.12781253457069397,
        -19.30593490600586,
        0.33485835790634155,
        0.03688241168856621,
        -0.040849003940820694,
        0.39374756813049316,
        87.10713958740234,
        -0.13179001212120056,
        0.025859665125608444,
        0.179789200425148,
        -5.0980706214904785,
        0.711763322353363,
        -0.06574145704507828,
        -0.07532721757888794,
        0.1398167759180069,
        -0.309613436460495,
        0.3807419538497925,
        0.6702781915664673,
        -0.45231300592422485,
        0.787064790725708,
        1.2017579078674316,
        0.2779306173324585,
        0.3685080409049988,
        0.2974017858505249,
        0.21336528658866882,
        -1.201311469078064,
        0.0009426411706954241,
        -1.0050150156021118,
        3.4020466804504395,
        -0.6230406761169434,
        0.01851605996489525,
        -0.7208989262580872,
        2.0354456901550293,
        -0.49198439717292786,
        0.0006240176735445857,
        -0.2696872055530548,
        1.67241632938385,
        -0.10636512190103531,
        0.030195990577340126,
        -1.4669294357299805,
        -0.7751150727272034,
        4.385241508483887,
        40.31203842163086,
        -0.7702782154083252,
        1.4765138626098633,
        0.14466680586338043,
        -1.3350175619125366,
        0.09942422807216644,
        -0.17828190326690674,
        0.18465134501457214,
        -0.7387122511863708,
        -3.239023208618164,
        -0.8542838096618652,
        0.32176849246025085,
        -0.07663248479366302,
        78.9708480834961,
        -0.09235382825136185,
        2.190357208251953,
        -1.1142477989196777,
        -3.6858410835266113,
        2.304331064224243,
        0.17815984785556793,
        0.125009223818779,
        8.89084243774414,
        -0.1272289901971817,
        7.443413257598877,
        -1.1463072299957275,
        2.180680751800537,
        0.1464461237192154,
        -2.6405603885650635,
        0.682205080986023,
        0.82763671875,
        2.325011968612671,
        0.08477406203746796,
        -3.0053224563598633,
        -0.6423134803771973,
        0.8257830739021301,
        -0.2972742021083832,
        -2.159787654876709,
        0.953622043132782,
        1.972172498703003,
        -0.7180929780006409,
        -0.6618119478225708,
        3.8043885231018066,
        1.9721252918243408,
        4.422778606414795,
        1.6669349670410156,
        1.980141043663025,
        0.45550909638404846,
        2.572094202041626,
        0.23454147577285767,
        1.0458621978759766,
        -2.966907024383545,
        -0.19564738869667053,
        0.03731800988316536,
        6.42716121673584,
        -4.099362850189209,
        5.6260151863098145,
        0.1282140016555786,
        -0.6755445599555969,
        -3.5804648399353027,
        0.417269766330719,
        0.33919385075569153,
        -0.7876496315002441,
        -1.2388193607330322,
        -4.096856117248535,
        6.750372886657715,
        -4.717530727386475,
        -4.055886745452881,
        0.10155396163463593,
        -0.599036455154419,
        0.7535679936408997,
        2.1086204051971436,
        -0.40280792117118835,
        4.049346446990967,
        -3.4585068225860596,
        -0.8657076358795166,
        -0.12873223423957825,
        1.1200145483016968,
        -0.13805456459522247,
        -0.5665282011032104,
        -1.5169062614440918,
        -1.0079830884933472,
        -3.7473597526550293,
        2.52117657661438,
        0.33026373386383057,
        0.07825661450624466,
        7.2888875007629395,
        0.03597415238618851,
        12.085295677185059,
        -1.3492571115493774,
        2.3152236938476562,
        0.36283406615257263,
        -2.8181300163269043,
        4.788909435272217,
        1.0552548170089722,
        2.3236093521118164,
        -0.20425301790237427,
        -3.1418094635009766,
        -0.6575057506561279,
        0.9320724606513977,
        -0.44260796904563904,
        -2.4073574542999268,
        1.2058000564575195,
        2.1392531394958496,
        -0.7797921895980835,
        -0.8977451324462891,
        3.981989860534668,
        1.8401089906692505,
        4.544776916503906,
        1.718361258506775,
        1.999847650527954,
        0.3182118535041809,
        2.342365264892578,
        0.19209524989128113,
        0.9673250913619995,
        -2.8774664402008057,
        -0.2534717619419098,
        0.10962118953466415,
        6.733685493469238,
        -4.119868278503418,
        5.806303977966309,
        -0.02096947282552719,
        -0.6120080351829529,
        -3.5026819705963135,
        0.2141750305891037,
        0.09852919727563858,
        -0.7431628108024597,
        -1.193228006362915,
        -4.3258137702941895,
        11.099806785583496,
        -4.64919900894165,
        -4.305275917053223,
        -0.0768454298377037,
        -0.44721952080726624,
        0.8876418471336365,
        1.9745320081710815,
        -0.42882710695266724,
        4.1230645179748535,
        -3.639450788497925,
        -0.5579092502593994,
        -0.2821429967880249,
        1.1857810020446777,
        -16.887338638305664,
        -0.6866579055786133,
        -1.6342766284942627
      ],
      "b": [
        -0.6159901022911072,
        -1.0915045738220215,
        0.7841115593910217,
        -0.41329386830329895,
        0.13121968507766724,
        4.436731815338135,
        -0.19585193693637848,
        2.8200981616973877,
        -0.5565252304077148,
        0.9046591520309448,
        -0.050081152468919754,
        -0.9645646810531616,
        6.105649471282959,
        0.3097513020038605,
        0.7001749873161316,
        -0.14336201548576355,
        -1.5586944818496704,
        -0.2776162028312683,
        0.15122580528259277,
        -0.2108364850282669,
        -1.3335936069488525,
        0.012812526896595955,
        0.40044334530830383,
        -0.4463212788105011,
        -0.37260323762893677,
        1.4032373428344727,
        0.3232158124446869,
        1.867789626121521,
        0.4963904321193695,
        0.5503154993057251,
        -0.10864559561014175,
        0.3872872591018677,
        0.01359585765749216,
        0.19397030770778656,
        -1.496579647064209,
        -0.5145235061645508,
        0.055146582424640656,
        1.763362169265747,
        -1.484370231628418,
        2.0991389751434326,
        -0.2316364198923111,
        -0.4863681197166443,
        -0.9525302648544312,
        -0.21382132172584534,
        0.11023369431495667,
        -0.2814827263355255,
        -0.678385317325592,
        -1.4584887027740479,
        1.2859605550765991,
        -2.0685150623321533,
        -1.4269778728485107,
        -0.19996431469917297,
        -0.5316992998123169,
        0.26103585958480835,
        0.8620429039001465,
        -0.27483704686164856,
        1.1547771692276,
        -1.4883314371109009,
        -0.5578199625015259,
        -0.2265191227197647,
        0.17572298645973206,
        6.0102763175964355,
        -0.28131580352783203,
        -1.3061937093734741
      ]
    },
    {
      "inDim": 64,
      "outDim": 2,
      "activation": "tanh",
      "W": [
        -0.03755917400121689,
        -0.026331504806876183,
        0.11445534229278564,
        0.1916406899690628,
        0.05573052912950516,
        -0.2026883363723755,
        -0.31463462114334106,
        -0.06707261502742767,
        0.07132408022880554,
        0.002144200261682272,
        -0.17626027762889862,
        -0.008611288852989674,
        -0.03147009015083313,
        -0.010697873309254646,
        0.0675404891371727,
        0.1828300803899765,
        0.008628365583717823,
        -0.011875871568918228,
        0.40928885340690613,
        0.01914769597351551,
        -0.07971176505088806,
        0.08031880110502243,
        0.11621764302253723,
        -0.0027682622894644737,
        -0.12512290477752686,
        0.14200948178768158,
        -0.04634440690279007,
        -0.08014943450689316,
        -0.004240815527737141,
        -0.39232128858566284,
        0.02470848523080349,
        0.07072104513645172,
        9.156618034467101e-05,
        -0.2748614251613617,
        -0.028127633035182953,
        0.05894556641578674,
        0.022826941683888435,
        -0.07980035990476608,
        0.023116281256079674,
        0.024123722687363625,
        -0.15573644638061523,
        -0.004692264832556248,
        -0.0005834967014379799,
        -0.24669237434864044,
        -0.15590454638004303,
        -0.0991683304309845,
        0.04295767471194267,
        0.06416197121143341,
        0.01203222293406725,
        0.0013701344141736627,
        -0.07077503204345703,
        -0.44789084792137146,
        0.004886521026492119,
        0.23937290906906128,
        -0.17451228201389313,
        -0.32015669345855713,
        0.12553580105304718,
        -0.42149877548217773,
        0.017537154257297516,
        0.10478272289037704,
        -0.02553744427859783,
        -0.02491038478910923,
        -0.04695023223757744,
        0.03304104506969452,
        0.12993937730789185,
        -0.018281804397702217,
        -0.010791522450745106,
        -0.09071037918329239,
        -0.0025662542320787907,
        0.2615673840045929,
        0.017717985436320305,
        0.09511305391788483,
        0.11306748539209366,
        0.01804560236632824,
        -0.30910825729370117,
        0.06514324992895126,
        0.013438991270959377,
        0.09827862679958344,
        -0.18416450917720795,
        0.5818057656288147,
        -0.06478489935398102,
        0.020651718601584435,
        -0.0003706403076648712,
        -0.035038553178310394,
        0.12253803759813309,
        0.02043638564646244,
        0.012614014558494091,
        -0.028021063655614853,
        0.021450506523251534,
        0.000573664961848408,
        0.023771455511450768,
        0.06876053661108017,
        -0.0063204034231603146,
        -0.11542929708957672,
        0.13644947111606598,
        0.24125683307647705,
        0.19251057505607605,
        -0.20210985839366913,
        -0.5403867959976196,
        0.00299208820797503,
        0.18629080057144165,
        0.00266043352894485,
        0.1463683545589447,
        0.02060348354279995,
        0.013141627423465252,
        -0.17624324560165405,
        0.14410290122032166,
        -0.07225945591926575,
        0.037185899913311005,
        0.2575737535953522,
        -0.026669075712561607,
        0.01961745135486126,
        -0.4128365218639374,
        -0.01490523386746645,
        0.1756552904844284,
        -0.17669138312339783,
        0.021764060482382774,
        -0.08175384998321533,
        0.060979850590229034,
        0.05621830001473427,
        -0.01128215342760086,
        0.04881653934717178,
        0.14559979736804962,
        0.1306999921798706,
        -0.01931419037282467,
        -0.03675408288836479,
        -0.010052361525595188,
        0.1466526836156845
      ],
      "b": [
        -0.10967861115932465,
        -1.6584187746047974
      ]
    }
  ],
  "_meta": {
    "source_ckpt": "dev/watch/vm1_20260521T222910Z_best.pt",
    "baseline_catches_at_save": 9.3125,
    "gen": 0
  }
}