{
  "version": 1,
  "id": "teacher_H64_gen3",
  "K": 4,
  "featureDim": 35,
  "inputMean": [
    0.0,
    0.0,
    0.0,
    0.0,
    0.0,
    0.0,
    0.0,
    0.0,
    0.0,
    0.0,
    0.0,
    0.0,
    0.0,
    0.0,
    0.0,
    0.0,
    0.0,
    0.0,
    0.0,
    0.0,
    0.0,
    0.0,
    0.0,
    0.0,
    0.0,
    0.0,
    0.0,
    0.0,
    0.0,
    0.0,
    0.0,
    0.0,
    0.0,
    0.0,
    0.0
  ],
  "inputStd": [
    1.0,
    1.0,
    1.0,
    1.0,
    1.0,
    1.0,
    1.0,
    1.0,
    1.0,
    1.0,
    1.0,
    1.0,
    1.0,
    1.0,
    1.0,
    1.0,
    1.0,
    1.0,
    1.0,
    1.0,
    1.0,
    1.0,
    1.0,
    1.0,
    1.0,
    1.0,
    1.0,
    1.0,
    1.0,
    1.0,
    1.0,
    1.0,
    1.0,
    1.0,
    1.0
  ],
  "outputScale": 0.05,
  "clipMagnitude": 0.05,
  "layers": [
    {
      "inDim": 35,
      "outDim": 64,
      "activation": "relu",
      "W": [
        -0.5455005168914795,
        -1.0744179487228394,
        -1.0247490406036377,
        0.9428106546401978,
        -0.13370876014232635,
        0.21410152316093445,
        0.055423494428396225,
        -0.02004258707165718,
        -1.7562131881713867,
        0.07808025181293488,
        -0.36052823066711426,
        -3.221797466278076,
        0.4566996693611145,
        -0.47020697593688965,
        0.9462820887565613,
        0.10280017554759979,
        -0.052105098962783813,
        -0.19079075753688812,
        -0.14762026071548462,
        -0.04861878976225853,
        0.5213955640792847,
        0.6315247416496277,
        1.570754051208496,
        -0.5300673246383667,
        -0.331286758184433,
        0.43710169196128845,
        1.0232315063476562,
        1.7659602165222168,
        -0.45813053846359253,
        0.19968102872371674,
        0.002370633650571108,
        2.0259029865264893,
        -0.31810998916625977,
        0.35346946120262146,
        -0.5178408026695251,
        0.2967456579208374,
        -0.09287676215171814,
        4.781748294830322,
        -1.4938825368881226,
        1.627388596534729,
        -0.10404562950134277,
        -0.5546133518218994,
        -2.8621022701263428,
        -0.025813480839133263,
        -0.37119755148887634,
        -0.17209979891777039,
        0.22166885435581207,
        -1.4112035036087036,
        0.3362251818180084,
        0.424028217792511,
        -3.339146614074707,
        0.07879296690225601,
        0.4522687494754791,
        -0.16709333658218384,
        0.5085713267326355,
        0.1495714783668518,
        3.690857172012329,
        -1.1331645250320435,
        -0.31749626994132996,
        -0.06702554225921631,
        0.14370593428611755,
        -0.39250504970550537,
        -0.6010644435882568,
        0.9182137250900269,
        0.7670420408248901,
        -1.546557903289795,
        1.0748897790908813,
        0.9546175599098206,
        0.10444910079240799,
        -0.41172751784324646,
        -0.06035606935620308,
        -0.41466814279556274,
        0.39921361207962036,
        0.7677994966506958,
        -0.032540254294872284,
        -0.04358141869306564,
        -0.4927347004413605,
        0.5470594167709351,
        2.2151057720184326,
        -0.04527436941862106,
        2.8139281272888184,
        -0.2822222411632538,
        0.4873943626880646,
        0.27692273259162903,
        0.018174968659877777,
        0.9090059399604797,
        0.225632444024086,
        -0.3260602056980133,
        0.4629131257534027,
        1.8012996912002563,
        -2.3814940452575684,
        1.834368348121643,
        0.8588768243789673,
        -1.299971580505371,
        -0.11224064230918884,
        0.23217353224754333,
        0.144717738032341,
        0.5672597885131836,
        -3.120668888092041,
        0.21634487807750702,
        -0.10555344820022583,
        -0.6852114796638489,
        -2.033972978591919,
        -1.1600408554077148,
        -0.037848811596632004,
        0.43255844712257385,
        -1.2674843072891235,
        0.22962218523025513,
        -0.04984451085329056,
        0.8127212524414062,
        0.33256494998931885,
        -2.6565053462982178,
        -0.6132556200027466,
        0.36552318930625916,
        -0.2452271580696106,
        0.09775573760271072,
        0.4762105941772461,
        1.3338425159454346,
        -0.5940065979957581,
        -0.3559630215167999,
        0.33772361278533936,
        2.186068534851074,
        0.35587185621261597,
        -0.4167839586734772,
        -0.6042612791061401,
        -0.3205372095108032,
        0.06403187662363052,
        -1.621902585029602,
        0.06971466541290283,
        0.04234977066516876,
        -0.17024798691272736,
        -0.567886233329773,
        -0.024403000250458717,
        -0.0020726278889924288,
        0.010662849992513657,
        -0.00015687322593294084,
        0.14593960344791412,
        0.015695497393608093,
        -0.14255309104919434,
        0.22632448375225067,
        -0.005934393964707851,
        -0.0774749144911766,
        -0.0014433348551392555,
        0.11065153777599335,
        0.08862227201461792,
        0.017584266141057014,
        -0.042594365775585175,
        0.017441269010305405,
        -0.19926366209983826,
        0.08752806484699249,
        0.03278122469782829,
        0.24314582347869873,
        0.20489175617694855,
        0.005976504646241665,
        -0.046830397099256516,
        0.004168675281107426,
        -0.09136942028999329,
        0.004724498838186264,
        -0.19152840971946716,
        -0.10356466472148895,
        0.26424404978752136,
        0.0025667764712125063,
        -0.08171916753053665,
        -0.00782008096575737,
        0.041613951325416565,
        -0.04555121064186096,
        0.1573246270418167,
        -0.006584201939404011,
        0.04804493486881256,
        0.10792642831802368,
        0.1909201741218567,
        0.04271711781620979,
        0.1649051457643509,
        -0.04158629849553108,
        -0.0221075601875782,
        -0.03988233953714371,
        0.002669046400114894,
        -0.43208420276641846,
        0.2397732436656952,
        -0.12899120151996613,
        -0.18038731813430786,
        0.03815697506070137,
        0.07327613234519958,
        -0.05471440404653549,
        -0.00658363476395607,
        0.2067243754863739,
        0.06696542352437973,
        0.046982523053884506,
        -0.2136079967021942,
        0.004163892008364201,
        0.20001736283302307,
        -0.22741739451885223,
        -0.35387566685676575,
        0.4667337238788605,
        0.04406900703907013,
        -0.07774720340967178,
        -0.018727511167526245,
        0.002340080915018916,
        0.03939734026789665,
        -0.0020767860114574432,
        -0.023685887455940247,
        -0.0834173858165741,
        0.07193375378847122,
        -0.012525247409939766,
        0.003537106327712536,
        -0.01629331149160862,
        -0.009377818554639816,
        -0.008985994383692741,
        -0.6826232075691223,
        0.05224578455090523,
        0.04269186779856682,
        0.07516241073608398,
        0.04588177055120468,
        -0.04039263725280762,
        0.09928593784570694,
        0.17854486405849457,
        -0.0703088790178299,
        -0.007916601374745369,
        0.07194013148546219,
        -0.006445707753300667,
        0.06244131922721863,
        -0.010863661766052246,
        -0.020113835111260414,
        0.03266001120209694,
        8.643168257549405e-05,
        -0.17754516005516052,
        0.29357510805130005,
        -0.1598743498325348,
        0.01448619645088911,
        0.02428399957716465,
        0.3063987195491791,
        0.013494908809661865,
        -0.056974444538354874,
        -0.005028299521654844,
        0.03673039749264717,
        -0.03493831306695938,
        0.004836102947592735,
        -0.3161645531654358,
        -0.18604324758052826,
        0.21145592629909515,
        -0.0045476569794118404,
        0.1328226625919342,
        -0.022383812814950943,
        0.13837939500808716,
        -0.2542807161808014,
        -0.0677354633808136,
        -0.10514843463897705,
        0.06254036724567413,
        -0.003820155980065465,
        -0.3166162669658661,
        -0.20933665335178375,
        0.0012790742330253124,
        -0.2282537817955017,
        -0.00030739547219127417,
        -0.024710100144147873,
        0.19190888106822968,
        0.7354528307914734,
        2.7980804443359375,
        -0.827423632144928,
        -7.038274765014648,
        0.09055140614509583,
        -0.7066710591316223,
        -0.31659823656082153,
        -0.4901213049888611,
        2.4018759727478027,
        0.07331553846597672,
        -0.9734635949134827,
        3.609222173690796,
        -1.1931172609329224,
        -0.5906635522842407,
        -0.31626471877098083,
        0.11316429078578949,
        -0.12753430008888245,
        0.17705893516540527,
        -0.13353867828845978,
        -0.15396015346050262,
        -3.6013171672821045,
        0.15277619659900665,
        0.5918034911155701,
        1.327567458152771,
        1.3087115287780762,
        0.3233833611011505,
        0.024511337280273438,
        -0.2666451632976532,
        -0.5276737809181213,
        0.28703439235687256,
        -1.0935527086257935,
        -3.1361892223358154,
        1.6083098649978638,
        -0.6879964470863342,
        1.0850461721420288,
        -1.0217052698135376,
        0.14140768349170685,
        2.3559274673461914,
        1.6946321725845337,
        -0.08584742248058319,
        0.05726279690861702,
        0.4618557393550873,
        2.571897268295288,
        0.09355993568897247,
        0.5981085300445557,
        -0.409730464220047,
        -0.4319106340408325,
        2.6743357181549072,
        -1.3902745246887207,
        -5.2993621826171875,
        4.15280818939209,
        -0.9606434106826782,
        -1.2295305728912354,
        0.3051069676876068,
        0.3137560486793518,
        0.09159737080335617,
        0.2010791301727295,
        1.681549310684204,
        0.4230901598930359,
        -0.012111283838748932,
        -0.23250015079975128,
        0.9881033897399902,
        1.4979926347732544,
        -1.6272724866867065,
        -1.9363179206848145,
        4.108051300048828,
        0.2636537551879883,
        -2.049199104309082,
        -0.1433812975883484,
        -0.10941998660564423,
        -0.28172847628593445,
        -0.1723126918077469,
        0.6118123531341553,
        0.46131595969200134,
        -0.051791511476039886,
        0.6885578036308289,
        1.2424888610839844,
        0.11793705821037292,
        0.2838578522205353,
        0.2333446741104126,
        -4.622346878051758,
        0.996402382850647,
        0.3140639066696167,
        0.06256251037120819,
        0.042760156095027924,
        0.2605780363082886,
        0.5792493224143982,
        0.9310435652732849,
        -0.7339208126068115,
        1.1489232778549194,
        0.5717416405677795,
        0.07660463452339172,
        0.4480837285518646,
        -0.17773175239562988,
        0.16975043714046478,
        -1.1118385791778564,
        -0.2652823328971863,
        -1.2407044172286987,
        3.1824755668640137,
        -0.6442336440086365,
        0.04105739668011665,
        -1.2919548749923706,
        3.1880321502685547,
        -1.2151739597320557,
        -0.09306038171052933,
        -0.5609102249145508,
        1.4676754474639893,
        0.037914425134658813,
        0.24732522666454315,
        -1.7887344360351562,
        -0.7459223866462708,
        4.241604804992676,
        0.9404391050338745,
        -0.856451153755188,
        1.5863628387451172,
        0.09410302340984344,
        -1.2178815603256226,
        0.3593427836894989,
        -0.7363598942756653,
        0.3332337737083435,
        -0.8258951902389526,
        -2.486855983734131,
        -1.3146809339523315,
        0.4526251554489136,
        -0.8699918985366821,
        0.8002510666847229,
        0.1992252916097641,
        1.499626636505127,
        -0.4003502130508423,
        -0.4602847099304199,
        -0.145628422498703,
        -0.5863962769508362,
        -0.0617193728685379,
        -0.0025419218000024557,
        -0.1715460568666458,
        0.002364093903452158,
        -0.1562509536743164,
        -0.06485403329133987,
        -0.30791324377059937,
        -0.20738719403743744,
        0.0003670986043289304,
        -0.08677893131971359,
        0.017558947205543518,
        -0.14079821109771729,
        -0.6941667795181274,
        -0.13132838904857635,
        -0.12862370908260345,
        -0.08488143980503082,
        -0.18856866657733917,
        -0.08688785135746002,
        -0.12047102302312851,
        -0.30252349376678467,
        -0.23864097893238068,
        0.02603749744594097,
        -0.09649866819381714,
        -0.005480615422129631,
        -0.07392358779907227,
        -0.14304102957248688,
        -0.2532363533973694,
        -0.1323937475681305,
        -0.386962890625,
        -0.1934666633605957,
        -0.27045220136642456,
        -0.25234028697013855,
        -0.1753893941640854,
        -0.10890672355890274,
        -0.35241448879241943,
        -0.045141007751226425,
        -0.11066154390573502,
        -0.19080719351768494,
        -0.18621376156806946,
        -0.06901273131370544,
        -0.21057020127773285,
        -0.31331318616867065,
        -0.2381066381931305,
        -0.18773500621318817,
        0.0010111286537721753,
        -0.43274372816085815,
        -0.2158476710319519,
        -0.3756279945373535,
        -0.3171469569206238,
        -0.08749499171972275,
        -0.11414114385843277,
        -0.25027814507484436,
        -0.006132073234766722,
        -0.3434046804904938,
        -0.25145626068115234,
        -0.04324352741241455,
        -0.44461891055107117,
        0.001183910295367241,
        -0.19678995013237,
        -0.31299206614494324,
        0.11191844940185547,
        0.044114310294389725,
        0.010388810187578201,
        -0.032695308327674866,
        0.14356611669063568,
        0.03827224299311638,
        -0.006003329996019602,
        0.033599283546209335,
        0.24629202485084534,
        0.7743055820465088,
        -0.10559586435556412,
        0.12581336498260498,
        -0.0011535307858139277,
        -0.09994152933359146,
        -0.17746904492378235,
        -0.049751244485378265,
        0.05039236694574356,
        0.07022139430046082,
        0.17787475883960724,
        -0.020477842539548874,
        0.2364215850830078,
        0.1744336634874344,
        -0.5096285343170166,
        0.1598411500453949,
        0.057253267616033554,
        -0.3718617558479309,
        -0.04230716824531555,
        -0.38233616948127747,
        -0.30263441801071167,
        0.22582222521305084,
        0.029734279960393906,
        -0.2811683416366577,
        0.20092177391052246,
        -0.1797337830066681,
        0.05122384428977966,
        0.09339553117752075,
        -0.027407335117459297,
        -0.7144257426261902,
        0.012678762897849083,
        -0.26155030727386475,
        0.04550302401185036,
        0.11046017706394196,
        0.11630520969629288,
        0.1644291877746582,
        0.06605611741542816,
        -0.027491960674524307,
        0.012587985955178738,
        0.0823313519358635,
        0.02745966613292694,
        0.25367119908332825,
        0.02232499048113823,
        0.030767077580094337,
        -0.15289625525474548,
        0.628576934337616,
        0.0658750832080841,
        0.2127579003572464,
        -0.5157977938652039,
        -0.021223176270723343,
        0.05579555034637451,
        -0.005743007175624371,
        0.10842818021774292,
        0.0021060009021312,
        -0.01909639686346054,
        -0.06991498917341232,
        0.07986175268888474,
        0.04461969807744026,
        -0.45544105768203735,
        -0.14242060482501984,
        0.04553946107625961,
        0.01550582330673933,
        -0.01778855361044407,
        0.012324227951467037,
        0.23299719393253326,
        -0.21254897117614746,
        0.0801679864525795,
        0.10966720432043076,
        0.0033129688818007708,
        -0.20011800527572632,
        -0.40673115849494934,
        -0.11661352962255478,
        0.014739124104380608,
        0.04186839610338211,
        -0.17894981801509857,
        -0.027151238173246384,
        0.08302079141139984,
        -0.36492720246315,
        -0.21832771599292755,
        -0.05396798253059387,
        -0.04392120614647865,
        -0.6303976774215698,
        0.500628650188446,
        -0.4041808247566223,
        -0.4949077069759369,
        0.3638768494129181,
        0.2078525722026825,
        0.022435616701841354,
        0.24817727506160736,
        -0.1753787249326706,
        0.10004914551973343,
        0.0078178895637393,
        -0.04643816128373146,
        0.1890442818403244,
        -0.22480608522891998,
        0.5612869262695312,
        0.07414571940898895,
        0.1126599833369255,
        0.15670470893383026,
        -0.07821354269981384,
        0.01400290708988905,
        0.0035270783118903637,
        -0.06385738402605057,
        0.05696393549442291,
        0.01124715805053711,
        0.08855295181274414,
        0.14772939682006836,
        -0.04561968147754669,
        0.021558351814746857,
        -0.08394204080104828,
        0.45380663871765137,
        0.09364895522594452,
        -0.04232470691204071,
        0.1639871448278427,
        0.32681307196617126,
        0.06501922011375427,
        0.07351052761077881,
        -0.0023798516485840082,
        -0.04188789427280426,
        -0.033752042800188065,
        -0.1788356751203537,
        0.14231008291244507,
        0.005893226712942123,
        0.10120697319507599,
        -0.07598595321178436,
        0.00045795284677296877,
        0.0286435354501009,
        -0.00029492477187886834,
        -0.10403203964233398,
        -0.11889781802892685,
        0.03200968727469444,
        -0.005336817353963852,
        0.002353756222873926,
        0.004651414230465889,
        0.2775022089481354,
        0.16960890591144562,
        0.0589308962225914,
        -0.03181992471218109,
        0.13614481687545776,
        0.030404871329665184,
        0.0545332171022892,
        -0.23988290131092072,
        0.17902912199497223,
        0.15977127850055695,
        -0.05601390823721886,
        -0.004257034510374069,
        -0.09183523803949356,
        -0.016438666731119156,
        -0.05465107411146164,
        -0.07053467631340027,
        -0.043160330504179,
        0.0038794116117060184,
        0.19108057022094727,
        4.148262087255716e-05,
        0.0738479420542717,
        -0.019190937280654907,
        -0.0674126073718071,
        -0.04836534336209297,
        0.14697864651679993,
        0.11641883105039597,
        0.025962557643651962,
        -0.1063908115029335,
        0.09366491436958313,
        -0.08815880119800568,
        -0.11488054692745209,
        0.007649954408407211,
        0.09029217064380646,
        0.11158107966184616,
        0.0009933369001373649,
        0.1311878263950348,
        0.07545128464698792,
        -0.02883118763566017,
        -0.04454280808568001,
        -0.18078288435935974,
        -0.10499172657728195,
        -0.021296091377735138,
        0.11294607073068619,
        0.14578686654567719,
        0.10117073357105255,
        0.0757928267121315,
        0.054668255150318146,
        0.004229251760989428,
        0.0653739795088768,
        0.1639617532491684,
        -0.05902388319373131,
        0.02918192185461521,
        -0.06633887439966202,
        0.18142135441303253,
        -0.05091089382767677,
        0.002661957871168852,
        0.009712348692119122,
        0.0052166227251291275,
        0.08663617819547653,
        0.32470405101776123,
        0.0859849825501442,
        0.01767415925860405,
        0.00170835480093956,
        -0.054306045174598694,
        -0.01998298242688179,
        -0.040082238614559174,
        0.007647162303328514,
        -0.12201372534036636,
        0.08593567460775375,
        0.19181294739246368,
        -0.036741338670253754,
        -0.09435760974884033,
        -0.021445702761411667,
        -0.1487186700105667,
        -0.13373486697673798,
        0.1349133402109146,
        -0.006518110632896423,
        0.1501484513282776,
        -0.06150384992361069,
        -0.06550774723291397,
        0.27449867129325867,
        0.010861755348742008,
        -0.10194053500890732,
        0.09899045526981354,
        -0.0466608963906765,
        8.345232345163822e-05,
        -0.004771868232637644,
        0.11535897850990295,
        0.047261957079172134,
        -0.00797490868717432,
        -0.007919940166175365,
        0.14374248683452606,
        -0.08533092588186264,
        -0.1470222920179367,
        -0.07161832600831985,
        -0.037954144179821014,
        0.014645082876086235,
        -0.06561395525932312,
        0.001249969471246004,
        0.03830872103571892,
        -0.03649565204977989,
        0.05892202630639076,
        0.0065182289108633995,
        0.24015702307224274,
        -0.24907459318637848,
        -0.10023142397403717,
        0.002957119606435299,
        -0.03268645703792572,
        -0.14548750221729279,
        -0.04239944368600845,
        0.00932394154369831,
        0.004153887741267681,
        0.12952366471290588,
        0.1773148626089096,
        0.07433535158634186,
        -0.024182138964533806,
        -0.0159787368029356,
        0.017504941672086716,
        0.11084136366844177,
        -0.0006197083275765181,
        -0.09141835570335388,
        0.00014793338777963072,
        0.04234304651618004,
        0.15095099806785583,
        0.06728336960077286,
        -0.03658086434006691,
        -0.0015434199012815952,
        -0.03910112380981445,
        0.21275034546852112,
        0.025384172797203064,
        -0.0190895926207304,
        -0.23441731929779053,
        -0.19720324873924255,
        -0.0648609921336174,
        -0.009128551930189133,
        0.06231594830751419,
        0.13246066868305206,
        -0.022154416888952255,
        -0.019587568938732147,
        -0.199745774269104,
        0.0003424164606258273,
        -0.01417604461312294,
        0.06240929290652275,
        -0.03196630999445915,
        -0.12119679898023605,
        -0.04907616972923279,
        -0.040176693350076675,
        -0.05903691053390503,
        -0.07620082795619965,
        0.06739126145839691,
        0.09835702925920486,
        0.017299287021160126,
        0.013418934307992458,
        -0.009168046526610851,
        0.09733334928750992,
        -0.04782814159989357,
        -0.1266229748725891,
        0.15651965141296387,
        0.022378943860530853,
        0.10497978329658508,
        0.09467757493257523,
        0.004745667800307274,
        0.0006002273876219988,
        -0.03361997380852699,
        -0.0686543732881546,
        -0.13694462180137634,
        -0.15517182648181915,
        0.10052099823951721,
        -0.03239268809556961,
        -0.0773175060749054,
        -0.05213053524494171,
        -0.004689227789640427,
        0.12239685654640198,
        -0.0683058425784111,
        -0.20305030047893524,
        -0.001614412642084062,
        0.15388576686382294,
        0.029181504622101784,
        0.09226837009191513,
        0.0152764106169343,
        -0.048405565321445465,
        0.08751612156629562,
        0.03884145990014076,
        0.0031616254709661007,
        0.014231392182409763,
        0.006039412226527929,
        0.03429751470685005,
        -0.1398339569568634,
        0.13628876209259033,
        0.06340520828962326,
        0.0005741305649280548,
        -0.005357284098863602,
        -0.017715036869049072,
        0.022434908896684647,
        0.11210869997739792,
        0.008498943410813808,
        -0.14418913424015045,
        -0.08634977787733078,
        0.0658109039068222,
        0.028668321669101715,
        0.10515101253986359,
        0.056489814072847366,
        0.18106719851493835,
        -0.1416850984096527,
        0.09884750843048096,
        0.04887131229043007,
        -0.03025764226913452,
        0.10992982983589172,
        -0.024600539356470108,
        -0.04966995492577553,
        0.015805114060640335,
        -0.001528391381725669,
        0.04872847720980644,
        -0.1449984759092331,
        -0.08395474404096603,
        -0.00564834289252758,
        0.04411790892481804,
        0.034825071692466736,
        -0.10398723185062408,
        -0.09147968888282776,
        0.06738549470901489,
        0.07384755462408066,
        0.08078829944133759,
        0.09433752298355103,
        0.12019188702106476,
        0.054216716438531876,
        -0.005836717784404755,
        0.05790604278445244,
        0.1083436980843544,
        -0.09710762649774551,
        0.03033369407057762,
        -0.2226227968931198,
        0.12510065734386444,
        0.0957236960530281,
        0.10457752645015717,
        0.05694098025560379,
        -0.03825894743204117,
        -0.030490228906273842,
        -0.16615208983421326,
        0.001956250751391053,
        -0.20374837517738342,
        0.06272508203983307,
        0.03159179911017418,
        -0.018133023753762245,
        0.055237192660570145,
        0.01994919590651989,
        0.09475911408662796,
        0.0014657407300546765,
        0.04953288659453392,
        0.0028422349132597446,
        0.06582334637641907,
        0.050546757876873016,
        0.150268092751503,
        0.00010788829968078062,
        -0.0007540365913882852,
        0.007177754770964384,
        0.11845263093709946,
        -0.12280679494142532,
        -0.020071035251021385,
        0.05597840994596481,
        -0.012942289933562279,
        0.027761630713939667,
        0.0033905799500644207,
        -0.1197657585144043,
        -0.172886922955513,
        0.050759028643369675,
        0.00804135575890541,
        0.02473234012722969,
        0.0454539880156517,
        -0.06672070920467377,
        0.21679110825061798,
        -0.1249919980764389,
        0.08475349098443985,
        -0.07149308919906616,
        -0.013173630461096764,
        -0.12420232594013214,
        0.06325000524520874,
        -0.08192389458417892,
        -0.020599225535988808,
        -0.007942999713122845,
        0.005855455528944731,
        -0.012219845317304134,
        -0.03294684737920761,
        -0.024289753288030624,
        0.014573863707482815,
        -0.04137295484542847,
        0.006119929254055023,
        -0.07920031994581223,
        0.06629560887813568,
        0.009861248545348644,
        0.0004929635906592011,
        -0.05575817823410034,
        0.02011827379465103,
        -0.043203700333833694,
        -0.0899401307106018,
        -0.02408558689057827,
        0.02952885814011097,
        0.13619612157344818,
        -0.07052934169769287,
        -0.012075702659785748,
        -0.06715191900730133,
        -0.06895846873521805,
        -0.09674385190010071,
        0.00028361636213958263,
        0.03085217997431755,
        -0.009619702585041523,
        -0.021126864477992058,
        0.0635882243514061,
        -0.23307713866233826,
        0.10568224638700485,
        -0.08493971079587936,
        -0.0009373374050483108,
        -0.008648859336972237,
        0.0030165384523570538,
        0.05300609767436981,
        0.16095483303070068,
        -0.1072222888469696,
        0.0571100227534771,
        0.000494420703034848,
        -0.09874634444713593,
        -0.0919492095708847,
        0.08864883333444595,
        0.13570214807987213,
        -0.07763547450304031,
        -0.12519291043281555,
        -0.08246104419231415,
        0.11806382983922958,
        0.1986287385225296,
        -0.15683817863464355,
        0.029161183163523674,
        0.04649065434932709,
        -0.33048388361930847,
        0.08238667994737625,
        -0.11011892557144165,
        -0.32522836327552795,
        0.059438493102788925,
        0.04719898849725723,
        0.050209034234285355,
        -0.0801692083477974,
        0.020271869376301765,
        0.1765432506799698,
        0.05582042783498764,
        -0.05061587691307068,
        -0.029675044119358063,
        0.011698281392455101,
        0.00653519481420517,
        0.0847245529294014,
        -0.11519493907690048,
        0.10252852737903595,
        -0.20363712310791016,
        -0.07735083997249603,
        0.0308077335357666,
        0.11009334772825241,
        0.1861146241426468,
        0.00046731194015592337,
        0.13896524906158447,
        0.036895789206027985,
        0.25387653708457947,
        -0.1178397387266159,
        -0.06336293369531631,
        0.006846864707767963,
        -0.007065008394420147,
        -0.006319379433989525,
        0.20769049227237701,
        -0.08624206483364105,
        0.04200952872633934,
        -0.06245504692196846,
        4.14594542235136e-05,
        0.009546489454805851,
        0.05786018446087837,
        1.3645873069763184,
        2.377703905105591,
        -0.18835163116455078,
        -3.9420692920684814,
        0.034149348735809326,
        -2.4321415424346924,
        -0.0026759514585137367,
        -1.4678341150283813,
        4.123342037200928,
        4.462159633636475,
        -1.5806455612182617,
        5.694690704345703,
        0.027107439935207367,
        -0.6479685306549072,
        -1.0678306818008423,
        0.0823647603392601,
        -0.5816161632537842,
        0.28047701716423035,
        0.0015589286340400577,
        -0.5954028964042664,
        -3.5849695205688477,
        -0.5110509395599365,
        -2.924454689025879,
        0.5443770885467529,
        1.8800243139266968,
        -0.7485396862030029,
        -0.3917805254459381,
        -2.972421407699585,
        -0.35402750968933105,
        0.4823937714099884,
        -0.12178952991962433,
        -4.516627311706543,
        1.8889232873916626,
        -1.0031566619873047,
        1.2962546348571777,
        -0.5342651605606079,
        0.12394075840711594,
        -8.040534973144531,
        1.36100435256958,
        -3.2906081676483154,
        0.05018458142876625,
        1.4553062915802002,
        4.512233257293701,
        0.8347670435905457,
        0.9459172487258911,
        -0.03126416355371475,
        -0.7768294215202332,
        3.060631275177002,
        -1.1769531965255737,
        -3.586099624633789,
        5.71724271774292,
        -0.3585995137691498,
        -1.8110315799713135,
        2.0034847259521484,
        0.3922416567802429,
        0.3906480669975281,
        -6.217161178588867,
        2.696896553039551,
        0.8767309784889221,
        -0.0205093864351511,
        1.2319591045379639,
        -0.020333759486675262,
        1.7550314664840698,
        -2.6524953842163086,
        -1.4959205389022827,
        3.3714959621429443,
        -3.1549196243286133,
        -2.000898838043213,
        0.02689739316701889,
        -0.4090641736984253,
        -0.13820147514343262,
        0.02848256751894951,
        -0.17518918216228485,
        -1.0171129703521729,
        0.4767356812953949,
        -0.022825347259640694,
        -0.03016737289726734,
        -1.5676634311676025,
        -5.127833366394043,
        0.37581726908683777,
        -4.9235334396362305,
        1.2216663360595703,
        -0.9499679207801819,
        0.5012660026550293,
        0.949124276638031,
        -3.189910650253296,
        0.6531513929367065,
        0.43000471591949463,
        -0.9932979345321655,
        -4.444137096405029,
        6.511439800262451,
        -4.374746799468994,
        -2.794266939163208,
        3.520092248916626,
        1.2355595827102661,
        -1.5868877172470093,
        -0.17292577028274536,
        -1.3850897550582886,
        5.442968368530273,
        -0.7806044816970825,
        0.1448444277048111,
        1.7790714502334595,
        1.780263066291809,
        5.519284725189209,
        -0.013098851777613163,
        -1.3217594623565674,
        2.1441214084625244,
        -0.30395743250846863,
        0.3093145787715912,
        -2.7511587142944336,
        -1.265323519706726,
        4.003969669342041,
        -0.3538934290409088,
        -0.47843438386917114,
        1.0498433113098145,
        0.22283543646335602,
        -1.6340539455413818,
        -2.4319112300872803,
        2.800095319747925,
        0.36930277943611145,
        -0.13674670457839966,
        -4.064248085021973,
        -0.8742902874946594,
        0.9675130248069763,
        0.7064329385757446,
        -0.013885819353163242,
        -0.015809698030352592,
        3.9856116771698,
        0.20579451322555542,
        0.34952664375305176,
        -0.35449784994125366,
        -0.007894320413470268,
        0.021098613739013672,
        0.07183275371789932,
        0.1355704814195633,
        0.04122922942042351,
        0.5902892351150513,
        -0.11989442259073257,
        -0.19293202459812164,
        0.694625973701477,
        0.012956533581018448,
        -0.22639165818691254,
        0.3379453420639038,
        -0.016494449228048325,
        0.4959461987018585,
        -0.2902955114841461,
        0.07837171852588654,
        -0.11959581077098846,
        -0.5762204527854919,
        -0.47461235523223877,
        -0.318899542093277,
        0.003316200338304043,
        0.3384660482406616,
        -0.4784940481185913,
        -0.11018091440200806,
        -0.4065810441970825,
        -0.3667650818824768,
        0.050073035061359406,
        -0.19579960405826569,
        -0.054439205676317215,
        0.1930682212114334,
        0.07362162321805954,
        0.3381868898868561,
        0.28944292664527893,
        0.15077297389507294,
        -1.0956196784973145,
        -0.18785026669502258,
        -0.4070616066455841,
        0.12392369657754898,
        0.24078506231307983,
        0.5734541416168213,
        0.005485676694661379,
        -0.13650529086589813,
        0.14403071999549866,
        -0.1690342277288437,
        0.5257834792137146,
        0.07060661911964417,
        -0.5620588064193726,
        0.671698808670044,
        0.044468171894550323,
        -0.09810390323400497,
        -0.23580093681812286,
        -0.12215528637170792,
        0.18013492226600647,
        -1.0021461248397827,
        0.6807010173797607,
        0.04037289321422577,
        0.03381069004535675,
        0.307318776845932,
        -0.011065566912293434,
        0.33487820625305176,
        -0.4136159121990204,
        -0.4290314018726349,
        0.7897947430610657,
        -0.7671626210212708,
        -0.8412381410598755,
        0.15119673311710358,
        -0.32364293932914734,
        -0.176690474152565,
        -0.23066234588623047,
        0.6130965352058411,
        0.5342475175857544,
        -0.08836959302425385,
        0.16887429356575012,
        0.0011262757470831275,
        -0.2674144208431244,
        -0.7296853065490723,
        -0.09199591726064682,
        -1.1628468036651611,
        0.3126359283924103,
        -0.08800606429576874,
        0.08141344785690308,
        0.2929670810699463,
        -0.9249846935272217,
        0.15584707260131836,
        0.29559415578842163,
        0.09420755505561829,
        -0.7778549194335938,
        0.8766927123069763,
        -0.5504854321479797,
        -0.5205392241477966,
        0.6409671902656555,
        0.44159817695617676,
        -0.32339197397232056,
        -0.06695263087749481,
        0.006096530240029097,
        1.0232110023498535,
        -0.39334458112716675,
        0.17976701259613037,
        0.7813992500305176,
        0.6773363947868347,
        0.7159196734428406,
        0.0655435100197792,
        -0.10625556856393814,
        0.394444078207016,
        0.15470631420612335,
        0.12793155014514923,
        -0.7981358170509338,
        -0.45859020948410034,
        0.8846277594566345,
        -0.2221667766571045,
        -0.41190433502197266,
        0.4332336485385895,
        -0.26727718114852905,
        -0.3624896705150604,
        -0.1782921850681305,
        -0.36067524552345276,
        0.34480196237564087,
        0.16766831278800964,
        -0.7111964821815491,
        0.3207189440727234,
        0.37630075216293335,
        0.23130196332931519,
        -0.012191170826554298,
        0.07599864155054092,
        0.4493792951107025,
        0.23211491107940674,
        0.6509933471679688,
        -0.16825605928897858,
        -0.6048079133033752,
        0.0894070416688919,
        -0.12838029861450195,
        -0.16727674007415771,
        -0.11222372949123383,
        1.279508352279663,
        1.0637201070785522,
        -0.13257241249084473,
        1.2646443843841553,
        -0.01100572943687439,
        -0.17024879157543182,
        0.03784603998064995,
        -0.08839741349220276,
        -0.301818311214447,
        -0.19822578132152557,
        -0.09368336200714111,
        0.004853368271142244,
        -0.9396232962608337,
        -0.19517311453819275,
        -0.4936537444591522,
        0.17385733127593994,
        0.32475918531417847,
        -0.5526804327964783,
        0.1628015786409378,
        -0.7852572202682495,
        -0.22607550024986267,
        -0.09075602144002914,
        0.0859864205121994,
        -0.9509555697441101,
        -0.08422064781188965,
        -0.31487607955932617,
        0.4401717782020569,
        -0.06777369976043701,
        -0.06451322883367538,
        -1.2784942388534546,
        0.3433540165424347,
        -0.7701113820075989,
        -0.04121039807796478,
        0.37294167280197144,
        1.2029712200164795,
        0.37966397404670715,
        0.27345219254493713,
        0.10632733255624771,
        -0.2725701630115509,
        0.5812153816223145,
        -0.06319671869277954,
        -1.0406441688537598,
        1.4321945905685425,
        -0.025477366521954536,
        -0.45359140634536743,
        0.2846263647079468,
        -0.012297157198190689,
        0.01680089347064495,
        -1.6305533647537231,
        0.604087233543396,
        -0.09433414787054062,
        -0.09779588878154755,
        -0.2799893617630005,
        -0.017160413786768913,
        0.5630558133125305,
        -0.19390207529067993,
        -0.27649107575416565,
        1.3224226236343384,
        -0.9107151031494141,
        -0.2186395674943924,
        0.10754131525754929,
        -0.08207324892282486,
        0.027176259085536003,
        -0.06059980019927025,
        -0.056393254548311234,
        -0.7422950267791748,
        0.34117966890335083,
        0.3971264958381653,
        0.007528022397309542,
        -0.4175006151199341,
        -1.2547814846038818,
        -0.11092191189527512,
        -0.9116244316101074,
        0.4062642753124237,
        -0.3896437883377075,
        0.2401173710823059,
        0.40764346718788147,
        -0.7244925498962402,
        0.2455253154039383,
        0.3159330189228058,
        -0.3209129869937897,
        -1.907543659210205,
        1.3213813304901123,
        -1.2328834533691406,
        -1.1461375951766968,
        1.0291141271591187,
        0.3773877024650574,
        -0.2787023186683655,
        -0.08514170348644257,
        -0.07596798241138458,
        1.570775032043457,
        -0.28730741143226624,
        -0.10165783762931824,
        0.11601227521896362,
        0.5433276295661926,
        0.680383563041687,
        0.14021146297454834,
        -0.41812244057655334,
        0.7783039808273315,
        -0.03569378703832626,
        0.3321751654148102,
        -0.9292932748794556,
        -0.5722537636756897,
        1.4468547105789185,
        -0.05552523955702782,
        -0.2383492887020111,
        0.2473643273115158,
        0.12140770256519318,
        -0.3589755892753601,
        -0.6746332049369812,
        0.6010331511497498,
        0.19008982181549072,
        0.2692683935165405,
        -0.9939867258071899,
        -0.30662187933921814,
        0.4973982274532318,
        -0.36086297035217285,
        -0.005363373551517725,
        -0.07657206803560257,
        0.9786866307258606,
        0.06870218366384506,
        0.0492873340845108,
        -0.31747955083847046,
        -0.9983510971069336,
        0.06019669026136398,
        -0.027165362611413002,
        -0.21743570268154144,
        -0.011294250376522541,
        0.9013943076133728,
        1.0716456174850464,
        0.1134357750415802,
        1.2188576459884644,
        0.012618735432624817,
        -0.11712132394313812,
        -0.10755912959575653,
        0.2383190095424652,
        -0.13825075328350067,
        -0.12382520735263824,
        -0.015629703179001808,
        -0.22189168632030487,
        -0.990120530128479,
        -0.5370177030563354,
        -0.9195136427879333,
        -0.10101019591093063,
        0.3998052477836609,
        -0.4440201222896576,
        0.777397871017456,
        -0.7965759634971619,
        0.20643353462219238,
        0.13146385550498962,
        0.0541817843914032,
        -1.008521556854248,
        0.44527721405029297,
        -0.39433208107948303,
        0.26345956325531006,
        -0.09651970118284225,
        0.13442331552505493,
        -1.1892191171646118,
        -0.1550767719745636,
        0.00793515332043171,
        0.045976798981428146,
        0.1951352059841156,
        1.2479424476623535,
        -0.02968679741024971,
        0.11631619930267334,
        -0.2758338451385498,
        -0.4945586621761322,
        1.1305381059646606,
        -0.023208720609545708,
        -1.4393314123153687,
        1.238896369934082,
        -0.17516295611858368,
        -0.2894837260246277,
        0.17327183485031128,
        0.33896347880363464,
        0.1671089231967926,
        -1.3558907508850098,
        0.21174044907093048,
        0.006765102036297321,
        0.019865630194544792,
        -0.221610426902771,
        -0.014258969575166702,
        0.5373843312263489,
        -0.03212520852684975,
        -0.258647620677948,
        1.048205018043518,
        -1.463382363319397,
        -0.48678484559059143,
        0.07429330796003342,
        0.1419943869113922,
        -0.09680304676294327,
        0.1381482034921646,
        0.18095682561397552,
        0.0771205723285675,
        0.275235116481781,
        0.04396470636129379,
        -0.008504955098032951,
        -0.8122361898422241,
        -1.32498037815094,
        0.19024084508419037,
        -1.1288520097732544,
        0.439665287733078,
        -0.5057666897773743,
        0.3182218372821808,
        0.3392137885093689,
        -0.718355119228363,
        0.04090474545955658,
        0.2924996018409729,
        -0.37166765332221985,
        -1.6894423961639404,
        1.7225650548934937,
        -1.32840096950531,
        -1.3301396369934082,
        0.9731044769287109,
        0.45899292826652527,
        -0.4394659101963043,
        -0.12971635162830353,
        -0.513522744178772,
        2.029855489730835,
        -0.3225134611129761,
        0.08630640059709549,
        0.3516432046890259,
        0.9886401891708374,
        1.1471892595291138,
        -0.15691648423671722,
        -0.38898965716362,
        0.5995120406150818,
        0.06691891700029373,
        -0.015465267933905125,
        -0.8985735774040222,
        -0.3820986747741699,
        1.3904428482055664,
        0.1060410588979721,
        0.02922864444553852,
        0.39846372604370117,
        0.276819109916687,
        -0.19608762860298157,
        -0.9571630954742432,
        0.46316805481910706,
        0.22214074432849884,
        0.02241373248398304,
        -0.7056596279144287,
        -0.23405851423740387,
        0.579220175743103,
        -0.22202050685882568,
        -0.003494690638035536,
        0.10366516560316086,
        1.2579379081726074,
        -0.09263575822114944,
        -0.050504475831985474,
        -0.6571658253669739,
        0.025225084275007248,
        -0.05218156799674034,
        -0.1855405867099762,
        -0.012961391359567642,
        -0.1369173377752304,
        0.0027182679623365402,
        -0.8446767926216125,
        -0.33902862668037415,
        0.01561952568590641,
        0.001510848756879568,
        -0.34893450140953064,
        -0.7360418438911438,
        -0.010110926814377308,
        -0.12624076008796692,
        -0.030446061864495277,
        -0.4843655526638031,
        -0.08046606183052063,
        -0.04050814360380173,
        -0.659927487373352,
        -0.635294497013092,
        0.08308511972427368,
        -0.09239926934242249,
        -1.127790927886963,
        -0.5965190529823303,
        -0.7733834385871887,
        -0.4961259663105011,
        -0.5727253556251526,
        -0.1446155607700348,
        -0.4934295117855072,
        -0.19326995313167572,
        -0.17105090618133545,
        -0.03998887911438942,
        -0.11375408619642258,
        0.007867481559515,
        -1.0417025089263916,
        -0.04777371883392334,
        -0.9576634168624878,
        -0.058578524738550186,
        0.05548357218503952,
        -0.0224642101675272,
        -0.11042111366987228,
        -0.163840651512146,
        -0.1781647801399231,
        -0.05353429540991783,
        0.13363729417324066,
        -0.1181625947356224,
        0.07197724282741547,
        0.026700133457779884,
        -0.35192927718162537,
        -0.04969824105501175,
        -0.4383699297904968,
        -0.7237378358840942,
        -0.0867287740111351,
        -0.9851082563400269,
        -0.08814805001020432,
        -0.09566430747509003,
        -0.06589337438344955,
        -0.45187199115753174,
        0.004685729742050171,
        -0.17203456163406372,
        -0.05837816745042801,
        -0.0030810427851974964,
        -0.11819678544998169,
        -0.43165475130081177,
        -0.25111067295074463,
        -0.17191047966480255,
        0.0010924983071163297,
        -0.0051371436566114426,
        -0.0013664107536897063,
        -0.1775505095720291,
        -0.4088931381702423,
        -0.3869721591472626,
        -0.2392243593931198,
        9.43061604630202e-05,
        -0.3467662036418915,
        -0.8024508953094482,
        -0.13278871774673462,
        -0.0863603726029396,
        -0.10855454951524734,
        -0.455800861120224,
        -0.061582837253808975,
        -0.046886786818504333,
        -0.4028940200805664,
        -0.6112674474716187,
        -0.16825897991657257,
        -0.016472406685352325,
        -0.70573490858078,
        -0.33078986406326294,
        -0.5211291313171387,
        -0.7806738018989563,
        -0.343731552362442,
        -0.19723884761333466,
        -0.21176403760910034,
        -0.09038257598876953,
        -0.2015860229730606,
        -0.14960218966007233,
        -0.10079354792833328,
        -0.11384709179401398,
        -0.2559209167957306,
        0.010651007294654846,
        -0.36604082584381104,
        -0.22271980345249176,
        -0.06904689222574234,
        -0.27671974897384644,
        -0.1736762672662735,
        -0.09883440285921097,
        -0.28808698058128357,
        -0.1528487503528595,
        -0.117424376308918,
        -0.0036495481617748737,
        -0.10320441424846649,
        -0.16330455243587494,
        -0.23222312331199646,
        -0.026580411940813065,
        -0.30130985379219055,
        -0.3068344295024872,
        -0.15913338959217072,
        -0.4447632431983948,
        -0.2536677420139313,
        -0.07215383648872375,
        -0.03687605261802673,
        -0.36208418011665344,
        0.0016866433434188366,
        -0.09414847195148468,
        -0.27638930082321167,
        -0.09532051533460617,
        -0.1980905830860138,
        -0.4971761107444763,
        -0.12957416474819183,
        -0.16239580512046814,
        -0.002124679507687688,
        -0.24374547600746155,
        -0.003993120975792408,
        -0.16299685835838318,
        -0.3062334954738617,
        -0.12691937386989594,
        -0.2588852047920227,
        -0.00028290110640227795,
        -0.2640446722507477,
        -0.3438373804092407,
        -0.012943767942488194,
        -0.16214372217655182,
        -0.11444105952978134,
        -0.263164758682251,
        -0.24902476370334625,
        -0.2835697531700134,
        -0.16243837773799896,
        -0.17114169895648956,
        -0.18941837549209595,
        -0.05098888278007507,
        -0.624539852142334,
        -0.2959132790565491,
        -0.27016034722328186,
        -0.6713833212852478,
        -0.2831467390060425,
        -0.20160973072052002,
        -0.22992843389511108,
        -0.25071001052856445,
        -0.0759846419095993,
        -0.37855806946754456,
        -0.2691214680671692,
        -0.1519564390182495,
        -0.2061314582824707,
        -0.1988314986228943,
        -0.22394469380378723,
        -0.19823364913463593,
        -0.31988486647605896,
        -0.14905492961406708,
        -0.13041037321090698,
        -0.20552504062652588,
        -0.08701413869857788,
        -0.2763481140136719,
        -0.34612157940864563,
        -0.002740694209933281,
        -0.3801549971103668,
        -0.19851303100585938,
        -0.13862037658691406,
        -0.30665409564971924,
        -0.298874169588089,
        -0.40945538878440857,
        -0.05945974588394165,
        -0.41121336817741394,
        -0.32676318287849426,
        -0.2045014649629593,
        -0.007480785250663757,
        -0.23335957527160645,
        0.003325178287923336,
        -0.19707518815994263,
        -0.23249545693397522,
        -0.22827012836933136,
        -0.1728568822145462,
        -0.3588429391384125,
        -0.21963530778884888,
        -0.12748613953590393,
        -0.0022334554232656956,
        0.012118381448090076,
        -0.00040575367165729403,
        -0.2659793496131897,
        -0.3728397488594055,
        -0.17361201345920563,
        -0.16089695692062378,
        5.569946370087564e-05,
        -0.3491356670856476,
        -0.2893984317779541,
        -0.2067454755306244,
        -0.19018486142158508,
        -0.3115171194076538,
        -0.33852118253707886,
        -0.07533490657806396,
        -0.26699042320251465,
        -0.22342033684253693,
        -0.08206366002559662,
        -0.19831088185310364,
        -0.29184943437576294,
        -0.5908241868019104,
        -0.01977025344967842,
        -0.24638886749744415,
        -0.3824670612812042,
        -0.04502282291650772,
        -0.11049360036849976,
        -0.08325833827257156,
        -0.05834567919373512,
        -0.2695900499820709,
        -0.380638062953949,
        -0.010423371568322182,
        -0.07885672897100449,
        -0.20487767457962036,
        -0.3900436758995056,
        -0.03411365672945976,
        -0.034944843500852585,
        -0.188466414809227,
        -0.2724098265171051,
        -0.3037607967853546,
        -0.05679898336529732,
        -0.08438902348279953,
        -0.2648782432079315,
        -0.4947655498981476,
        -0.00020808304543606937,
        -0.37675416469573975,
        -0.30697813630104065,
        -0.19013801217079163,
        -0.27712878584861755,
        -0.1938321590423584,
        -0.26271921396255493,
        -0.2049620896577835,
        -0.22653917968273163,
        -0.22214387357234955,
        -0.33107033371925354,
        -0.2887061834335327,
        -0.07199136167764664,
        -0.0018855285597965121,
        -0.31848788261413574,
        -0.2096634954214096,
        -0.005930905230343342,
        0.05378982797265053,
        0.07397788017988205,
        0.04148271679878235,
        -0.11218301206827164,
        -0.07479486614465714,
        -0.03397084027528763,
        0.04280436411499977,
        -0.04445136338472366,
        0.07840573042631149,
        0.0782397985458374,
        0.005500595085322857,
        -0.1453368365764618,
        0.08203979581594467,
        0.049394041299819946,
        0.024454709142446518,
        0.09915141761302948,
        -0.16155163943767548,
        0.022561967372894287,
        -0.10401851683855057,
        -0.13313701748847961,
        -0.0724228173494339,
        -0.07109946757555008,
        -0.07338182628154755,
        0.11333149671554565,
        -0.0009981254115700722,
        -0.11075799912214279,
        0.011367316357791424,
        0.05916158854961395,
        -0.008715588599443436,
        -0.014985021203756332,
        -0.04783808812499046,
        0.06164144352078438,
        -0.1631113737821579,
        -0.009693474508821964,
        -0.11771613359451294,
        0.13924920558929443,
        -0.053170379251241684,
        0.09579813480377197,
        -0.09875643998384476,
        0.03753725811839104,
        0.02156686782836914,
        -0.0627768263220787,
        0.09896748512983322,
        0.04073546454310417,
        -0.12291877716779709,
        0.13344955444335938,
        0.10142676532268524,
        -0.16039149463176727,
        -0.14308792352676392,
        -0.08446143567562103,
        -0.01153835840523243,
        -0.14302273094654083,
        -0.03174168989062309,
        -0.159772127866745,
        -0.14774763584136963,
        0.010813409462571144,
        -0.01478938665241003,
        0.06119405850768089,
        -0.16333439946174622,
        -0.09251176565885544,
        -0.018532464280724525,
        0.1535121500492096,
        -0.05009346827864647,
        0.09217940270900726,
        -0.125029057264328,
        0.08812861889600754,
        -0.11249468475580215,
        0.08227503299713135,
        0.13859884440898895,
        0.12469952553510666,
        0.15160627663135529,
        0.06812236458063126,
        0.1265900731086731,
        -0.11115587502717972,
        -0.045308373868465424,
        -0.15244732797145844,
        0.09821736812591553,
        -0.08447273820638657,
        -0.021916570141911507,
        -0.145361989736557,
        -0.10186504572629929,
        -0.1343548744916916,
        0.09356857091188431,
        -0.08434910327196121,
        -0.16611997783184052,
        0.12444406002759933,
        0.012670638039708138,
        -0.10264332592487335,
        -0.060442715883255005,
        -0.09145234525203705,
        0.07041769474744797,
        -0.09961825609207153,
        -0.12148180603981018,
        0.01567142829298973,
        -0.11072608828544617,
        0.13420891761779785,
        -0.0926249697804451,
        0.02800889126956463,
        -0.12402476370334625,
        -0.082246333360672,
        0.08068402856588364,
        0.09726011008024216,
        0.1306910663843155,
        0.16560178995132446,
        -0.12350471317768097,
        -0.08051768690347672,
        0.1078730970621109,
        0.10617348551750183,
        -0.006732793990522623,
        0.12058749049901962,
        -0.07931962609291077,
        0.0033895177766680717,
        -0.05663490667939186,
        0.02623695321381092,
        -0.1340070217847824,
        0.0156546663492918,
        0.07294609397649765,
        -0.15632115304470062,
        -0.042552102357149124,
        0.1590142399072647,
        0.09830769896507263,
        0.04976878687739372,
        0.13500186800956726,
        0.08897778391838074,
        -0.11554557085037231,
        -0.11400250345468521,
        0.08543486148118973,
        0.8506860733032227,
        1.9987924098968506,
        0.03777768462896347,
        -3.7560739517211914,
        0.053837310522794724,
        -74.42164611816406,
        -0.19027471542358398,
        45.936702728271484,
        3.3585309982299805,
        2.634793281555176,
        -0.6268370747566223,
        5.484038352966309,
        -0.6416870355606079,
        -0.3253220319747925,
        -1.1636539697647095,
        0.1603686362504959,
        -0.05025389790534973,
        0.10329153388738632,
        -0.10497409105300903,
        -0.39997148513793945,
        -2.699756145477295,
        -0.4146234095096588,
        -1.8659976720809937,
        0.6219319701194763,
        0.9609489440917969,
        -1.1409019231796265,
        -0.8916420340538025,
        -2.843467950820923,
        -0.1624952107667923,
        0.08252118527889252,
        -0.26129060983657837,
        -4.5029144287109375,
        1.2338695526123047,
        -1.0061309337615967,
        1.1532496213912964,
        -0.3974864184856415,
        -0.09779602289199829,
        -9.578417778015137,
        1.230059027671814,
        -3.33771014213562,
        -0.09323583543300629,
        1.0300393104553223,
        4.447426795959473,
        0.5330742001533508,
        0.7373696565628052,
        -0.05562099069356918,
        -0.5471010208129883,
        3.0335795879364014,
        45.45853042602539,
        -3.282634973526001,
        5.657648086547852,
        -0.46404194831848145,
        -1.6419837474822998,
        1.1333990097045898,
        0.3081301748752594,
        0.23362267017364502,
        -6.089945316314697,
        3.153491497039795,
        0.7691856622695923,
        -0.032549578696489334,
        0.13748881220817566,
        -0.03486025705933571,
        0.9734483361244202,
        -2.651944398880005,
        -1.0276633501052856,
        2.8918495178222656,
        -2.119696855545044,
        -2.0099692344665527,
        -0.048719365149736404,
        -26.488004684448242,
        -0.26156163215637207,
        78.6142349243164,
        -0.3121265172958374,
        -0.49244996905326843,
        0.29901349544525146,
        -0.10166918486356735,
        0.44383203983306885,
        -1.0374141931533813,
        -4.381313800811768,
        0.24407018721103668,
        -5.359066963195801,
        0.9258169531822205,
        -0.45011675357818604,
        0.35954272747039795,
        0.7694119811058044,
        -2.3676042556762695,
        0.2832109034061432,
        0.21064893901348114,
        -0.513522744178772,
        -3.267671823501587,
        5.993174076080322,
        -3.594158887863159,
        -1.8325800895690918,
        2.3045248985290527,
        0.6594812273979187,
        -1.3443467617034912,
        -0.2424280345439911,
        -1.2156391143798828,
        5.38187837600708,
        -0.6279075145721436,
        0.06791966408491135,
        1.500106930732727,
        1.4433927536010742,
        4.792909145355225,
        0.13468243181705475,
        -0.8152140974998474,
        2.036766529083252,
        -0.22223666310310364,
        0.24494341015815735,
        -2.101935863494873,
        -0.9659573435783386,
        4.255688667297363,
        -53.43157958984375,
        -0.3656079173088074,
        1.1480977535247803,
        0.1318599283695221,
        -1.656704068183899,
        -1.708553433418274,
        1.4352909326553345,
        0.24378903210163116,
        -0.3461381196975708,
        -4.376094818115234,
        -0.8583081960678101,
        0.6537660956382751,
        0.5040150284767151,
        -0.05078130587935448,
        0.0284409262239933,
        3.905017375946045,
        0.6876545548439026,
        2.5466268062591553,
        -0.38489148020744324,
        -6.099385738372803,
        -0.1310509741306305,
        18.218027114868164,
        -0.22191749513149261,
        17.246891021728516,
        2.185215711593628,
        -0.1991056352853775,
        -0.47382280230522156,
        3.6617684364318848,
        -77.8156967163086,
        -0.4939768314361572,
        -0.5912124514579773,
        0.026834333315491676,
        -0.2607032060623169,
        0.23568277060985565,
        0.05230042710900307,
        -0.09614300727844238,
        -2.550722360610962,
        0.26279324293136597,
        0.04771365225315094,
        0.9452808499336243,
        0.7554086446762085,
        0.12492328882217407,
        -0.09710517525672913,
        -0.3741056025028229,
        -0.35269877314567566,
        0.08337783813476562,
        -0.2985709607601166,
        -3.2712631225585938,
        1.0661007165908813,
        -0.8113778829574585,
        1.272558569908142,
        -0.37744301557540894,
        0.14212334156036377,
        0.27339082956314087,
        1.460858941078186,
        -0.5750733017921448,
        0.14108668267726898,
        0.7670074701309204,
        2.705265760421753,
        0.256109356880188,
        0.5937036871910095,
        -0.1483263075351715,
        -0.2324960082769394,
        3.513723134994507,
        -36.23920822143555,
        -5.014531135559082,
        4.0255818367004395,
        -0.46026596426963806,
        -1.441532850265503,
        0.17733459174633026,
        0.223614901304245,
        0.12918022274971008,
        -0.7864826321601868,
        2.206249237060547,
        0.5752527713775635,
        0.11916235834360123,
        -0.001687682350166142,
        90.35838317871094,
        1.016855239868164,
        -1.951441764831543,
        -1.207128643989563,
        3.1345396041870117,
        0.1061137393116951,
        -2.2836666107177734,
        0.16526710987091064,
        -20.988351821899414,
        -0.12704120576381683,
        -19.30852699279785,
        0.33322814106941223,
        0.0356915257871151,
        -0.03833584859967232,
        0.39114177227020264,
        87.10565948486328,
        -0.13010968267917633,
        0.026867685839533806,
        0.17778779566287994,
        -5.101935863494873,
        0.7122196555137634,
        -0.0666644424200058,
        -0.07290206104516983,
        0.14139463007450104,
        -0.3109268546104431,
        0.38137906789779663,
        0.6717511415481567,
        -0.4540410041809082,
        0.7891651391983032,
        1.2026020288467407,
        0.27723389863967896,
        0.3689228296279907,
        0.29769662022590637,
        0.2153043895959854,
        -1.1976196765899658,
        -0.0008399538928642869,
        -1.003498911857605,
        3.4019813537597656,
        -0.6266893744468689,
        0.019000213593244553,
        -0.7215029001235962,
        2.0344760417938232,
        -0.4928208887577057,
        0.0020051090978085995,
        -0.27110326290130615,
        1.6738039255142212,
        -0.10738471895456314,
        0.02924186736345291,
        -1.4624695777893066,
        -0.774106502532959,
        4.3864593505859375,
        40.309906005859375,
        -0.7706413269042969,
        1.4750527143478394,
        0.1432063728570938,
        -1.3373042345046997,
        0.10147644579410553,
        -0.17847339808940887,
        0.18419381976127625,
        -0.7368934750556946,
        -3.234055280685425,
        -0.8549339175224304,
        0.3187111020088196,
        -0.07826714217662811,
        78.97179412841797,
        -0.09314320236444473,
        2.1892714500427246,
        -1.1138042211532593,
        -3.6859934329986572,
        2.307004451751709,
        0.17713961005210876,
        0.12729032337665558,
        8.891073226928711,
        -0.1252194046974182,
        7.443263053894043,
        -1.1443192958831787,
        2.1805531978607178,
        0.14505472779273987,
        -2.639251708984375,
        0.6838110685348511,
        0.8272731900215149,
        2.3224616050720215,
        0.09094388782978058,
        -3.0030624866485596,
        -0.643430233001709,
        0.8267496824264526,
        -0.3007603585720062,
        -2.158295154571533,
        0.951436460018158,
        1.9709546566009521,
        -0.7196847796440125,
        -0.6606014966964722,
        3.805281162261963,
        1.9745649099349976,
        4.420842170715332,
        1.663347601890564,
        1.9794858694076538,
        0.4547663629055023,
        2.569826126098633,
        0.2355252206325531,
        1.045557975769043,
        -2.965913772583008,
        -0.1950448751449585,
        0.03862811252474785,
        6.429111480712891,
        -4.102341175079346,
        5.625771999359131,
        0.12903417646884918,
        -0.6751890778541565,
        -3.5775341987609863,
        0.4174354672431946,
        0.33737248182296753,
        -0.7846133708953857,
        -1.2447619438171387,
        -4.095010280609131,
        6.749583721160889,
        -4.718606472015381,
        -4.054831027984619,
        0.09953097254037857,
        -0.5971435308456421,
        0.7546171545982361,
        2.109833240509033,
        -0.4002181589603424,
        4.050216197967529,
        -3.4597995281219482,
        -0.8663939833641052,
        -0.13071411848068237,
        1.1179662942886353,
        -0.1389477401971817,
        -0.5705304741859436,
        -1.5184012651443481,
        -1.0077277421951294,
        -3.7489430904388428,
        2.521017551422119,
        0.32735252380371094,
        0.07533147931098938,
        7.29103946685791,
        0.034670498222112656,
        12.083047866821289,
        -1.3468880653381348,
        2.3151140213012695,
        0.36382877826690674,
        -2.815335750579834,
        4.789320945739746,
        1.0573915243148804,
        2.319409132003784,
        -0.20483383536338806,
        -3.1417956352233887,
        -0.6575355529785156,
        0.9290018081665039,
        -0.44298097491264343,
        -2.407784938812256,
        1.2081224918365479,
        2.1336591243743896,
        -0.7835426330566406,
        -0.8998820781707764,
        3.9790561199188232,
        1.8371096849441528,
        4.544472694396973,
        1.7180906534194946,
        1.9963864088058472,
        0.3190988302230835,
        2.341435432434082,
        0.19440045952796936,
        0.9643456339836121,
        -2.877077341079712,
        -0.25348716974258423,
        0.10888909548521042,
        6.733145236968994,
        -4.121700286865234,
        5.805046558380127,
        -0.018136831000447273,
        -0.6101791858673096,
        -3.502575159072876,
        0.21497462689876556,
        0.1034620851278305,
        -0.7443027496337891,
        -1.1923819780349731,
        -4.3235626220703125,
        11.096368789672852,
        -4.647988796234131,
        -4.30639123916626,
        -0.07566148787736893,
        -0.4426831007003784,
        0.8876309990882874,
        1.9780313968658447,
        -0.42493104934692383,
        4.126720905303955,
        -3.6405556201934814,
        -0.5577537417411804,
        -0.27914372086524963,
        1.1884323358535767,
        -16.884370803833008,
        -0.6852556467056274,
        -1.633884310722351
      ],
      "b": [
        -0.6136585474014282,
        -1.0899778604507446,
        0.7838993668556213,
        -0.4117088317871094,
        0.1293366551399231,
        4.436671257019043,
        -0.19693313539028168,
        2.819615125656128,
        -0.5606846809387207,
        0.9067433476448059,
        -0.04805547371506691,
        -0.9645187854766846,
        6.107016563415527,
        0.3083052635192871,
        0.702806293964386,
        -0.14582033455371857,
        -1.5589908361434937,
        -0.27529457211494446,
        0.15225909650325775,
        -0.21123464405536652,
        -1.334250807762146,
        0.012593777850270271,
        0.402486115694046,
        -0.44235876202583313,
        -0.370868980884552,
        1.4019440412521362,
        0.3215622007846832,
        1.8664149045944214,
        0.4932955503463745,
        0.5499293804168701,
        -0.10693921148777008,
        0.3869600296020508,
        0.013122543692588806,
        0.19669322669506073,
        -1.5012034177780151,
        -0.512935996055603,
        0.05163548141717911,
        1.7652686834335327,
        -1.4840404987335205,
        2.0986428260803223,
        -0.23133233189582825,
        -0.4855479598045349,
        -0.953337550163269,
        -0.21239253878593445,
        0.11001493781805038,
        -0.2832129895687103,
        -0.6782017350196838,
        -1.4612051248550415,
        1.2849056720733643,
        -2.065669059753418,
        -1.4276334047317505,
        -0.20039157569408417,
        -0.5333423614501953,
        0.2612735331058502,
        0.863629162311554,
        -0.27481451630592346,
        1.1521506309509277,
        -1.4846469163894653,
        -0.5555282831192017,
        -0.22635604441165924,
        0.17329776287078857,
        6.010379314422607,
        -0.2826850712299347,
        -1.3055412769317627
      ]
    },
    {
      "inDim": 64,
      "outDim": 2,
      "activation": "tanh",
      "W": [
        -0.039653971791267395,
        -0.02612348087131977,
        0.1097831055521965,
        0.19246739149093628,
        0.05707864463329315,
        -0.20004093647003174,
        -0.3131474256515503,
        -0.06688966602087021,
        0.07138043642044067,
        0.0008168183267116547,
        -0.17917026579380035,
        -0.008252620697021484,
        -0.03038168139755726,
        -0.00917323213070631,
        0.06475119292736053,
        0.18315854668617249,
        0.006592290475964546,
        -0.012557389214634895,
        0.40912455320358276,
        0.020948361605405807,
        -0.08001144230365753,
        0.07636608183383942,
        0.11635913699865341,
        -0.0041941432282328606,
        -0.1258740872144699,
        0.14608779549598694,
        -0.04747222736477852,
        -0.07526145875453949,
        -0.0030896065291017294,
        -0.39489057660102844,
        0.024666106328368187,
        0.0725342407822609,
        -0.0017956303199753165,
        -0.2767072021961212,
        -0.028777074068784714,
        0.05794650688767433,
        0.01785329170525074,
        -0.07812831550836563,
        0.022180303931236267,
        0.027293173596262932,
        -0.15578043460845947,
        -0.0023976450320333242,
        -0.003848504275083542,
        -0.24950659275054932,
        -0.15649758279323578,
        -0.0965256467461586,
        0.043828483670949936,
        0.06354478001594543,
        0.013532864861190319,
        0.0042641013860702515,
        -0.07369454205036163,
        -0.4469772279262543,
        0.005746047478169203,
        0.23714661598205566,
        -0.17394787073135376,
        -0.31790050864219666,
        0.12481484562158585,
        -0.4257493019104004,
        0.014460965991020203,
        0.10462446510791779,
        -0.0243604127317667,
        -0.024872519075870514,
        -0.04492759704589844,
        0.03011501207947731,
        0.13112087547779083,
        -0.016850825399160385,
        -0.01121904980391264,
        -0.09454645216464996,
        -0.0045013162307441235,
        0.25968000292778015,
        0.016932310536503792,
        0.09621068090200424,
        0.11526943743228912,
        0.016752135008573532,
        -0.3068540096282959,
        0.06349941343069077,
        0.01012294739484787,
        0.10213202983140945,
        -0.18178220093250275,
        0.5836465358734131,
        -0.061556167900562286,
        0.018874745815992355,
        -0.0023141747806221247,
        -0.03404682129621506,
        0.122005395591259,
        0.021137714385986328,
        0.011812231503427029,
        -0.02748507633805275,
        0.023564724251627922,
        0.0022713891230523586,
        0.027149291709065437,
        0.06905864179134369,
        -0.007407431490719318,
        -0.11151541769504547,
        0.13610930740833282,
        0.24376295506954193,
        0.1928379237651825,
        -0.19985011219978333,
        -0.5356490612030029,
        -0.0014604831812903285,
        0.18464142084121704,
        0.0024142717011272907,
        0.141951322555542,
        0.018235785886645317,
        0.013934887945652008,
        -0.1770246922969818,
        0.1467728316783905,
        -0.07292357087135315,
        0.03553842008113861,
        0.2568138539791107,
        -0.025645364075899124,
        0.017694417387247086,
        -0.4175354242324829,
        -0.013022537343204021,
        0.17560763657093048,
        -0.17768628895282745,
        0.02620350942015648,
        -0.08067657053470612,
        0.06151242554187775,
        0.059155385941267014,
        -0.009592438116669655,
        0.04519795998930931,
        0.14492934942245483,
        0.13120576739311218,
        -0.02010299824178219,
        -0.03644467517733574,
        -0.0075357211753726006,
        0.14820849895477295
      ],
      "b": [
        -0.10989925265312195,
        -1.658352255821228
      ]
    }
  ],
  "_meta": {
    "source_ckpt": "dev/watch/vm2_20260521T234825Z_best.pt",
    "baseline_catches_at_save": 10.84375,
    "gen": 3
  }
}