{
  "version": 1,
  "id": "K4_H4_relu_seed16",
  "K": 4,
  "featureDim": 35,
  "inputMean": [
    0.005562088452279568,
    0.010740191675722599,
    -12.107275009155273,
    31.060359954833984,
    -0.007391314022243023,
    -0.0014237378491088748,
    532.5204467773438,
    -2.6612308025360107,
    0.464982271194458,
    -0.7509861588478088,
    -0.10860028117895126,
    -1.9606475830078125,
    0.18706649541854858,
    -1.641610860824585,
    -1.6478159427642822,
    -0.00996802281588316,
    0.008924822323024273,
    -0.004896283615380526,
    0.00541970320045948,
    -0.008952147327363491,
    0.0056013003922998905,
    -0.006117881741374731,
    -0.0008334347512573004,
    173.2367401123047,
    208.20065307617188,
    239.71226501464844,
    263.1102294921875,
    0,
    0,
    -0.000368642300600186,
    -0.00003369644400663674,
    -0.0004370726237539202,
    -0.00048641112516634166,
    0.23144398629665375,
    0.23143750429153442
  ],
  "inputStd": [
    1.4483128786087036,
    1.4255748987197876,
    463.25140380859375,
    464.70733642578125,
    0.7176584601402283,
    0.6962109208106995,
    384.8221130371094,
    144.51588439941406,
    153.10362243652344,
    168.19386291503906,
    175.0343475341797,
    189.44021606445312,
    196.030029296875,
    204.62815856933594,
    212.96701049804688,
    0.7010394334793091,
    0.7129970192909241,
    0.7035136818885803,
    0.7106441855430603,
    0.7021756768226624,
    0.7119254469871521,
    0.6989261507987976,
    0.715167224407196,
    119.6740951538086,
    124.8169174194336,
    129.8355712890625,
    134.1865997314453,
    0.0010000000474974513,
    0.0010000000474974513,
    0.034632958471775055,
    0.03506102412939072,
    0.026795368641614914,
    0.026404710486531258,
    0.41482579708099365,
    0.42175132036209106
  ],
  "outputScale": 0.05,
  "clipMagnitude": 0.05,
  "layers": [
    {
      "inDim": 35,
      "outDim": 4,
      "activation": "relu",
      "W": [
        2.6315564838341743e-8,
        -1.5830843835829e-7,
        0.0000026894665552390506,
        -6.356846711241815e-7,
        -0.0000017337127928840346,
        -2.839962292000564e-7,
        9.69963821262354e-7,
        2.982311855248554e-7,
        -0.0000010315900453861104,
        -9.283390767222954e-8,
        -0.0000012130973345847451,
        -7.528059597916581e-8,
        -8.247741902778216e-7,
        -4.2071548023159266e-7,
        1.0585749521396792e-7,
        3.5291506605972245e-7,
        0.0000022474366687674774,
        -1.2367507906674291e-8,
        -0.0000032253872177534504,
        0.0000011681498790494516,
        0.0000019387859993003076,
        5.622691219286935e-7,
        -0.000002162910504921456,
        -1.4887238819483173e-7,
        4.2092671037607943e-7,
        8.298853515498195e-8,
        8.020040809242346e-7,
        -9.910768739018749e-8,
        0.0000035998214116261806,
        3.2171709563044715e-7,
        0.0000014870834093017038,
        -4.274937452919403e-7,
        0.00001095411425922066,
        -2.3984262043086346e-7,
        0.000005827503173350124,
        0.0000013527489954867633,
        -0.0000017086194930016063,
        -2.920377824011666e-7,
        -0.0000017695208498480497,
        2.948902988464397e-7,
        -0.0000040907975744630676,
        -6.137394148453268e-9,
        -0.000003641028570200433,
        -2.0619667395749275e-7,
        -8.892214395928022e-7,
        -4.4950574817903544e-8,
        -0.0000017118428559115273,
        -7.522962164330238e-7,
        -5.121972321830981e-7,
        -6.340940785776183e-7,
        0.00000225527401198633,
        -7.989944492692302e-7,
        0.0000022326867110677995,
        -3.1923727306093497e-7,
        8.969832947514078e-7,
        -4.31151534030505e-7,
        8.575847800784686e-7,
        1.2548889571917243e-7,
        1.7147517894500197e-7,
        7.862264510549721e-7,
        -0.0000012825051953768707,
        6.939387020565846e-8,
        3.1072775641405315e-7,
        2.680507371621843e-8,
        -4.212577948692342e-7,
        1.4404246684307509e-8,
        -8.330820264745853e-7,
        -0.0000017574623143445933,
        0.000001385716132062953,
        5.1250534482960575e-8,
        7.345554990934033e-7,
        -2.422656564249337e-7,
        9.297658607465564e-7,
        2.8651732009166153e-7,
        0.000002047767793555977,
        2.8197374035698886e-7,
        -0.0000013896376458433224,
        -2.119114554943735e-7,
        6.597689434784115e-7,
        9.186941838379425e-7,
        5.363450554796145e-7,
        4.885821454081452e-7,
        -0.0000012599774663613061,
        6.775038627893082e-7,
        -0.0000015937060879878118,
        5.461348564494983e-7,
        -6.676430075458484e-7,
        2.9217221708677243e-7,
        -2.1018631457536685e-7,
        6.625953830052822e-8,
        -4.3416184780653566e-7,
        -1.0278333917312921e-7,
        -1.5909625972199137e-7,
        1.0453427279344396e-7,
        -3.1154949731160286e-9,
        1.760993058042004e-7,
        3.048552912332525e-7,
        1.7350151892969734e-7,
        2.469427151652326e-8,
        -2.504231133571011e-7,
        -0.0000024508035494363867,
        -2.489657617843477e-7,
        -0.000004460113359527895,
        2.6768239180796627e-8,
        0.0000025072129119507736,
        -1.8911691768153105e-7,
        0.0000035324678719916847,
        7.135658819379387e-8,
        0.0946008712053299,
        -0.04558200016617775,
        -0.07857596129179001,
        -0.03435517102479935,
        0.08391352742910385,
        0.1417926847934723,
        -0.0731009691953659,
        -0.12252449244260788,
        0.2349896878004074,
        -3.0732005029676657e-7,
        -0.5630784034729004,
        7.701265758441878e-8,
        -0.7018864154815674,
        5.7884619764081435e-8,
        -0.23633204400539398,
        4.7063301167327154e-7,
        -0.18181158602237701,
        0.08795636892318726,
        0.4356577396392822,
        0.9533644914627075,
        0.528597891330719,
        0.47480490803718567,
        0.17798493802547455,
        -0.16090212762355804,
        2.499020581581135e-7,
        -5.92739468174841e-7,
        -0.000004132515641686041,
        -0.000001846452391873754,
        1.7559601068496704,
        1.0005640983581543,
        1.4296351671218872,
        0.4890498220920563
      ],
      "b": [
        -1.1259437799453735,
        1.4748055934906006,
        -0.9159127473831177,
        2.1080143451690674
      ]
    },
    {
      "inDim": 4,
      "outDim": 2,
      "activation": "linear",
      "W": [
        0.36316418647766113,
        -0.8759627342224121,
        0.18471859395503998,
        1.0785162448883057,
        -1.078599214553833,
        -0.3655603528022766,
        0.5450887680053711,
        -0.09950286895036697
      ],
      "b": [
        -1.1825172901153564,
        -0.8250986933708191
      ]
    }
  ]
}