{
  "version": 1,
  "id": "K4_H4_relu_seed13",
  "K": 4,
  "featureDim": 35,
  "inputMean": [
    0.005562088452279568,
    0.010740191675722599,
    -12.107275009155273,
    31.060359954833984,
    -0.007391314022243023,
    -0.0014237378491088748,
    532.5204467773438,
    -2.6612308025360107,
    0.464982271194458,
    -0.7509861588478088,
    -0.10860028117895126,
    -1.9606475830078125,
    0.18706649541854858,
    -1.641610860824585,
    -1.6478159427642822,
    -0.00996802281588316,
    0.008924822323024273,
    -0.004896283615380526,
    0.00541970320045948,
    -0.008952147327363491,
    0.0056013003922998905,
    -0.006117881741374731,
    -0.0008334347512573004,
    173.2367401123047,
    208.20065307617188,
    239.71226501464844,
    263.1102294921875,
    0,
    0,
    -0.000368642300600186,
    -0.00003369644400663674,
    -0.0004370726237539202,
    -0.00048641112516634166,
    0.23144398629665375,
    0.23143750429153442
  ],
  "inputStd": [
    1.4483128786087036,
    1.4255748987197876,
    463.25140380859375,
    464.70733642578125,
    0.7176584601402283,
    0.6962109208106995,
    384.8221130371094,
    144.51588439941406,
    153.10362243652344,
    168.19386291503906,
    175.0343475341797,
    189.44021606445312,
    196.030029296875,
    204.62815856933594,
    212.96701049804688,
    0.7010394334793091,
    0.7129970192909241,
    0.7035136818885803,
    0.7106441855430603,
    0.7021756768226624,
    0.7119254469871521,
    0.6989261507987976,
    0.715167224407196,
    119.6740951538086,
    124.8169174194336,
    129.8355712890625,
    134.1865997314453,
    0.0010000000474974513,
    0.0010000000474974513,
    0.034632958471775055,
    0.03506102412939072,
    0.026795368641614914,
    0.026404710486531258,
    0.41482579708099365,
    0.42175132036209106
  ],
  "outputScale": 0.05,
  "clipMagnitude": 0.05,
  "layers": [
    {
      "inDim": 35,
      "outDim": 4,
      "activation": "relu",
      "W": [
        -0.000001367827394460619,
        -6.650457180512603e-7,
        7.932507628538588e-7,
        6.181537060001574e-7,
        0.0000035714913337869802,
        -5.693459002031886e-7,
        7.339895802260799e-8,
        7.98278676938935e-7,
        0.0000016640544799884083,
        3.5811007137454e-7,
        -1.243277552021027e-7,
        -4.003440210453846e-7,
        -7.360725362559606e-7,
        -0.0000015709806575614493,
        0.000001328682401435799,
        -0.0000016172260757230106,
        0.0000020329664494056487,
        6.529041343128483e-7,
        -0.0000011352663022989873,
        8.844759946669001e-8,
        -6.949578050807759e-7,
        5.251129095995566e-7,
        -0.0000011536292277014581,
        8.419456207775511e-7,
        -4.204314052458358e-8,
        1.045023001466916e-8,
        -1.9396814820993313e-8,
        -2.729716470639687e-7,
        0.0000014893030311213806,
        -0.00000203248237085063,
        0.000002429392452540924,
        -0.000002859802634702646,
        0.000007284508683369495,
        -8.527240424882621e-7,
        -0.0000019632257135526743,
        0.0000018984289908985374,
        -0.000002712144578254083,
        -0.000003977103915531188,
        7.621869713148044e-7,
        -0.0000028195352115290007,
        0.0000011387056702005793,
        3.56455302608083e-7,
        0.0000035074722291028593,
        -0.0000030993276141089154,
        1.2723084807930718e-7,
        0.0000019383473954803776,
        -0.0000014047803915673285,
        0.0000016823597661641543,
        -0.000004558530235954095,
        0.000005323413006408373,
        -0.000002607463784443098,
        0.0000038026951187930536,
        -0.0000012885341220680857,
        -1.9224788161409379e-7,
        0.0000017118761661549797,
        -1.1324915050181517e-7,
        0.0000017588854461791925,
        -0.0000019852141122100875,
        5.814438850393344e-7,
        -0.0000014980205378378741,
        -0.0000010524142908252543,
        0.0000030221713132050354,
        -0.0000023209493065223796,
        0.000002079053047054913,
        -0.0000026003231141658034,
        5.906081810280739e-7,
        0.0000026878376502281753,
        -0.0000017187104504046147,
        0.000001243574047293805,
        0.0000018106283050656202,
        -7.952743317218847e-7,
        0.00000250554649028345,
        -0.0000016431919220849522,
        -3.590066626202315e-7,
        -0.0000034389934171485947,
        0.000002665115061972756,
        0.0000012814329011234804,
        -0.000001941813934536185,
        0.0000017136844689957798,
        -0.0000023923580556584056,
        0.0000022816295768279815,
        -0.0000031424722237716196,
        0.0000010765560318759526,
        -0.000002296869752171915,
        8.386875265387062e-7,
        7.603858307447808e-7,
        -0.0000019293618152005365,
        4.6485828875120205e-7,
        4.034799019336788e-7,
        4.0031287085184886e-7,
        7.075117309796042e-7,
        3.341137357892876e-7,
        -0.0000019330373106640764,
        -0.000010107507478096522,
        0.000002634891870911815,
        -0.00000528470627614297,
        -0.0000017435667132303934,
        -0.0000016707008398952894,
        0.0000020654904346883995,
        -0.0000013124996485203155,
        0.0000016038495687098475,
        -9.461464856030943e-7,
        0.0000029974466997373383,
        -0.000001397287974214123,
        4.712172483323229e-7,
        8.664169399708044e-7,
        -0.0000025872323021758348,
        0.0000014893774960000883,
        -0.35155537724494934,
        0.17555879056453705,
        -0.15538419783115387,
        0.09268171340227127,
        0.012375233694911003,
        0.19952547550201416,
        0.16439148783683777,
        0.04239549860358238,
        -0.43699225783348083,
        0.8418001532554626,
        -0.34178483486175537,
        0.4470720589160919,
        -0.7689620852470398,
        -0.7826099395751953,
        0.31775447726249695,
        -0.41563680768013,
        -0.000001418424176335975,
        -2.395164955260043e-9,
        -0.08559498935937881,
        -0.6586043834686279,
        5.736746402362769e-7,
        -2.4595209424660425e-7,
        -0.8388595581054688,
        -0.22259831428527832,
        2.007297155159904e-7,
        -0.0000015993423403415363,
        -2.643230345711345e-7,
        -0.0000011924954606001847,
        1.5020548105239868,
        -0.05206575617194176,
        -1.9640980958938599,
        -2.5967321395874023
      ],
      "b": [
        -0.4432065784931183,
        1.8030116558074951,
        1.2616719007492065,
        0.7677958011627197
      ]
    },
    {
      "inDim": 4,
      "outDim": 2,
      "activation": "linear",
      "W": [
        -0.5479467511177063,
        -0.5966722369194031,
        0.5383915901184082,
        -0.3097383379936218,
        0.22363649308681488,
        -0.6520200967788696,
        -0.8427742123603821,
        0.08474010229110718
      ],
      "b": [
        0.3299737572669983,
        1.8971660137176514
      ]
    }
  ]
}