{
  "version": 1,
  "id": "K4_H4_relu_seed3",
  "K": 4,
  "featureDim": 45,
  "inputMean": [
    0.005562088452279568,
    0.010740191675722599,
    -12.107275009155273,
    31.060359954833984,
    -0.007391314022243023,
    -0.0014237378491088748,
    532.5204467773438,
    -2.6612308025360107,
    0.464982271194458,
    -0.7509861588478088,
    -0.10860028117895126,
    -1.9606475830078125,
    0.18706649541854858,
    -1.641610860824585,
    -1.6478159427642822,
    -0.00996802281588316,
    0.008924822323024273,
    -0.004896283615380526,
    0.00541970320045948,
    -0.008952147327363491,
    0.0056013003922998905,
    -0.006117881741374731,
    -0.0008334347512573004,
    173.2367401123047,
    208.20065307617188,
    239.71226501464844,
    263.1102294921875,
    0,
    0,
    -0.000368642300600186,
    -0.00003369644400663674,
    -0.0004370726237539202,
    -0.00048641112516634166,
    0.23144398629665375,
    0.23143750429153442
  ],
  "inputStd": [
    1.4483128786087036,
    1.4255748987197876,
    463.25140380859375,
    464.70733642578125,
    0.7176584601402283,
    0.6962109208106995,
    384.8221130371094,
    144.51588439941406,
    153.10362243652344,
    168.19386291503906,
    175.0343475341797,
    189.44021606445312,
    196.030029296875,
    204.62815856933594,
    212.96701049804688,
    0.7010394334793091,
    0.7129970192909241,
    0.7035136818885803,
    0.7106441855430603,
    0.7021756768226624,
    0.7119254469871521,
    0.6989261507987976,
    0.715167224407196,
    119.6740951538086,
    124.8169174194336,
    129.8355712890625,
    134.1865997314453,
    0.0010000000474974513,
    0.0010000000474974513,
    0.034632958471775055,
    0.03506102412939072,
    0.026795368641614914,
    0.026404710486531258,
    0.41482579708099365,
    0.42175132036209106
  ],
  "outputScale": 0.05,
  "clipMagnitude": 0.05,
  "layers": [
    {
      "inDim": 35,
      "outDim": 4,
      "activation": "relu",
      "W": [
        -4.779491291628801e-7,
        7.459565267708967e-7,
        -2.1247686277092726e-7,
        -4.0913693055699696e-7,
        -4.230059573728795e-7,
        -5.987942586216377e-7,
        -0.000001725302013255714,
        -1.0623918411667432e-9,
        0.0000011749847317332751,
        -0.000001301948941545561,
        0.0000017514040564492461,
        -0.0000011846328789033578,
        5.461760679281724e-7,
        -7.039254512619664e-8,
        -3.1829145541451e-7,
        0.0000011405597888369812,
        -3.869923830279731e-7,
        4.989461785953608e-7,
        -0.0000022271156012720894,
        9.003435934573645e-7,
        0.000001041666223500215,
        -6.269869459174515e-7,
        0.000002425177399345557,
        -2.2480909933619841e-7,
        2.3354812128673075e-7,
        1.0313532072814269e-7,
        3.5214657145843375e-7,
        -6.482106869043491e-7,
        0.000012000475180684589,
        0.0000013331849686437636,
        0.000016044306903495453,
        -0.0000022007100142218405,
        -0.000008191423148673493,
        0.0000016516834193680552,
        -0.00001066936874849489,
        3.571828699477919e-7,
        1.637337305737674e-7,
        3.479757992863597e-7,
        8.447843811154598e-7,
        -3.5041747992181627e-7,
        5.524132689060934e-7,
        -0.0000015514775668634684,
        -0.000001444979602638341,
        0.000002412917865513009,
        -3.253377371947863e-7,
        0.000004224631993565708,
        -0.00000134183596856019,
        -1.301693259847525e-7,
        0.0000021555711100518238,
        -0.000001326725396211259,
        0.0000021304692836565664,
        7.536540351793519e-7,
        -2.868299020519771e-7,
        -0.000003996212853962788,
        -0.000001906312604660343,
        8.665102768645738e-7,
        -0.0000011744286894099787,
        0.0000025109509351750603,
        8.361772785292487e-8,
        -0.0000010687897429306759,
        -0.000003091790631515323,
        -0.000002150870614059386,
        -0.0000023033694560581353,
        0.0000012425056183928973,
        0.0000016140945717779687,
        5.35515027877409e-8,
        0.000002430414951959392,
        -2.659931510606839e-7,
        -3.5315503055244335e-7,
        1.3842628732163575e-7,
        -0.0000012834258313887403,
        8.168295266841596e-7,
        3.0255836236392497e-7,
        0.000001649080445531581,
        0.00000359075397682318,
        -0.0000022294266273092944,
        -1.8300454485142836e-7,
        -0.0000010214164376520785,
        0.0000011588562074393849,
        -1.5556362598090345e-7,
        -0.000001465096488573181,
        2.7947902481173514e-7,
        -0.0000019937799606850604,
        -8.736175800549972e-7,
        3.768477938592696e-7,
        0.0000014697416190756485,
        0.0000020528591448965017,
        -9.89455429589725e-7,
        2.813929356193512e-8,
        -9.179751714327722e-7,
        -0.0000012817623655791976,
        0.000001343540134257637,
        -0.0000010631429177010432,
        -0.0000025942117645172402,
        -0.000002286987410116126,
        -7.118457574506465e-7,
        6.599934181394929e-7,
        -0.0000013006529115955345,
        -2.2727073201167514e-7,
        4.441150736056443e-7,
        -0.0000018509612118577934,
        0.0000033725261801009765,
        -0.0000018454546761859092,
        9.108200629270868e-7,
        6.953409297238977e-7,
        -0.0000019577321381802903,
        0.0000024879198008420644,
        -8.856281965563539e-7,
        0.29600390791893005,
        0.10504112392663956,
        -0.04740695655345917,
        0.08940744400024414,
        0.08820010721683502,
        -0.09351014345884323,
        -0.15107807517051697,
        -0.10972526669502258,
        -0.44878533482551575,
        -0.8870136141777039,
        -0.6007827520370483,
        0.035716816782951355,
        0.4103268086910248,
        -0.5222978591918945,
        0.5493017435073853,
        -0.032654233276844025,
        -6.052851517779345e-7,
        4.6618254145869287e-7,
        0.2249964028596878,
        -0.8667266368865967,
        -6.731883104293956e-7,
        0.000001080294168787077,
        -0.5511450171470642,
        -0.4563399851322174,
        9.90090484265238e-7,
        0.0000020031784515595064,
        3.90322981047575e-7,
        0.0000020931622657371918,
        -0.5433796644210815,
        1.319061279296875,
        -1.9967284202575684,
        -1.6771304607391357
      ],
      "b": [
        1.9018447399139404,
        -0.7578219771385193,
        1.2131357192993164,
        0.9996153116226196
      ]
    },
    {
      "inDim": 4,
      "outDim": 2,
      "activation": "linear",
      "W": [
        -0.6046011447906494,
        1.0394829511642456,
        -0.47498151659965515,
        -0.5259387493133545,
        0.42138350009918213,
        -0.7886673212051392,
        -0.5089248418807983,
        -0.20473237335681915
      ],
      "b": [
        1.3255865573883057,
        -0.08263637870550156
      ]
    }
  ]
}