{
  "version": 1,
  "id": "K4_H4_relu_seed9",
  "K": 4,
  "featureDim": 45,
  "inputMean": [
    0.005562088452279568,
    0.010740191675722599,
    -12.107275009155273,
    31.060359954833984,
    -0.007391314022243023,
    -0.0014237378491088748,
    532.5204467773438,
    -2.6612308025360107,
    0.464982271194458,
    -0.7509861588478088,
    -0.10860028117895126,
    -1.9606475830078125,
    0.18706649541854858,
    -1.641610860824585,
    -1.6478159427642822,
    -0.00996802281588316,
    0.008924822323024273,
    -0.004896283615380526,
    0.00541970320045948,
    -0.008952147327363491,
    0.0056013003922998905,
    -0.006117881741374731,
    -0.0008334347512573004,
    173.2367401123047,
    208.20065307617188,
    239.71226501464844,
    263.1102294921875,
    0,
    0,
    -0.000368642300600186,
    -0.00003369644400663674,
    -0.0004370726237539202,
    -0.00048641112516634166,
    0.23144398629665375,
    0.23143750429153442
  ],
  "inputStd": [
    1.4483128786087036,
    1.4255748987197876,
    463.25140380859375,
    464.70733642578125,
    0.7176584601402283,
    0.6962109208106995,
    384.8221130371094,
    144.51588439941406,
    153.10362243652344,
    168.19386291503906,
    175.0343475341797,
    189.44021606445312,
    196.030029296875,
    204.62815856933594,
    212.96701049804688,
    0.7010394334793091,
    0.7129970192909241,
    0.7035136818885803,
    0.7106441855430603,
    0.7021756768226624,
    0.7119254469871521,
    0.6989261507987976,
    0.715167224407196,
    119.6740951538086,
    124.8169174194336,
    129.8355712890625,
    134.1865997314453,
    0.0010000000474974513,
    0.0010000000474974513,
    0.034632958471775055,
    0.03506102412939072,
    0.026795368641614914,
    0.026404710486531258,
    0.41482579708099365,
    0.42175132036209106
  ],
  "outputScale": 0.05,
  "clipMagnitude": 0.05,
  "layers": [
    {
      "inDim": 35,
      "outDim": 4,
      "activation": "relu",
      "W": [
        0.0000017660287312537548,
        6.474727456406981e-7,
        7.880693146944395e-7,
        -0.000002641778110046289,
        -0.0000020885374851786764,
        0.000001338341462542303,
        0.0000025168099000438815,
        -0.0000011528481991263106,
        -0.000001227307848239434,
        0.0000021497032776096603,
        0.0000011254761602685903,
        -5.028865075473732e-7,
        -0.0000017690097138256533,
        1.5336570413637673e-7,
        2.4089564476525993e-7,
        -8.407412792621471e-7,
        -7.204677672234538e-7,
        0.0000030858857371640624,
        0.000003062466475967085,
        0.000002423846581223188,
        0.000003402553829801036,
        -8.363689403267927e-7,
        -0.0000022222077404876472,
        -0.00000156839939791098,
        3.992818449205515e-7,
        0.0000017671981140665594,
        0.0000013228038824308896,
        -0.000001380027356390201,
        0.00000373817965737544,
        -0.000010229545296169817,
        -0.000008921154403651599,
        0.000005898235485801706,
        -0.000006988969289523084,
        0.000017614163880352862,
        0.000020793177100131288,
        0.000016226531442953274,
        -1.990997020584473e-7,
        -3.3368985441484256e-7,
        -6.697744083794532e-7,
        0.0000032015182114264462,
        3.5148323718203756e-7,
        0.000010143032341147773,
        0.0000081427951954538,
        -0.000005022044661018299,
        5.006997980672168e-7,
        0.000005736457296734443,
        0.000005717466137866722,
        0.000001595613525751105,
        0.000002291629016326624,
        -0.000005076283287053229,
        -0.00000618892318016151,
        0.0000024997946184157627,
        -7.102723884599982e-7,
        -0.000004675591299019288,
        -0.000004301735771150561,
        -2.0770953312876372e-7,
        0.0000010631863460730528,
        0.0000027333553589414805,
        0.000002433537019896903,
        0.000004009725216747029,
        -0.0000012636738802029868,
        -0.000007563694452983327,
        -0.000004551461188384565,
        0.000004718075160781154,
        0.000004379231995699229,
        -0.0000048661713663022965,
        -0.000006304580438154517,
        -0.000005298775249684695,
        7.149329803723958e-7,
        0.000003700735533129773,
        0.000003664476253106841,
        -0.000002253738102808711,
        -0.0000013223510677562444,
        -0.000008387740308535285,
        -0.000005597496055997908,
        0.000003067476882279152,
        -2.5933255187737814e-7,
        -0.00000256181897384522,
        -0.0000031852237043494824,
        -0.0000012646850109376828,
        -1.1799682653190757e-7,
        0.0000037637123568856623,
        0.000004031857770314673,
        -9.131696856456983e-7,
        6.119287263572915e-7,
        0.0000021967193788441364,
        0.0000013356462886804366,
        4.6906609441066394e-7,
        -0.0000013188421235099668,
        -0.0000013351766483538086,
        9.226621955349401e-8,
        -0.0000029351199373195414,
        0.0000016050577187343151,
        -0.000016656684238114394,
        -0.00001967355092347134,
        -0.00002031196709140204,
        0.0000017129237903645844,
        -0.0000012517569984993315,
        0.0000033206422358489363,
        -0.00000278207880910486,
        0.000003625660838224576,
        -0.000004066840574523667,
        -0.000004440608790901024,
        0.000005610390417132294,
        -0.000003648332949524047,
        0.0000031665083497500746,
        -7.903230425654328e-7,
        -0.0000012906058373118867,
        0.1700439155101776,
        -0.2992488145828247,
        -0.4801948368549347,
        -0.27763494849205017,
        -0.04143398255109787,
        0.1584838479757309,
        -0.02837635762989521,
        0.28347915410995483,
        -0.05573245882987976,
        0.3195521831512451,
        0.3393190801143646,
        -0.7817913293838501,
        0.13606134057044983,
        -0.7801318168640137,
        -0.8284004330635071,
        -0.6986122131347656,
        -0.5220304131507874,
        -0.5766564011573792,
        -0.0000011234599242015975,
        -0.0000010683398841138114,
        -0.5940524339675903,
        0.30095717310905457,
        3.1105702902323173e-8,
        2.4912117169151315e-7,
        0.000004855599854636239,
        -0.000002701538505789358,
        -0.0000020371205664559966,
        -0.000011155550964758731,
        -1.472898244857788,
        -2.446287155151367,
        -0.5486543774604797,
        1.5437618494033813
      ],
      "b": [
        0.9561174511909485,
        1.025306224822998,
        2.227565050125122,
        -0.708520770072937
      ]
    },
    {
      "inDim": 4,
      "outDim": 2,
      "activation": "linear",
      "W": [
        -0.32278329133987427,
        -0.6094570755958557,
        -0.6371333599090576,
        0.5517266392707825,
        0.5469967126846313,
        -0.6196780204772949,
        -0.6485990881919861,
        -0.2689484655857086
      ],
      "b": [
        0.6861571669578552,
        1.3261901140213013
      ]
    }
  ]
}