{
  "version": 1,
  "id": "K4_H4_relu_seed4",
  "K": 4,
  "featureDim": 45,
  "inputMean": [
    0.005562088452279568,
    0.010740191675722599,
    -12.107275009155273,
    31.060359954833984,
    -0.007391314022243023,
    -0.0014237378491088748,
    532.5204467773438,
    -2.6612308025360107,
    0.464982271194458,
    -0.7509861588478088,
    -0.10860028117895126,
    -1.9606475830078125,
    0.18706649541854858,
    -1.641610860824585,
    -1.6478159427642822,
    -0.00996802281588316,
    0.008924822323024273,
    -0.004896283615380526,
    0.00541970320045948,
    -0.008952147327363491,
    0.0056013003922998905,
    -0.006117881741374731,
    -0.0008334347512573004,
    173.2367401123047,
    208.20065307617188,
    239.71226501464844,
    263.1102294921875,
    0,
    0,
    -0.000368642300600186,
    -0.00003369644400663674,
    -0.0004370726237539202,
    -0.00048641112516634166,
    0.23144398629665375,
    0.23143750429153442
  ],
  "inputStd": [
    1.4483128786087036,
    1.4255748987197876,
    463.25140380859375,
    464.70733642578125,
    0.7176584601402283,
    0.6962109208106995,
    384.8221130371094,
    144.51588439941406,
    153.10362243652344,
    168.19386291503906,
    175.0343475341797,
    189.44021606445312,
    196.030029296875,
    204.62815856933594,
    212.96701049804688,
    0.7010394334793091,
    0.7129970192909241,
    0.7035136818885803,
    0.7106441855430603,
    0.7021756768226624,
    0.7119254469871521,
    0.6989261507987976,
    0.715167224407196,
    119.6740951538086,
    124.8169174194336,
    129.8355712890625,
    134.1865997314453,
    0.0010000000474974513,
    0.0010000000474974513,
    0.034632958471775055,
    0.03506102412939072,
    0.026795368641614914,
    0.026404710486531258,
    0.41482579708099365,
    0.42175132036209106
  ],
  "outputScale": 0.05,
  "clipMagnitude": 0.05,
  "layers": [
    {
      "inDim": 35,
      "outDim": 4,
      "activation": "relu",
      "W": [
        0.000002715714344958542,
        -0.000002290891416123486,
        -0.00000503593719258788,
        0.0000013770148825642536,
        3.2337197808374185e-7,
        0.0000011724547448466183,
        0.0000032279347124131164,
        0.0000017488608818894136,
        -0.000002996111788888811,
        0.0000011001894790751976,
        0.0000022776036985305836,
        9.811466270548408e-7,
        2.2855283532408066e-7,
        1.9953172625264415e-7,
        0.0000018404715547148953,
        -7.736623501841677e-7,
        -0.0000015430979374286835,
        2.4822807631608157e-7,
        0.0000030350151973834727,
        -0.0000026271206934325164,
        0.000003234557198084076,
        -0.0000015609143702022266,
        -0.0000065171916503459215,
        0.0000012537561815406661,
        -4.685551004968147e-7,
        0.0000019545136638043914,
        0.0000030399571642192313,
        -0.000003558143816917436,
        -0.0000013414004342848784,
        -0.000012065597729815636,
        -0.00001614615393918939,
        -4.9196032136933354e-8,
        0.000003972375452576671,
        -0.000019244371287641115,
        -0.00002380458317929879,
        -0.000017789978301152587,
        -0.0000036637732137023704,
        -0.0000046048685362620745,
        -0.000004468533461476909,
        0.0000016943388345680432,
        9.6461644716328e-7,
        -0.000006903053417772753,
        -0.000009537576261209324,
        -1.4927875824355397e-8,
        0.000001545925783830171,
        5.517907197827299e-7,
        0.000003839446435449645,
        0.0000042487513383093756,
        -0.000002593489398350357,
        0.000004442224962986074,
        0.00000415510203310987,
        0.0000056892122302087955,
        0.0000015932233736748458,
        0.0000028787633254978573,
        -0.0000018223588540422497,
        -0.000003752129941858584,
        0.000004799649559572572,
        0.000003905853645846946,
        0.0000021562511847150745,
        -0.000012080017768312246,
        2.3567412199554383e-7,
        0.000003755753596124123,
        0.000006032872079231311,
        -0.000004271339548722608,
        -0.000009082332326215692,
        0.000006464269972639158,
        0.000010548290447331965,
        0.0000046985128392407205,
        0.0000029494372029148508,
        0.0000018081766484101536,
        0.0000011125479204565636,
        1.18764704737373e-8,
        -4.1782570292525634e-7,
        0.0000030759983928874135,
        0.000004431407887750538,
        3.456182184891077e-7,
        -5.300676093611401e-7,
        -5.858278768755554e-7,
        -0.000004656460077967495,
        -0.0000027793885237770155,
        0.000003867782652378082,
        -7.965795703057665e-7,
        5.147910542291356e-7,
        -0.00000399773716708296,
        -3.7547295050899265e-7,
        -6.75811179462471e-7,
        0.000004493197593546938,
        0.0000034128754577977816,
        -0.000004888306648354046,
        -0.00000370236784874578,
        -0.000002966779447888257,
        0.000006033127647242509,
        -0.0000022547581011167495,
        -0.0000014235718026611721,
        0.0000042323258639953565,
        0.0000037917925510555506,
        0.0000021967384782328736,
        7.684030833843281e-7,
        0.0000025207496037182864,
        -0.000005163376044947654,
        -0.0000014529076679536956,
        8.926505188355804e-7,
        0.000004679674020735547,
        -5.835031515744049e-7,
        2.188804693048496e-8,
        -5.060179120164321e-8,
        -0.000008931490810937248,
        -3.0033042719423975e-8,
        0.07274656742811203,
        -0.2633413076400757,
        -0.07609144598245621,
        0.03071262501180172,
        -0.45464736223220825,
        0.3570373058319092,
        0.04767056182026863,
        0.18632252514362335,
        -0.000031802421290194616,
        0.07402592897415161,
        0.08587444573640823,
        0.8539557456970215,
        -0.0003082256007473916,
        0.6984289884567261,
        0.8102127909660339,
        0.10523650050163269,
        1.0010061264038086,
        -2.6840135092243145e-7,
        0.1752626746892929,
        0.000001368470179841097,
        0.12030544877052307,
        0.000001439696802663093,
        -0.5811789035797119,
        -2.3991739794837486e-7,
        -0.000008763357072893996,
        0.000002370286892983131,
        0.0000019764229364227504,
        0.000003377943130544736,
        -1.6411182880401611,
        -0.6787372827529907,
        -1.9759470224380493,
        1.0832393169403076
      ],
      "b": [
        1.0259194374084473,
        2.272367000579834,
        1.2585927248001099,
        -0.6989225149154663
      ]
    },
    {
      "inDim": 4,
      "outDim": 2,
      "activation": "linear",
      "W": [
        0.5166425108909607,
        0.15352801978588104,
        -0.12383325397968292,
        1.0172841548919678,
        0.10694783926010132,
        -0.8768759965896606,
        0.8218572735786438,
        -0.08818648010492325
      ],
      "b": [
        -0.9270934462547302,
        -0.9416137337684631
      ]
    }
  ]
}