{
  "version": 1,
  "id": "K4_H4_relu_seed14",
  "K": 4,
  "featureDim": 35,
  "inputMean": [
    0.005562088452279568,
    0.010740191675722599,
    -12.107275009155273,
    31.060359954833984,
    -0.007391314022243023,
    -0.0014237378491088748,
    532.5204467773438,
    -2.6612308025360107,
    0.464982271194458,
    -0.7509861588478088,
    -0.10860028117895126,
    -1.9606475830078125,
    0.18706649541854858,
    -1.641610860824585,
    -1.6478159427642822,
    -0.00996802281588316,
    0.008924822323024273,
    -0.004896283615380526,
    0.00541970320045948,
    -0.008952147327363491,
    0.0056013003922998905,
    -0.006117881741374731,
    -0.0008334347512573004,
    173.2367401123047,
    208.20065307617188,
    239.71226501464844,
    263.1102294921875,
    0,
    0,
    -0.000368642300600186,
    -0.00003369644400663674,
    -0.0004370726237539202,
    -0.00048641112516634166,
    0.23144398629665375,
    0.23143750429153442
  ],
  "inputStd": [
    1.4483128786087036,
    1.4255748987197876,
    463.25140380859375,
    464.70733642578125,
    0.7176584601402283,
    0.6962109208106995,
    384.8221130371094,
    144.51588439941406,
    153.10362243652344,
    168.19386291503906,
    175.0343475341797,
    189.44021606445312,
    196.030029296875,
    204.62815856933594,
    212.96701049804688,
    0.7010394334793091,
    0.7129970192909241,
    0.7035136818885803,
    0.7106441855430603,
    0.7021756768226624,
    0.7119254469871521,
    0.6989261507987976,
    0.715167224407196,
    119.6740951538086,
    124.8169174194336,
    129.8355712890625,
    134.1865997314453,
    0.0010000000474974513,
    0.0010000000474974513,
    0.034632958471775055,
    0.03506102412939072,
    0.026795368641614914,
    0.026404710486531258,
    0.41482579708099365,
    0.42175132036209106
  ],
  "outputScale": 0.05,
  "clipMagnitude": 0.05,
  "layers": [
    {
      "inDim": 35,
      "outDim": 4,
      "activation": "relu",
      "W": [
        0.0000010003875559050357,
        0.0000013046361573287868,
        5.66882718544548e-8,
        0.0000025807783003983786,
        9.47056491895637e-7,
        0.000002353330955884303,
        -6.923658020241419e-7,
        5.204482533827104e-8,
        7.610574357386213e-7,
        -0.0000026454949875187594,
        8.849332857607806e-7,
        0.0000011290311476841453,
        -9.294917191482455e-8,
        0.0000033959101983782602,
        0.0000011709078080457402,
        0.0000010002652288676472,
        -0.0000017666936855675885,
        0.000002239824652860989,
        -6.235372325136268e-7,
        -0.0000028111528536101105,
        -3.074985386319895e-7,
        -0.0000016260638631138136,
        0.0000010303147064405493,
        1.9117833005566354e-7,
        -8.303130698550376e-7,
        -4.184970237020025e-7,
        -8.251193435171444e-7,
        -0.000001007350761028647,
        -4.054374258544158e-8,
        -0.0000028382837626850232,
        0.000016219646568060853,
        -2.679763611013186e-7,
        0.000001645744418965478,
        -0.000009839916856435593,
        -0.0000015295690900529735,
        0.0000016370722732972354,
        0.0000017925752899827785,
        -0.0000013567831729233149,
        -0.0000032610012112854747,
        -5.309669859343558e-7,
        -0.0000018890574438046315,
        -0.0000032450102480652276,
        0.0000014784457107452909,
        -0.0000019843075733660953,
        -4.906132744508795e-7,
        -0.000006343776021822123,
        5.093905315334268e-7,
        2.0230768882356642e-7,
        -0.0000027173962280357955,
        -0.0000025091869702009717,
        -4.0429446812595415e-7,
        -0.0000024618805127829546,
        -0.000002882334001697018,
        0.0000011256501011303044,
        0.000005041651093051769,
        4.698495956745319e-7,
        8.254925774053845e-7,
        5.521129651242518e-7,
        -0.0000027963110369455535,
        0.000002867789362426265,
        -0.0000010991064982590615,
        -0.000001832285306591075,
        -0.00000401187026000116,
        -0.000002947898792626802,
        -0.0000016620749647699995,
        4.899922600998252e-7,
        8.835265248308133e-7,
        -8.719214292796096e-7,
        -0.0000011286715562164318,
        0.0000023213474378280807,
        2.8418091346793517e-7,
        0.0000014472883549387916,
        0.0000011469684295661864,
        8.97060829174734e-7,
        -9.753000540513312e-7,
        0.000001260992803508998,
        7.578040595035418e-7,
        0.0000030418696042033844,
        -2.6249350071338995e-7,
        -4.685768999479478e-7,
        0.00000227961527343723,
        -3.4385688962856875e-8,
        0.000002411058176221559,
        0.000001697944526313222,
        0.000002735316229518503,
        -0.0000014764166280656355,
        -0.0000035900893635698594,
        -5.773921429863549e-7,
        -5.129047622176586e-7,
        -3.8922229350646376e-7,
        0.0000023215043256641366,
        -0.0000026101567982550478,
        7.333431994993589e-7,
        0.000009010305802803487,
        0.000007485057722078636,
        0.0000011413834499762743,
        -5.742818842691122e-8,
        -0.000005847395641467301,
        -0.0000035322821076988475,
        -5.576418402597483e-7,
        -7.627669447174412e-7,
        0.000007426698175549973,
        0.0000029021593945799395,
        -0.0000019361880276846932,
        1.9651439231438417e-7,
        -0.000005300275006447919,
        -0.0000022349524897435913,
        0.0000032637415188219165,
        -0.043246474117040634,
        0.4757595956325531,
        0.2171558290719986,
        0.1357562094926834,
        -0.23032955825328827,
        0.09245967864990234,
        0.0488356277346611,
        -0.41390106081962585,
        2.385787922776217e-7,
        -0.1783399134874344,
        -0.847256064414978,
        0.000002707123940126621,
        3.009893418948195e-7,
        -1.1881638765335083,
        0.13826684653759003,
        6.317445127024257e-7,
        -0.1201300323009491,
        -0.0000017068460920199868,
        7.725702744210139e-7,
        -0.8170398473739624,
        -0.7802519202232361,
        -8.658103638481407e-7,
        -7.199391802714672e-7,
        0.12968893349170685,
        -0.0000029423699743347242,
        -0.000004606657057593111,
        0.000008477702067466453,
        0.00000547226591152139,
        -1.2981641292572021,
        1.4885752201080322,
        1.0745517015457153,
        -1.33957040309906
      ],
      "b": [
        0.8421661257743835,
        -0.9450722932815552,
        -0.6755995750427246,
        0.8635701537132263
      ]
    },
    {
      "inDim": 4,
      "outDim": 2,
      "activation": "linear",
      "W": [
        -0.10642195492982864,
        -0.6606771945953369,
        -0.09286154061555862,
        -0.5760601162910461,
        -0.79798424243927,
        0.12125591188669205,
        -0.6402661800384521,
        0.09713996201753616
      ],
      "b": [
        1.1802581548690796,
        0.8620223999023438
      ]
    }
  ]
}