{
  "version": 1,
  "id": "K4_H4_relu_seed20",
  "K": 4,
  "featureDim": 35,
  "inputMean": [
    0.005562088452279568,
    0.010740191675722599,
    -12.107275009155273,
    31.060359954833984,
    -0.007391314022243023,
    -0.0014237378491088748,
    532.5204467773438,
    -2.6612308025360107,
    0.464982271194458,
    -0.7509861588478088,
    -0.10860028117895126,
    -1.9606475830078125,
    0.18706649541854858,
    -1.641610860824585,
    -1.6478159427642822,
    -0.00996802281588316,
    0.008924822323024273,
    -0.004896283615380526,
    0.00541970320045948,
    -0.008952147327363491,
    0.0056013003922998905,
    -0.006117881741374731,
    -0.0008334347512573004,
    173.2367401123047,
    208.20065307617188,
    239.71226501464844,
    263.1102294921875,
    0,
    0,
    -0.000368642300600186,
    -0.00003369644400663674,
    -0.0004370726237539202,
    -0.00048641112516634166,
    0.23144398629665375,
    0.23143750429153442
  ],
  "inputStd": [
    1.4483128786087036,
    1.4255748987197876,
    463.25140380859375,
    464.70733642578125,
    0.7176584601402283,
    0.6962109208106995,
    384.8221130371094,
    144.51588439941406,
    153.10362243652344,
    168.19386291503906,
    175.0343475341797,
    189.44021606445312,
    196.030029296875,
    204.62815856933594,
    212.96701049804688,
    0.7010394334793091,
    0.7129970192909241,
    0.7035136818885803,
    0.7106441855430603,
    0.7021756768226624,
    0.7119254469871521,
    0.6989261507987976,
    0.715167224407196,
    119.6740951538086,
    124.8169174194336,
    129.8355712890625,
    134.1865997314453,
    0.0010000000474974513,
    0.0010000000474974513,
    0.034632958471775055,
    0.03506102412939072,
    0.026795368641614914,
    0.026404710486531258,
    0.41482579708099365,
    0.42175132036209106
  ],
  "outputScale": 0.05,
  "clipMagnitude": 0.05,
  "layers": [
    {
      "inDim": 35,
      "outDim": 4,
      "activation": "relu",
      "W": [
        0.0000011584803587538772,
        -2.2327557758217154e-7,
        9.584644189430946e-9,
        -0.0000017171815898109344,
        -0.0000014174704574543284,
        -0.000001146241629612632,
        -1.821804573864938e-7,
        0.0000018876149852076196,
        4.753910047838872e-7,
        -5.436530727820355e-7,
        0.0000013120056792104151,
        -1.8724915662460262e-7,
        -0.0000019422800505708437,
        8.858022511049057e-7,
        9.306551760346338e-7,
        -7.845127356631565e-7,
        -0.000003114125092906761,
        3.256436116316763e-7,
        -0.0000011573550864341087,
        0.0000032726445624575717,
        0.0000013648533467858215,
        0.0000015071709640324116,
        4.1824375784926815e-7,
        -6.751507726221462e-7,
        6.355352297759964e-7,
        -1.2241230251675006e-7,
        2.668741387878981e-7,
        1.727862581901718e-7,
        -0.000021396435840870254,
        -0.000005734030310122762,
        4.7498537014689646e-7,
        -0.000002562191411925596,
        -0.000007307339728868101,
        -0.000010477973773959093,
        6.129129701548663e-7,
        -0.0000014042773273104103,
        -0.0000025918363917298848,
        -0.000006204400960996281,
        -1.909075848516295e-7,
        0.0000021172459128138144,
        0.0000030607154712924967,
        -0.000006736064733559033,
        -1.4434480988256837e-7,
        0.0000011553796639418579,
        -0.0000024199443942052312,
        0.000004287162937544053,
        -0.0000011456232869022642,
        0.0000010598787412163801,
        -0.0000026933616936730687,
        0.0000010227570328424918,
        0.00000317949752570712,
        0.0000016684884940332267,
        0.0000018393810705674696,
        -0.0000054655070016451646,
        -8.845614161145932e-7,
        3.7796053220517933e-7,
        0.000004732888555736281,
        -0.0000014123718301561894,
        -0.000002064847421934246,
        -0.000003506077291604015,
        0.000008399742910114583,
        0.0000024462829060212243,
        -7.922894837975036e-7,
        0.0000017145414403785253,
        0.0000032719794944569003,
        0.0000046978198042779695,
        4.223304870265565e-7,
        -5.999312975291105e-7,
        9.340599262941396e-7,
        0.0000032464793093822664,
        2.998125125941442e-7,
        -0.0000017194353176819277,
        -0.000002164576699215104,
        0.000004739593350677751,
        2.5192495201054044e-8,
        3.4054781394843303e-7,
        0.0000010527854783504154,
        -0.000001572924702486489,
        5.737529704674671e-7,
        -0.0000012919950904688449,
        9.533972615827224e-7,
        -0.000004659169917431427,
        -0.0000032866157653188566,
        -0.0000022933097625355003,
        -4.481731252781174e-8,
        0.0000026800310024555074,
        0.0000011968674016316072,
        1.9930226358155778e-7,
        -8.797619557299186e-7,
        4.5602615017514836e-8,
        0.0000016036073020586628,
        0.0000030174437597452197,
        -0.00001044428972818423,
        6.639793355134316e-7,
        -8.703966614120873e-7,
        -0.0000012802412356904824,
        0.000002412765070403111,
        -0.000004247657216183143,
        1.34652267114177e-9,
        -0.0000024679341095179552,
        0.0000025232573079847498,
        0.0000030378196242963895,
        0.0000045740716814179905,
        0.000001918064981509815,
        -5.676955652234028e-7,
        -0.0000032803050089569297,
        -0.0000039016308619466145,
        9.775828857527813e-7,
        -0.058625392615795135,
        -0.14739254117012024,
        -0.2501412332057953,
        -0.17574408650398254,
        0.41817760467529297,
        0.15797539055347443,
        -0.04483100399374962,
        -0.048613253980875015,
        0.42899882793426514,
        0.3957485258579254,
        3.179843020006956e-7,
        1.3069529458675788e-8,
        0.6401460766792297,
        -0.23393568396568298,
        6.091137834118854e-7,
        0.0000015981280512278317,
        0.01682904176414013,
        -0.20470751821994781,
        -0.43462371826171875,
        0.6687825918197632,
        -0.025405649095773697,
        0.3090720474720001,
        0.6562045216560364,
        0.8758145570755005,
        0.0000014578446325685945,
        -0.00000713358440407319,
        -0.000001454862399441481,
        -0.0000027819135084428126,
        0.998101532459259,
        1.1595649719238281,
        0.9031010270118713,
        -2.381200075149536
      ],
      "b": [
        -0.6387148499488831,
        -0.7418907880783081,
        2.001110315322876,
        1.0980015993118286
      ]
    },
    {
      "inDim": 4,
      "outDim": 2,
      "activation": "linear",
      "W": [
        0.45812174677848816,
        0.7845882773399353,
        1.25364351272583,
        -0.8505146503448486,
        -0.5727255344390869,
        0.4309627115726471,
        0.4291161894798279,
        0.2800758481025696
      ],
      "b": [
        -0.1783645898103714,
        -1.3320465087890625
      ]
    }
  ]
}