{
  "version": 1,
  "id": "K4_H4_relu_seed17",
  "K": 4,
  "featureDim": 35,
  "inputMean": [
    0.005562088452279568,
    0.010740191675722599,
    -12.107275009155273,
    31.060359954833984,
    -0.007391314022243023,
    -0.0014237378491088748,
    532.5204467773438,
    -2.6612308025360107,
    0.464982271194458,
    -0.7509861588478088,
    -0.10860028117895126,
    -1.9606475830078125,
    0.18706649541854858,
    -1.641610860824585,
    -1.6478159427642822,
    -0.00996802281588316,
    0.008924822323024273,
    -0.004896283615380526,
    0.00541970320045948,
    -0.008952147327363491,
    0.0056013003922998905,
    -0.006117881741374731,
    -0.0008334347512573004,
    173.2367401123047,
    208.20065307617188,
    239.71226501464844,
    263.1102294921875,
    0,
    0,
    -0.000368642300600186,
    -0.00003369644400663674,
    -0.0004370726237539202,
    -0.00048641112516634166,
    0.23144398629665375,
    0.23143750429153442
  ],
  "inputStd": [
    1.4483128786087036,
    1.4255748987197876,
    463.25140380859375,
    464.70733642578125,
    0.7176584601402283,
    0.6962109208106995,
    384.8221130371094,
    144.51588439941406,
    153.10362243652344,
    168.19386291503906,
    175.0343475341797,
    189.44021606445312,
    196.030029296875,
    204.62815856933594,
    212.96701049804688,
    0.7010394334793091,
    0.7129970192909241,
    0.7035136818885803,
    0.7106441855430603,
    0.7021756768226624,
    0.7119254469871521,
    0.6989261507987976,
    0.715167224407196,
    119.6740951538086,
    124.8169174194336,
    129.8355712890625,
    134.1865997314453,
    0.0010000000474974513,
    0.0010000000474974513,
    0.034632958471775055,
    0.03506102412939072,
    0.026795368641614914,
    0.026404710486531258,
    0.41482579708099365,
    0.42175132036209106
  ],
  "outputScale": 0.05,
  "clipMagnitude": 0.05,
  "layers": [
    {
      "inDim": 35,
      "outDim": 4,
      "activation": "relu",
      "W": [
        -1.5069468872752623e-7,
        -2.5296375838479435e-7,
        -6.761777626707044e-8,
        -1.1206662975382642e-7,
        -2.9797530487485346e-7,
        -2.136138164132717e-7,
        3.742460563671557e-8,
        1.5627728089384618e-7,
        -7.144797820046733e-8,
        5.5926374642467636e-8,
        -1.197762884430631e-7,
        -2.2179854397563759e-7,
        -6.821424136660426e-8,
        -1.2040405295010714e-7,
        -4.3883151334966897e-8,
        7.656557166058064e-9,
        4.130495412368873e-8,
        -2.4616653604425665e-7,
        2.2479044048395735e-7,
        1.767533746033223e-7,
        9.197453465503713e-8,
        1.4309553364455496e-7,
        1.2893691803128604e-7,
        -7.197925810942252e-8,
        -5.445447115448587e-8,
        -6.810514463495565e-8,
        4.668687125786164e-8,
        1.4389432578809647e-7,
        -0.0000016033723113650922,
        -0.000001793993419596518,
        2.5482998466941353e-7,
        -7.159275128287845e-7,
        -0.0000011044264738302445,
        -0.000001081069740394014,
        -1.2031331664275058e-7,
        -0.0000020649354155466426,
        -4.5511477253512567e-8,
        -1.6145015990787215e-7,
        -9.47356681990641e-8,
        2.4720884539419785e-7,
        -4.4141430066702014e-8,
        2.0127615130149934e-9,
        -2.1026176355576354e-9,
        7.003370683378307e-8,
        -1.5160536293024052e-7,
        -2.9928887101959845e-7,
        1.5101778672033106e-7,
        -5.8173192485355685e-8,
        3.166360684758729e-8,
        -2.752683769813302e-7,
        2.532362088913942e-7,
        1.3081644567591866e-7,
        1.5055597657465114e-7,
        5.700370024896984e-7,
        -2.51982505972137e-8,
        -1.2175378572010231e-7,
        9.310478610302653e-9,
        1.7145862329925876e-7,
        1.8899670806149516e-7,
        -5.5642015439616443e-8,
        6.80983362144616e-7,
        0.0000010183188123846776,
        -2.1414531659047498e-7,
        2.1273717720760033e-7,
        7.360332574535278e-7,
        6.032642545505951e-7,
        1.2747734423612656e-8,
        4.814268663722032e-7,
        1.1867786753327891e-7,
        2.7635294941319444e-7,
        7.61675735816425e-8,
        -8.503699433504153e-8,
        9.669203393514181e-8,
        9.939021339278042e-8,
        -2.9196595363600863e-8,
        -5.282590720412372e-8,
        1.4914259338638658e-7,
        2.4306692125719565e-7,
        -5.5489355332838386e-8,
        -7.598220008731005e-8,
        -2.2014690159721795e-7,
        1.676505867465039e-8,
        -2.325316756923712e-7,
        5.536739777767252e-8,
        -7.281329317265772e-8,
        -5.407681555880117e-7,
        -7.738062635098686e-9,
        1.204874848781401e-7,
        2.6090660298905277e-8,
        -1.6052197793214873e-7,
        -1.0493624102991816e-7,
        -2.4493449046758542e-8,
        -1.5885299831097655e-7,
        -1.1389464305011643e-7,
        -4.321936586393349e-8,
        -4.754049314215081e-7,
        2.2080332939822256e-7,
        -1.868135868221543e-9,
        3.3616327499430554e-8,
        -5.7581917900506596e-8,
        -2.4145609245351807e-7,
        -2.3177237551408325e-7,
        -1.0309458531310156e-7,
        1.2033002860789566e-7,
        1.0491909563370427e-7,
        2.3180098196462495e-7,
        1.0825507956724323e-7,
        2.2515063591299622e-8,
        0.41589289903640747,
        0.3520638942718506,
        -0.20483806729316711,
        0.33267101645469666,
        0.1382412314414978,
        0.26069164276123047,
        -0.3558574616909027,
        -0.06153266876935959,
        0.6831569671630859,
        0.7063044905662537,
        -0.05475617200136185,
        0.01265279296785593,
        0.28672292828559875,
        0.2964366376399994,
        -0.0229813102632761,
        0.8561592102050781,
        -8.95795864153115e-8,
        -0.5406298637390137,
        0.053423330187797546,
        1.5420667409671296e-8,
        -5.376971046189283e-8,
        0.16213826835155487,
        0.7457215785980225,
        -3.201222043003327e-8,
        -3.8295434023893904e-7,
        3.945885396205995e-7,
        -5.1162153624773055e-8,
        3.2450168419018155e-7,
        -0.5061159133911133,
        -2.4209561347961426,
        -1.311151146888733,
        1.1514739990234375
      ],
      "b": [
        1.9421131610870361,
        0.7819969058036804,
        0.8180088400840759,
        -0.6408326625823975
      ]
    },
    {
      "inDim": 4,
      "outDim": 2,
      "activation": "linear",
      "W": [
        1.0202360153198242,
        -0.015264078974723816,
        -0.9704319834709167,
        0.06851016730070114,
        0.21100902557373047,
        0.6932671070098877,
        -0.34166353940963745,
        0.8241274952888489
      ],
      "b": [
        -0.5498285293579102,
        -1.186347246170044
      ]
    }
  ]
}