{
  "version": 1,
  "id": "K4_H4_relu_seed12",
  "K": 4,
  "featureDim": 35,
  "inputMean": [
    0.005562088452279568,
    0.010740191675722599,
    -12.107275009155273,
    31.060359954833984,
    -0.007391314022243023,
    -0.0014237378491088748,
    532.5204467773438,
    -2.6612308025360107,
    0.464982271194458,
    -0.7509861588478088,
    -0.10860028117895126,
    -1.9606475830078125,
    0.18706649541854858,
    -1.641610860824585,
    -1.6478159427642822,
    -0.00996802281588316,
    0.008924822323024273,
    -0.004896283615380526,
    0.00541970320045948,
    -0.008952147327363491,
    0.0056013003922998905,
    -0.006117881741374731,
    -0.0008334347512573004,
    173.2367401123047,
    208.20065307617188,
    239.71226501464844,
    263.1102294921875,
    0,
    0,
    -0.000368642300600186,
    -0.00003369644400663674,
    -0.0004370726237539202,
    -0.00048641112516634166,
    0.23144398629665375,
    0.23143750429153442
  ],
  "inputStd": [
    1.4483128786087036,
    1.4255748987197876,
    463.25140380859375,
    464.70733642578125,
    0.7176584601402283,
    0.6962109208106995,
    384.8221130371094,
    144.51588439941406,
    153.10362243652344,
    168.19386291503906,
    175.0343475341797,
    189.44021606445312,
    196.030029296875,
    204.62815856933594,
    212.96701049804688,
    0.7010394334793091,
    0.7129970192909241,
    0.7035136818885803,
    0.7106441855430603,
    0.7021756768226624,
    0.7119254469871521,
    0.6989261507987976,
    0.715167224407196,
    119.6740951538086,
    124.8169174194336,
    129.8355712890625,
    134.1865997314453,
    0.0010000000474974513,
    0.0010000000474974513,
    0.034632958471775055,
    0.03506102412939072,
    0.026795368641614914,
    0.026404710486531258,
    0.41482579708099365,
    0.42175132036209106
  ],
  "outputScale": 0.05,
  "clipMagnitude": 0.05,
  "layers": [
    {
      "inDim": 35,
      "outDim": 4,
      "activation": "relu",
      "W": [
        0.0000032972802728181705,
        0.0000040691929825698026,
        0.0000016608836403975147,
        -0.0000025081187686737394,
        -0.000001678880039435171,
        0.0000023682134724367643,
        -0.000001274067926715361,
        -0.0000019201147551939357,
        -0.0000023717357180430554,
        0.0000010590266583676566,
        -7.176560643529228e-7,
        -0.0000047615162657166366,
        0.0000013824977713738917,
        -5.52656267416296e-8,
        0.000002424062131467508,
        0.0000022216147499420913,
        0.0000017978826463149744,
        -0.0000045014789975539315,
        -0.000001698234882496763,
        0.00000596067866354133,
        -6.283992206590483e-7,
        3.609480359045847e-7,
        0.000003376466111149057,
        -0.0000059642893575073685,
        -3.4202577126052347e-7,
        0.000001558024450787343,
        0.0000020318968836363638,
        -8.504421771249326e-7,
        -0.000001988873464142671,
        0.0000017107302028307458,
        0.000005113270617584931,
        0.000002165202658943599,
        -0.000003101934453297872,
        2.6445422918186523e-7,
        -0.00003721534812939353,
        -0.000028281723643885925,
        0.000006309821856120834,
        -0.0000018561490833235439,
        0.000009163689355773386,
        0.0000010738561968537397,
        -0.000002668761453605839,
        0.0000013865461596651585,
        0.000009748411684995517,
        0.00000971859299170319,
        -0.000004288570835342398,
        -0.00000158914849635039,
        -0.000008096057172224391,
        0.000005189578132558381,
        5.98414771957323e-7,
        5.805910063827469e-7,
        -4.43951222450778e-7,
        0.000004762852313433541,
        -0.000001954217395905289,
        7.248370081924804e-8,
        0.000004866353719990002,
        -0.000007822762199793942,
        0.000005100566340843216,
        2.788989377222606e-7,
        -0.000010691506759030744,
        1.6100510435990145e-7,
        -5.328915335667261e-7,
        -0.000002396872559984331,
        -0.00000223028109758161,
        0.000007575803920190083,
        0.000004949563845002558,
        -0.0000031570170904160477,
        0.000010508750165172387,
        0.000012583938769239467,
        -0.0000072908228503365535,
        0.0000019976075691374717,
        -0.000004674699084716849,
        -0.000004169677140453132,
        0.000002494011368980864,
        -0.0000022282104055193486,
        -0.0000025030867618625052,
        -0.0000014838381048321025,
        0.000003837758868030505,
        0.0000012395255453157006,
        0.000006912409844517242,
        -0.00000192632933249115,
        -0.0000030564087865059264,
        3.734583913228562e-7,
        -0.0000020797870092792436,
        -0.00000426563610744779,
        0.000003320541054563364,
        -0.0000018615459111970267,
        -0.000003401866933927522,
        0.0000013838133554600063,
        -0.000003327559170429595,
        4.914583655590832e-7,
        0.000005228219833952608,
        0.0000012998091278859647,
        5.243392138254421e-7,
        0.0000031236409085977357,
        -0.0000012499797321652295,
        -0.000007848278983146884,
        -0.0000013341399380806251,
        -6.532590646202152e-8,
        -0.000008754328518989496,
        9.290249067817058e-7,
        -6.843633570952079e-8,
        -0.000002587929657238419,
        0.000005169288215256529,
        0.0000019500744201650377,
        -5.142289793980126e-8,
        -0.0000011676920621539466,
        -0.0000024076255158433923,
        -0.000004226796590955928,
        -0.4123859405517578,
        0.1678335815668106,
        0.2438391000032425,
        -0.06690995395183563,
        0.11456887423992157,
        -0.2064550220966339,
        -0.003135016420856118,
        -0.10714838653802872,
        0.000003040957835764857,
        0.0000025741971967363497,
        -0.8456102013587952,
        0.17185455560684204,
        -3.0560718755623384e-7,
        0.0000029661450753337704,
        0.1568664014339447,
        0.8454104065895081,
        0.07075095921754837,
        -0.9454448223114014,
        -9.1837371485326e-8,
        -0.0000035804066556011094,
        0.8721861839294434,
        0.10488474369049072,
        -0.00000322541518471553,
        0.000002691283725653193,
        -0.0000047327180254796986,
        -0.0000026125881049665622,
        0.000003555504918040242,
        -0.0000016626999013169552,
        -1.529873013496399,
        -1.5833994150161743,
        1.1170611381530762,
        1.0589176416397095
      ],
      "b": [
        1.050362467765808,
        0.9814261198043823,
        -0.6498713493347168,
        -0.6771854758262634
      ]
    },
    {
      "inDim": 4,
      "outDim": 2,
      "activation": "linear",
      "W": [
        0.06755515933036804,
        0.60008305311203,
        -0.5617731213569641,
        0.04490628093481064,
        -0.7893570065498352,
        0.16244684159755707,
        0.14646431803703308,
        0.7992966771125793
      ],
      "b": [
        0.9030491709709167,
        -1.2269079685211182
      ]
    }
  ]
}