{
  "version": 1,
  "id": "K4_H4_relu_seed18",
  "K": 4,
  "featureDim": 35,
  "inputMean": [
    0.005562088452279568,
    0.010740191675722599,
    -12.107275009155273,
    31.060359954833984,
    -0.007391314022243023,
    -0.0014237378491088748,
    532.5204467773438,
    -2.6612308025360107,
    0.464982271194458,
    -0.7509861588478088,
    -0.10860028117895126,
    -1.9606475830078125,
    0.18706649541854858,
    -1.641610860824585,
    -1.6478159427642822,
    -0.00996802281588316,
    0.008924822323024273,
    -0.004896283615380526,
    0.00541970320045948,
    -0.008952147327363491,
    0.0056013003922998905,
    -0.006117881741374731,
    -0.0008334347512573004,
    173.2367401123047,
    208.20065307617188,
    239.71226501464844,
    263.1102294921875,
    0,
    0,
    -0.000368642300600186,
    -0.00003369644400663674,
    -0.0004370726237539202,
    -0.00048641112516634166,
    0.23144398629665375,
    0.23143750429153442
  ],
  "inputStd": [
    1.4483128786087036,
    1.4255748987197876,
    463.25140380859375,
    464.70733642578125,
    0.7176584601402283,
    0.6962109208106995,
    384.8221130371094,
    144.51588439941406,
    153.10362243652344,
    168.19386291503906,
    175.0343475341797,
    189.44021606445312,
    196.030029296875,
    204.62815856933594,
    212.96701049804688,
    0.7010394334793091,
    0.7129970192909241,
    0.7035136818885803,
    0.7106441855430603,
    0.7021756768226624,
    0.7119254469871521,
    0.6989261507987976,
    0.715167224407196,
    119.6740951538086,
    124.8169174194336,
    129.8355712890625,
    134.1865997314453,
    0.0010000000474974513,
    0.0010000000474974513,
    0.034632958471775055,
    0.03506102412939072,
    0.026795368641614914,
    0.026404710486531258,
    0.41482579708099365,
    0.42175132036209106
  ],
  "outputScale": 0.05,
  "clipMagnitude": 0.05,
  "layers": [
    {
      "inDim": 35,
      "outDim": 4,
      "activation": "relu",
      "W": [
        0.0000016652402337058447,
        1.6215174980516167e-7,
        0.000001520669002275099,
        4.5528182113230287e-7,
        -0.000001944303903655964,
        -0.0000033341118523821933,
        0.0000037935644741082797,
        0.000001242903067577572,
        -8.166817906385404e-7,
        -0.0000019575597889343044,
        0.0000013924028507972253,
        7.551710154984903e-7,
        -8.226764407481824e-7,
        -3.160478740937833e-7,
        -0.0000022643362171947956,
        -0.000002129218501067953,
        -9.300322290073382e-7,
        7.71847794567293e-7,
        -0.0000011236634236411192,
        -7.30446117813699e-7,
        0.0000027681417122948915,
        0.0000041714488361321855,
        0.0000030955341117078206,
        -5.398621283347893e-7,
        5.54483736703304e-10,
        9.294415015403956e-9,
        -0.0000011084991911047837,
        4.06992711532439e-7,
        0.00002631741517689079,
        0.000016728881746530533,
        0.000021661715436493978,
        -0.000007307469786610454,
        -0.000016703632354619913,
        -0.000013292527000885457,
        0.000009151952326647006,
        0.0000060129341363790445,
        0.00000814302620710805,
        0.000006817680514359381,
        0.000005258160854282323,
        -0.0000034883125863416353,
        -5.708536150450527e-7,
        -0.000001176291220872372,
        0.000003426236617087852,
        -3.014047535998543e-7,
        -0.000002306563146703411,
        -6.881855370011181e-7,
        0.000001948447334143566,
        3.827822183666285e-7,
        0.000002950109319499461,
        0.0000017000443222059403,
        -0.0000032479474612046033,
        -0.0000012383895864331862,
        -0.000004177922619419405,
        -0.0000034306583529541967,
        -0.0000021332532469386933,
        0.0000012036783800795092,
        -0.000002739217052294407,
        6.230406484064588e-7,
        0.0000013311088196132914,
        4.7135432623690576e-7,
        -0.000009121468792727683,
        -0.000004346872174210148,
        -0.000008615374099463224,
        5.011854682379635e-7,
        0.000006796276920795208,
        0.000007070679657772416,
        -0.000006516536814160645,
        -0.0000017677526784609654,
        -0.000003928307251044316,
        -0.000004889592673862353,
        -0.0000012568426654979703,
        0.0000022812084807810606,
        2.4976208123916877e-7,
        3.4676119753385137e-7,
        -0.0000016630533536954317,
        4.1751621893126867e-7,
        -1.23404078067324e-7,
        -0.0000013384137673710939,
        1.5621193227843833e-8,
        0.0000012309253634157358,
        -8.599256489105755e-7,
        2.8664467777161917e-7,
        0.0000018532555259298533,
        4.0369667431150447e-7,
        0.000002344139147680835,
        0.0000022168846953718457,
        4.0465846495862934e-7,
        -6.103197165430174e-7,
        0.0000016803695643829997,
        -0.000001184699385703425,
        -0.0000010973921007462195,
        9.510448961691509e-8,
        0.0000044133944356872234,
        4.797494401742597e-9,
        -0.000006823144303780282,
        -7.188992299234087e-7,
        -5.767876132267702e-7,
        0.0000020697229956567753,
        0.000003922154974134173,
        -0.000001941503569469205,
        0.00000813407950772671,
        0.000007614994501636829,
        -0.000008736621566640679,
        -0.000004779212304129032,
        -0.0000065784934122348204,
        -0.000006648963335464941,
        0.000005635311936202925,
        0.000005230030183156487,
        -0.12572745978832245,
        -0.21594378352165222,
        -0.15113630890846252,
        0.2038838118314743,
        0.1301790326833725,
        0.2592712640762329,
        -0.14780791103839874,
        0.21095003187656403,
        -0.7840198874473572,
        -0.5156078338623047,
        -0.5338157415390015,
        0.2410576492547989,
        0.6293224692344666,
        0.4138772487640381,
        -0.28573980927467346,
        -0.19349561631679535,
        0.0000011576205452001886,
        -0.2925974428653717,
        -2.3531032411483466e-7,
        -1.0113118886947632,
        -3.700842228226975e-7,
        -0.6720111966133118,
        -0.0000014101625538387452,
        -0.28402888774871826,
        0.000002439176341795246,
        0.000005800513463327661,
        0.000003940055194107117,
        -0.0000034404497455398086,
        -0.1326872706413269,
        -2.2087998390197754,
        1.0726228952407837,
        -2.109452486038208
      ],
      "b": [
        1.742908000946045,
        1.124326229095459,
        -0.6901654005050659,
        1.2784346342086792
      ]
    },
    {
      "inDim": 4,
      "outDim": 2,
      "activation": "linear",
      "W": [
        -0.353447288274765,
        0.6684665083885193,
        0.2551805377006531,
        -0.8953346610069275,
        -0.7784451246261597,
        -0.9817745685577393,
        -0.6037428975105286,
        0.25904566049575806
      ],
      "b": [
        1.507538080215454,
        0.23735852539539337
      ]
    }
  ]
}