{
  "version": 1,
  "id": "K4_H4_relu_seed19",
  "K": 4,
  "featureDim": 35,
  "inputMean": [
    0.005562088452279568,
    0.010740191675722599,
    -12.107275009155273,
    31.060359954833984,
    -0.007391314022243023,
    -0.0014237378491088748,
    532.5204467773438,
    -2.6612308025360107,
    0.464982271194458,
    -0.7509861588478088,
    -0.10860028117895126,
    -1.9606475830078125,
    0.18706649541854858,
    -1.641610860824585,
    -1.6478159427642822,
    -0.00996802281588316,
    0.008924822323024273,
    -0.004896283615380526,
    0.00541970320045948,
    -0.008952147327363491,
    0.0056013003922998905,
    -0.006117881741374731,
    -0.0008334347512573004,
    173.2367401123047,
    208.20065307617188,
    239.71226501464844,
    263.1102294921875,
    0,
    0,
    -0.000368642300600186,
    -0.00003369644400663674,
    -0.0004370726237539202,
    -0.00048641112516634166,
    0.23144398629665375,
    0.23143750429153442
  ],
  "inputStd": [
    1.4483128786087036,
    1.4255748987197876,
    463.25140380859375,
    464.70733642578125,
    0.7176584601402283,
    0.6962109208106995,
    384.8221130371094,
    144.51588439941406,
    153.10362243652344,
    168.19386291503906,
    175.0343475341797,
    189.44021606445312,
    196.030029296875,
    204.62815856933594,
    212.96701049804688,
    0.7010394334793091,
    0.7129970192909241,
    0.7035136818885803,
    0.7106441855430603,
    0.7021756768226624,
    0.7119254469871521,
    0.6989261507987976,
    0.715167224407196,
    119.6740951538086,
    124.8169174194336,
    129.8355712890625,
    134.1865997314453,
    0.0010000000474974513,
    0.0010000000474974513,
    0.034632958471775055,
    0.03506102412939072,
    0.026795368641614914,
    0.026404710486531258,
    0.41482579708099365,
    0.42175132036209106
  ],
  "outputScale": 0.05,
  "clipMagnitude": 0.05,
  "layers": [
    {
      "inDim": 35,
      "outDim": 4,
      "activation": "relu",
      "W": [
        -0.0000011612449952735915,
        -3.6890071442030603e-7,
        0.000001567762296872388,
        -0.0000011127264087917865,
        0.0000012665784652199363,
        -0.000004263089522282826,
        0.000002432541350572137,
        -3.414197919937578e-7,
        0.000002144993459296529,
        -0.000002682105787243927,
        -0.0000017587326510692947,
        -3.597405680011434e-7,
        -4.214904549826315e-7,
        9.336760058431537e-7,
        -0.0000032707939681131393,
        -0.000001147539478552062,
        -0.0000021104451661813073,
        5.752538640990679e-7,
        3.1797816291145864e-7,
        1.0893326418681681e-7,
        -0.0000017639498537391773,
        -0.0000014105119134910638,
        0.0000039550777728436515,
        0.000006626818958466174,
        1.9003535101091984e-7,
        0.000002030080395343248,
        2.9652446187355963e-7,
        6.022016236784111e-7,
        0.000014574427041225135,
        -0.000016971254808595404,
        -0.00005749572301283479,
        -0.00006501204188680276,
        -0.00000632503497399739,
        0.0000013854282769898418,
        0.000015386083759949543,
        0.000015219928172882646,
        0.000004235690994391916,
        -0.000015983918274287134,
        -0.000007590323093609186,
        -0.000011456953870947473,
        0.0000030566602617909666,
        0.000002372061771893641,
        -0.000003639144779299386,
        -0.000004436279596120585,
        0.000004567596988636069,
        0.0000029868535875721136,
        -6.358266091410769e-7,
        -0.0000010338912943552714,
        0.0000034683503145060968,
        -0.000015175139196799137,
        -0.00000875346358952811,
        -0.000013245640730019659,
        0.0000011808637054855353,
        0.00000490131287733675,
        -0.000005756332029704936,
        -0.000008840963346301578,
        -0.00000174832814536785,
        -0.0000024894761736504734,
        0.0000029592101782327518,
        0.000007811896466591861,
        2.601351241082739e-7,
        0.000009979708920582198,
        0.000017472400941187516,
        0.00002142471566912718,
        0.0000047822677515796386,
        0.000001842485403358296,
        -0.000008141126272676047,
        -0.000008440215424343478,
        -0.0000017264045482079382,
        0.000005897419214306865,
        0.0000020320881048974115,
        0.000001761462158356153,
        -0.000003980222118116217,
        0.0000022450215055869194,
        0.0000011282395462330896,
        0.000003811497663264163,
        -0.000005464304649649421,
        -0.00000256733619607985,
        9.906821105687413e-7,
        0.000005105823220219463,
        -0.000003363806627021404,
        0.000005649726972478675,
        0.000004799585894943448,
        0.000009853398296399973,
        -7.852532348806562e-7,
        -0.0000011462152542662807,
        0.00000388828038921929,
        0.00000878499213285977,
        0.000004647493824450066,
        0.000001559878114676394,
        -0.000004347821231931448,
        -0.000011191133125976194,
        0.000005465229151013773,
        -0.00001323435571976006,
        -0.00001816909025365021,
        -0.000016585723642492667,
        0.00000371237888430187,
        -0.000005582103767665103,
        -8.064473604463274e-7,
        -0.000007246665518323425,
        -0.000007217121947178384,
        -0.000009854595191427507,
        9.353742029816203e-7,
        0.000006509867489512544,
        0.0000034894828786491416,
        0.000011094628462160472,
        0.0000015409841580549255,
        -0.0000022988228920439724,
        0.4194219708442688,
        0.5499126315116882,
        -0.12272179871797562,
        0.11355064809322357,
        -0.13768145442008972,
        0.16662724316120148,
        0.0031180731020867825,
        -0.015258954837918282,
        -0.21992358565330505,
        0.079142726957798,
        0.7347162961959839,
        0.8194584250450134,
        -0.07058514654636383,
        0.9964228868484497,
        0.2358163744211197,
        0.2630157768726349,
        0.22527620196342468,
        2.6347517945168875e-8,
        -9.86737290986639e-7,
        -0.5907760262489319,
        0.7287025451660156,
        -2.7228909971199755e-7,
        4.722874535900701e-8,
        0.3318425118923187,
        -0.000003935150743927807,
        -0.00000213655266634305,
        0.000004332112894189777,
        0.000009012741429614834,
        -1.4872820377349854,
        1.5628060102462769,
        -0.34609225392341614,
        -2.103252649307251
      ],
      "b": [
        0.926827609539032,
        -0.6244122385978699,
        1.7268414497375488,
        1.3270742893218994
      ]
    },
    {
      "inDim": 4,
      "outDim": 2,
      "activation": "linear",
      "W": [
        0.35197922587394714,
        0.6174805164337158,
        -0.22894831001758575,
        0.7221445441246033,
        0.9674209356307983,
        -0.07778966426849365,
        -0.772913932800293,
        0.235460564494133
      ],
      "b": [
        -0.5587644577026367,
        -1.5211138725280762
      ]
    }
  ]
}