{
  "version": 1,
  "id": "K4_H4_relu_seed10",
  "K": 4,
  "featureDim": 45,
  "inputMean": [
    0.005562088452279568,
    0.010740191675722599,
    -12.107275009155273,
    31.060359954833984,
    -0.007391314022243023,
    -0.0014237378491088748,
    532.5204467773438,
    -2.6612308025360107,
    0.464982271194458,
    -0.7509861588478088,
    -0.10860028117895126,
    -1.9606475830078125,
    0.18706649541854858,
    -1.641610860824585,
    -1.6478159427642822,
    -0.00996802281588316,
    0.008924822323024273,
    -0.004896283615380526,
    0.00541970320045948,
    -0.008952147327363491,
    0.0056013003922998905,
    -0.006117881741374731,
    -0.0008334347512573004,
    173.2367401123047,
    208.20065307617188,
    239.71226501464844,
    263.1102294921875,
    0,
    0,
    -0.000368642300600186,
    -0.00003369644400663674,
    -0.0004370726237539202,
    -0.00048641112516634166,
    0.23144398629665375,
    0.23143750429153442
  ],
  "inputStd": [
    1.4483128786087036,
    1.4255748987197876,
    463.25140380859375,
    464.70733642578125,
    0.7176584601402283,
    0.6962109208106995,
    384.8221130371094,
    144.51588439941406,
    153.10362243652344,
    168.19386291503906,
    175.0343475341797,
    189.44021606445312,
    196.030029296875,
    204.62815856933594,
    212.96701049804688,
    0.7010394334793091,
    0.7129970192909241,
    0.7035136818885803,
    0.7106441855430603,
    0.7021756768226624,
    0.7119254469871521,
    0.6989261507987976,
    0.715167224407196,
    119.6740951538086,
    124.8169174194336,
    129.8355712890625,
    134.1865997314453,
    0.0010000000474974513,
    0.0010000000474974513,
    0.034632958471775055,
    0.03506102412939072,
    0.026795368641614914,
    0.026404710486531258,
    0.41482579708099365,
    0.42175132036209106
  ],
  "outputScale": 0.05,
  "clipMagnitude": 0.05,
  "layers": [
    {
      "inDim": 35,
      "outDim": 4,
      "activation": "relu",
      "W": [
        -6.984120659581095e-7,
        1.9937786532864266e-7,
        0.000001544332235425827,
        -1.4463019226695906e-7,
        1.3849238200691616e-7,
        0.000001005451736091345,
        6.355561481541372e-7,
        4.936950972478371e-7,
        6.55901075674592e-8,
        2.8570246968229185e-7,
        5.577603587880731e-7,
        1.1560623391915215e-7,
        -3.2014372663979884e-7,
        3.487674860025436e-7,
        5.364833555177029e-7,
        1.1218702411497361e-7,
        6.565814487657917e-7,
        -0.0000014476913747785147,
        -0.0000010676950523702544,
        -6.79137883707881e-7,
        4.357140994670772e-7,
        -0.0000011357407174727996,
        1.8074501895171124e-8,
        -5.515490784091526e-7,
        -2.3618797229119082e-7,
        -8.558138198111465e-9,
        8.3949892371038e-8,
        -1.5206119030608534e-7,
        -3.756725845960318e-7,
        -0.0000034544875688879983,
        1.666000173372595e-7,
        -0.000002816684173012618,
        -1.0215234880206481e-7,
        0.0000036933133742422797,
        0.00000404386037189397,
        0.0000032520172226213617,
        -2.451088505495136e-7,
        -2.849353961664747e-7,
        3.927228675593142e-8,
        -0.0000012318422477619606,
        -7.177047791628866e-7,
        0.0000011220615760976216,
        0.000004248168352205539,
        4.7318914653260435e-7,
        5.63671278541733e-7,
        -0.0000010900407687586267,
        0.0000012375680853438098,
        1.9859979261127592e-7,
        2.517269876989303e-7,
        -2.3118242609143635e-7,
        0.0000019396024981688242,
        -1.4479894616670208e-7,
        -1.0146957407641821e-7,
        5.696694529433444e-7,
        -0.0000010230357929685852,
        2.9605061513393593e-7,
        0.0000015197259699561982,
        -0.0000020127299649175256,
        -0.0000022933775198907824,
        -4.941139764014224e-7,
        5.204378226153494e-7,
        0.0000022951135179027915,
        6.176590261475212e-8,
        0.0000013300106047609006,
        -4.470430781111645e-7,
        -0.0000022091901428211713,
        -0.0000022002027435519267,
        -9.748641787155066e-7,
        8.428183662090305e-8,
        -3.7648831607839384e-7,
        1.5643108497442881e-7,
        8.087568517112231e-7,
        8.952057442002115e-7,
        -3.235566623516206e-7,
        -0.00000133637013277621,
        -1.3230975071110151e-7,
        -5.914813527851948e-7,
        0.0000011140361948491773,
        -4.128933710489946e-7,
        7.305177573968535e-10,
        -3.127743752884271e-7,
        2.7375028821552405e-7,
        -0.0000010860640031751245,
        2.533046483677026e-7,
        2.243889838382529e-7,
        -2.6891734705714043e-7,
        9.345904459223675e-7,
        -3.69912697806285e-7,
        -9.536787501929211e-7,
        9.097652764467057e-7,
        7.594813951072865e-7,
        -1.0390076710109497e-7,
        -3.840658564513433e-7,
        -6.913712979894626e-8,
        1.7447719358187896e-7,
        -2.505983047740301e-7,
        0.0000010975109034916386,
        4.2565065427879745e-7,
        -1.2120734993459337e-7,
        6.193989179337223e-7,
        -0.0000011341060144332005,
        -1.7637943017234647e-7,
        0.0000024645387384225614,
        -3.1249498988472624e-7,
        -1.0541373285377631e-7,
        -6.046636258361104e-7,
        -0.0000023942036477819784,
        -4.373899571419315e-7,
        0.14247649908065796,
        -0.049059078097343445,
        -0.18412069976329803,
        0.27023234963417053,
        0.2565564811229706,
        0.19974392652511597,
        -0.1742967963218689,
        -0.13971959054470062,
        -0.00010968658898491412,
        0.5961855053901672,
        -0.03514478728175163,
        0.5563173294067383,
        0.000031122293876251206,
        -0.16732272505760193,
        -1.0979042053222656,
        -0.15613433718681335,
        -0.02910347282886505,
        -0.4660366475582123,
        4.4806185428569734e-7,
        5.193011816118087e-7,
        -0.8875779509544373,
        -0.01911718025803566,
        -2.596516068820165e-8,
        1.7544694230764435e-7,
        0.0000011167533102707239,
        -4.816586169908987e-7,
        2.5550335180923867e-7,
        1.8092889320087124e-7,
        -1.5106935501098633,
        -2.0357658863067627,
        1.375557780265808,
        -0.5913738012313843
      ],
      "b": [
        0.9380273818969727,
        0.6735362410545349,
        -0.8745273351669312,
        1.9082143306732178
      ]
    },
    {
      "inDim": 4,
      "outDim": 2,
      "activation": "linear",
      "W": [
        0.024802519008517265,
        -0.5957752466201782,
        -1.1514686346054077,
        0.037206441164016724,
        -0.17548868060112,
        -0.6330020427703857,
        1.2340009212493896,
        -0.039989642798900604
      ],
      "b": [
        -0.7458622455596924,
        1.0656890869140625
      ]
    }
  ]
}