{
  "version": 1,
  "id": "K4_H4_relu_seed6",
  "K": 4,
  "featureDim": 45,
  "inputMean": [
    0.005562088452279568,
    0.010740191675722599,
    -12.107275009155273,
    31.060359954833984,
    -0.007391314022243023,
    -0.0014237378491088748,
    532.5204467773438,
    -2.6612308025360107,
    0.464982271194458,
    -0.7509861588478088,
    -0.10860028117895126,
    -1.9606475830078125,
    0.18706649541854858,
    -1.641610860824585,
    -1.6478159427642822,
    -0.00996802281588316,
    0.008924822323024273,
    -0.004896283615380526,
    0.00541970320045948,
    -0.008952147327363491,
    0.0056013003922998905,
    -0.006117881741374731,
    -0.0008334347512573004,
    173.2367401123047,
    208.20065307617188,
    239.71226501464844,
    263.1102294921875,
    0,
    0,
    -0.000368642300600186,
    -0.00003369644400663674,
    -0.0004370726237539202,
    -0.00048641112516634166,
    0.23144398629665375,
    0.23143750429153442
  ],
  "inputStd": [
    1.4483128786087036,
    1.4255748987197876,
    463.25140380859375,
    464.70733642578125,
    0.7176584601402283,
    0.6962109208106995,
    384.8221130371094,
    144.51588439941406,
    153.10362243652344,
    168.19386291503906,
    175.0343475341797,
    189.44021606445312,
    196.030029296875,
    204.62815856933594,
    212.96701049804688,
    0.7010394334793091,
    0.7129970192909241,
    0.7035136818885803,
    0.7106441855430603,
    0.7021756768226624,
    0.7119254469871521,
    0.6989261507987976,
    0.715167224407196,
    119.6740951538086,
    124.8169174194336,
    129.8355712890625,
    134.1865997314453,
    0.0010000000474974513,
    0.0010000000474974513,
    0.034632958471775055,
    0.03506102412939072,
    0.026795368641614914,
    0.026404710486531258,
    0.41482579708099365,
    0.42175132036209106
  ],
  "outputScale": 0.05,
  "clipMagnitude": 0.05,
  "layers": [
    {
      "inDim": 35,
      "outDim": 4,
      "activation": "relu",
      "W": [
        0.0000015466830518562347,
        6.162054546621221e-7,
        5.882594678041642e-7,
        7.411211413455021e-7,
        -0.000004276841536920983,
        0.0000014655283848696854,
        -0.000004748927040054696,
        -0.0000018032369553111494,
        0.0000013739402220380725,
        0.0000023810644051991403,
        1.8581771143999504e-7,
        -3.99972108766633e-8,
        -7.731104574304482e-7,
        -0.0000033450012324465206,
        -0.0000018139401163352886,
        0.0000012725445230898913,
        -0.0000010217046337857028,
        0.0000021242556158540538,
        9.183581255456374e-7,
        -8.65278934725211e-7,
        0.00000198033944798226,
        0.000005066308858658886,
        0.0000037806883028679295,
        -0.0000026324953523726435,
        4.642733131277055e-8,
        6.892065584906959e-7,
        -6.231421707525442e-7,
        2.421311506850543e-8,
        0.000010936317266896367,
        0.000019578734281822108,
        0.00000987986186373746,
        0.000011207539500901476,
        -3.013730420775573e-8,
        0.000010824260243680328,
        0.0000012880788062830106,
        7.090045528457267e-7,
        -0.000003254405783081893,
        -2.7569288363338273e-7,
        -1.6283235027003684e-7,
        -0.000002193688033003127,
        0.0000018622030211190577,
        3.2019804052652034e-7,
        3.102297512214136e-7,
        0.0000043557738536037505,
        0.0000017406209735781886,
        0.000003146835979350726,
        4.82903658394207e-7,
        0.0000029588115921797,
        -0.000002637922989379149,
        0.0000029912139325460885,
        0.0000023505742774432292,
        -0.000002405341547273565,
        3.0391820615705e-8,
        -0.000005132921160111437,
        -0.0000010436685897730058,
        -7.560211088275537e-7,
        7.729357776042889e-8,
        -0.0000014363821492224815,
        -0.000002120811586792115,
        4.4389676645550935e-7,
        -0.000008675649041833822,
        -0.000006517918791359989,
        -0.000004479220024222741,
        -0.000005350492756406311,
        0.0000024508485694241244,
        -0.0000051863403314200696,
        5.221233436714101e-7,
        0.0000027263811261946103,
        8.511094051755208e-7,
        -0.0000013666758604813367,
        -0.0000012567638805194292,
        0.0000010263999001836055,
        7.901006711108494e-7,
        -0.0000030392723147087963,
        0.0000029057462143100565,
        -0.000002466169917170191,
        7.481844477297273e-7,
        -0.0000011336026091157692,
        0.000001948551016539568,
        -0.0000011980381486864644,
        0.0000033712406093400205,
        -0.00000146845218296221,
        -0.0000015423763670696644,
        0.0000019279248135717353,
        0.000001100548729482398,
        0.00000293355719804822,
        0.0000018371671330896788,
        2.3136941251777898e-7,
        -4.774479407387844e-7,
        1.073228261816439e-7,
        8.548054779566883e-7,
        -0.0000014278301705417107,
        -0.000008814055945549626,
        0.0000034703682558756554,
        -0.000008683306077728048,
        -0.00000792201990407193,
        0.0000037147656257729977,
        -0.0000032406842365162447,
        8.528439821020584e-7,
        7.993376982540212e-8,
        -0.000007446441031788709,
        0.0000075538359851634596,
        -0.00000767532219470013,
        -0.0000016977772929749335,
        0.000004785626515513286,
        -0.000004401055775815621,
        0.000006930399649718311,
        0.000002305517227796372,
        -0.05042576044797897,
        0.07589631527662277,
        0.0837085023522377,
        0.30370429158210754,
        -0.325763076543808,
        0.5255990624427795,
        -0.1794140338897705,
        0.03963469713926315,
        -0.5069225430488586,
        0.18508002161979675,
        -0.5778132677078247,
        -0.500863254070282,
        -0.11568789184093475,
        -1.0710439682006836,
        -0.13186456263065338,
        -0.11430516839027405,
        0.44291797280311584,
        -0.0000013865748087482643,
        0.3982168734073639,
        7.134551651688525e-7,
        -0.198539599776268,
        -0.0000013088886134937638,
        0.37440648674964905,
        5.526920290321868e-7,
        1.4198384690189414e-7,
        0.000005442946076072985,
        5.498486075339315e-7,
        -0.0000027426285669207573,
        -1.8726584911346436,
        1.3417679071426392,
        -1.622374176979065,
        -0.8976571559906006
      ],
      "b": [
        1.6915855407714844,
        -0.855954647064209,
        1.015660047531128,
        2.3941192626953125
      ]
    },
    {
      "inDim": 4,
      "outDim": 2,
      "activation": "linear",
      "W": [
        0.8193280100822449,
        -0.8587284088134766,
        0.1419840306043625,
        -0.6298617720603943,
        0.4344654977321625,
        0.9551193118095398,
        -1.3304585218429565,
        -0.2327423095703125
      ],
      "b": [
        0.775905966758728,
        1.1767879724502563
      ]
    }
  ]
}