{
  "version": 1,
  "id": "K4_H4_relu_seed1",
  "K": 4,
  "featureDim": 45,
  "inputMean": [
    0.005562088452279568,
    0.010740191675722599,
    -12.107275009155273,
    31.060359954833984,
    -0.007391314022243023,
    -0.0014237378491088748,
    532.5204467773438,
    -2.6612308025360107,
    0.464982271194458,
    -0.7509861588478088,
    -0.10860028117895126,
    -1.9606475830078125,
    0.18706649541854858,
    -1.641610860824585,
    -1.6478159427642822,
    -0.00996802281588316,
    0.008924822323024273,
    -0.004896283615380526,
    0.00541970320045948,
    -0.008952147327363491,
    0.0056013003922998905,
    -0.006117881741374731,
    -0.0008334347512573004,
    173.2367401123047,
    208.20065307617188,
    239.71226501464844,
    263.1102294921875,
    0,
    0,
    -0.000368642300600186,
    -0.00003369644400663674,
    -0.0004370726237539202,
    -0.00048641112516634166,
    0.23144398629665375,
    0.23143750429153442
  ],
  "inputStd": [
    1.4483128786087036,
    1.4255748987197876,
    463.25140380859375,
    464.70733642578125,
    0.7176584601402283,
    0.6962109208106995,
    384.8221130371094,
    144.51588439941406,
    153.10362243652344,
    168.19386291503906,
    175.0343475341797,
    189.44021606445312,
    196.030029296875,
    204.62815856933594,
    212.96701049804688,
    0.7010394334793091,
    0.7129970192909241,
    0.7035136818885803,
    0.7106441855430603,
    0.7021756768226624,
    0.7119254469871521,
    0.6989261507987976,
    0.715167224407196,
    119.6740951538086,
    124.8169174194336,
    129.8355712890625,
    134.1865997314453,
    0.0010000000474974513,
    0.0010000000474974513,
    0.034632958471775055,
    0.03506102412939072,
    0.026795368641614914,
    0.026404710486531258,
    0.41482579708099365,
    0.42175132036209106
  ],
  "outputScale": 0.05,
  "clipMagnitude": 0.05,
  "layers": [
    {
      "inDim": 35,
      "outDim": 4,
      "activation": "relu",
      "W": [
        5.158920401981959e-8,
        -0.0000034066513308061985,
        1.9830520159302978e-7,
        4.934374828735599e-7,
        -9.69964276009705e-7,
        -0.0000011290881047898438,
        -0.000001009786728900508,
        -8.28627946702909e-7,
        6.645958592343959e-7,
        -0.0000035428272440185538,
        -0.0000012873208561359206,
        -0.0000018623405821927008,
        1.6414075432180653e-8,
        0.0000015786519043103908,
        -0.00000174773686012486,
        -7.378850455097563e-7,
        -0.0000018442065083945636,
        0.000005177088951313635,
        0.0000032109239782585064,
        0.0000031824924917600583,
        0.000001452080937269784,
        2.758737949193346e-8,
        0.0000017110625094574061,
        -1.7152497377992404e-7,
        5.068873178970534e-7,
        0.0000011070243317590212,
        -9.142809176410083e-7,
        -8.052933253566152e-7,
        0.000007731634468655102,
        -0.0000032749262572906446,
        -0.00001238217646459816,
        -0.00002054560354736168,
        -0.00002098852382914629,
        0.00000869495670485776,
        0.00003925973942386918,
        0.0000645731488475576,
        0.0000016552515944567858,
        -0.000005277984200802166,
        -0.0000029784609978378285,
        -0.0000010235048648610245,
        -0.0000019890667317667976,
        0.0000025344943423988298,
        0.0000049499067245051265,
        0.000007394683962047566,
        -3.970596367253165e-7,
        0.0000016362093901989283,
        9.655763051341637e-7,
        0.0000019029015447813435,
        0.000001082156813936308,
        0.000001483335609009373,
        -0.000001095969082598458,
        -0.000003288370862719603,
        -0.0000021610096609947504,
        0.0000013667270195583114,
        0.0000023546456304757157,
        -3.817556262220023e-7,
        0.000002900148729167995,
        0.000001203523311232857,
        -0.000005843170583830215,
        -0.0000021048717826488428,
        -0.0000023418258479068754,
        4.1686359963932773e-7,
        0.0000031487486467085546,
        0.000004082686245965306,
        0.000006557967026310507,
        -0.0000036962455851607956,
        -0.000012953883924637921,
        -0.000018800787074724212,
        -0.0000013362764548219275,
        0.0000029932018605904886,
        0.000002170123707401217,
        7.963116672726755e-7,
        0.000001928580331878038,
        -1.285493027580742e-7,
        -0.000004015120339317946,
        -0.000003732394134203787,
        3.9162537746051385e-7,
        0.0000021273867787385825,
        -9.238538609679381e-7,
        -0.000001157117253569595,
        -6.774879466320272e-7,
        5.679165155925148e-7,
        5.188874752093398e-7,
        0.0000014944229178581736,
        0.0000014722256764798658,
        -8.510059501531941e-7,
        -0.0000015467066987184808,
        6.418036946342909e-7,
        -0.000003025623072971939,
        -0.0000018684700080484618,
        0.000005005701950722141,
        0.0000012049989663864835,
        -0.0000014680836102343164,
        -0.000009031076842802577,
        0.000002085181222355459,
        0.000008516870366293006,
        -0.000004219909897074103,
        0.0000020352374576759757,
        0.000004645060471375473,
        0.0000025252838895539753,
        0.000005199315637582913,
        -0.0000065865920078067575,
        -0.000005159315151104238,
        -0.0000032108716823131545,
        -0.0000024256155484181363,
        0.0000063038687585503794,
        0.00000399738837586483,
        9.042348096954811e-7,
        0.2721453011035919,
        -0.2369338870048523,
        -0.022253524512052536,
        -0.21172106266021729,
        -0.1823786050081253,
        0.05987115576863289,
        0.023090915754437447,
        -0.3820304572582245,
        -0.09591979533433914,
        0.9748536944389343,
        0.17279846966266632,
        0.29525724053382874,
        0.3457869291305542,
        0.011712372303009033,
        -0.6229379773139954,
        -1.0643901824951172,
        0.5568345785140991,
        -0.0000015312438108594506,
        0.5672041773796082,
        -0.0000011578360954445088,
        -0.25477299094200134,
        -0.0000012820898973586736,
        0.4773304760456085,
        -0.0000010729628456829232,
        7.982513920978818e-7,
        0.0000068907438617316075,
        -0.000002053239541055518,
        -0.0000015723877595519298,
        -1.3737012147903442,
        1.6898351907730103,
        -2.2769856452941895,
        0.000036575511330738664
      ],
      "b": [
        0.8681828379631042,
        -0.5492140650749207,
        1.0920833349227905,
        1.5786837339401245
      ]
    },
    {
      "inDim": 4,
      "outDim": 2,
      "activation": "linear",
      "W": [
        0.6234548091888428,
        -0.7300388813018799,
        0.7081684470176697,
        0.19886723160743713,
        0.3327612578868866,
        0.7166928052902222,
        0.007791666314005852,
        -0.6566066741943359
      ],
      "b": [
        -1.8114845752716064,
        0.5327578186988831
      ]
    }
  ]
}