{
  "version": 1,
  "id": "K4_H4_relu_seed11",
  "K": 4,
  "featureDim": 35,
  "inputMean": [
    0.005562088452279568,
    0.010740191675722599,
    -12.107275009155273,
    31.060359954833984,
    -0.007391314022243023,
    -0.0014237378491088748,
    532.5204467773438,
    -2.6612308025360107,
    0.464982271194458,
    -0.7509861588478088,
    -0.10860028117895126,
    -1.9606475830078125,
    0.18706649541854858,
    -1.641610860824585,
    -1.6478159427642822,
    -0.00996802281588316,
    0.008924822323024273,
    -0.004896283615380526,
    0.00541970320045948,
    -0.008952147327363491,
    0.0056013003922998905,
    -0.006117881741374731,
    -0.0008334347512573004,
    173.2367401123047,
    208.20065307617188,
    239.71226501464844,
    263.1102294921875,
    0,
    0,
    -0.000368642300600186,
    -0.00003369644400663674,
    -0.0004370726237539202,
    -0.00048641112516634166,
    0.23144398629665375,
    0.23143750429153442
  ],
  "inputStd": [
    1.4483128786087036,
    1.4255748987197876,
    463.25140380859375,
    464.70733642578125,
    0.7176584601402283,
    0.6962109208106995,
    384.8221130371094,
    144.51588439941406,
    153.10362243652344,
    168.19386291503906,
    175.0343475341797,
    189.44021606445312,
    196.030029296875,
    204.62815856933594,
    212.96701049804688,
    0.7010394334793091,
    0.7129970192909241,
    0.7035136818885803,
    0.7106441855430603,
    0.7021756768226624,
    0.7119254469871521,
    0.6989261507987976,
    0.715167224407196,
    119.6740951538086,
    124.8169174194336,
    129.8355712890625,
    134.1865997314453,
    0.0010000000474974513,
    0.0010000000474974513,
    0.034632958471775055,
    0.03506102412939072,
    0.026795368641614914,
    0.026404710486531258,
    0.41482579708099365,
    0.42175132036209106
  ],
  "outputScale": 0.05,
  "clipMagnitude": 0.05,
  "layers": [
    {
      "inDim": 35,
      "outDim": 4,
      "activation": "relu",
      "W": [
        0.000003004187647093204,
        9.384635859532864e-7,
        0.000003974830178776756,
        0.000005393465016823029,
        -7.075791472743731e-7,
        -0.000006956942343094852,
        -0.000003371741513547022,
        -0.000004293272468203213,
        0.0000019051185518037528,
        0.000002348242560401559,
        1.886627529756879e-7,
        8.448149060313881e-7,
        -0.000001186639565275982,
        9.239375913239201e-7,
        4.4955697831028374e-7,
        0.0000014255857649914105,
        -7.102137260517338e-7,
        -0.0000027400653834774857,
        -0.000008924405847210437,
        -0.0000067666192080650944,
        0.000005501193754753331,
        -0.00000434502135249204,
        2.060484547428132e-7,
        0.000001963773911484168,
        -2.5781733370422444e-7,
        -7.321708039853547e-7,
        -6.907606007189315e-7,
        2.8398065410328854e-7,
        -0.000029078299121465534,
        0.000008589036042394582,
        -0.00000267971950052015,
        0.0000012615475952770794,
        -0.000025906152586685494,
        0.00002797643537633121,
        0.0000012923741223858087,
        -0.000002645517952259979,
        0.000007211359388747951,
        -0.00000400474982598098,
        0.0000015512505342485383,
        -8.131735285132891e-7,
        0.0000026403229185234522,
        -0.0000026905395316134673,
        0.0000013791756146019907,
        -0.0000010419895488666953,
        0.0000025601832476240816,
        -0.0000015605904764015577,
        -1.932141913130181e-7,
        3.448316761023307e-7,
        -4.362674133062683e-7,
        0.0000022574138256459264,
        0.0000034460192637197906,
        4.7127278435254993e-7,
        -0.000004185457783023594,
        4.4667081056104507e-7,
        -0.0000013913720522396034,
        0.0000023101774786482565,
        0.000002415084281892632,
        -0.000008892901860235725,
        -0.000006470222615462262,
        7.716463983342692e-7,
        0.0000065030526457121596,
        -0.000001818295800148917,
        0.0000033767321383493254,
        0.0000020866200429736637,
        0.00001186139888886828,
        4.6201705572457286e-7,
        5.182366535905203e-8,
        0.000005866372248419793,
        -0.0000025516330879327143,
        -0.000002873296807592851,
        6.451169269894308e-7,
        -1.1808774758037544e-7,
        -1.888333400756892e-8,
        0.0000012067500847479096,
        -0.0000011712971854649368,
        0.0000010026438985732966,
        0.0000015319096746679861,
        -0.000002765584213193506,
        0.000001620331659069052,
        -0.0000024227961148426402,
        -0.0000032632603961246787,
        -0.000003111362048002775,
        -0.0000027433336526883068,
        -0.0000021563819245784543,
        -0.0000020666934688051697,
        0.000004177279606665252,
        6.516012831525586e-7,
        -8.122748340610997e-7,
        -0.0000014208151242200984,
        0.000004712468125944724,
        0.000005054350367572624,
        -6.494090598607727e-7,
        0.000001587862470842083,
        0.000014781809113628697,
        0.0000016525192449989845,
        5.347520186660404e-7,
        -0.000007655179615539964,
        0.0000014022834875504486,
        1.1255495024897755e-7,
        0.0000010873217206608388,
        0.0000025442948299314594,
        -2.085680250729638e-8,
        -4.2127999222429935e-7,
        6.796893217142497e-7,
        -0.000003147037432427169,
        0.0000031628121632820694,
        -0.0000012743089428113308,
        -0.0000013424304370346363,
        -0.40579065680503845,
        -0.6825449466705322,
        0.031136104837059975,
        0.10079679638147354,
        -0.2620917856693268,
        0.07833749800920486,
        -0.09245198220014572,
        0.026506857946515083,
        0.9436588883399963,
        -0.2923489809036255,
        -0.0000014847814782115165,
        -0.0000016554233752685832,
        -0.5833029747009277,
        -0.6057396531105042,
        -0.000003856695457216119,
        -0.0000036797282518818974,
        -0.00036308166454546154,
        0.3529663383960724,
        0.8169612884521484,
        0.5549814701080322,
        -0.00039254059083759785,
        0.3798035979270935,
        -0.4922207295894623,
        0.5971645712852478,
        -0.000013767963537247851,
        0.000018679420463740826,
        -0.000002798044761220808,
        7.261951964210311e-7,
        1.3628480434417725,
        1.6498916149139404,
        -1.667411208152771,
        1.1112403869628906
      ],
      "b": [
        -0.8779838681221008,
        -1.0590577125549316,
        0.8906744122505188,
        2.1831390857696533
      ]
    },
    {
      "inDim": 4,
      "outDim": 2,
      "activation": "linear",
      "W": [
        0.5653557181358337,
        -0.2762315273284912,
        -0.5444121956825256,
        -0.8916379809379578,
        0.42051756381988525,
        -0.38510793447494507,
        0.34661662578582764,
        0.5669017434120178
      ],
      "b": [
        -1.3134007453918457,
        -0.20627938210964203
      ]
    }
  ]
}