{
  "version": 1,
  "id": "K4_H4_relu_seed7",
  "K": 4,
  "featureDim": 45,
  "inputMean": [
    0.005562088452279568,
    0.010740191675722599,
    -12.107275009155273,
    31.060359954833984,
    -0.007391314022243023,
    -0.0014237378491088748,
    532.5204467773438,
    -2.6612308025360107,
    0.464982271194458,
    -0.7509861588478088,
    -0.10860028117895126,
    -1.9606475830078125,
    0.18706649541854858,
    -1.641610860824585,
    -1.6478159427642822,
    -0.00996802281588316,
    0.008924822323024273,
    -0.004896283615380526,
    0.00541970320045948,
    -0.008952147327363491,
    0.0056013003922998905,
    -0.006117881741374731,
    -0.0008334347512573004,
    173.2367401123047,
    208.20065307617188,
    239.71226501464844,
    263.1102294921875,
    0,
    0,
    -0.000368642300600186,
    -0.00003369644400663674,
    -0.0004370726237539202,
    -0.00048641112516634166,
    0.23144398629665375,
    0.23143750429153442
  ],
  "inputStd": [
    1.4483128786087036,
    1.4255748987197876,
    463.25140380859375,
    464.70733642578125,
    0.7176584601402283,
    0.6962109208106995,
    384.8221130371094,
    144.51588439941406,
    153.10362243652344,
    168.19386291503906,
    175.0343475341797,
    189.44021606445312,
    196.030029296875,
    204.62815856933594,
    212.96701049804688,
    0.7010394334793091,
    0.7129970192909241,
    0.7035136818885803,
    0.7106441855430603,
    0.7021756768226624,
    0.7119254469871521,
    0.6989261507987976,
    0.715167224407196,
    119.6740951538086,
    124.8169174194336,
    129.8355712890625,
    134.1865997314453,
    0.0010000000474974513,
    0.0010000000474974513,
    0.034632958471775055,
    0.03506102412939072,
    0.026795368641614914,
    0.026404710486531258,
    0.41482579708099365,
    0.42175132036209106
  ],
  "outputScale": 0.05,
  "clipMagnitude": 0.05,
  "layers": [
    {
      "inDim": 35,
      "outDim": 4,
      "activation": "relu",
      "W": [
        -0.000001432405156265304,
        -0.0000027093110475107096,
        -8.698735882717301e-7,
        8.158740456565283e-7,
        0.000008263736162916757,
        -6.771344374101318e-7,
        -0.0000016779224552010419,
        -0.000002011169726756634,
        -0.0000049802629291662015,
        5.891629939469567e-7,
        0.0000026009229259216227,
        7.819539860065561e-7,
        -0.000001800055770218023,
        -0.0000033402982353436528,
        -0.0000031123072403715923,
        -0.0000026612647161528002,
        0.000003845718310913071,
        9.275389629692654e-7,
        -0.0000018425275811750907,
        -0.0000019712799712579,
        -0.0000013042182445133221,
        0.000002879617341022822,
        0.0000037576444356091088,
        0.0000017836388224168331,
        -0.0000025731105779414065,
        -0.0000015931406096569845,
        9.196591577165236e-7,
        -3.9371155935441493e-7,
        -0.000010600624591461383,
        0.00002058515565295238,
        0.000026777343009598553,
        0.00002818935718096327,
        0.000006456421033362858,
        0.000012641969078686088,
        0.000013145035154593643,
        0.00001373079157929169,
        0.000001971138544831774,
        -8.340417139152123e-7,
        0.000003237192913729814,
        0.0000026051309305330506,
        0.0000024860921712388517,
        -7.211183969957347e-7,
        6.34713330782688e-7,
        0.000002862266001102398,
        0.000005373070962377824,
        0.0000020372701783344382,
        -0.000008493948371324223,
        -0.000004943525709677488,
        -0.000009493389370618388,
        -0.0000028315616873442195,
        0.000005823925221193349,
        -0.0000023286388568521943,
        1.548084327396282e-7,
        -0.0000028031656711391406,
        -0.000001629177972972684,
        0.0000012749754887408926,
        0.0000033927578897419153,
        -0.0000034448794394847937,
        -0.00000465830453322269,
        -0.0000015653390619263519,
        0.000005279828201310011,
        -0.0000061333898884186056,
        -0.000011590881513257045,
        -0.000010210094842477702,
        -0.000008955661542131566,
        -0.000003773799107875675,
        -0.000008705565051059239,
        -0.000002659590791154187,
        -0.000001897202764666872,
        0.0000020868440060439752,
        -5.300159386933956e-7,
        -8.640375313007098e-7,
        0.0000012184874549348024,
        0.0000024419753117399523,
        5.9520079531694137e-8,
        -0.0000014698501900056726,
        -0.000003523953864714713,
        -0.000002319157601959887,
        0.000004749354047817178,
        0.0000022982515019975835,
        0.000005781261734227883,
        1.769961528452768e-7,
        -0.00000398761585529428,
        0.0000021345567802200094,
        0.0000019633669126051245,
        0.0000035726277474168455,
        0.0000014021190963831032,
        -6.704245265609643e-7,
        4.520871144109151e-8,
        0.0000066465954660088755,
        6.915140602359315e-7,
        0.0000012210298336867709,
        -0.00001282754965359345,
        -0.000010341738743591122,
        -0.000004882660959992791,
        -0.000005317401246429654,
        -0.0000016971944205579348,
        -0.0000011022441412933404,
        0.000004418723619892262,
        -0.0000022025008092896314,
        0.0000014120104196990724,
        0.0000019675662770168856,
        -0.000003923214535461739,
        0.0000036239780456526205,
        -5.045072271059325e-7,
        -0.0000012373450317682,
        0.0000022350773178914096,
        -0.0000022882952634972753,
        -0.3570595681667328,
        -0.15068919956684113,
        0.402686208486557,
        -0.037732530385255814,
        -0.1604306399822235,
        0.030581647530198097,
        0.12728360295295715,
        0.009559839963912964,
        -0.3339150846004486,
        -0.6786751747131348,
        -0.3344075679779053,
        -0.6117560863494873,
        0.8155208826065063,
        0.23193714022636414,
        -0.6658262014389038,
        -0.25675296783447266,
        -0.0000014536693697664305,
        0.5250784754753113,
        0.2587234377861023,
        -4.291764810204768e-7,
        8.065129577516927e-7,
        -0.17468349635601044,
        0.5014376044273376,
        -7.048698194012104e-7,
        -0.000007844074389140587,
        -0.000010733289855124895,
        -0.000007728515811322723,
        -0.000005781754680356244,
        0.000036227684176992625,
        -1.7203831672668457,
        -1.7820546627044678,
        -1.0552603006362915
      ],
      "b": [
        1.2140823602676392,
        1.094811201095581,
        1.131534218788147,
        2.8497190475463867
      ]
    },
    {
      "inDim": 4,
      "outDim": 2,
      "activation": "linear",
      "W": [
        -0.3042010962963104,
        0.733772873878479,
        0.871099054813385,
        -0.4428987205028534,
        0.30345669388771057,
        0.8988679647445679,
        -0.9662303924560547,
        -0.4005107581615448
      ],
      "b": [
        1.2574113607406616,
        -0.5204238295555115
      ]
    }
  ]
}