{
  "version": 1,
  "id": "K4_H4_relu_seed8",
  "K": 4,
  "featureDim": 45,
  "inputMean": [
    0.005562088452279568,
    0.010740191675722599,
    -12.107275009155273,
    31.060359954833984,
    -0.007391314022243023,
    -0.0014237378491088748,
    532.5204467773438,
    -2.6612308025360107,
    0.464982271194458,
    -0.7509861588478088,
    -0.10860028117895126,
    -1.9606475830078125,
    0.18706649541854858,
    -1.641610860824585,
    -1.6478159427642822,
    -0.00996802281588316,
    0.008924822323024273,
    -0.004896283615380526,
    0.00541970320045948,
    -0.008952147327363491,
    0.0056013003922998905,
    -0.006117881741374731,
    -0.0008334347512573004,
    173.2367401123047,
    208.20065307617188,
    239.71226501464844,
    263.1102294921875,
    0,
    0,
    -0.000368642300600186,
    -0.00003369644400663674,
    -0.0004370726237539202,
    -0.00048641112516634166,
    0.23144398629665375,
    0.23143750429153442
  ],
  "inputStd": [
    1.4483128786087036,
    1.4255748987197876,
    463.25140380859375,
    464.70733642578125,
    0.7176584601402283,
    0.6962109208106995,
    384.8221130371094,
    144.51588439941406,
    153.10362243652344,
    168.19386291503906,
    175.0343475341797,
    189.44021606445312,
    196.030029296875,
    204.62815856933594,
    212.96701049804688,
    0.7010394334793091,
    0.7129970192909241,
    0.7035136818885803,
    0.7106441855430603,
    0.7021756768226624,
    0.7119254469871521,
    0.6989261507987976,
    0.715167224407196,
    119.6740951538086,
    124.8169174194336,
    129.8355712890625,
    134.1865997314453,
    0.0010000000474974513,
    0.0010000000474974513,
    0.034632958471775055,
    0.03506102412939072,
    0.026795368641614914,
    0.026404710486531258,
    0.41482579708099365,
    0.42175132036209106
  ],
  "outputScale": 0.05,
  "clipMagnitude": 0.05,
  "layers": [
    {
      "inDim": 35,
      "outDim": 4,
      "activation": "relu",
      "W": [
        0.0000013646341585626942,
        0.000004594561232806882,
        -5.348439344743383e-7,
        -2.9428508696582867e-7,
        0.0000038991097426333,
        0.00000171571730334108,
        2.809595969210932e-7,
        1.7879064273529366e-7,
        0.0000024756789116509026,
        0.000003865259714075364,
        -0.0000010126618690264877,
        1.5847989232042892e-7,
        0.0000031056138141138945,
        -0.0000051729507504205685,
        0.0000025694380383356474,
        -2.9291214787008357e-7,
        -4.313026806812559e-7,
        -0.000008112750947475433,
        5.648923320222821e-7,
        4.065690859533788e-7,
        0.0000010875045290958951,
        0.000002182164735131664,
        -0.00000313438772536756,
        -0.00000208640267373994,
        -0.000002603137772894115,
        -3.3272929300665055e-8,
        0.0000014291941852206946,
        -8.414374264020807e-8,
        -0.0000014212844234862132,
        0.000025750470740604214,
        -3.2179244158214715e-7,
        4.861402658207226e-7,
        0.00002013769517361652,
        0.000032498297514393926,
        0.0000016227364767473773,
        -5.112524377182126e-7,
        0.000006207451406226028,
        -0.00000963163620326668,
        -4.913871407552506e-7,
        3.651595079645631e-7,
        0.0000057828765420708805,
        -0.000004975441243004752,
        0.0000013605576896225102,
        0.000001619099180061312,
        0.0000038053030948503874,
        0.0000045638657866220456,
        0.0000014850285197098856,
        -0.0000012335979135968955,
        0.0000068265503614384215,
        0.0000020782022147614043,
        -0.0000011270932418483426,
        -0.0000021660789570887573,
        -6.864672172923747e-7,
        -0.000002160525582439732,
        -0.000002243063136120327,
        0.0000028472534268075833,
        -0.000008909201824280899,
        -0.000009900568329612724,
        2.415257824850414e-7,
        -0.0000016636166719763423,
        8.848880952427862e-7,
        -0.00001067495577444788,
        0.000002847414407369797,
        -0.000001088588419406733,
        -0.000012208613043185323,
        -0.000009610710549168289,
        -0.0000025640249532443704,
        0.000002068745061478694,
        -0.000005481437256094068,
        0.0000028982005915167974,
        7.021932901807304e-7,
        3.4424124351062346e-7,
        -0.0000011696856745402329,
        1.3162838286007172e-7,
        3.988178036706813e-7,
        -0.0000010174619546887698,
        7.115492195453044e-8,
        -8.005131348909345e-7,
        -0.0000015070949075379758,
        9.576586990078795e-7,
        -0.000004223366886435542,
        9.858623570835334e-7,
        0.000001719191004667664,
        0.000003324062618048629,
        1.6422016813066875e-7,
        0.0000018931623344542459,
        0.000001948564204212744,
        -0.0000034348663575656246,
        0.000005852444246556843,
        0.000004757997885462828,
        -8.918361231735616e-7,
        2.1173885045300267e-7,
        -0.0000029259836082928814,
        -0.000011231521966692526,
        0.0000014900303995091235,
        -0.000001676902684266679,
        0.0000024936202862591017,
        -8.850879567035008e-7,
        -0.0000023142501959227957,
        4.816550926989294e-7,
        -0.000004977095159119926,
        0.000006009347089275252,
        -9.029099032886734e-7,
        0.000004657692443288397,
        0.000004637124675355153,
        -0.000003875560651067644,
        4.956117436449858e-7,
        -0.0000028105009732826147,
        0.059128452092409134,
        0.21698768436908722,
        -0.10711398720741272,
        0.016275614500045776,
        0.0907742977142334,
        -0.5126297473907471,
        0.019921673461794853,
        0.0361161008477211,
        0.5271841287612915,
        -0.9118328094482422,
        -0.000002200290055043297,
        4.523975292158866e-7,
        -1.2114158868789673,
        -0.3826962113380432,
        7.126266723389563e-7,
        -0.0000020961163045285502,
        -0.000001740125867399911,
        0.0000015910775346128503,
        -0.9144156575202942,
        0.38859638571739197,
        -0.00000197553276848339,
        -0.0000011784263733716216,
        -0.3735695779323578,
        -0.8689089417457581,
        -5.501352688952466e-7,
        -0.0000030248568236856954,
        -0.000002851266799552832,
        9.24789503642387e-7,
        1.5463265180587769,
        1.1581988334655762,
        -1.501657485961914,
        -1.4732691049575806
      ],
      "b": [
        -0.9899795651435852,
        -0.7293128371238708,
        0.9751232862472534,
        0.9462131857872009
      ]
    },
    {
      "inDim": 4,
      "outDim": 2,
      "activation": "linear",
      "W": [
        0.20290838181972504,
        -0.48944422602653503,
        -0.6423372626304626,
        -0.28297892212867737,
        -0.4955339729785919,
        -0.2183811068534851,
        0.2130413055419922,
        -0.5138792395591736
      ],
      "b": [
        0.5089840888977051,
        1.2848714590072632
      ]
    }
  ]
}