{
  "version": 1,
  "id": "K4_H4_relu_seed2",
  "K": 4,
  "featureDim": 45,
  "inputMean": [
    0.005562088452279568,
    0.010740191675722599,
    -12.107275009155273,
    31.060359954833984,
    -0.007391314022243023,
    -0.0014237378491088748,
    532.5204467773438,
    -2.6612308025360107,
    0.464982271194458,
    -0.7509861588478088,
    -0.10860028117895126,
    -1.9606475830078125,
    0.18706649541854858,
    -1.641610860824585,
    -1.6478159427642822,
    -0.00996802281588316,
    0.008924822323024273,
    -0.004896283615380526,
    0.00541970320045948,
    -0.008952147327363491,
    0.0056013003922998905,
    -0.006117881741374731,
    -0.0008334347512573004,
    173.2367401123047,
    208.20065307617188,
    239.71226501464844,
    263.1102294921875,
    0,
    0,
    -0.000368642300600186,
    -0.00003369644400663674,
    -0.0004370726237539202,
    -0.00048641112516634166,
    0.23144398629665375,
    0.23143750429153442
  ],
  "inputStd": [
    1.4483128786087036,
    1.4255748987197876,
    463.25140380859375,
    464.70733642578125,
    0.7176584601402283,
    0.6962109208106995,
    384.8221130371094,
    144.51588439941406,
    153.10362243652344,
    168.19386291503906,
    175.0343475341797,
    189.44021606445312,
    196.030029296875,
    204.62815856933594,
    212.96701049804688,
    0.7010394334793091,
    0.7129970192909241,
    0.7035136818885803,
    0.7106441855430603,
    0.7021756768226624,
    0.7119254469871521,
    0.6989261507987976,
    0.715167224407196,
    119.6740951538086,
    124.8169174194336,
    129.8355712890625,
    134.1865997314453,
    0.0010000000474974513,
    0.0010000000474974513,
    0.034632958471775055,
    0.03506102412939072,
    0.026795368641614914,
    0.026404710486531258,
    0.41482579708099365,
    0.42175132036209106
  ],
  "outputScale": 0.05,
  "clipMagnitude": 0.05,
  "layers": [
    {
      "inDim": 35,
      "outDim": 4,
      "activation": "relu",
      "W": [
        -7.646420385754027e-7,
        -0.000003982834186899709,
        3.037304452391254e-7,
        -0.0000048404731387563515,
        -0.0000028982233288843418,
        -0.0000021475566427398007,
        0.00000473062573291827,
        0.000002623026830406161,
        2.6575369815873273e-7,
        0.0000041920920921256766,
        -0.0000034658530694287037,
        -0.0000032846826343302382,
        -0.00000139401481646928,
        -4.682916880938137e-7,
        4.442623158240622e-9,
        0.000001642492065911938,
        0.0000014017722378412145,
        -0.0000019663498278532643,
        0.0000019067773564529489,
        0.000006390284852386685,
        0.0000042202655095024966,
        5.970852612335875e-7,
        1.4912762935637147e-7,
        -0.0000027853088795382064,
        -6.544138955177914e-7,
        -4.58165970940172e-7,
        6.457452741415182e-7,
        0.0000010533311751714791,
        -0.000008632465323898941,
        0.000009212229997501709,
        0.00005037652590544894,
        0.000026660038201953284,
        -0.000013281321116664913,
        0.0000556115155632142,
        0.00007345568155869842,
        0.000037324960430851206,
        -5.030606189393438e-7,
        0.000005800373855890939,
        -0.000009054512702277862,
        -0.0000031951742585079046,
        -0.0000017422078144591069,
        0.000017234277038369328,
        0.000024064822355285287,
        0.000011182402886333875,
        0.0000023175082333182218,
        0.000004456832357391249,
        -0.000005358410817279946,
        -0.0000057519314395904075,
        0.0000011254069249844179,
        -0.000006911310265422799,
        -0.000004079082827956881,
        -0.000002397387106611859,
        -0.0000016401357925133198,
        -0.0000053586695685226005,
        0.00001197205619973829,
        0.000005957788289379096,
        -2.116858865974791e-7,
        1.0448319898159752e-7,
        0.0000015311475181079004,
        -2.874753590731416e-7,
        0.0000021883458884985885,
        0.00000400573981096386,
        -0.000016390284145018086,
        -0.000007179970907600364,
        0.000006889776159368921,
        -0.000011817818631243426,
        -0.000027756097551900893,
        -0.00001009105471894145,
        0.000001572302721797314,
        -0.0000027121811854158295,
        0.0000032527639177715173,
        0.000002133907173629268,
        -0.0000013378086123339017,
        -0.000007327234925469384,
        -0.000009834494449023623,
        -0.000004224294571031351,
        -0.0000029044115308352048,
        -0.000004576899755193153,
        0.0000028698236747004557,
        0.000006360859060805524,
        -3.435903010995389e-7,
        -0.0000013390126696322113,
        0.0000010878245575440815,
        0.0000017744368960848078,
        0.0000019905523913621437,
        0.000002731174390646629,
        -0.000007157179425121285,
        -0.000004824971711059334,
        1.786688699212391e-7,
        0.000001957494532689452,
        -0.000002026828042289708,
        -0.0000016767327224442852,
        0.000012547688129416201,
        -0.000027566240532905795,
        -0.0000671473826514557,
        -0.00003929127342416905,
        -2.6163752409047447e-7,
        0.0000064356554503319785,
        -0.0000047357061703223735,
        5.036215497966623e-7,
        -0.000006084695542085683,
        -0.000014575163731933571,
        0.000011260264727752656,
        0.000005048100319982041,
        0.000004391677066450939,
        0.000007184316473285435,
        -0.000009923247489496134,
        -0.0000044182565943629015,
        -0.29212474822998047,
        -0.23309269547462463,
        -0.4435565173625946,
        0.2115451693534851,
        -0.24563218653202057,
        -0.03894849866628647,
        0.001477248384617269,
        -0.05930854752659798,
        -0.023082105442881584,
        -0.8626002669334412,
        0.13948604464530945,
        0.07271365076303482,
        0.20419132709503174,
        -0.4082534909248352,
        -1.2338839769363403,
        -0.6432615518569946,
        -0.4368898570537567,
        0.000001878898729046341,
        -4.1216520685338764e-7,
        -0.46878790855407715,
        -0.3632771074771881,
        6.735000397384283e-7,
        -0.000001707129058559076,
        0.2943965196609497,
        0.000004863840786129003,
        -0.000002545328243286349,
        -0.000011152335900987964,
        -0.000010577898137853481,
        -1.5542480945587158,
        1.5483890771865845,
        -0.4547683596611023,
        -2.2589521408081055
      ],
      "b": [
        0.5654790997505188,
        -0.48900261521339417,
        2.659888982772827,
        0.7605240345001221
      ]
    },
    {
      "inDim": 4,
      "outDim": 2,
      "activation": "linear",
      "W": [
        -0.527805507183075,
        -0.8281967043876648,
        -0.7622165679931641,
        -0.08722904324531555,
        0.2521890103816986,
        -0.5394392013549805,
        -0.6512901782989502,
        0.7718478441238403
      ],
      "b": [
        1.3088239431381226,
        1.1906373500823975
      ]
    }
  ]
}