{
  "version": 1,
  "id": "K4_H4_relu_seed5",
  "K": 4,
  "featureDim": 45,
  "inputMean": [
    0.005562088452279568,
    0.010740191675722599,
    -12.107275009155273,
    31.060359954833984,
    -0.007391314022243023,
    -0.0014237378491088748,
    532.5204467773438,
    -2.6612308025360107,
    0.464982271194458,
    -0.7509861588478088,
    -0.10860028117895126,
    -1.9606475830078125,
    0.18706649541854858,
    -1.641610860824585,
    -1.6478159427642822,
    -0.00996802281588316,
    0.008924822323024273,
    -0.004896283615380526,
    0.00541970320045948,
    -0.008952147327363491,
    0.0056013003922998905,
    -0.006117881741374731,
    -0.0008334347512573004,
    173.2367401123047,
    208.20065307617188,
    239.71226501464844,
    263.1102294921875,
    0,
    0,
    -0.000368642300600186,
    -0.00003369644400663674,
    -0.0004370726237539202,
    -0.00048641112516634166,
    0.23144398629665375,
    0.23143750429153442
  ],
  "inputStd": [
    1.4483128786087036,
    1.4255748987197876,
    463.25140380859375,
    464.70733642578125,
    0.7176584601402283,
    0.6962109208106995,
    384.8221130371094,
    144.51588439941406,
    153.10362243652344,
    168.19386291503906,
    175.0343475341797,
    189.44021606445312,
    196.030029296875,
    204.62815856933594,
    212.96701049804688,
    0.7010394334793091,
    0.7129970192909241,
    0.7035136818885803,
    0.7106441855430603,
    0.7021756768226624,
    0.7119254469871521,
    0.6989261507987976,
    0.715167224407196,
    119.6740951538086,
    124.8169174194336,
    129.8355712890625,
    134.1865997314453,
    0.0010000000474974513,
    0.0010000000474974513,
    0.034632958471775055,
    0.03506102412939072,
    0.026795368641614914,
    0.026404710486531258,
    0.41482579708099365,
    0.42175132036209106
  ],
  "outputScale": 0.05,
  "clipMagnitude": 0.05,
  "layers": [
    {
      "inDim": 35,
      "outDim": 4,
      "activation": "relu",
      "W": [
        6.051219543223851e-7,
        -0.0000011854892818519147,
        0.0000018541555846240954,
        -0.0000020435199985513464,
        -2.2315278158657748e-7,
        0.00000104450566595915,
        -3.68053946431246e-7,
        4.888724447482673e-7,
        -0.000001094314711735933,
        -0.000001480091441408149,
        -2.7090308662991447e-7,
        -0.0000014310073765955167,
        -0.000005919814157095971,
        -0.000001729598579913727,
        4.7037960371199006e-7,
        -0.0000034607944598974427,
        -0.0000013409412531473208,
        0.0000017794197901821462,
        -8.461540090820563e-8,
        5.18008960170846e-7,
        0.000004233737399772508,
        -2.798069260734337e-7,
        0.0000010731888551163138,
        0.0000034624611089384416,
        0.0000019012862821909948,
        -0.0000011725751392077655,
        0.0000010163879551328137,
        6.125151230662595e-7,
        0.000006306915111053968,
        -9.890031833492685e-7,
        -0.0000015557945971522713,
        0.00003152803401462734,
        -0.0000060699776440742426,
        -8.495148904330563e-7,
        1.4426636596454046e-7,
        -0.000008616493687441107,
        -0.000004307387371227378,
        0.0000016909218629734823,
        0.000002815283778545563,
        -0.0000055335221986752,
        -0.000008165552571881562,
        4.938468123327766e-7,
        6.83769314946403e-7,
        0.000004062196694576414,
        -0.000006503226359200198,
        -0.0000017519810171506833,
        -0.000001190621333080344,
        0.0000015132449107113644,
        0.000006332328666758258,
        1.8006055313435354e-7,
        9.027731380228943e-7,
        -0.000004675385298469337,
        0.000013020232472626958,
        0.0000022794083633925766,
        -0.000002314291350558051,
        -0.000009830640919972211,
        -0.000008310441444336902,
        0.0000012342516129137948,
        -6.741492484252376e-7,
        -0.00000288236333290115,
        -0.0000022370995793608017,
        0.0000032715379347791895,
        4.097801991065353e-7,
        -0.0000041419816625420935,
        0.000004350122708274284,
        5.694063816008565e-7,
        2.480623777501023e-7,
        0.000002672797108971281,
        0.000002216476559624425,
        -0.0000020109328033868223,
        -0.000003089334768446861,
        -0.0000010409897868157714,
        0.0000017528254829812795,
        -7.693631687288871e-8,
        -0.000001994165586438612,
        -0.000001165840330941137,
        0.0000027655337362375576,
        0.000002518894007152994,
        -5.842173322889721e-7,
        -0.00000146617583141051,
        -6.523502520394686e-7,
        -0.000001138446464210574,
        -0.0000012117311598558445,
        -0.000001453089680580888,
        -0.0000074700692493934184,
        -0.000002747015059867408,
        0.0000035927077988162637,
        0.000006186413429531967,
        0.0000042899500840576366,
        -9.91590468402137e-7,
        0.0000015630095049345982,
        0.000002289073790961993,
        -0.000015277146303560585,
        0.000003478956614344497,
        -6.137807986306143e-7,
        -0.0000056995381783053745,
        0.000004281660494598327,
        -0.000002712361037993105,
        -6.84203030232311e-7,
        0.000005131593297846848,
        0.000002949792815343244,
        0.000002341928848181851,
        -1.2416374772783456e-7,
        -0.0000066979760049434844,
        -0.0000038008718092896743,
        -0.0000015436379499078612,
        0.000001900838242363534,
        -6.45491752493399e-7,
        -0.18089914321899414,
        -0.20134001970291138,
        0.17178960144519806,
        0.24855367839336395,
        -0.07343171536922455,
        0.4910363256931305,
        -0.11456374824047089,
        0.39069584012031555,
        0.8966614007949829,
        -0.000002469950004524435,
        0.000002710464968913584,
        -0.8697973489761353,
        0.9928456544876099,
        2.2469622251719557e-7,
        4.198455769710563e-7,
        0.8144445419311523,
        -3.12901221377615e-7,
        -0.6160799264907837,
        0.5966548919677734,
        0.0000028589959129021736,
        -2.7041556904805475e-7,
        0.5613512992858887,
        0.643052339553833,
        -7.802663049005787e-7,
        0.0000035910213682655012,
        0.00000864528919919394,
        -0.0000029338104923226638,
        -0.00001338370202574879,
        1.6831483840942383,
        -1.3741627931594849,
        -1.4479649066925049,
        1.5009223222732544
      ],
      "b": [
        -1.0827101469039917,
        0.8738259673118591,
        0.8995965719223022,
        -0.9476191997528076
      ]
    },
    {
      "inDim": 4,
      "outDim": 2,
      "activation": "linear",
      "W": [
        0.3539420962333679,
        0.3826678693294525,
        -0.47136446833610535,
        0.43097972869873047,
        0.41147515177726746,
        0.4450092911720276,
        -0.43147414922714233,
        0.39448854327201843
      ],
      "b": [
        0.06148027628660202,
        -1.4652384519577026
      ]
    }
  ]
}