{
  "version": 1,
  "id": "K4_H4_relu_seed15",
  "K": 4,
  "featureDim": 35,
  "inputMean": [
    0.005562088452279568,
    0.010740191675722599,
    -12.107275009155273,
    31.060359954833984,
    -0.007391314022243023,
    -0.0014237378491088748,
    532.5204467773438,
    -2.6612308025360107,
    0.464982271194458,
    -0.7509861588478088,
    -0.10860028117895126,
    -1.9606475830078125,
    0.18706649541854858,
    -1.641610860824585,
    -1.6478159427642822,
    -0.00996802281588316,
    0.008924822323024273,
    -0.004896283615380526,
    0.00541970320045948,
    -0.008952147327363491,
    0.0056013003922998905,
    -0.006117881741374731,
    -0.0008334347512573004,
    173.2367401123047,
    208.20065307617188,
    239.71226501464844,
    263.1102294921875,
    0,
    0,
    -0.000368642300600186,
    -0.00003369644400663674,
    -0.0004370726237539202,
    -0.00048641112516634166,
    0.23144398629665375,
    0.23143750429153442
  ],
  "inputStd": [
    1.4483128786087036,
    1.4255748987197876,
    463.25140380859375,
    464.70733642578125,
    0.7176584601402283,
    0.6962109208106995,
    384.8221130371094,
    144.51588439941406,
    153.10362243652344,
    168.19386291503906,
    175.0343475341797,
    189.44021606445312,
    196.030029296875,
    204.62815856933594,
    212.96701049804688,
    0.7010394334793091,
    0.7129970192909241,
    0.7035136818885803,
    0.7106441855430603,
    0.7021756768226624,
    0.7119254469871521,
    0.6989261507987976,
    0.715167224407196,
    119.6740951538086,
    124.8169174194336,
    129.8355712890625,
    134.1865997314453,
    0.0010000000474974513,
    0.0010000000474974513,
    0.034632958471775055,
    0.03506102412939072,
    0.026795368641614914,
    0.026404710486531258,
    0.41482579708099365,
    0.42175132036209106
  ],
  "outputScale": 0.05,
  "clipMagnitude": 0.05,
  "layers": [
    {
      "inDim": 35,
      "outDim": 4,
      "activation": "relu",
      "W": [
        -7.273708746424745e-8,
        -1.1193411353360716e-7,
        -2.145352482330054e-7,
        5.5879102234257516e-8,
        2.929148763541889e-7,
        3.3885466876881765e-8,
        1.0803904615386273e-7,
        -2.8086020176232296e-9,
        -1.2893406164948829e-7,
        -1.1660439014349322e-7,
        -2.0922728083405673e-7,
        2.0888686336206774e-9,
        5.1676650514309586e-8,
        -2.6821620480177444e-8,
        -5.555009252589116e-8,
        1.382304049002414e-7,
        1.9361601744094514e-7,
        1.1536840105463853e-7,
        2.43991962634027e-7,
        1.2605276822341693e-7,
        -1.6105630606944032e-7,
        1.3123741382514709e-7,
        2.806582415360026e-7,
        -2.0880965223568637e-7,
        -1.5925481378076256e-8,
        1.615281775002586e-8,
        -1.5761241201062148e-8,
        -5.238131350893127e-8,
        3.395372516479256e-7,
        3.2667799132468645e-8,
        -5.890630063731805e-7,
        8.481449498276561e-8,
        0.000008180305485439021,
        1.2617024758299067e-8,
        0.0000014850044181002886,
        -4.932216768338549e-8,
        1.269450109475656e-7,
        -6.152764342459704e-8,
        -1.2911938540582923e-7,
        9.103261078280411e-8,
        5.091307571092329e-7,
        1.3307638546677936e-8,
        1.5463785985048162e-7,
        -1.2119632408769121e-8,
        3.9415252217622765e-7,
        1.772019331269803e-8,
        3.046267949002868e-8,
        2.780009822345164e-8,
        -1.5825277088765688e-8,
        -1.6898956900490703e-8,
        -1.2089093104350468e-7,
        7.752307595865204e-8,
        -6.250565576237932e-8,
        1.1320172887963054e-7,
        1.352642726715203e-7,
        -1.4121367541974905e-7,
        2.9671156198674e-7,
        -3.3875102722902284e-9,
        -5.6074405563322216e-8,
        8.904521564545576e-8,
        -1.350483245232681e-7,
        1.4053035179983908e-8,
        3.994566100118391e-7,
        -1.5649851548005245e-7,
        -0.000002730086407609633,
        -9.234152997805722e-8,
        -5.597877361651626e-7,
        1.1914663389234192e-7,
        -4.7847318995764e-8,
        7.880267816062769e-8,
        2.166840715744911e-7,
        -9.611288476207847e-8,
        -2.158951986075408e-7,
        -4.28741735447602e-8,
        -1.8764865217235638e-7,
        2.266176934995201e-8,
        -2.174090099060777e-7,
        1.9051160649041776e-9,
        -1.1724976900495676e-7,
        -4.03468938259266e-8,
        -6.06442114303718e-8,
        2.001057630707237e-8,
        6.628658155705125e-8,
        -1.1444584657738233e-7,
        -3.7253034435025256e-8,
        -1.1331745497500378e-7,
        -8.402670204077367e-8,
        1.14732102929338e-7,
        -2.2605242122608615e-7,
        -7.409808322478284e-9,
        2.363517204173604e-8,
        -1.2003199856280844e-7,
        -0.0000012241712283866946,
        -1.0233779335067084e-7,
        1.428911389211862e-7,
        -1.6026859839257668e-7,
        4.881827067038103e-7,
        -5.57735937434245e-8,
        1.6075381381597253e-7,
        1.441296575421802e-7,
        2.1253967474876845e-7,
        1.2166181306838553e-7,
        -7.865881457291835e-7,
        1.5580542367388261e-7,
        -2.1663319671461068e-7,
        1.620041345518075e-8,
        7.092924079188379e-7,
        -1.1779329156524909e-7,
        -0.5833116173744202,
        -0.042802415788173676,
        -0.04538227245211601,
        0.12538371980190277,
        -0.01003311388194561,
        0.2295248657464981,
        0.09882072359323502,
        -0.13596026599407196,
        -0.07356681674718857,
        -3.9778171867510537e-8,
        0.7680366039276123,
        1.345842122191243e-7,
        -0.8263581395149231,
        9.825530611351496e-8,
        -0.16628220677375793,
        -6.437878141696274e-8,
        0.05691784620285034,
        -0.3530586063861847,
        -0.59422767162323,
        0.641205370426178,
        0.6223431825637817,
        0.5370904803276062,
        0.12522979080677032,
        0.45762941241264343,
        -3.474096743616428e-8,
        -6.633375448927836e-8,
        -2.412068909052323e-7,
        9.406679168932897e-8,
        2.0595364570617676,
        1.3975214958190918,
        1.945082187652588,
        0.00022331072250381112
      ],
      "b": [
        -1.3209228515625,
        1.9964858293533325,
        -1.2385993003845215,
        1.4998332262039185
      ]
    },
    {
      "inDim": 4,
      "outDim": 2,
      "activation": "linear",
      "W": [
        -0.17803847789764404,
        -0.8325203657150269,
        -0.4847205579280853,
        0.6692439317703247,
        0.8847901225090027,
        -0.079744353890419,
        0.568882942199707,
        0.3685210645198822
      ],
      "b": [
        -0.26592332124710083,
        -1.3853051662445068
      ]
    }
  ]
}